
\data\
ngram 1=193
ngram 2=6707
ngram 3=31522

\1-grams:
-4.136643	#	-0.8058561
-3.498322	$	-2.325512
-3.028367	''	-0.1829038
-5.483974	'd	-0.9087259
-6.086033	'in	-0.3779463
-5.483974	'll	-0.3489498
-1.348721	,	-1.457196
-1.992262	-LRB-	-2.209632
-1.98895	-RRB-	-1.010912
-1.356674	.	-3.482263
-6.086033	.ppt	-0.3824982
-2.16518	:	-1.372486
-1.329329	</s>
-99	<s>	-2.389783
-4.939905	@	-1.25403
-1.603975	CC	-1.903462
-1.670359	CD	-1.396215
-2.635169	EX	-2.266
-3.596075	FW	-0.623183
-1.101357	JJ	-1.094745
-2.201804	JJR	-1.230921
-2.882457	JJS	-1.318495
-3.346461	LS	-2.382422
-0.8155641	NN	-1.360608
-1.414536	NNP	-1.265688
-3.010486	NNPS	-1.073778
-1.235742	NNS	-0.475316
-3.266489	PDT	-3.158291
-2.452969	POS	-1.72813
-1.806435	PRP	-1.510615
-2.103626	PRP$	-2.480553
-1.410768	RB	-0.776978
-2.607467	RBR	-1.266083
-3.182401	RBS	-1.59589
-2.666904	RP	-1.011487
-4.688093	SYM	-1.004477
-4.705822	UH	-1.000874
-1.506181	VB	-1.46987
-2.379999	VBD	-0.6517562
-1.792892	VBG	-0.9565693
-1.647554	VBN	-0.9270506
-2.226115	VBP	-0.654458
-2.119	VBZ	-0.8945786
-2.249203	WDT	-1.623343
-2.820744	WP	-1.665594
-4.452565	WP$	-1.267894
-2.592018	WRB	-1.369586
-2.70528	``	-0.4324095
-1.888284	a	-2.95206
-6.086033	a/	-0.3779463
-6.086033	a12	-0.3824982
-3.007939	about	-1.466815
-3.765887	above	-0.5768242
-6.086033	abreast	-0.3917071
-4.293642	across	-1.210443
-3.195054	after	-1.612505
-3.601733	against	-1.309401
-5.240935	ago	-0.4021929
-6.086033	al-2	-0.3824982
-5.387064	albeit	-0.3191752
-3.03142	all	-0.6749903
-4.161754	along	-0.9241407
-5.182943	alongside	-0.4456558
-3.300704	although	-1.518865
-6.086033	amid	-0.3962814
-5.131791	amidst	-0.6292077
-3.488338	among	-1.379925
-4.580884	amongst	-0.6422983
-2.527565	an	-2.636183
-3.237844	another	-1.387266
-3.238461	any	-1.79624
-2.169316	are	-1.427853
-3.544454	around	-0.8664864
-2.164451	as	-1.846869
-2.756026	at	-1.584583
-6.086033	atop	-0.3999004
-2.036621	be	-1.979806
-2.9836	because	-1.499537
-2.879207	been	-1.830754
-3.435726	before	-1.440325
-4.322605	behind	-0.4693892
-3.08821	being	-1.213208
-4.432821	below	-0.3854664
-5.483974	beneath	-0.5640579
-4.97209	beside	-1.047228
-3.465897	besides	-1.198956
-3.479652	between	-1.436303
-4.199543	beyond	-1.385605
-3.529731	both	-1.164415
-2.397346	by	-1.976855
-4.855584	ca	-1.23807
-2.312759	can	-2.107857
-2.941459	could	-1.773875
-5.387064	de	-0.7502019
-3.637327	despite	-1.117951
-3.688093	did	-1.217242
-3.03798	do	-1.351461
-3.274458	does	-1.255818
-4.724306	down	-0.6486775
-3.269792	during	-1.58285
-3.601733	each	-1.526974
-5.006852	either	-0.426118
-5.307882	en	-0.8406202
-3.405698	every	-2.238957
-4.763814	except	-0.6291212
-2.057218	for	-2.039356
-2.312832	from	-2.074561
-3.442581	get	-0.8250172
-3.805	getting	-1.021789
-4.473249	got	-0.6500274
-6.086033	great,	-0.3824982
-3.250343	had	-1.207857
-5.483974	half	-0.8544175
-2.512581	has	-1.691392
-2.360693	have	-1.935796
-3.403888	having	-1.46749
-2.818627	if	-1.838366
-1.780962	in	-1.983244
-4.432821	inside	-0.65359
-2.996835	into	-1.51994
-1.885566	is	-1.797661
-6.086033	keyind	-0.3824982
-5.608912	lest	-0.6733996
-3.10603	like	-1.25227
-2.736756	may	-2.13577
-3.182401	might	-1.901684
-3.412091	must	-1.479072
-6.086033	na	-0.38958
-4.247184	near	-0.7874701
-5.785003	nearer	-0.9282413
-4.80728	need	-1.6642
-6.086033	neither	-0.3962814
-5.785003	next	-0.9334131
-3.108767	no	-2.194084
-6.086033	note2	-0.3824982
-5.785003	notwithstanding	-0.37195
-1.578083	of	-2.731403
-4.830761	off	-0.3913436
-2.228279	on	-1.645822
-4.580884	once	-1.417898
-4.541965	onto	-1.411823
-4.881913	ought	-1.218442
-6.086033	ouside	-0.3779463
-3.707635	out	-1.035915
-4.830761	outside	-0.8881313
-6.086033	outweighs	-0.3779463
-3.224499	over	-0.945001
-5.307882	past	-0.8892211
-3.726198	per	-2.297917
-6.086033	save	-0.402928
-4.50625	shall	-1.319745
-2.511076	should	-2.089753
-3.156614	since	-1.377992
-3.404792	so	-2.102051
-2.840767	some	-2.024717
-6.086033	th	-0.3837987
-2.942082	than	-1.380525
-2.186651	that	-1.232108
-1.245777	the	-3.178295
-2.739876	these	-1.902298
-5.608912	theses	-0.2544675
-2.323355	this	-1.706071
-3.275801	those	-1.502
-3.555834	though	-1.127187
-3.201804	through	-1.29742
-4.199543	throughout	-1.386264
-4.307882	till	-0.9898065
-1.564333	to	-2.539506
-6.086033	top_50	-0.3824982
-4.724306	toward	-0.7638392
-3.6812	towards	-1.563098
-3.477507	under	-1.484257
-4.442581	unless	-1.205178
-4.103762	unlike	-1.068926
-4.073196	until	-1.311758
-4.146514	up	-1.044245
-3.999673	upon	-0.7965978
-4.05665	via	-1.140564
-5.785003	vs.	-0.2886426
-2.82098	was	-1.439517
-3.08996	were	-1.640255
-4.222711	whereas	-0.6805382
-5.006852	whereby	-1.328489
-3.415787	whether	-1.22953
-3.307159	while	-1.397816
-4.97209	whilst	-0.6703584
-2.316952	will	-1.980029
-2.330158	with	-1.766338
-3.634247	within	-1.161379
-3.286004	without	-1.42166
-4.763814	wo	-1.32522
-5.044641	worth	-0.9258758
-2.72867	would	-2.063571

\2-grams:
-1.486194	# -RRB-	-0.1167267
-2.167679	# .
-1.383962	# </s>
-0.6706364	# CD	-0.5390829
-1.486194	# FW
-2.167679	# JJ
-2.167679	# JJR
-1.22313	# LS	0.02871332
-0.486992	# NN	-0.5098453
-1.0463	# NNS	-0.4426904
-1.383962	# SYM	-0.2791406
-2.167679	# VBG
-2.167679	# VBN
-2.167679	# VBZ
-2.167679	# a
-2.167679	# a12
-2.167679	# al-2
-2.167679	# keyind
-2.167679	# note2
-2.167679	# top_50
-2.806	$ ,
-2.806	$ -LRB-
-2.124515	$ -RRB-	-0.1663009
-0.0230449	$ CD	-0.1338147
-1.50853	$ JJ	-0.1672831
-2.339615	$ for
-2.806	$ per
-2.594471	'' ''	-0.08005498
-1.075395	'' ,	0.1128279
-0.7272523	'' -LRB-	0.3776271
-2.057666	'' -RRB-	0.0487085
-0.9642444	'' .	-0.02619958
-2.331406	'' :	-0.106121
-1.978485	'' </s>
-1.309478	'' CC	0.02400517
-2.594471	'' CD	-0.1546394
-3.275955	'' FW
-1.539152	'' JJ	0.2619252
-2.594471	'' JJR	-0.1341951
-0.8096929	'' NN	0.1587482
-1.677455	'' NNP	-0.1847589
-2.594471	'' NNPS
-1.350096	'' NNS	0.07810995
-3.275955	'' PDT
-2.594471	'' PRP
-2.594471	'' PRP$	-0.1888283
-1.853546	'' RB	0.001693532
-2.80957	'' RBR
-3.275955	'' RP
-2.56249	'' VB	-0.09226932
-2.103424	'' VBD	-0.0266741
-2.56249	'' VBG	-0.06373188
-2.331406	'' VBN	-0.09735972
-2.80957	'' VBP
-1.943723	'' VBZ	-0.03644734
-1.756636	'' WDT	-0.1812822
-2.331406	'' WRB	-0.06326143
-2.492238	'' ``
-2.594471	'' a	0.09307751
-2.80957	'' after
-2.594471	'' an	0.06421888
-2.56249	'' are	-0.05532292
-2.103424	'' as	-0.008107439
-3.275955	'' because
-3.275955	'' before
-3.275955	'' being
-2.80957	'' between	-0.2367749
-1.943723	'' by	0.06584898
-2.154576	'' can	0.3481649
-3.275955	'' could
-3.275955	'' do
-3.275955	'' during
-3.275955	'' each
-2.057666	'' for	0.02146707
-2.56249	'' from
-3.275955	'' had
-2.331406	'' has	0.01721495
-3.275955	'' have
-2.80957	'' if
-1.911538	'' in	0.01653866
-3.275955	'' into
-1.595268	'' is	-0.1138979
-2.80957	'' may	0.03265467
-1.677455	'' of	0.195271
-2.331406	'' on	0.1429306
-3.275955	'' once
-2.594471	'' should	0.06117816
-3.275955	'' since
-3.275955	'' so
-2.594471	'' that	-0.192278
-1.778913	'' the	0.4276414
-2.594471	'' this	0.09585252
-3.275955	'' through
-1.715243	'' to	0.00987941
-3.275955	'' until
-2.56249	'' was	-0.3284808
-2.56249	'' will	0.07434882
-2.56249	'' with
-3.275955	'' within
-3.275955	'' would
-0.3539639	'd RB	-0.2461922
-0.3539639	'd VB
-0.2182889	'in the
-0.8203489	'll NNP
-0.8203489	'll RB
-0.8203489	'll VB
-0.8203489	'll be
-4.242136	, $	0.9733715
-4.242136	, ''	-0.003822736
-4.955601	, ,
-2.585024	, -LRB-	0.09869134
-4.242136	, -RRB-	-0.04962787
-4.955601	, .
-4.955601	, :
-4.489216	, </s>
-1.360917	, CC	0.4235343
-0.9649903	, CD	-0.3264878
-1.658131	, EX	0.2824733
-2.839685	, FW	0.08032465
-1.140275	, JJ	-0.1252978
-2.154113	, JJR	-0.09327781
-2.636941	, JJS	-0.3570052
-4.171884	, LS	-0.4437136
-1.066973	, NN	-0.1983525
-1.011237	, NNP	-0.2220068
-3.322339	, NNPS	-0.1326032
-1.362014	, NNS	-0.225114
-3.013036	, PDT	0.5974838
-1.068647	, PRP	-0.9079731
-2.236253	, PRP$	-0.06450069
-1.390373	, RB	0.1393862
-2.931132	, RBR	-0.02924585
-3.375584	, RBS	0.4329262
-4.489216	, UH
-2.410976	, VB	0.1744128
-2.46547	, VBD	0.0003543496
-1.50002	, VBG	-0.008694649
-2.195733	, VBN	-0.2313976
-2.541412	, VBP	0.01672214
-2.491799	, VBZ	0.02726883
-1.617396	, WDT	0.2401907
-2.616738	, WP	0.1773905
-3.658131	, WP$	0.3958797
-2.207112	, WRB	0.4274057
-2.319011	, ``	-0.2094632
-1.834222	, a	0.8080487
-3.375584	, about	-0.2763265
-4.955601	, above
-3.038342	, after	0.01239207
-4.955601	, against
-4.489216	, albeit
-3.103843	, all	-0.1412662
-3.695919	, along	-0.2996545
-4.171884	, alongside	-0.02042538
-2.728712	, although	0.3281873
-4.489216	, amidst
-3.591184	, among	0.2128529
-2.431961	, an	0.7164569
-3.193244	, another	0.3023894
-3.482039	, any	0.6379957
-2.834222	, are	0.2955413
-3.959161	, around	-0.5405362
-2.092873	, as	0.1161563
-3.029742	, at	-0.1754432
-3.290154	, be	-0.1991704
-2.703888	, because	0.04091048
-3.658131	, before	0.02009903
-3.103843	, being	0.2996463
-3.436282	, besides	-0.2392502
-4.274116	, between
-2.898463	, both	0.1397852
-2.558335	, by	-0.2766994
-2.924399	, can	0.6152396
-3.482039	, could	0.0482375
-3.047116	, despite	0.04441676
-4.242136	, did	0.5267324
-3.695919	, do	0.1446461
-3.658131	, does	0.7432734
-3.146247	, during	-0.003422499
-3.375584	, each	-0.01637679
-4.955601	, either
-3.339372	, every	0.6441982
-4.274116	, except	-0.0786549
-2.30756	, for	-0.1020311
-1.582584	, from	-0.6738119
-4.489216	, get
-4.274116	, getting
-3.339372	, had	0.1412857
-2.783069	, has	0.3671594
-3.093859	, have	0.2075804
-3.021309	, having	0.5075698
-2.195733	, if	0.6933888
-1.886666	, in	0.0287236
-4.489216	, inside
-4.955601	, into
-2.454011	, is	0.1214301
-2.807893	, like	0.02207607
-3.357101	, may	0.5222672
-3.959161	, might	-0.1100344
-3.959161	, must	0.04287103
-2.732991	, no	0.4124464
-4.955601	, notwithstanding
-3.274914	, of	-0.2572597
-2.951982	, on	-0.2163874
-4.171884	, once	0.02243777
-4.955601	, out
-3.591184	, over	0.1410405
-4.955601	, per
-3.029742	, should	0.5788569
-2.640402	, since	0.1182727
-2.904803	, so	0.6070701
-2.253012	, some	0.215595
-3.157528	, that	-0.07446903
-0.8900478	, the	0.5493214
-2.366244	, these	0.01837397
-4.489216	, theses
-1.980676	, this	0.08644164
-3.124528	, those	0.3011998
-3.124528	, though	0.2760176
-3.290154	, through	-0.02306232
-4.955601	, till
-2.27943	, to	-0.1377148
-3.506863	, under	-0.1720436
-4.011052	, unless	0.1066986
-3.274914	, unlike	0.2248931
-3.959161	, until	0.01015519
-3.959161	, upon	-0.1387301
-4.955601	, via
-3.0841	, was	0.062967
-3.658131	, were	-0.1427715
-3.458558	, whereas	0.1850322
-3.218798	, whether	0.264239
-2.64389	, while	0.3615
-4.955601	, whilst
-2.792829	, will	0.5302755
-2.11303	, with	0.1352246
-4.171884	, within	0.1294049
-3.021309	, without	0.2277074
-3.274914	, would	1.000023
-3.630576	-LRB- $	0.964988
-3.845676	-LRB- ''
-2.353409	-LRB- -LRB-	-0.6348017
-3.528343	-LRB- -RRB-
-3.093772	-LRB- CC	0.05045561
-0.5882148	-LRB- CD	-1.612175
-3.139529	-LRB- FW	-0.07044135
-1.553442	-LRB- JJ	-0.3559128
-3.31562	-LRB- JJR	-0.07670391
-3.845676	-LRB- JJS
-1.831321	-LRB- LS	-1.701904
-0.455882	-LRB- NN	-1.351969
-0.5444006	-LRB- NNP	-1.033136
-3.190682	-LRB- NNPS	-0.07956674
-1.947644	-LRB- NNS	-0.563911
-3.845676	-LRB- PRP
-3.845676	-LRB- PRP$
-2.513988	-LRB- RB	-0.07478841
-4.312061	-LRB- SYM
-2.889652	-LRB- VB	-0.3606837
-2.678798	-LRB- VBG	0.007354707
-1.976501	-LRB- VBN	-0.760383
-3.630576	-LRB- VBP	-0.1380115
-3.845676	-LRB- VBZ
-3.528343	-LRB- WDT	-0.05544752
-2.838499	-LRB- WP	-0.3017573
-3.139529	-LRB- WRB	-0.09669815
-2.22454	-LRB- ``	-0.5768335
-2.713561	-LRB- a	0.01608491
-3.367511	-LRB- about	-0.623991
-4.312061	-LRB- among
-3.598595	-LRB- an	-0.2094017
-4.312061	-LRB- another
-3.630576	-LRB- around	-0.2395062
-2.562293	-LRB- as	-1.351435
-3.630576	-LRB- at
-4.312061	-LRB- because
-4.312061	-LRB- being
-4.312061	-LRB- between
-3.630576	-LRB- by
-4.312061	-LRB- could
-4.312061	-LRB- did
-4.312061	-LRB- does
-3.528343	-LRB- for
-3.528343	-LRB- from	-0.1047235
-3.139529	-LRB- in	-0.0922679
-4.312061	-LRB- is
-3.630576	-LRB- may	-0.1698289
-4.312061	-LRB- near
-3.598595	-LRB- no	0.1088623
-3.630576	-LRB- of
-4.312061	-LRB- on
-3.845676	-LRB- out	0.2566157
-3.845676	-LRB- per	-0.2738301
-4.312061	-LRB- since
-4.312061	-LRB- that
-2.13473	-LRB- the	0.2202427
-4.312061	-LRB- these
-3.845676	-LRB- those	-0.1224934
-4.312061	-LRB- through
-3.630576	-LRB- to	0.1960392
-4.312061	-LRB- via
-4.312061	-LRB- will
-4.312061	-LRB- with
-4.315372	-RRB- $
-3.531656	-RRB- ''	-0.1262813
-1.092762	-RRB- ,	0.25978
-0.9363151	-RRB- -LRB-	-0.6631362
-2.258235	-RRB- -RRB-	0.1535369
-0.3418951	-RRB- .	-0.3262427
-2.297743	-RRB- :	0.3273952
-1.044775	-RRB- </s>
-1.832266	-RRB- CC	-0.03264058
-2.333656	-RRB- CD	0.3260055
-3.318933	-RRB- EX	0.09439344
-4.315372	-RRB- FW
-1.918107	-RRB- JJ	-0.1103478
-2.81833	-RRB- JJR	-0.2947582
-4.315372	-RRB- JJS
-1.533603	-RRB- NN	0.2995631
-1.549309	-RRB- NNP	0.04999006
-3.601907	-RRB- NNPS	-0.05462345
-2.007179	-RRB- NNS	0.04370356
-3.531656	-RRB- PDT	-0.02159973
-3.370823	-RRB- POS	0.1895991
-2.774864	-RRB- PRP	-0.1990055
-3.633888	-RRB- PRP$
-1.750731	-RRB- RB	-0.4098072
-3.848988	-RRB- RBR	0.0255357
-3.633888	-RRB- RBS	-0.1208466
-4.315372	-RRB- SYM
-3.142841	-RRB- VB	-0.167404
-1.876976	-RRB- VBD	-0.3106778
-2.389513	-RRB- VBG	0.1324452
-2.251986	-RRB- VBN	-0.1938474
-2.735356	-RRB- VBP	-0.02397151
-2.0677	-RRB- VBZ	-0.09397358
-2.227852	-RRB- WDT	0.1216777
-3.142841	-RRB- WP	-0.3781534
-4.315372	-RRB- WP$
-2.841811	-RRB- WRB	-0.05296852
-2.38108	-RRB- ``	-0.005170316
-2.920992	-RRB- a	0.3475679
-3.633888	-RRB- about	-0.1283085
-3.633888	-RRB- after	-0.1530951
-4.315372	-RRB- against
-3.370823	-RRB- although	-0.06617463
-3.848988	-RRB- among
-3.848988	-RRB- an
-4.315372	-RRB- another
-2.553016	-RRB- are	0.2701142
-2.463615	-RRB- as	0.1220347
-3.318933	-RRB- at	-0.004220724
-3.097084	-RRB- because	-0.1217835
-3.848988	-RRB- before
-4.315372	-RRB- being
-3.601907	-RRB- besides	0.1514468
-2.892964	-RRB- by	0.1605684
-2.81833	-RRB- can	0.7847402
-3.848988	-RRB- could
-3.531656	-RRB- despite	0.1545357
-4.315372	-RRB- did
-3.633888	-RRB- do	0.05611438
-3.601907	-RRB- does	0.5188792
-3.531656	-RRB- during
-3.848988	-RRB- each	0.04580745
-4.315372	-RRB- every
-2.68211	-RRB- for	0.05721483
-2.920992	-RRB- from	0.04576425
-3.142841	-RRB- had	-0.1035055
-2.304692	-RRB- has	-0.2367948
-2.841811	-RRB- have	-0.04717061
-3.318933	-RRB- if
-2.092762	-RRB- in	0.4580272
-4.315372	-RRB- inside
-3.633888	-RRB- into
-2.051761	-RRB- is	-0.0816772
-4.315372	-RRB- like
-3.601907	-RRB- may	0.3190605
-3.848988	-RRB- must	-0.1094859
-2.735356	-RRB- of	0.287903
-2.892964	-RRB- on	-0.1100842
-3.318933	-RRB- over	0.1421691
-3.848988	-RRB- per	0.6234042
-2.841811	-RRB- should	-0.1750074
-3.097084	-RRB- since	0.2098624
-3.531656	-RRB- so	0.316421
-3.633888	-RRB- some	-0.1078922
-3.848988	-RRB- than
-3.097084	-RRB- that	-0.3352525
-2.101449	-RRB- the	0.2103008
-3.055691	-RRB- these	0.2783499
-2.473835	-RRB- this	0.2052501
-4.315372	-RRB- those
-3.633888	-RRB- though
-3.633888	-RRB- through	-0.06626166
-4.315372	-RRB- till
-2.245825	-RRB- to	-0.1527126
-4.315372	-RRB- unless
-3.848988	-RRB- unlike
-3.848988	-RRB- up	0.05918139
-4.315372	-RRB- via
-2.619962	-RRB- was	-0.2959339
-3.318933	-RRB- were
-4.315372	-RRB- whether
-3.370823	-RRB- while	-0.07412456
-2.950956	-RRB- will	0.07335904
-2.716872	-RRB- with	0.2498628
-3.633888	-RRB- within	0.0802162
-3.318933	-RRB- without	-0.01458235
-3.318933	-RRB- would	0.07322225
-4.003099	. ''	-0.4095191
-3.729359	. ,	-0.3196232
-4.481263	. -LRB-
-4.163931	. -RRB-	-0.1829501
-3.349148	. .	0.6870109
-0.005353831	. </s>
-4.947648	. CD
-3.095891	. JJ	-0.7025989
-4.481263	. LS	-0.2845007
-1.990579	. NN	-1.750446
-4.163931	. NNP	0.01641017
-4.947648	. NNS
-4.481263	. RB
-4.947648	. VB
-4.163931	. a	-0.2199728
-4.947648	. at
-4.947648	. from
-4.947648	. no
-4.947648	. the
-0.2182889	.ppt </s>
-4.139143	: #
-3.672757	: $	0.9974077
-4.139143	: ,
-1.744762	: -LRB-	-1.026523
-3.672757	: .
-3.425677	: :	0.1591796
-1.379274	: </s>
-2.267641	: CC	0.02544589
-1.478374	: CD	-0.009320319
-3.017764	: EX	0.3440442
-4.139143	: FW
-1.252468	: JJ	-0.2183437
-2.920854	: JJR	-0.1334496
-3.457658	: JJS
-4.139143	: LS
-0.3548877	: NN	-1.214189
-1.093484	: NNP	0.07005906
-3.355425	: NNPS	-0.1015797
-1.576461	: NNS	-0.2603492
-4.139143	: PDT
-1.986355	: PRP	-0.04699102
-2.716733	: PRP$	0.6949593
-1.750592	: RB	-0.3618938
-0.7310826	: VB	-1.729963
-2.028759	: VBG	0.01940542
-2.966611	: VBN	-0.1426588
-3.457658	: VBZ
-2.774725	: WDT	-0.2222342
-2.920854	: WP	-0.156863
-2.443732	: WRB	0.2391622
-2.376786	: ``	-0.03238392
-2.135524	: a	0.1439155
-3.457658	: after	-0.1425164
-3.672757	: all
-2.619823	: an	-0.4727145
-3.355425	: another	0.3750222
-4.139143	: any
-3.672757	: are
-2.80691	: as	-0.1642306
-4.139143	: at
-3.457658	: be
-3.672757	: because
-3.457658	: being
-3.672757	: by
-3.672757	: can
-4.139143	: could
-4.139143	: despite
-3.425677	: do	0.200609
-4.139143	: does
-4.139143	: each
-4.139143	: every
-2.841672	: for	-0.1035642
-3.142702	: from	-0.0605434
-4.139143	: getting
-4.139143	: has
-4.139143	: have
-4.139143	: having
-3.355425	: if	0.004972294
-2.665581	: in	0.04427719
-2.841672	: is	-0.2729168
-3.457658	: like	-0.1395597
-4.139143	: no
-3.425677	: on	-0.2903372
-3.425677	: should
-4.139143	: since
-4.139143	: so
-3.194593	: some	0.1650542
-4.139143	: than
-3.355425	: that	-0.1153079
-1.656036	: the	0.335361
-4.139143	: these
-2.598634	: this	0.2854284
-4.139143	: those
-4.139143	: through
-2.80691	: to	-0.2123984
-3.355425	: towards	-0.1983068
-4.139143	: up
-4.139143	: was
-3.457658	: whereas
-3.457658	: whether
-3.425677	: while	-0.08518169
-3.672757	: will
-3.355425	: with	-0.07344541
-4.139143	: without
-4.191276	<s> $	0.8400493
-4.030444	<s> ''	-0.06385881
-4.030444	<s> ,	-0.1583499
-1.390282	<s> -LRB-	-0.1510476
-2.993277	<s> -RRB-	-0.1843547
-3.756705	<s> .	1.067222
-3.279583	<s> :	0.02580333
-2.060348	<s> CC	0.03154296
-1.740926	<s> CD	-0.2001525
-2.017924	<s> EX	0.3591425
-3.756705	<s> FW	-0.08614784
-1.317688	<s> JJ	-0.3997331
-2.788222	<s> JJR	0.0692572
-2.696007	<s> JJS	-0.464183
-2.30186	<s> LS	-0.07690406
-1.33117	<s> NN	-0.1308299
-0.9946265	<s> NNP	-0.06305838
-2.723281	<s> NNPS	0.2776328
-1.440944	<s> NNS	-0.183075
-2.663283	<s> PDT	0.7354223
-1.37577	<s> PRP	-0.9664907
-2.6296	<s> PRP$	0.03441107
-0.7498536	<s> RB	-1.205645
-2.822206	<s> RBR	-0.1412834
-3.610577	<s> RBS	-0.711141
-3.853615	<s> SYM	-0.3236094
-3.552585	<s> UH	0.0176838
-2.577728	<s> VB	-0.09038544
-1.691498	<s> VBG	-0.004457593
-1.443893	<s> VBN	-1.322856
-4.508608	<s> VBP	-0.2571116
-3.756705	<s> VBZ	-0.07775943
-3.294307	<s> WDT	-0.05833308
-2.649495	<s> WP	-0.4782875
-4.974994	<s> WP$
-2.216375	<s> WRB	0.39329
-2.014766	<s> ``	0.02287275
-2.052554	<s> a	0.1037424
-3.756705	<s> about	-0.2878877
-4.191276	<s> above	-0.4354247
-2.432422	<s> after	-0.004894674
-4.293509	<s> albeit
-2.837626	<s> all	-0.522243
-3.756705	<s> along	-0.2582619
-2.094892	<s> although	0.3996795
-4.508608	<s> amidst
-2.86461	<s> among	-0.111224
-4.191276	<s> amongst	0.2080743
-2.436558	<s> an	-0.03063309
-2.232958	<s> another	-0.3771241
-3.756705	<s> any	0.6655227
-4.191276	<s> are
-4.191276	<s> around	-0.3644449
-1.663633	<s> as	0.01360428
-2.552585	<s> at	-0.3623542
-4.261528	<s> be	-0.3121063
-2.875891	<s> because	0.004595757
-3.188503	<s> before	0.1928688
-4.293509	<s> behind
-3.024311	<s> being	0.2604003
-3.756705	<s> beside	0.4148512
-2.187331	<s> besides	0.07980967
-4.508608	<s> between	-0.1174608
-4.261528	<s> beyond	-0.1423902
-3.066509	<s> both	0.1599672
-2.263944	<s> by	-0.2434059
-4.191276	<s> can
-3.978553	<s> could	-0.2374762
-2.623166	<s> despite	0.3034912
-3.501432	<s> do	-0.08510339
-3.715312	<s> does	0.6153644
-2.859077	<s> during	0.1570644
-3.580613	<s> each	-0.06536794
-4.974994	<s> either
-3.103492	<s> every	0.3171755
-4.191276	<s> except	-0.1463691
-1.687037	<s> for	-0.202844
-2.442837	<s> from	0.0507403
-4.974994	<s> getting
-4.508608	<s> had
-3.756705	<s> have	-0.4213403
-3.016342	<s> having	0.3754432
-2.075463	<s> if	0.6666481
-1.187448	<s> in	-0.4303381
-4.508608	<s> inside
-3.394977	<s> is	-0.1603286
-3.434485	<s> like	-0.1086677
-4.974994	<s> must
-4.974994	<s> nearer
-4.508608	<s> next	0.6509752
-2.993277	<s> no	0.321209
-4.974994	<s> notwithstanding
-3.394977	<s> of	-0.1800875
-2.106397	<s> on	-0.8424529
-4.191276	<s> once	0.1748072
-3.642761	<s> out	-0.4126261
-3.093947	<s> over	-0.388368
-4.974994	<s> per
-3.309546	<s> should	-0.1280038
-2.343405	<s> since	0.2893732
-2.950525	<s> so	-0.6432981
-2.168993	<s> some	0.263886
-2.797663	<s> that	-0.8091494
-1.070694	<s> the	0.310926
-2.042375	<s> these	0.3619097
-1.393093	<s> this	-0.04305172
-3.279583	<s> those	-0.05289537
-2.84822	<s> though	0.2032923
-2.917856	<s> through	0.04731548
-3.642761	<s> throughout	0.1512383
-3.756705	<s> till	-0.04985484
-2.048284	<s> to	-0.2688189
-4.974994	<s> toward
-4.974994	<s> towards
-3.084607	<s> under	-0.3437818
-3.677523	<s> unless	0.2429331
-3.143921	<s> unlike	0.2413128
-3.610577	<s> until	0.08230498
-4.293509	<s> up
-3.677523	<s> upon	-0.06794809
-4.974994	<s> were
-3.526256	<s> whereas	-0.2528517
-3.802462	<s> whether	-0.01757032
-2.531395	<s> while	0.3534148
-4.293509	<s> whilst	-0.1065902
-4.293509	<s> will	-0.1697794
-1.854702	<s> with	0.0303793
-3.715312	<s> within	0.1452867
-2.719278	<s> without	0.294407
-4.974994	<s> wo
-4.293509	<s> would	-0.1678783
-0.8980319	@ NN
-0.1047354	@ NNP	-0.02979945
-1.364417	@ PRP$
-3.368115	CC $	0.5583981
-4.700347	CC ''
-2.689667	CC ,	0.03641263
-3.226786	CC -LRB-	0.1170599
-3.986882	CC .	1.368252
-2.869275	CC CC	-0.2062949
-2.038014	CC CD	0.3611768
-2.361485	CC EX	0.164684
-3.527816	CC FW	-0.1786583
-0.8599482	CC JJ	0.09188724
-1.748059	CC JJR	0.3436352
-3.139636	CC JJS	-0.1733193
-0.7034009	CC NN	0.5523263
-1.215122	CC NNP	0.08241534
-3.004937	CC NNPS	-0.09097511
-1.048769	CC NNS	0.4403584
-3.402877	CC PDT	0.6971043
-1.526852	CC PRP	-0.3444799
-1.771941	CC PRP$	0.3283553
-1.046214	CC RB	0.1172915
-2.133754	CC RBR	0.1107068
-2.858809	CC RBS	0.03760588
-3.986882	CC RP
-1.182987	CC VB	-0.09419847
-1.964863	CC VBD	0.2485745
-1.439877	CC VBG	0.3355727
-1.763557	CC VBN	-0.0322578
-2.133754	CC VBP	-0.03218681
-1.925756	CC VBZ	0.2426816
-3.203305	CC WDT	-0.06303905
-2.819301	CC WP	0.1167656
-4.233963	CC WP$	-0.1329261
-2.532669	CC WRB	0.1320049
-2.809961	CC ``	-0.07775715
-2.033352	CC a	0.6693904
-3.120331	CC about	-0.7034441
-2.902275	CC above	-0.1461411
-3.527816	CC after	0.03164373
-4.700347	CC against
-3.368115	CC all	-0.1646493
-3.755798	CC along	0.2055451
-3.703907	CC among	0.02243806
-2.689667	CC an	0.6111086
-3.527816	CC another	0.3859642
-3.226786	CC any	-0.05909026
-2.452675	CC are	-0.01826829
-3.91663	CC around	0.1775568
-2.757783	CC as	-0.2396565
-2.440666	CC at	-0.3904161
-2.64955	CC be	0.1340358
-3.203305	CC because	-0.1742992
-4.233963	CC been
-4.233963	CC before
-4.700347	CC behind
-3.368115	CC being	0.2772742
-3.986882	CC below
-4.233963	CC beyond	-0.2791707
-3.402877	CC both	0.03737812
-2.774488	CC by	-0.2481437
-2.452675	CC can	0.6462881
-2.902275	CC could	0.06043452
-4.233963	CC despite
-3.482059	CC did	0.2257024
-2.791862	CC do	-0.07848871
-3.0349	CC does	-0.08635384
-3.703907	CC during	0.2021346
-3.755798	CC each	0.1364162
-3.305967	CC every	0.9806126
-2.733871	CC for	0.3533139
-3.050695	CC from	0.05433285
-3.305967	CC get	0.05246112
-3.527816	CC getting	-0.01414471
-3.986882	CC got	-0.05314
-3.305967	CC had	-0.1560557
-2.557779	CC has	0.5105298
-2.42898	CC have	0.03141928
-3.139636	CC having	0.3325533
-2.689667	CC if	0.2967474
-2.236546	CC in	0.3750882
-4.700347	CC inside
-4.233963	CC into
-2.368115	CC is	-0.175959
-4.233963	CC like
-2.774488	CC may	0.1949083
-3.335931	CC might	-0.1925774
-3.91663	CC must	0.09659161
-3.91663	CC near
-4.233963	CC need	0.9894804
-2.741696	CC no	0.04135585
-2.990697	CC of	-0.04838982
-4.700347	CC off
-2.963545	CC on	-0.1372494
-4.700347	CC once
-4.700347	CC ought
-3.986882	CC out	0.002347231
-4.700347	CC outside
-3.101847	CC over	-0.05401161
-3.91663	CC shall	-0.1508411
-2.6308	CC should	0.2733104
-3.755798	CC since	0.004020452
-3.755798	CC so	-0.1051342
-2.675879	CC some	0.2362074
-4.700347	CC than
-2.532669	CC that	-0.07213819
-1.172215	CC the	0.6841135
-2.95058	CC these	0.2120539
-2.163995	CC this	0.3343718
-2.93799	CC those	0.268759
-4.700347	CC though
-3.203305	CC through	0.2349419
-4.233963	CC till
-2.060455	CC to	0.1012872
-3.755798	CC under	0.02843013
-4.700347	CC unless
-4.018863	CC unlike	-0.06871546
-4.700347	CC until
-3.91663	CC up	0.1320552
-4.018863	CC via	-0.2367918
-3.050695	CC was	-0.004094064
-3.402877	CC were	0.07953
-3.440666	CC whether	-0.1615775
-4.233963	CC while	-0.2111025
-2.513576	CC will	0.5500469
-2.557779	CC with	0.02720773
-3.482059	CC within	0.1823026
-3.368115	CC without	0.04507715
-2.93799	CC would	0.7968944
-3.850246	CD #	-0.1896089
-3.301731	CD $	1.33862
-3.160402	CD ''	-0.1174444
-0.6970896	CD ,	-0.5690701
-1.696343	CD -LRB-	0.1752772
-0.5916787	CD -RRB-	0.2385975
-1.300397	CD .	0.1633108
-2.269546	CD :	-0.2516825
-1.954777	CD </s>
-1.851008	CD CC	0.06425524
-1.572442	CD CD	0.3049366
-3.850246	CD EX	-0.1078702
-3.160402	CD FW	-1.053931
-1.428008	CD JJ	-0.5734125
-3.000701	CD JJR	0.02972069
-3.689414	CD JJS	0.03879938
-3.952479	CD LS	-0.1524114
-0.9289606	CD NN	0.02795851
-1.454253	CD NNP	-0.49662
-3.336493	CD NNPS	0.004605316
-1.050374	CD NNS	0.4815948
-2.110323	CD POS	0.1647948
-3.512584	CD PRP	-0.08280781
-4.633963	CD PRP$
-2.583165	CD RB	-0.08826169
-4.633963	CD RBR
-3.160402	CD RBS	0.02186334
-3.952479	CD RP	-0.1524443
-4.633963	CD SYM
-4.633963	CD VB
-3.035463	CD VBD	-0.04219277
-2.792425	CD VBG	-0.1345244
-2.644822	CD VBN	0.08524677
-3.461432	CD VBP	-0.0470191
-2.637523	CD VBZ	-0.003577083
-2.59613	CD WDT	-0.1059408
-3.952479	CD WP	-0.1632813
-4.167578	CD WP$
-3.160402	CD WRB	-0.017398
-2.734433	CD ``	-0.259454
-3.689414	CD a	-0.1961868
-4.633963	CD about
-4.633963	CD above
-4.633963	CD after
-4.633963	CD along
-3.920498	CD among	-0.278285
-4.633963	CD an
-3.239583	CD another	-0.2123084
-3.211554	CD are	0.1737223
-3.114644	CD as	-0.04706213
-2.859372	CD at	-0.546507
-4.167578	CD because	-0.145881
-3.637523	CD being	0.2857083
-4.633963	CD below
-4.633963	CD between
-2.734433	CD by	-0.4955992
-3.073252	CD can	0.6700826
-3.512584	CD could	0.007222414
-4.167578	CD did	0.4010966
-4.167578	CD does	0.4323967
-4.167578	CD during
-3.301731	CD each	-0.06680459
-4.633963	CD except
-2.734433	CD for	0.2206628
-1.708957	CD from	-0.7584143
-4.633963	CD get
-3.415674	CD had	-0.104026
-2.802891	CD has	-0.2400143
-3.461432	CD have	-0.1807124
-4.633963	CD having
-3.637523	CD if	0.1532444
-2.093455	CD in	-0.3652416
-3.952479	CD into
-2.374282	CD is	0.185442
-2.772222	CD may	0.1838427
-3.952479	CD might	-0.07136127
-3.239583	CD must	-0.1052744
-4.633963	CD near
-3.952479	CD no	-0.3138427
-1.477155	CD of	-0.7220474
-3.336493	CD on	0.2288308
-3.053946	CD out	-0.6604106
-3.689414	CD over	-0.03369176
-2.471192	CD per	0.8863132
-4.633963	CD shall
-2.835891	CD should	0.4831487
-3.920498	CD so	0.1426225
-4.633963	CD th
-4.633963	CD than
-3.920498	CD that	-0.03422251
-3.136921	CD the	0.3166665
-3.850246	CD this	-0.1936095
-4.633963	CD through
-4.167578	CD till
-1.842803	CD to	-0.2402261
-4.633963	CD under
-4.167578	CD until
-2.968516	CD was	0.3891759
-3.461432	CD were	-0.1062234
-4.633963	CD whereas
-3.689414	CD while	0.02018243
-2.743577	CD will	0.5570754
-3.136921	CD with	0.02036399
-4.633963	CD within
-4.633963	CD without
-3.136921	CD would	0.3821841
-3.669154	EX ,
-2.885437	EX JJ
-3.669154	EX NN
-3.202769	EX PRP
-2.128645	EX RB	-0.1506838
-3.669154	EX VBD
-2.336921	EX VBP	-0.1312328
-2.035891	EX VBZ	-0.1674912
-3.669154	EX WP
-2.672714	EX a	-0.1292401
-3.669154	EX after
-3.669154	EX any
-0.3989408	EX are	-0.4093528
-3.669154	EX at
-3.669154	EX being
-2.304737	EX can	-0.2336662
-2.371683	EX could	-0.5361657
-3.669154	EX every
-3.669154	EX for
-2.955688	EX had	-0.469027
-1.882663	EX has	-0.9580821
-1.848805	EX have	-0.7473665
-3.669154	EX in
-0.4870769	EX is	-0.9568322
-1.973743	EX may	-0.6702331
-2.409472	EX might	-0.4239171
-2.547775	EX must	-0.2998534
-3.669154	EX need
-3.669154	EX no
-1.531787	EX should	-0.9690105
-2.885437	EX to	0.0867334
-1.468593	EX was	-0.5005014
-1.526585	EX were	-0.4212029
-1.083509	EX will	-1.388705
-3.202769	EX wo	1.053149
-1.932351	EX would	-0.4993026
-0.7997624	FW ,	-0.3288403
-1.711807	FW -LRB-	0.1012902
-1.763698	FW -RRB-	-0.0460839
-0.85649	FW .	0.4337537
-0.9985968	FW :	-0.524895
-2.708247	FW </s>
-2.026763	FW CC	-0.1292596
-1.994782	FW CD	-0.03518237
-0.5868685	FW FW	-0.1444109
-2.026763	FW JJ
-2.241862	FW LS	-0.2715115
-1.02756	FW NN	-0.03326166
-2.026763	FW NNP	-0.03277858
-2.708247	FW NNPS
-2.708247	FW NNS
-2.026763	FW RB
-2.241862	FW VB
-2.708247	FW VBG
-2.241862	FW VBN
-2.026763	FW VBP
-2.026763	FW VBZ	-0.1044896
-1.92453	FW WDT
-1.994782	FW ``	-0.07226333
-2.708247	FW are
-2.708247	FW can
-2.708247	FW could
-2.708247	FW has
-2.026763	FW have
-2.708247	FW in
-2.026763	FW is	-0.1061726
-2.708247	FW on
-2.708247	FW the
-2.708247	FW those
-1.92453	FW to	0.1498129
-2.708247	FW while
-2.708247	FW will
-2.241862	FW with
-5.202965	JJ #
-4.4895	JJ $	0.7431392
-2.870733	JJ ''	0.007355571
-1.60737	JJ ,	0.2716433
-2.701375	JJ -LRB-	0.5550689
-2.823308	JJ -RRB-	-0.01760691
-1.484714	JJ .	-1.052835
-3.016193	JJ :	0.503063
-3.341223	JJ </s>
-5.202965	JJ @
-1.444096	JJ CC	0.2920225
-1.996117	JJ CD	0.1114336
-4.206524	JJ EX	0.03948
-5.202965	JJ FW
-1.254217	JJ JJ	0.03098357
-2.621064	JJ JJR	0.2699264
-3.569702	JJ JJS	-0.1488478
-5.202965	JJ LS
-0.3750814	JJ NN	0.5073512
-1.971839	JJ NNP	-0.09469187
-3.252282	JJ NNPS	0.032763
-0.6673439	JJ NNS	0.4649379
-4.52148	JJ PDT	-0.00320828
-3.060396	JJ POS	-0.1543448
-3.076191	JJ PRP	0.04415652
-3.662457	JJ PRP$	0.7161113
-2.171762	JJ RB	0.05688328
-3.440608	JJ RBR	-0.2056145
-3.984676	JJ RBS	0.1602115
-4.73658	JJ RP
-3.025635	JJ VB	0.1982474
-3.040193	JJ VBD	-0.05956838
-2.257134	JJ VBG	-0.08982921
-2.423574	JJ VBN	0.1989097
-2.841661	JJ VBP	0.2163252
-2.675046	JJ VBZ	0.2827935
-3.199346	JJ WDT	0.06514362
-2.851137	JJ WP	0.07291031
-4.4895	JJ WP$	0.01912904
-2.920218	JJ WRB	0.07612377
-2.971838	JJ ``	-0.08497891
-3.060396	JJ a	-0.04194403
-2.984676	JJ about	-0.006404519
-4.4895	JJ above	-0.08153723
-5.202965	JJ across
-3.522278	JJ after	0.125228
-4.081586	JJ against	0.2009121
-4.206524	JJ all	-0.2666577
-5.202965	JJ along
-3.537518	JJ among	0.04069507
-3.662457	JJ an	0.1390363
-4.73658	JJ another	0.2067333
-5.202965	JJ any
-2.534427	JJ are	-0.03193039
-4.419248	JJ around	-0.1480905
-1.61975	JJ as	-0.05236793
-2.967643	JJ at	0.4310057
-3.729403	JJ be	0.1260311
-2.841661	JJ because	0.2296116
-3.870733	JJ before	-0.01466307
-5.202965	JJ behind
-3.466162	JJ being	0.3610758
-5.202965	JJ below
-4.206524	JJ between	0.05419119
-2.860824	JJ by	0.07838398
-5.202965	JJ ca
-2.675046	JJ can	0.257355
-3.341223	JJ could	0.1918371
-3.943283	JJ despite	0.190016
-4.4895	JJ did	0.596429
-3.569702	JJ do	-0.3165955
-3.642253	JJ does	-0.07983023
-3.569702	JJ during	0.2678249
-4.52148	JJ each	0.01338777
-4.206524	JJ en	0.2223751
-4.206524	JJ every	0.16074
-5.202965	JJ except
-2.019945	JJ for	0.3145497
-2.622948	JJ from	0.09355569
-4.419248	JJ get
-4.206524	JJ getting	-0.3101144
-5.202965	JJ got
-3.662457	JJ had	-0.05948424
-3.192284	JJ has	0.1424195
-2.923978	JJ have	0.4622903
-4.419248	JJ having
-3.020888	JJ if	0.02852333
-1.990799	JJ in	0.146928
-5.202965	JJ inside
-3.870733	JJ into	0.08012563
-2.412967	JJ is	-0.004625201
-5.202965	JJ lest
-3.943283	JJ like	0.1958393
-3.098185	JJ may	0.5708551
-3.416474	JJ might	0.7684802
-3.905494	JJ must	0.08104587
-4.419248	JJ near	-0.0851205
-3.905494	JJ no	-0.04801375
-2.283972	JJ of	0.3951902
-5.202965	JJ off
-2.715163	JJ on	0.05899251
-4.52148	JJ once	0.2210335
-5.202965	JJ ought
-4.419248	JJ out	0.4249046
-3.705922	JJ over	-0.02461863
-5.202965	JJ per
-5.202965	JJ shall
-2.39139	JJ should	0.12152
-3.277106	JJ since	0.01658267
-3.440608	JJ so	-0.03712124
-4.73658	JJ some
-2.574743	JJ than	0.1873481
-2.16579	JJ that	0.2485409
-2.894771	JJ the	0.02380943
-4.030433	JJ these	0.08494511
-4.419248	JJ this	0.04962622
-4.73658	JJ those
-4.73658	JJ though
-3.522278	JJ through	0.02997223
-4.419248	JJ throughout	0.4211262
-3.905494	JJ till	0.2321387
-1.257541	JJ to	0.1986861
-4.73658	JJ toward
-3.808584	JJ towards	0.2338305
-4.4895	JJ under	-0.05890206
-4.419248	JJ unless	0.003954366
-5.202965	JJ unlike
-4.258415	JJ until	0.165897
-4.419248	JJ up	0.2274703
-4.030433	JJ was	0.09383413
-3.662457	JJ were	0.2670738
-4.52148	JJ whereas	-0.0627251
-4.206524	JJ whether	-0.000951007
-3.808584	JJ while	0.007621244
-2.602659	JJ will	0.06214178
-2.634428	JJ with	0.2140167
-4.081586	JJ within	-0.00626716
-3.493314	JJ without	0.365097
-2.955292	JJ would	0.4248136
-3.636133	JJR ''
-1.559946	JJR ,	0.1017933
-2.35275	JJR -LRB-	-0.323122
-1.515013	JJR .	0.07791054
-3.636133	JJR :
-2.981139	JJR </s>
-1.30103	JJR CC	-0.3821002
-2.605475	JJR CD	-0.1228847
-3.636133	JJR FW	-0.1591503
-1.072654	JJR JJ	-0.1978285
-2.583199	JJR JJR	-0.01470858
-0.4027861	JJR NN	-0.1947984
-2.522501	JJR NNP	-0.001804739
-2.884229	JJR NNPS	-0.005117938
-0.702957	JJR NNS	0.2068979
-2.708138	JJR POS	0.01356629
-2.884229	JJR PRP	-0.07990029
-3.106077	JJR PRP$	0.09345919
-2.120801	JJR RB	-0.01919711
-3.421033	JJR RBR	0.1446359
-3.389052	JJR RP	-0.0827121
-2.541806	JJR VB	-0.139126
-2.680109	JJR VBD	-0.1404513
-2.03297	JJR VBG	-0.3935934
-2.020906	JJR VBN	-0.3025529
-3.106077	JJR VBP	-0.07143475
-2.981139	JJR VBZ	-0.05812585
-2.981139	JJR WDT	-0.003319576
-3.421033	JJR WP
-2.65378	JJR WRB	0.006933779
-3.157968	JJR ``	-0.2113336
-3.421033	JJR a	-0.05844232
-2.842836	JJR about	0.04520796
-3.421033	JJR after
-4.102518	JJR amongst
-2.981139	JJR are	0.03180614
-2.421831	JJR as	-0.09327424
-3.636133	JJR at	-0.2324984
-4.102518	JJR be
-2.981139	JJR because	0.2634131
-4.102518	JJR between
-3.157968	JJR by	-0.1927876
-2.929986	JJR can	0.3153212
-3.636133	JJR do
-3.421033	JJR down
-3.636133	JJR during
-4.102518	JJR each
-3.636133	JJR every	0.2639574
-2.091837	JJR for	-0.1041758
-4.102518	JJR from
-4.102518	JJR has
-3.389052	JJR have	-0.1078934
-2.605475	JJR if	-0.1189735
-2.231016	JJR in	0.1470483
-3.421033	JJR into	-0.1823723
-2.770285	JJR is	0.04063955
-4.102518	JJR like
-3.636133	JJR may	0.03265467
-4.102518	JJR must
-2.039131	JJR of	-0.1018909
-3.3188	JJR off	-0.04453544
-2.842836	JJR on	0.1698168
-4.102518	JJR over
-3.421033	JJR per	0.5909845
-3.636133	JJR should	-0.05792199
-3.106077	JJR since	-0.03416859
-3.3188	JJR so	0.3349476
-1.099612	JJR than	0.01322436
-3.636133	JJR that
-2.365715	JJR the	-0.3409539
-4.102518	JJR this
-3.421033	JJR through
-1.680109	JJR to	-0.1308448
-3.636133	JJR towards
-3.636133	JJR under
-4.102518	JJR was
-3.636133	JJR were	-0.08768766
-3.636133	JJR while
-2.884229	JJR will	0.3007392
-2.929986	JJR with	0.08624324
-4.102518	JJR within
-3.3188	JJR would	-0.05188251
-3.421866	JJS ''
-1.284499	JJS ,	0.02796325
-3.421866	JJS -LRB-
-1.861154	JJS .	0.7247994
-3.421866	JJS :
-2.425426	JJS CC	-0.07620275
-1.513381	JJS CD	-0.2534599
-0.9782675	JJS JJ	-0.4344788
-0.5277984	JJS NN	-0.1299425
-2.203577	JJS NNP	-0.09461614
-0.7011496	JJS NNS	0.01420188
-2.425426	JJS PRP	-0.06130559
-2.162184	JJS RB	0.02640285
-2.124396	JJS VB	-0.1788862
-2.740381	JJS VBD	-0.2663543
-2.300487	JJS VBG	-0.09771238
-1.788603	JJS VBN	-0.1625589
-2.638149	JJS VBP
-2.740381	JJS VBZ	-0.2560094
-2.740381	JJS WDT	-0.1620027
-3.421866	JJS ``
-2.7084	JJS a	0.01739694
-2.124396	JJS among	-0.2415462
-3.421866	JJS an
-3.421866	JJS another
-2.740381	JJS are
-3.421866	JJS around
-2.740381	JJS as	-0.1455576
-2.740381	JJS be	0.02814135
-3.421866	JJS before
-2.955481	JJS by
-3.421866	JJS can
-3.421866	JJS could
-3.421866	JJS every
-2.203577	JJS for	-0.1617641
-3.421866	JJS having
-3.421866	JJS if
-1.999457	JJS in	0.01430359
-2.955481	JJS is
-3.421866	JJS may
-0.7674142	JJS of	-0.382835
-2.955481	JJS on
-3.421866	JJS per
-3.421866	JJS some
-3.421866	JJS than
-2.955481	JJS that
-2.249334	JJS the	0.5431706
-1.726456	JJS to	-0.7252483
-3.421866	JJS will
-2.955481	JJS would	-0.1247564
-0.2171281	LS -RRB-	0.1254212
-0.4842998	LS .	-0.1880504
-2.957861	LS :
-2.174144	LS CD	-0.3492503
-1.961421	LS JJ	-0.3849381
-1.39715	LS NN	-0.7859384
-2.491476	LS NNP	-0.1518787
-2.957861	LS the
-3.389656	NN #	0.2579139
-3.617257	NN $	0.9665739
-2.389085	NN ''	0.2594767
-1.039433	NN ,	0.6932275
-1.911963	NN -LRB-	0.5700088
-1.710084	NN -RRB-	0.2557516
-0.94211	NN .	0.2621951
-5.488758	NN .ppt
-1.605921	NN :	0.2633367
-2.106116	NN </s>
-4.807273	NN @	0.3473138
-1.218777	NN CC	0.3780898
-1.953033	NN CD	-0.0174948
-3.793348	NN EX	-0.03832489
-3.890258	NN FW	-0.04363441
-1.737842	NN JJ	-0.07326198
-3.077345	NN JJR	0.3756602
-4.270469	NN JJS	0.01062816
-0.9637654	NN NN	0.5644841
-2.469065	NN NNP	0.1864811
-4.775293	NN NNPS	-0.1064444
-1.281777	NN NNS	0.5979609
-4.492318	NN PDT	-0.3042383
-1.926077	NN POS	-0.3738672
-2.505546	NN PRP	0.1167275
-3.471129	NN PRP$	0.362741
-1.819912	NN RB	0.2317184
-2.980435	NN RBR	0.3491402
-4.316226	NN RBS	0.4993995
-3.73899	NN RP	-0.05854297
-4.544209	NN SYM	-0.03117342
-5.488758	NN UH
-2.863929	NN VB	0.1645542
-2.181979	NN VBD	0.3283943
-2.346707	NN VBG	0.4461948
-2.022251	NN VBN	-0.104575
-2.669496	NN VBP	0.2484707
-1.779108	NN VBZ	0.4309994
-1.846405	NN WDT	0.2105199
-3.027431	NN WP	-0.1109461
-4.367379	NN WP$	0.05635664
-2.422897	NN WRB	0.1229162
-3.13693	NN a	0.3419392
-2.976003	NN about	0.2344384
-3.808071	NN above	-0.107546
-3.969439	NN across	0.05587709
-3.241086	NN after	0.1467904
-3.335971	NN against	0.1461831
-5.022373	NN ago
-3.928046	NN all	-0.06725617
-4.270469	NN along	0.2887505
-5.488758	NN alongside
-4.270469	NN although	0.02253909
-5.488758	NN amid
-5.022373	NN amidst
-3.109101	NN among	-0.06835216
-4.066349	NN amongst	0.01498991
-3.908741	NN an	0.1807799
-4.807273	NN another	0.1743136
-4.705041	NN any	0.1433895
-2.411331	NN are	0.3282402
-3.571499	NN around	0.3487576
-2.160216	NN as	0.1534469
-2.588324	NN at	0.288168
-3.444394	NN be	-0.06746233
-2.815624	NN because	0.2856888
-4.775293	NN been	0.06809032
-3.133749	NN before	0.1690741
-3.94825	NN behind	-0.01646249
-3.163259	NN being	0.3378786
-4.544209	NN below	0.09898449
-5.488758	NN beside
-4.544209	NN besides	-0.05480392
-2.865635	NN between	0.3168537
-4.124341	NN beyond	0.00155206
-2.354542	NN by	0.3851434
-5.022373	NN ca	0.9659992
-1.991944	NN can	-0.08972394
-2.584728	NN could	-0.003136635
-3.823311	NN despite	0.03404081
-3.457556	NN did	-0.08977878
-3.64722	NN do	-0.2659375
-2.847223	NN does	-0.05205023
-4.367379	NN down	0.01934804
-2.965118	NN during	0.0449599
-4.066349	NN each	-0.4833787
-3.908741	NN every	-0.1063873
-4.807273	NN except	0.07286493
-1.704268	NN for	0.3758496
-2.262295	NN from	-0.109074
-4.191288	NN get	-0.04122838
-4.807273	NN getting
-4.367379	NN got	-0.04498895
-3.032423	NN had	-0.07103592
-5.488758	NN half
-2.001657	NN has	0.2700408
-2.715375	NN have	0.1732321
-4.270469	NN having	-0.09323479
-3.000956	NN if	0.1412596
-1.529318	NN in	0.1434451
-4.04002	NN inside	-0.04933318
-2.827989	NN into	0.2677988
-1.419762	NN is	0.3442354
-5.488758	NN lest
-3.022496	NN like	0.149714
-2.535669	NN may	0.1563264
-2.903113	NN might	0.3118689
-3.177047	NN must	-0.07696462
-4.544209	NN near	0.192312
-4.316226	NN need	0.4799395
-4.807273	NN no	0.1004788
-0.9394673	NN of	0.6702864
-4.544209	NN off	-0.03382498
-1.812739	NN on	0.1140521
-4.367379	NN once	0.4564582
-4.270469	NN onto	0.1176828
-4.492318	NN ought	0.607726
-3.64722	NN out	0.389007
-4.705041	NN outside	0.08463056
-3.050361	NN over	0.1707932
-5.488758	NN past
-3.627017	NN per	-0.04585433
-4.270469	NN shall	0.1911439
-2.079298	NN should	-0.1366345
-3.097283	NN since	0.3045127
-3.133749	NN so	-0.0717392
-4.229076	NN some	0.2390447
-3.042583	NN than	0.2477337
-2.274834	NN that	-0.115292
-2.589228	NN the	1.05177
-3.991716	NN these	-0.1631503
-3.714167	NN this	-0.09258014
-4.775293	NN those	-0.09534398
-4.270469	NN though	0.02615172
-3.04516	NN through	0.1038191
-3.890258	NN throughout	0.06720144
-4.705041	NN till	-0.09146069
-1.391087	NN to	0.1237509
-4.191288	NN toward	0.1634152
-3.202283	NN towards	0.5481356
-3.464289	NN under	0.130608
-4.270469	NN unless	0.2580239
-4.316226	NN unlike	0.1406379
-3.94825	NN until	0.08487204
-3.64722	NN up	0.01422262
-3.94825	NN upon	0.1463858
-3.94825	NN via	0.4518508
-5.488758	NN vs.
-2.348263	NN was	0.06773162
-3.257632	NN were	0.1348785
-4.015197	NN whereas	0.07498564
-4.775293	NN whereby	0.825923
-3.808071	NN whether	0.2196745
-3.173559	NN while	0.06678271
-4.705041	NN whilst
-2.000489	NN will	-0.01428461
-2.351915	NN with	0.3244475
-3.316227	NN within	0.5049398
-3.173559	NN without	0.3540929
-5.022373	NN wo	1.053149
-5.488758	NN worth
-2.361984	NN would	0.05145288
-4.423401	NNP #
-2.893346	NNP $	-0.1058097
-3.671497	NNP ''	-0.3094379
-0.7709112	NNP ,	-0.2942219
-1.248907	NNP -LRB-	-0.278857
-1.569406	NNP -RRB-	0.4336072
-1.116886	NNP .	0.1745088
-1.801679	NNP :	0.2045823
-2.29492	NNP </s>
-3.893346	NNP @	0.4261881
-1.418401	NNP CC	-0.5960603
-1.090458	NNP CD	-0.4507906
-3.717254	NNP EX	0.2928917
-3.080432	NNP FW	-0.2741977
-2.073802	NNP JJ	-0.1321712
-3.893346	NNP JJR	-0.06333048
-4.106069	NNP JJS	-0.1149638
-2.908069	NNP LS	-1.202881
-1.305635	NNP NN	0.1608707
-0.5667025	NNP NNP	0.1484759
-1.814768	NNP NNPS	0.2191287
-1.804029	NNP NNS	0.298897
-4.889786	NNP PDT
-1.721619	NNP POS	0.334879
-3.273557	NNP PRP	-0.05655168
-3.630104	NNP PRP$	0.1410353
-2.261564	NNP RB	-0.3019177
-4.208301	NNP RBR	0.1446359
-4.889786	NNP RBS
-4.889786	NNP SYM
-4.889786	NNP UH
-2.588712	NNP VB	0.1230908
-2.001251	NNP VBD	0.3805421
-2.662897	NNP VBG	0.4312248
-2.915622	NNP VBN	-0.100194
-2.886167	NNP VBP	0.120413
-2.004044	NNP VBZ	0.1125951
-2.742078	NNP WDT	0.08370811
-3.273557	NNP WP	-0.1217006
-4.889786	NNP WP$
-3.038028	NNP WRB	0.1422042
-2.392743	NNP ``	-0.06873566
-3.256523	NNP a	0.1996667
-3.768407	NNP about	-0.04920126
-4.889786	NNP across
-4.106069	NNP after	-0.07634188
-4.106069	NNP against	-0.1504009
-4.208301	NNP all	-0.1553706
-4.423401	NNP among
-3.893346	NNP an	-0.01007095
-4.423401	NNP another	0.2067333
-2.522278	NNP are	-0.001571655
-4.889786	NNP around
-2.747218	NNP as	-0.2693335
-3.048248	NNP at	-0.08171308
-4.208301	NNP be	0.1796612
-3.671497	NNP because	0.1336401
-4.176321	NNP before
-4.889786	NNP behind
-3.525369	NNP being	0.1636047
-4.889786	NNP besides
-4.423401	NNP between
-3.127429	NNP by	-0.04180694
-4.889786	NNP ca
-2.693773	NNP can	0.203458
-3.240133	NNP could	0.8294358
-4.176321	NNP de	0.2639191
-4.889786	NNP despite
-3.291286	NNP did	0.02412415
-3.945236	NNP do	0.1791428
-3.194376	NNP does	-0.0206272
-3.495406	NNP during	0.06967729
-4.423401	NNP each	0.04580745
-4.889786	NNP every
-2.197281	NNP for	-0.3378887
-2.981301	NNP from	0.05783665
-4.889786	NNP get
-4.106069	NNP got	-0.08018349
-2.808174	NNP had	0.04980534
-1.955493	NNP has	0.4182416
-2.808174	NNP have	-0.1592202
-4.106069	NNP having	-0.1155329
-2.029032	NNP in	-0.08278823
-3.441048	NNP into	-0.04311293
-1.84155	NNP is	0.2210503
-3.945236	NNP like	-0.1318026
-3.291286	NNP may	0.8940458
-3.557554	NNP might	1.049892
-3.945236	NNP must	0.1190101
-4.423401	NNP need	0.9894804
-4.889786	NNP no
-1.60294	NNP of	-0.6070647
-2.388196	NNP on	-0.4508445
-4.208301	NNP out
-3.768407	NNP over	-0.07213658
-3.717254	NNP per	0.1138633
-2.981301	NNP should	0.341025
-3.717254	NNP since	0.1345841
-3.768407	NNP so	-0.06149745
-4.889786	NNP some
-4.889786	NNP than
-3.671497	NNP that	-0.05904315
-3.180135	NNP the	0.6302788
-4.889786	NNP these
-3.893346	NNP this	0.0994193
-3.717254	NNP through	0.01984268
-4.889786	NNP throughout
-2.28948	NNP to	-0.04200828
-4.208301	NNP towards
-3.893346	NNP under	0.00698629
-4.889786	NNP until
-4.106069	NNP up	0.2274703
-4.889786	NNP via
-4.889786	NNP vs.
-2.547645	NNP was	0.2371352
-3.467377	NNP were	0.2403749
-4.889786	NNP whereas
-3.893346	NNP while	-0.0295186
-4.889786	NNP whilst
-2.409046	NNP will	0.2441802
-3.103295	NNP with	0.07176816
-4.889786	NNP within
-4.423401	NNP without
-3.069437	NNP would	0.7621748
-3.293836	NNPS $
-0.7922457	NNPS ,	-0.1717033
-1.519244	NNPS -LRB-	0.1404259
-2.075547	NNPS -RRB-	0.1775139
-0.7533277	NNPS .	-0.0247649
-1.359544	NNPS :	0.3567796
-2.121305	NNPS </s>
-1.256003	NNPS CC	-0.2904836
-1.845098	NNPS CD	-0.02208263
-3.293836	NNPS FW
-1.774517	NNPS JJ	0.01673445
-2.827451	NNPS JJR
-1.660574	NNPS NN	0.02194516
-1.06271	NNPS NNP	0.02444905
-2.58037	NNPS NNPS
-2.121305	NNPS NNS	-0.08243687
-2.034154	NNPS POS	0.1701919
-3.293836	NNPS PRP
-2.034154	NNPS RB	-0.05926882
-3.293836	NNPS RBS
-2.827451	NNPS VB
-1.733124	NNPS VBD	0.02743493
-2.297396	NNPS VBG
-2.121305	NNPS VBN	-0.1298728
-1.660574	NNPS VBP	0.004980862
-2.034154	NNPS VBZ	-0.1305072
-2.034154	NNPS WDT	-0.1166979
-2.121305	NNPS WP	-0.1060078
-2.510119	NNPS WRB	-0.0871148
-1.774517	NNPS ``	-0.2727953
-2.121305	NNPS about	-0.7780057
-2.827451	NNPS after
-2.827451	NNPS an
-1.713819	NNPS are	-0.08999437
-3.293836	NNPS around
-3.293836	NNPS as
-3.293836	NNPS because
-3.293836	NNPS before
-2.58037	NNPS by	-0.1348669
-2.612351	NNPS can	0.06704809
-2.827451	NNPS do	0.08853406
-1.695336	NNPS for	-0.5467744
-2.172457	NNPS from	0.02289218
-2.297396	NNPS had	-0.02358636
-2.121305	NNPS has	-0.04406673
-1.753328	NNPS have	0.1199915
-1.531479	NNPS in	-0.2052695
-2.172457	NNPS is	-0.09050465
-2.510119	NNPS like
-2.827451	NNPS may	0.03265467
-2.827451	NNPS must
-1.367977	NNPS of	-0.7592911
-2.612351	NNPS on
-3.293836	NNPS once
-2.612351	NNPS over	-0.1127781
-2.510119	NNPS should	0.1103669
-3.293836	NNPS since
-3.293836	NNPS through
-1.871427	NNPS to	-0.01457193
-3.293836	NNPS under
-2.827451	NNPS was
-2.58037	NNPS were	-0.03084803
-1.961604	NNPS will	0.1500669
-2.034154	NNPS with	-0.1060634
-2.297396	NNPS would	-0.1504963
-4.355114	NNS #	0.0772979
-4.387095	NNS $	0.964988
-3.102103	NNS ''	-0.02040419
-1.051986	NNS ,	0.7746791
-1.848557	NNS -LRB-	0.2010553
-2.562489	NNS -RRB-	0.1123523
-0.8483841	NNS .	-0.3131437
-2.038046	NNS :	0.6029929
-2.200956	NNS </s>
-4.284863	NNS @	0.4526073
-1.097014	NNS CC	0.3579358
-3.151321	NNS CD	0.03435054
-3.808898	NNS EX	-0.3348624
-4.07214	NNS FW	-0.05673262
-1.654668	NNS JJ	-0.09474576
-3.109928	NNS JJR	0.4751433
-4.355114	NNS JJS	-0.01257998
-5.06858	NNS LS
-1.994166	NNS NN	0.4198343
-2.816867	NNS NNP	0.2496518
-5.06858	NNS NNPS
-2.425409	NNS NNS	0.1277767
-4.284863	NNS PDT	-0.128147
-1.918325	NNS POS	0.1304331
-2.505898	NNS PRP	0.1508661
-3.387893	NNS PRP$	0.5759326
-1.590219	NNS RB	-0.1192752
-2.71357	NNS RBR	0.04725838
-3.947201	NNS RBS	-0.0679981
-4.12403	NNS RP	-0.03853274
-2.632807	NNS VB	0.2972635
-1.963236	NNS VBD	0.3893377
-1.8744	NNS VBG	0.4273535
-1.727093	NNS VBN	-0.01075029
-1.501402	NNS VBP	0.3881572
-2.345141	NNS VBZ	0.1794731
-1.530352	NNS WDT	0.217142
-2.086863	NNS WP	-0.388286
-3.850291	NNS WP$	0.2448288
-2.306223	NNS WRB	0.003727078
-2.612245	NNS ``	-0.1555076
-3.037377	NNS a	0.03003919
-2.536424	NNS about	0.3228161
-3.387893	NNS above	-0.1166472
-3.619842	NNS across	0.3687552
-2.941806	NNS after	0.1199835
-3.07214	NNS against	0.2233214
-4.355114	NNS ago	0.03269705
-3.206838	NNS all	-0.6281006
-3.704163	NNS along	0.2238746
-3.896048	NNS although	-0.2342864
-4.602195	NNS amidst
-3.270507	NNS among	0.04325897
-4.355114	NNS amongst	0.1654213
-3.736347	NNS an	0.05115837
-4.12403	NNS any	-0.02693421
-1.328369	NNS are	0.3454173
-2.797212	NNS around	-0.4604665
-2.157444	NNS as	0.04484081
-2.560256	NNS at	0.4798881
-5.06858	NNS atop
-3.619842	NNS be	-0.146715
-2.804968	NNS because	0.02467835
-4.284863	NNS been	0.1650003
-2.947201	NNS before	0.09212244
-3.704163	NNS behind	0.00348036
-2.863519	NNS being	-0.1624422
-4.387095	NNS below	-0.1411877
-5.06858	NNS beneath
-4.355114	NNS besides	-0.03847088
-2.952664	NNS between	0.2971486
-4.07214	NNS beyond	0.125253
-2.380469	NNS by	0.306125
-4.602195	NNS ca	0.9659992
-1.757921	NNS can	0.09068573
-2.418927	NNS could	0.08422887
-3.704163	NNS despite	0.0003986061
-3.237507	NNS did	0.01945877
-2.501986	NNS do	-0.5379037
-3.549261	NNS does	0.0670734
-4.12403	NNS down	0.1117622
-2.905808	NNS during	0.3877718
-3.947201	NNS each	-0.1719847
-3.6742	NNS every	0.2301238
-4.07214	NNS except	-0.03855299
-1.642387	NNS for	0.1545287
-2.040731	NNS from	-0.4951441
-3.248231	NNS get	-0.399655
-3.947201	NNS getting	-0.05686318
-4.387095	NNS got	-0.1293722
-2.739701	NNS had	0.2616936
-2.599871	NNS has	-0.236586
-1.671314	NNS have	-0.06115866
-3.619842	NNS having	0.08319913
-2.841691	NNS if	0.08874416
-1.421347	NNS in	0.2614738
-4.387095	NNS inside
-2.710412	NNS into	0.1430945
-1.968906	NNS is	0.1134262
-2.141021	NNS like	-0.04854047
-2.057199	NNS may	0.1662089
-2.609741	NNS might	0.1194052
-2.763931	NNS must	0.1500576
-3.808898	NNS near	-0.05857837
-4.284863	NNS no	-0.02445993
-1.110244	NNS of	0.2373372
-4.602195	NNS off
-2.017144	NNS on	-0.0788101
-4.07214	NNS once	0.148388
-4.355114	NNS onto	0.4218933
-4.602195	NNS ought	0.9411757
-3.528071	NNS out	0.1475447
-4.07214	NNS outside	0.4153975
-2.820907	NNS over	0.06649172
-5.06858	NNS past
-3.079439	NNS per	0.3125138
-4.387095	NNS shall
-2.008306	NNS should	0.09938347
-3.037377	NNS since	0.04743689
-2.850291	NNS so	-0.5071295
-4.387095	NNS some	-0.1112985
-2.97523	NNS than	-0.01277372
-2.41254	NNS that	-0.2069322
-2.635447	NNS the	0.1199329
-3.808898	NNS these	0.08759248
-4.12403	NNS this	-0.04373983
-4.355114	NNS though	-0.04661475
-2.926012	NNS through	0.1769333
-3.619842	NNS throughout	0.01065469
-4.355114	NNS till	-0.07568225
-1.239524	NNS to	0.1229327
-4.284863	NNS toward	-0.2609951
-3.282089	NNS towards	0.3065842
-3.259226	NNS under	0.1892578
-4.284863	NNS unless
-4.284863	NNS unlike	0.05510689
-4.355114	NNS until	0.03808276
-3.77111	NNS up	-0.195394
-3.6742	NNS upon	-0.0509758
-3.77111	NNS via	0.5447961
-3.037377	NNS was	0.3051069
-2.18659	NNS were	0.2363394
-4.355114	NNS whereas	0.01350714
-4.12403	NNS whereby	0.0176838
-4.12403	NNS whether	0.05903675
-2.999032	NNS while	0.2781963
-4.602195	NNS whilst
-1.789215	NNS will	-0.03754103
-2.087612	NNS with	-0.1601381
-3.126015	NNS within	0.5415006
-2.872567	NNS without	0.300363
-4.355114	NNS wo	0.798881
-2.249318	NNS would	0.0886029
-2.356348	PDT PRP$	-0.08373548
-0.6892102	PDT a	-0.5287848
-1.263241	PDT an	0.2070019
-0.2842498	PDT the	0.0926224
-0.712334	PDT these	0.5255136
-1.778151	PDT this	0.1660118
-2.254116	PDT those	-0.1128847
-3.169869	POS $	0.964988
-3.169869	POS ''	-0.09703432
-2.053281	POS ,	0.1872914
-2.402615	POS -LRB-	0.4662795
-3.851353	POS -RRB-
-2.486936	POS .	0.9210941
-3.851353	POS :
-2.271337	POS CC	-0.02173707
-2.402615	POS CD	-0.279861
-0.7568464	POS JJ	-0.5156005
-2.854913	POS JJR	-0.1738429
-2.310845	POS JJS	-0.6426421
-0.2332176	POS NN	0.3682903
-1.284759	POS NNP	-0.03344274
-3.384968	POS NNPS
-0.9332265	POS NNS	0.07509255
-3.384968	POS PRP$
-2.553883	POS RB	-0.2211619
-2.678822	POS RBS	0.05629694
-2.678822	POS VB	-0.08835492
-1.869636	POS VBG	-0.3953449
-2.906804	POS VBN	-0.1649287
-3.384968	POS VBP
-3.137888	POS VBZ	-0.08885087
-3.067636	POS WDT	-0.07118925
-3.384968	POS WP
-2.729974	POS ``	-0.01957899
-3.851353	POS a
-3.851353	POS after
-3.384968	POS are
-3.384968	POS at
-3.851353	POS besides
-3.851353	POS by
-3.169869	POS can	-0.01116304
-3.851353	POS during
-3.384968	POS for	-0.1725207
-3.384968	POS from	-0.2499111
-3.851353	POS getting
-3.851353	POS has
-3.384968	POS have	-0.2397118
-3.851353	POS into
-3.384968	POS is
-3.137888	POS of	-0.04377057
-3.384968	POS should
-3.384968	POS the	-0.1551452
-2.678822	POS to	0.1674968
-3.851353	POS were
-3.384968	POS will
-3.851353	POS would
-3.71417	PRP ''	-0.1262813
-3.71417	PRP 'd	0.6509751
-3.71417	PRP 'll
-1.830892	PRP ,	0.2794378
-2.516171	PRP -LRB-	-0.2136553
-4.497888	PRP -RRB-
-1.264658	PRP .	-0.7090758
-3.103507	PRP :	-0.1024574
-1.817201	PRP CC	-0.2257273
-3.376508	PRP CD	-0.09493227
-4.497888	PRP EX
-4.497888	PRP FW
-1.867979	PRP JJ	0.123839
-2.516171	PRP JJR	0.2265775
-4.497888	PRP JJS
-2.393108	PRP NN	-0.03596231
-3.816403	PRP NNP	-0.03277858
-4.031502	PRP NNPS
-2.699815	PRP NNS	-0.0469756
-3.816403	PRP PDT	-0.00320828
-3.279598	PRP POS	0.07542229
-3.325356	PRP PRP	-0.01791747
-3.553338	PRP PRP$	0.941358
-1.294621	PRP RB	-0.2368756
-2.523724	PRP RBR	-0.1687932
-3.816403	PRP RBS
-2.607501	PRP RP	-0.1614716
-1.921664	PRP VB	0.4010524
-1.556143	PRP VBD	0.3724036
-2.539236	PRP VBG	0.1271453
-3.075479	PRP VBN	-0.03648062
-1.041301	PRP VBP	0.314743
-1.214766	PRP VBZ	0.2814224
-3.325356	PRP WDT	-0.08047417
-3.553338	PRP WP	-0.02446743
-2.64613	PRP WRB	-0.2637831
-3.165655	PRP ``	-0.06587105
-2.376508	PRP a	0.4244655
-3.784422	PRP about	0.02026305
-3.325356	PRP after	0.01222743
-3.553338	PRP against	0.1254288
-2.53141	PRP all	-0.4280838
-4.031502	PRP along
-4.497888	PRP alongside
-3.200417	PRP an	0.2820395
-4.031502	PRP another
-1.2103	PRP are	0.003752112
-4.497888	PRP around
-2.320557	PRP as	-0.03512275
-2.978569	PRP at	-0.01785693
-3.000845	PRP be	0.13197
-3.200417	PRP because	0.2736377
-4.497888	PRP been
-3.553338	PRP before	-0.07340179
-4.497888	PRP behind
-3.103507	PRP being	0.1418295
-4.031502	PRP beyond
-3.075479	PRP both	-0.2184771
-3.000845	PRP by	-0.6264431
-3.501447	PRP ca	0.6325496
-1.151846	PRP can	-0.04259586
-1.949185	PRP could	0.1222836
-4.031502	PRP despite
-2.473418	PRP did	0.07498479
-1.897581	PRP do	-0.5953603
-2.182688	PRP does	-0.2773907
-3.200417	PRP during	-0.3126459
-4.031502	PRP either
-2.398785	PRP for	0.1333059
-2.371114	PRP from	-0.2074934
-2.723296	PRP get	0.2524191
-3.71417	PRP getting
-3.501447	PRP got	-0.05763321
-2.315811	PRP had	0.2019135
-1.730595	PRP has	0.2419668
-1.508747	PRP have	0.4311713
-3.784422	PRP having	-0.04425309
-3.325356	PRP if	0.05586562
-1.996297	PRP in	-0.02193272
-2.881659	PRP into	0.3038186
-0.8203568	PRP is	0.06443322
-3.784422	PRP like	-0.0748837
-1.718497	PRP may	0.1025822
-2.054289	PRP might	0.2720218
-2.155747	PRP must	0.165361
-4.497888	PRP nearer
-3.71417	PRP need	0.832122
-4.497888	PRP no
-3.000845	PRP of	0.1179871
-2.774449	PRP on	0.2085008
-4.497888	PRP once
-3.784422	PRP ought	0.6869072
-3.784422	PRP out	0.2325795
-4.497888	PRP outweighs
-4.031502	PRP over
-3.075479	PRP shall	0.7840102
-1.508747	PRP should	-0.04698777
-3.71417	PRP since	-0.02343521
-3.784422	PRP so	0.4977466
-3.816403	PRP some	0.04247397
-4.031502	PRP than
-2.937176	PRP that	-0.003923923
-2.711397	PRP the	0.3933555
-4.031502	PRP this
-3.024326	PRP through	-0.03521571
-4.497888	PRP throughout
-4.497888	PRP till
-1.49641	PRP to	0.05059469
-3.784422	PRP under	0.03471486
-3.816403	PRP until	-0.03814948
-4.497888	PRP upon
-4.497888	PRP via
-1.773093	PRP was	0.04258406
-2.14606	PRP were	0.1604149
-4.497888	PRP whereas
-4.497888	PRP whether
-3.325356	PRP while	-0.1297044
-1.274418	PRP will	0.05871773
-2.288373	PRP with	0.08575439
-4.497888	PRP within
-3.024326	PRP without	0.1208577
-3.376508	PRP wo	0.5947611
-3.816403	PRP worth	0.3940983
-1.647141	PRP would	0.08331656
-4.200696	PRP$ ''
-3.734311	PRP$ -LRB-	-0.1021597
-4.200696	PRP$ -RRB-
-1.694605	PRP$ CC	-1.34555
-2.868464	PRP$ CD	-0.222411
-0.60583	PRP$ JJ	-0.7138246
-2.143558	PRP$ JJR	-0.3160684
-2.283437	PRP$ JJS	-0.3387198
-0.3748447	PRP$ NN	-0.1045574
-2.037924	PRP$ NNP	-0.009410471
-0.5791148	PRP$ NNS	0.2142893
-4.200696	PRP$ PDT
-2.426105	PRP$ RB	-0.4918566
-3.204256	PRP$ RBS	0.00215596
-3.487231	PRP$ VB	-0.08861768
-3.734311	PRP$ VBD	-0.2707676
-2.023365	PRP$ VBG	-0.6177039
-2.380347	PRP$ VBN	-0.6370069
-3.734311	PRP$ VBP
-3.734311	PRP$ VBZ
-2.941014	PRP$ ``	-0.1520261
-4.200696	PRP$ a
-4.200696	PRP$ about
-4.200696	PRP$ above
-4.200696	PRP$ any
-4.200696	PRP$ as
-4.200696	PRP$ both
-4.200696	PRP$ by
-3.204256	PRP$ every	0.310412
-4.200696	PRP$ in
-4.200696	PRP$ may
-4.200696	PRP$ near
-4.200696	PRP$ of
-3.734311	PRP$ on
-4.200696	PRP$ over
-4.200696	PRP$ the
-3.519211	PRP$ to
-3.519211	PRP$ will
-3.499174	RB $	0.266018
-4.109837	RB ''
-0.6717613	RB ,	0.6198469
-2.740767	RB -LRB-	-0.2839751
-3.675265	RB -RRB-	0.006237328
-1.398344	RB .	-0.7186939
-3.170115	RB :	0.03212938
-4.427169	RB </s>
-1.965148	RB CC	0.3435769
-2.087554	RB CD	-0.5944971
-2.711477	RB EX	0.1354985
-0.965317	RB JJ	0.3080037
-2.013452	RB JJR	0.2246207
-2.777638	RB JJS	-0.356606
-4.893554	RB LS
-1.852443	RB NN	0.1434973
-2.564675	RB NNP	0.3135708
-4.212069	RB NNPS
-2.103556	RB NNS	0.1756195
-3.170115	RB PDT	-0.5335515
-4.427169	RB POS
-1.964302	RB PRP	-0.2068696
-2.711477	RB PRP$	0.1957592
-1.196987	RB RB	0.3855402
-2.09434	RB RBR	0.4562737
-3.949004	RB RBS	0.4576694
-4.893554	RB SYM
-1.02486	RB VB	0.4072251
-1.939666	RB VBD	0.05404007
-1.598624	RB VBG	0.2488717
-1.201486	RB VBN	0.3681898
-1.692542	RB VBP	0.1833023
-1.608939	RB VBZ	0.1703575
-3.396511	RB WDT	0.04594667
-3.143786	RB WP	-0.07572246
-2.442269	RB WRB	0.09643239
-3.118963	RB ``	0.259119
-1.873176	RB a	0.4684796
-3.228107	RB about	-0.00557813
-4.893554	RB above
-4.893554	RB abreast
-4.893554	RB across
-2.869085	RB after	0.01280767
-3.772175	RB against	-0.1798158
-2.84919	RB all	-0.08571094
-4.427169	RB along	-0.1975029
-4.893554	RB alongside
-4.893554	RB although
-4.893554	RB amidst
-3.949004	RB among	0.05586162
-2.58536	RB an	-0.17764
-3.260292	RB another	0.124271
-3.721022	RB any	0.758786
-2.777638	RB are	0.2659878
-3.675265	RB around	0.05081534
-1.68537	RB as	0.1491938
-2.670943	RB at	-0.1073352
-1.377723	RB be	-0.1240994
-2.645881	RB because	0.2280619
-2.286099	RB been	0.4644213
-3.003167	RB before	0.07875258
-4.212069	RB behind
-2.629942	RB being	-0.01444465
-4.180089	RB below	-0.07177258
-4.893554	RB beneath
-4.427169	RB besides
-4.109837	RB between	0.0508281
-4.109837	RB beyond	-0.1152385
-4.893554	RB both
-2.405752	RB by	0.3277988
-4.893554	RB ca
-2.578355	RB can	0.338503
-3.419992	RB could	0.3849456
-4.427169	RB despite
-3.529137	RB did	0.2258498
-2.750986	RB do	0.2102343
-3.0842	RB does	0.5104851
-4.893554	RB down
-3.243901	RB during	0.1526704
-3.143786	RB every	0.8002132
-2.226559	RB for	0.2010766
-2.361398	RB from	-0.1700722
-2.934902	RB get	0.1296686
-3.772175	RB getting	-0.08353116
-3.897114	RB got	0.01746562
-4.893554	RB great,
-3.212867	RB had	0.1445391
-4.427169	RB half	-0.03542063
-2.571461	RB has	0.6319802
-1.854407	RB have	0.2517719
-3.277325	RB having	0.02728599
-2.434716	RB if	0.3250191
-1.869085	RB in	0.016626
-4.427169	RB inside
-3.156751	RB into	-0.002002537
-2.529137	RB is	0.3427175
-4.893554	RB lest
-2.967695	RB like	0.6207534
-3.561321	RB may	0.678957
-4.109837	RB might
-3.949004	RB must	0.3582326
-3.0842	RB no	-0.1498243
-2.102393	RB of	0.1743047
-4.427169	RB off
-2.28433	RB on	0.3613951
-4.180089	RB onto	0.1893659
-4.893554	RB ouside
-3.949004	RB out	0.2361235
-4.893554	RB outside
-3.170115	RB over	-0.02114499
-4.893554	RB shall
-3.107063	RB should	0.4566486
-2.904413	RB since	-0.03631237
-4.109837	RB so	0.3349476
-2.811942	RB some	-0.07113755
-2.394232	RB than	-0.2126437
-2.175578	RB that	-0.2517496
-1.65449	RB the	0.9107724
-3.295054	RB these	0.3813353
-2.862352	RB this	0.1384923
-2.994024	RB those	0.1187062
-2.405752	RB though	0.1847664
-3.260292	RB through	0.09809887
-4.180089	RB throughout	-0.1410304
-3.721022	RB till	-0.06655684
-1.774352	RB to	0.5045071
-4.109837	RB towards	-0.1897909
-3.118963	RB under	-0.09196335
-4.893554	RB unless
-4.893554	RB unlike
-3.529137	RB until	0.3502136
-4.427169	RB up
-4.212069	RB via	-0.08527201
-3.949004	RB was	-0.09046263
-3.633872	RB were	0.1574782
-4.893554	RB whereas
-4.427169	RB whether	-0.1187145
-3.721022	RB while	-0.08180752
-2.721022	RB will	0.6461787
-2.253661	RB with	0.2359218
-3.444816	RB within	0.2870291
-3.041796	RB without	0.3114228
-4.427169	RB worth
-3.212867	RB would	-0.3148706
-3.696856	RBR ''
-1.597753	RBR ,	-0.02942023
-3.015371	RBR -LRB-
-1.437174	RBR .	0.02582943
-3.23047	RBR :
-1.410381	RBR CC	-0.7759138
-3.696856	RBR CD
-0.2876748	RBR JJ	-0.01519871
-2.752306	RBR JJR	-0.09229432
-1.202105	RBR NN	0.02580017
-3.696856	RBR NNP
-3.015371	RBR NNPS
-1.258458	RBR NNS	0.04983366
-2.98339	RBR PRP	-0.07021763
-3.015371	RBR PRP$	0.06778435
-1.08587	RBR RB	-0.2924052
-1.762563	RBR VB	-0.1614171
-1.865783	RBR VBG	-0.1503768
-1.529176	RBR VBN	-0.09292021
-3.23047	RBR VBP	-0.2214662
-2.524324	RBR VBZ	0.007383775
-3.23047	RBR WDT
-2.752306	RBR WRB	-0.07173979
-2.913138	RBR ``	-0.1656533
-2.575476	RBR about	0.06893029
-2.700415	RBR an	0.3869505
-3.696856	RBR are
-2.575476	RBR as	-0.07783274
-2.913138	RBR at	-0.1819821
-3.696856	RBR because
-3.23047	RBR before	-0.1792952
-3.696856	RBR being
-3.23047	RBR by
-3.23047	RBR can	-0.1302632
-3.23047	RBR could
-3.696856	RBR despite
-1.973417	RBR for	-0.1828473
-2.98339	RBR from	-0.07787605
-3.696856	RBR has
-3.696856	RBR have
-3.696856	RBR having
-3.23047	RBR if	-0.1633166
-1.825354	RBR in	0.00931558
-3.015371	RBR into	-0.03085244
-3.23047	RBR is
-2.913138	RBR like	-0.1973422
-3.696856	RBR must
-3.696856	RBR of
-1.554287	RBR on	-0.02878195
-3.696856	RBR per
-2.98339	RBR should	-0.3121905
-3.696856	RBR since
-2.913138	RBR so	0.009300292
-1.797325	RBR than	0.1707861
-3.696856	RBR that
-2.575476	RBR the	0.09318304
-3.696856	RBR this
-2.223294	RBR to	0.1913716
-3.696856	RBR towards
-3.23047	RBR was	-0.07421233
-3.696856	RBR whilst
-3.23047	RBR will	-0.05128703
-2.575476	RBR with	0.02140573
-2.655536	RBS ,
-3.121922	RBS -LRB-
-2.000543	RBS .	1.164132
-0.1175913	RBS JJ	-0.1671963
-1.789689	RBS NN	-0.05016583
-3.121922	RBS NNP
-1.34733	RBS NNS	0.02875027
-0.9691341	RBS RB	-0.04738447
-2.655536	RBS VB
-2.177372	RBS VBG	-0.03972043
-1.824451	RBS VBN	-0.1410327
-3.121922	RBS VBP
-2.655536	RBS WRB	-0.267429
-3.121922	RBS about
-3.121922	RBS for
-2.655536	RBS from
-3.121922	RBS if
-2.125481	RBS in	-0.1162058
-2.655536	RBS is	-0.2545841
-3.121922	RBS on
-3.121922	RBS the
-2.440437	RBS to	-0.1203804
-3.121922	RBS were
-2.853701	RP ''
-1.28559	RP ,	-0.07214671
-2.640978	RP -LRB-	-0.4767278
-3.637418	RP -RRB-
-1.228798	RP .	-0.1231095
-2.923953	RP :	-0.06895173
-1.593055	RP CC	-0.006743699
-1.987766	RP CD	-0.4068452
-1.248868	RP JJ	-0.5164755
-2.021189	RP JJR	0.04539263
-3.171033	RP JJS	-0.2079124
-1.39794	RP NN	0.0002195835
-2.692869	RP NNP
-1.48971	RP NNS	-0.0447118
-2.377737	RP PDT	-0.1317621
-2.692869	RP PRP	-0.1036072
-1.427903	RP PRP$	0.2385387
-1.469739	RP RB	-0.04111153
-2.377737	RP RBR	0.2453205
-3.637418	RP VB
-3.637418	RP VBD
-1.900615	RP VBG	0.1022246
-2.692869	RP VBN	-0.1669274
-3.637418	RP VBZ
-2.955934	RP WDT
-2.516039	RP WP	0.02836209
-2.273001	RP WRB	0.02683112
-2.640978	RP ``
-1.385706	RP a	0.1871282
-2.923953	RP about	0.06134474
-3.171033	RP across	-0.1096654
-2.640978	RP after	-0.105916
-2.640978	RP all	-0.139224
-2.853701	RP among	0.1442724
-2.243038	RP an	0.2851644
-3.637418	RP another
-2.464887	RP any	-0.2230831
-3.637418	RP are
-3.637418	RP around
-2.038918	RP as	-0.1949865
-2.140376	RP at	0.1528542
-3.637418	RP because
-3.171033	RP before
-2.923953	RP being
-3.171033	RP between	-0.1174608
-1.612949	RP by	0.3261476
-3.637418	RP can
-3.171033	RP could
-3.171033	RP despite	-0.01375321
-2.419129	RP during	-0.03147975
-3.637418	RP each
-1.765917	RP for	0.1326824
-2.021189	RP from	-0.05640382
-2.853701	RP getting	-0.4086364
-3.637418	RP half
-3.171033	RP having
-2.516039	RP if	0.1206743
-1.436858	RP in	0.3095609
-2.464887	RP into	-0.2079512
-2.464887	RP is	0.03455968
-3.171033	RP like
-2.038918	RP of	0.2803118
-1.806345	RP on	0.07117701
-3.637418	RP out
-2.955934	RP over	-0.1493719
-2.955934	RP since	-0.281015
-3.171033	RP so	0.1666587
-2.339948	RP some	0.4495245
-1.606216	RP that	0.1963126
-0.91807	RP the	0.4495475
-2.640978	RP these	0.2645619
-2.215009	RP this	-0.2786866
-2.923953	RP those	-0.02179126
-2.516039	RP through	-0.03532705
-3.637418	RP throughout
-1.129095	RP to	0.2589
-3.637418	RP under
-3.637418	RP until
-3.171033	RP upon
-3.637418	RP via
-2.923953	RP whether	-0.08778412
-3.171033	RP while
-3.171033	RP will	-0.05128703
-0.8800532	RP with	-0.01847136
-3.171033	RP within	-0.2590908
-2.640978	RP without	0.01390618
-2.955934	RP would	-0.05634419
-0.4436975	SYM :	-0.1143994
-0.49485	SYM </s>
-1.149844	SYM CD
-1.149844	SYM JJ
-1.149844	SYM NN
-1.616229	SYM NNP
-1.616229	SYM the
-0.3388186	UH ,	-0.1944021
-0.60206	UH .	1.289071
-1.5985	UH NN
-0.9170156	UH PRP	-0.1698079
-1.5985	UH SYM
-1.5985	UH VBG
-1.5985	UH to
-3.801701	VB $	0.663958
-2.917094	VB ''	0.07960978
-1.914271	VB ,	0.193714
-2.988788	VB -LRB-	0.3987814
-4.116656	VB -RRB-	-0.2682466
-1.643338	VB .	0.8131955
-1.397437	VB :	-1.127302
-3.62561	VB </s>
-1.665509	VB CC	-0.09352827
-2.153341	VB CD	-0.6262416
-3.676762	VB EX	-0.0311107
-4.798141	VB FW
-1.063317	VB JJ	-0.3533611
-1.575961	VB JJR	0.01904964
-3.32458	VB JJS	-0.5274781
-1.11581	VB NN	-0.07578921
-2.261789	VB NNP	0.05654395
-4.116656	VB NNPS	-0.312099
-1.299274	VB NNS	0.02799666
-2.671367	VB PDT	0.483234
-3.676762	VB POS	-0.5165186
-1.441234	VB PRP	-0.2971632
-1.284285	VB PRP$	0.2432206
-1.529472	VB RB	-0.2712113
-2.326999	VB RBR	0.08376259
-3.579852	VB RBS	0.4435489
-1.518023	VB RP	0.1954195
-2.161551	VB VB	-0.3672317
-4.014424	VB VBD	-0.2011821
-2.102731	VB VBG	0.1326076
-2.728594	VB VBN	-0.1586578
-3.278822	VB VBZ	-0.06622753
-3.132694	VB WDT	-0.1903555
-2.747343	VB WP	-0.07656303
-4.798141	VB WP$
-2.362368	VB WRB	0.08695316
-3.349403	VB ``	-0.5332693
-1.356616	VB a	0.122932
-2.443132	VB about	0.3016362
-4.116656	VB above
-4.798141	VB across
-2.630462	VB after	-0.2312639
-2.988788	VB against	0.01610434
-2.766939	VB all	-0.3989584
-4.116656	VB along
-3.579852	VB among	0.04885733
-4.798141	VB amongst
-2.154971	VB an	0.4349133
-3.237429	VB another	0.4787947
-2.305694	VB any	0.2774175
-3.801701	VB are	0.05061417
-3.257633	VB around	0.076556
-2.395161	VB as	-0.04283476
-2.415499	VB at	0.1403334
-4.798141	VB be
-3.237429	VB because	0.04474097
-4.798141	VB been
-3.375732	VB before	-0.02942422
-4.331756	VB behind
-4.084676	VB being	-0.20373
-4.331756	VB below	-0.09845875
-3.433724	VB between	0.2157163
-3.257633	VB beyond	0.2525935
-3.199641	VB both	-0.1518447
-2.699039	VB by	0.2056211
-4.116656	VB can
-4.798141	VB could
-4.116656	VB despite	-0.128007
-4.798141	VB do
-4.798141	VB down
-3.32458	VB during	0.2427042
-3.257633	VB each	0.2131133
-3.257633	VB every	0.1318585
-1.76962	VB for	0.3824924
-2.205104	VB from	-0.1266907
-4.798141	VB get
-4.798141	VB getting
-4.798141	VB had
-4.798141	VB have
-3.853592	VB having	-0.07519206
-2.593081	VB if	0.3639886
-1.640333	VB in	0.3547606
-2.400875	VB into	0.02237231
-2.907754	VB is	0.2089479
-3.403761	VB like	0.07117781
-4.331756	VB may
-4.798141	VB might
-3.375732	VB near	-0.0826472
-3.853592	VB no	0.2235072
-2.597581	VB of	0.5658658
-1.801701	VB on	0.6720815
-4.798141	VB onto
-3.102731	VB out	-0.775804
-4.331756	VB outside
-3.117454	VB over	0.1255296
-4.798141	VB past
-4.798141	VB per
-3.801701	VB should	0.06932575
-3.676762	VB since	0.1442488
-2.511666	VB some	-0.2812266
-3.579852	VB than	0.03428736
-1.509445	VB that	0.09811735
-0.7189155	VB the	0.3200698
-2.263882	VB these	-0.1848454
-2.076061	VB this	-0.7055749
-2.794522	VB those	-0.1209887
-4.798141	VB though
-2.839489	VB through	0.1094215
-4.798141	VB throughout
-3.801701	VB till	0.01115086
-1.318589	VB to	0.2609336
-4.798141	VB toward
-3.257633	VB towards	0.2386686
-3.000069	VB under	-0.007039845
-4.331756	VB unless	-0.09297861
-4.116656	VB until
-4.331756	VB up	0.05918139
-3.433724	VB upon	-0.004061945
-4.798141	VB via
-4.331756	VB was
-4.331756	VB whereas
-2.630462	VB whether	0.1805646
-3.801701	VB while	-0.057081
-4.798141	VB whilst
-3.801701	VB will	0.2934381
-1.841072	VB with	0.396152
-3.62561	VB within	0.1128835
-2.977792	VB without	0.2851305
-4.331756	VB would
-2.927883	VBD $	0.663958
-3.924324	VBD 'in
-1.598825	VBD ,	0.09274167
-2.802945	VBD -LRB-	-0.1531021
-3.924324	VBD -RRB-
-1.61613	VBD .	-0.02268302
-2.751792	VBD :	-0.03114122
-2.979774	VBD </s>
-1.781755	VBD CC	0.05662099
-1.808408	VBD CD	-0.4072192
-3.457939	VBD EX
-1.19953	VBD JJ	0.07270694
-2.187521	VBD JJR	-0.2027652
-3.457939	VBD JJS
-1.194151	VBD NN	0.06048334
-1.751792	VBD NNP	-0.02144665
-3.924324	VBD NNPS
-1.379699	VBD NNS	0.0803138
-3.140606	VBD PDT
-1.64913	VBD PRP	-0.1547193
-1.701713	VBD PRP$	0.2489707
-1.346199	VBD RB	-0.09657544
-2.383815	VBD RBR	0.1195789
-1.361642	VBD RP	0.09842682
-2.927883	VBD VB	-0.1507551
-3.457939	VBD VBD
-2.103975	VBD VBG	-0.04180235
-2.664642	VBD VBN	-0.06888324
-2.979774	VBD VBZ	-0.008584112
-2.802945	VBD WDT	-0.2210015
-3.140606	VBD WP
-2.501915	VBD WRB	0.09000534
-2.529943	VBD ``	0.01776719
-1.327637	VBD a	0.3662918
-2.405005	VBD about	0.1083896
-3.140606	VBD across	-0.03679159
-3.140606	VBD after	-0.00960125
-3.242839	VBD against
-3.140606	VBD all
-3.457939	VBD along	0.06680429
-3.242839	VBD among
-2.052822	VBD an	-0.1282424
-2.979774	VBD another	0.1862411
-3.924324	VBD any
-2.979774	VBD are	-0.02014987
-3.924324	VBD around
-2.383815	VBD as	-0.1157785
-2.11497	VBD at	0.03086719
-2.559907	VBD because	-0.08555561
-3.924324	VBD before
-3.242839	VBD being	0.1696386
-3.924324	VBD beside
-3.924324	VBD between
-3.924324	VBD beyond
-3.924324	VBD both
-2.475586	VBD by	0.08776514
-2.626853	VBD can	-0.06668445
-3.924324	VBD could
-3.924324	VBD despite
-3.924324	VBD did
-3.924324	VBD does
-2.559907	VBD during	0.1679724
-3.457939	VBD each	-0.1571559
-3.924324	VBD every
-2.126251	VBD for	0.1712792
-1.7104	VBD from	-0.08982128
-3.924324	VBD getting
-3.924324	VBD had
-3.457939	VBD has
-3.457939	VBD have
-3.457939	VBD if
-1.329458	VBD in	0.3633084
-3.457939	VBD inside
-2.024793	VBD into	0.1683895
-2.979774	VBD is	-0.03692538
-3.924324	VBD like
-3.140606	VBD may	-0.01623135
-3.457939	VBD might
-3.457939	VBD must	-0.07169729
-3.457939	VBD near
-3.210858	VBD no	0.1088623
-2.706035	VBD of	0.08912233
-1.886491	VBD on	0.1238588
-3.924324	VBD onto
-2.802945	VBD out	0.3840653
-2.927883	VBD over	0.144356
-3.210858	VBD per	0.3691357
-3.457939	VBD should
-3.242839	VBD since
-2.501915	VBD some	-0.004518569
-3.242839	VBD than	-0.1664157
-0.9257174	VBD that	0.1083446
-0.9221311	VBD the	0.3547784
-2.927883	VBD these	0.1534609
-2.383815	VBD this	-0.215499
-3.242839	VBD those	-0.06665836
-2.450762	VBD through	0.115572
-3.457939	VBD throughout
-1.057675	VBD to	0.3821932
-2.927883	VBD towards	-0.06290569
-3.457939	VBD under
-3.242839	VBD upon
-2.308095	VBD via	-0.2923092
-2.751792	VBD was	-0.08942638
-3.924324	VBD were
-3.924324	VBD whether
-3.924324	VBD while
-2.979774	VBD will	0.2743541
-2.187521	VBD with	0.2654873
-3.457939	VBD without
-2.979774	VBD would	-0.1452485
-3.51499	VBG $	0.663958
-2.845984	VBG ''	0.01979619
-1.942894	VBG ,	-0.1042315
-2.950719	VBG -LRB-	-0.06367072
-2.992111	VBG -RRB-	-0.4278518
-1.741691	VBG .	0.006777287
-3.147013	VBG :	0.120726
-3.147013	VBG </s>
-1.680358	VBG CC	-0.04075098
-2.255715	VBG CD	-0.5722026
-4.51143	VBG EX
-4.045045	VBG FW	-0.2464728
-1.010746	VBG JJ	-0.51644
-1.800381	VBG JJR	-0.09231651
-3.727713	VBG JJS	-0.1350385
-0.6871904	VBG NN	0.2890482
-2.080954	VBG NNP	0.07267439
-3.829946	VBG NNPS
-1.014616	VBG NNS	0.2454282
-2.80178	VBG PDT	0.9713874
-1.625689	VBG PRP	-0.237141
-1.648703	VBG PRP$	0.1782113
-1.596785	VBG RB	-0.2958531
-2.240063	VBG RBR	0.3072397
-3.829946	VBG RBS	-0.150202
-1.774628	VBG RP	0.005104065
-3.21396	VBG VB	-0.03203965
-3.51499	VBG VBD
-2.276108	VBG VBG	-0.1725374
-2.702077	VBG VBN	-0.03603557
-4.045045	VBG VBP
-2.577138	VBG VBZ	-0.1078542
-3.037869	VBG WDT	-0.1650456
-3.51499	VBG WP	-0.351993
-3.014388	VBG WRB	0.03346261
-3.51499	VBG ``	-0.1920726
-1.40272	VBG a	0.3599446
-4.51143	VBG a/
-2.568866	VBG about	-0.07381892
-3.727713	VBG above	-0.03888418
-3.829946	VBG across	0.04243498
-2.845984	VBG after	-0.2668794
-3.21396	VBG against	0.01363362
-3.037869	VBG all	-0.05879343
-4.51143	VBG along
-4.51143	VBG although
-4.045045	VBG among
-4.51143	VBG amongst
-2.159603	VBG an	0.2895132
-3.566881	VBG another	0.4639141
-2.992111	VBG any	0.5922382
-3.21396	VBG are	0.2397877
-3.037869	VBG around	-0.117222
-2.91293	VBG as	-0.1066732
-2.19972	VBG at	0.1008487
-4.51143	VBG be
-3.338899	VBG because	0.1793976
-4.045045	VBG before
-3.829946	VBG behind	-0.1567093
-4.045045	VBG below
-4.045045	VBG between
-4.045045	VBG beyond
-3.566881	VBG both	-0.03555995
-3.014388	VBG by	0.13383
-3.014388	VBG can	0.8267776
-4.51143	VBG despite
-4.51143	VBG do
-3.829946	VBG does	0.399977
-4.51143	VBG down
-3.727713	VBG during	0.1056873
-3.390052	VBG each	0.3346729
-3.147013	VBG every	0.1118308
-1.770697	VBG for	0.1716839
-2.023628	VBG from	-0.1766877
-4.51143	VBG get
-4.045045	VBG has
-4.045045	VBG have
-4.51143	VBG having
-3.390052	VBG if	0.1573408
-1.661698	VBG in	0.3526694
-4.045045	VBG inside
-2.395514	VBG into	0.3663075
-2.649689	VBG is	0.1251689
-3.797965	VBG like	-0.06520203
-3.829946	VBG may
-3.797965	VBG near
-3.727713	VBG no	0.3011874
-1.852232	VBG of	0.08957887
-4.51143	VBG off
-1.745367	VBG on	0.4307608
-3.829946	VBG onto	0.1809824
-3.179198	VBG out	0.07837912
-4.51143	VBG outside
-3.338899	VBG over	0.3201473
-4.51143	VBG past
-4.51143	VBG per
-4.51143	VBG save
-3.829946	VBG should	-0.09034167
-3.727713	VBG since
-2.680358	VBG some	0.1282675
-4.045045	VBG than
-2.070425	VBG that	0.09979326
-0.8473817	VBG the	0.5198112
-2.473598	VBG these	0.04530901
-2.182552	VBG this	-0.5194101
-3.014388	VBG those	0.1659589
-2.774627	VBG through	0.3125345
-4.51143	VBG throughout
-1.178864	VBG to	0.4200592
-4.51143	VBG toward
-2.992111	VBG towards	-0.03060074
-3.179198	VBG under	0.0743342
-3.797965	VBG until
-3.797965	VBG upon
-3.727713	VBG was	-0.01278248
-4.045045	VBG were
-4.51143	VBG whereas
-2.950719	VBG whether	0.3416508
-3.829946	VBG while
-3.338899	VBG will	-0.06982276
-2.028324	VBG with	0.1705694
-3.251749	VBG within	0.2598125
-3.390052	VBG without	0.07916192
-3.251749	VBG would	-0.3415432
-3.975283	VBN $	0.964988
-3.159725	VBN ''	0.02124
-1.506005	VBN ,	0.487412
-2.413173	VBN -LRB-	0.3403582
-3.359298	VBN -RRB-	0.2198437
-1.138754	VBN .	-1.002271
-2.766381	VBN :	0.1342901
-3.292351	VBN </s>
-1.502468	VBN CC	0.2179011
-1.942935	VBN CD	-0.7769037
-3.873051	VBN EX	0.1001985
-4.190383	VBN FW	-0.1591503
-1.489089	VBN JJ	0.01656449
-2.593381	VBN JJR	0.5204641
-3.943303	VBN JJS	-0.08227652
-1.337076	VBN NN	0.03182566
-1.257493	VBN NNP	-0.846644
-4.656768	VBN NNPS
-1.63845	VBN NNS	0.2248649
-3.535389	VBN PDT	0.04691929
-2.397086	VBN PRP	-0.2761141
-2.413173	VBN PRP$	0.2392967
-1.339835	VBN RB	-0.4512892
-2.385401	VBN RBR	0.1463247
-4.190383	VBN RBS
-1.70288	VBN RP	0.2489606
-3.058268	VBN VB	-0.5533236
-3.660328	VBN VBD
-2.434158	VBN VBG	0.1241618
-2.587221	VBN VBN	-0.3069433
-3.438479	VBN VBP	-0.04613322
-3.535389	VBN VBZ	0.01181861
-2.947117	VBN WDT	0.07976171
-3.262388	VBN WP	-0.0626587
-2.405055	VBN WRB	-0.03722054
-2.870277	VBN ``	-0.1614575
-1.905725	VBN a	-0.03986657
-2.442844	VBN about	0.03847927
-2.587221	VBN above	-0.1705722
-3.712219	VBN across	0.4335808
-2.847414	VBN after	0.02751824
-2.882177	VBN against	0.4640018
-3.262388	VBN all	-0.02866118
-3.438479	VBN along	0.4121408
-3.975283	VBN although	-0.05601612
-3.20803	VBN among	0.1459695
-4.656768	VBN amongst
-2.730909	VBN an	0.3631294
-3.943303	VBN another	0.1826971
-3.438479	VBN any	0.8089477
-2.81523	VBN are	0.1178198
-2.976081	VBN around	-0.1228331
-1.557094	VBN as	-0.1202686
-2.190506	VBN at	0.4809678
-4.656768	VBN be
-2.563418	VBN because	0.04694164
-2.646087	VBN before	0.357806
-3.873051	VBN behind
-4.656768	VBN being
-3.712219	VBN below	-0.2550778
-4.656768	VBN beside
-4.656768	VBN besides
-3.183207	VBN between	0.07721874
-3.975283	VBN beyond
-3.975283	VBN both
-1.054126	VBN by	0.1837622
-3.11626	VBN can	0.599305
-3.660328	VBN could	-0.2351357
-3.484236	VBN despite	-0.1576891
-3.975283	VBN did	0.3686769
-3.873051	VBN do	0.1599894
-4.190383	VBN down	-0.1036367
-2.569247	VBN during	0.1286212
-4.656768	VBN each
-3.292351	VBN every	0.1570753
-4.656768	VBN except
-1.621575	VBN for	0.5096925
-1.591524	VBN from	0.06020033
-3.660328	VBN had	-0.09865869
-3.712219	VBN has	-0.0009289533
-3.397086	VBN have	-0.1445611
-4.656768	VBN having
-2.41729	VBN if	0.2270956
-1.192473	VBN in	0.1225942
-3.397086	VBN inside	0.09057662
-1.908279	VBN into	0.2998744
-2.362932	VBN is	0.2534653
-3.535389	VBN like	-0.04499138
-3.943303	VBN may	0.1582905
-4.190383	VBN might
-3.975283	VBN must
-3.943303	VBN near	0.04593822
-4.190383	VBN no
-2.362932	VBN of	0.3819001
-1.492027	VBN on	0.5298275
-4.190383	VBN once
-3.535389	VBN onto	0.1892373
-3.023506	VBN out	0.3618765
-4.190383	VBN outside
-2.569247	VBN over	0.258689
-4.190383	VBN per	0.6234042
-3.359298	VBN should	0.2245091
-2.81523	VBN since	-0.03931138
-3.007115	VBN so	-0.1765543
-3.20803	VBN some	-0.120546
-3.234359	VBN than	0.1038047
-1.639138	VBN that	-0.04183948
-1.604058	VBN the	0.5444
-3.660328	VBN these	0.003788918
-2.775721	VBN this	-0.6132051
-4.656768	VBN those
-3.975283	VBN though
-2.331269	VBN through	0.156576
-3.873051	VBN throughout	0.0596478
-3.975283	VBN till
-0.8096816	VBN to	0.43373
-3.292351	VBN towards	0.03989702
-2.795026	VBN under	0.1369731
-4.190383	VBN unless
-3.484236	VBN until	0.2537179
-3.438479	VBN up	-0.2951905
-2.933329	VBN upon	0.3019347
-2.919965	VBN via	0.06961048
-3.20803	VBN was	0.4345256
-3.660328	VBN were	-0.04404616
-3.943303	VBN whether	-0.1000323
-3.058268	VBN while	-0.008451402
-2.919965	VBN will	0.3324435
-1.541953	VBN with	0.160959
-2.961358	VBN within	-0.09197193
-2.785267	VBN without	0.1399637
-3.324536	VBN would	-0.5637659
-4.078207	VBP $
-3.396723	VBP ''
-1.763008	VBP ,	0.0007786155
-2.780737	VBP -LRB-	0.008279115
-3.29449	VBP -RRB-
-1.683827	VBP .	-0.1088692
-2.780737	VBP :	0.1922362
-3.364742	VBP </s>
-1.946105	VBP CC	-0.07641903
-2.216466	VBP CD	-0.1967306
-2.71379	VBP EX	0.1822583
-1.043677	VBP JJ	-0.113906
-1.680942	VBP JJR	0.09748095
-3.133658	VBP JJS	-0.6083089
-1.146428	VBP NN	-0.1017923
-2.257859	VBP NNP	0.02315795
-4.078207	VBP NNPS
-1.436673	VBP NNS	-0.1300282
-3.364742	VBP PDT	-0.2250571
-4.078207	VBP POS
-1.501984	VBP PRP	-0.2255415
-1.561065	VBP PRP$	-0.1185943
-1.455085	VBP RB	-0.0007911921
-2.081767	VBP RBR	0.4099948
-3.396723	VBP RBS
-1.826495	VBP RP	0.1740039
-2.41276	VBP VB	-0.08187798
-1.905676	VBP VBG	0.1157089
-2.444945	VBP VBN	-0.08122623
-4.078207	VBP VBP
-3.133658	VBP VBZ	0.000718452
-3.396723	VBP WDT
-3.364742	VBP WP
-2.444945	VBP WRB	0.07764032
-2.859919	VBP ``	-0.1034281
-1.483342	VBP a	0.1372443
-2.257859	VBP about	-0.02500892
-4.078207	VBP across
-3.396723	VBP after
-3.29449	VBP against	-0.01326148
-2.956829	VBP all	-0.1147616
-3.611822	VBP along	0.06680429
-4.078207	VBP alongside
-4.078207	VBP among
-2.143915	VBP an	0.1818497
-3.364742	VBP another	0.1826971
-2.859919	VBP any	0.7130285
-2.780737	VBP are	0.0429623
-3.133658	VBP around	0.09987667
-2.236669	VBP as	0.0266633
-2.247135	VBP at	0.140495
-3.611822	VBP be	0.06056103
-3.611822	VBP because
-3.611822	VBP been	0.09212649
-3.611822	VBP being
-4.078207	VBP below
-4.078207	VBP beyond
-3.611822	VBP both
-2.604646	VBP by	0.1270862
-2.956829	VBP can	0.3105895
-3.396723	VBP could
-3.611822	VBP despite
-4.078207	VBP do
-4.078207	VBP does
-2.905676	VBP during	0.173941
-2.905676	VBP each	0.4295929
-3.081767	VBP every	0.16074
-2.160949	VBP for	0.3326536
-1.92542	VBP from	-0.09103352
-4.078207	VBP getting
-4.078207	VBP having
-3.364742	VBP if	0.03201579
-1.655799	VBP in	0.3466702
-2.428555	VBP into	0.03850499
-2.498191	VBP is	0.3092161
-3.611822	VBP like
-3.29449	VBP may	0.2009436
-3.611822	VBP might	-0.1904614
-3.29449	VBP near	0.01029456
-2.956829	VBP no	0.09130177
-2.291717	VBP of	0.2170697
-1.910528	VBP on	-0.007427216
-3.081767	VBP out	0.1533983
-3.133658	VBP over	0.07522234
-4.078207	VBP should
-3.396723	VBP since	-0.07262396
-4.078207	VBP so
-2.444945	VBP some	-0.1057938
-3.611822	VBP than
-0.9179105	VBP that	0.005785584
-0.9066421	VBP the	0.3020184
-2.479707	VBP these	0.2862152
-4.078207	VBP theses
-2.268854	VBP this	0.02972013
-3.081767	VBP those	-0.08748186
-3.081767	VBP through	-0.1030452
-0.8399718	VBP to	0.02477717
-3.29449	VBP towards	-0.08309665
-3.081767	VBP under	-0.1041146
-4.078207	VBP until
-3.611822	VBP upon	-0.2322972
-4.078207	VBP via
-4.078207	VBP was
-2.956829	VBP whether	-0.03635447
-3.611822	VBP while
-3.364742	VBP will	0.07434882
-1.900877	VBP with	0.1384158
-4.078207	VBP within
-4.078207	VBP without
-4.078207	VBP wo
-3.401605	VBZ $	0.8400493
-3.471856	VBZ ''	-0.1524665
-1.679231	VBZ ,	0.1696913
-2.887852	VBZ -LRB-	0.04585451
-1.681476	VBZ .	-0.2183353
-2.762913	VBZ :	-0.1063355
-3.401605	VBZ </s>
-1.933609	VBZ CC	-0.1151091
-1.884248	VBZ CD	-0.5263284
-3.503837	VBZ EX	-0.1327758
-1.094877	VBZ JJ	-0.1440306
-1.640697	VBZ JJR	0.06007624
-3.188882	VBZ JJS	0.03428885
-1.132612	VBZ NN	-0.2944627
-1.863229	VBZ NNP	-0.1137965
-1.352136	VBZ NNS	-0.1632615
-2.887852	VBZ PDT	-0.225364
-1.50165	VBZ PRP	-0.1653169
-1.754845	VBZ PRP$	-0.05264056
-1.434278	VBZ RB	-0.06812286
-2.1097	VBZ RBR	0.1305786
-3.503837	VBZ RBS
-1.771133	VBZ RP	0.1467036
-2.259463	VBZ VB	-0.2578059
-3.401605	VBZ VBD	-0.06613076
-2.007992	VBZ VBG	0.06373882
-2.285792	VBZ VBN	0.02908111
-3.401605	VBZ VBP
-2.820905	VBZ VBZ	0.002510309
-3.401605	VBZ WDT	-0.07118925
-3.063943	VBZ WP	-0.1277682
-2.285792	VBZ WRB	0.2214837
-2.41073	VBZ ``	0.07450798
-1.232233	VBZ a	0.1711537
-2.304275	VBZ about	0.317987
-3.503837	VBZ above	-0.2733883
-4.185322	VBZ across
-3.188882	VBZ after	-0.0597263
-3.718937	VBZ against
-2.92564	VBZ all	-0.06867784
-3.188882	VBZ along	-0.1303896
-3.718937	VBZ among
-4.185322	VBZ amongst
-1.790942	VBZ an	0.5726767
-3.471856	VBZ another	0.3323691
-3.01279	VBZ any	0.00714913
-2.85309	VBZ are	0.1369008
-3.188882	VBZ around	0.3107083
-2.128184	VBZ as	-0.09152573
-2.091972	VBZ at	-0.09969908
-3.503837	VBZ be	0.1796612
-3.471856	VBZ because	0.04584876
-3.503837	VBZ behind
-3.718937	VBZ being	0.05053842
-3.718937	VBZ below
-4.185322	VBZ beneath
-4.185322	VBZ beyond
-3.240772	VBZ both	-0.1290024
-2.666003	VBZ by	-0.2263321
-3.240772	VBZ can	0.9861026
-4.185322	VBZ could
-3.718937	VBZ do	0.08853406
-3.471856	VBZ during	0.2275172
-3.503837	VBZ each	-0.03805578
-3.401605	VBZ every	-0.08113028
-2.01279	VBZ for	0.3384494
-2.02255	VBZ from	0.05364501
-3.718937	VBZ getting
-3.471856	VBZ has	0.06456923
-2.85309	VBZ have	-0.2336093
-3.718937	VBZ having	-0.2102726
-3.401605	VBZ if	-0.07771528
-1.567359	VBZ in	0.301769
-2.32358	VBZ into	0.1866559
-2.71176	VBZ is	0.06896931
-2.820905	VBZ like	-0.004778728
-3.401605	VBZ may	-0.1116464
-3.718937	VBZ might
-3.503837	VBZ near	-0.2868178
-2.55206	VBZ no	-0.2039654
-2.174641	VBZ of	0.3415536
-1.782341	VBZ on	0.3841448
-3.188882	VBZ out	-0.07683396
-2.790942	VBZ over	0.2070138
-4.185322	VBZ should
-3.503837	VBZ since
-4.185322	VBZ so
-2.688279	VBZ some	0.2037386
-1.175342	VBZ that	0.1246485
-0.8527556	VBZ the	0.6594796
-3.188882	VBZ these	-0.2264433
-2.736584	VBZ this	-0.3050156
-3.188882	VBZ those	0.02833608
-2.85309	VBZ through	0.01068643
-4.185322	VBZ throughout
-0.9097472	VBZ to	0.3691407
-3.718937	VBZ toward	-0.2544852
-4.185322	VBZ towards
-3.240772	VBZ under	-0.02281953
-4.185322	VBZ until
-3.240772	VBZ upon	-0.08574405
-3.503837	VBZ were	-0.1201073
-3.188882	VBZ whether	-0.06102866
-3.503837	VBZ while
-3.471856	VBZ will	0.1440454
-2.007992	VBZ with	0.09008086
-3.471856	VBZ within	-0.06292012
-4.185322	VBZ would
-2.63271	WDT ,	-0.03472713
-3.588734	WDT -LRB-	-0.1021597
-4.055119	WDT -RRB-
-4.055119	WDT .
-3.373635	WDT CC
-2.558077	WDT CD	-0.157986
-3.373635	WDT EX	0.05100974
-1.72962	WDT JJ	-0.1654311
-2.757649	WDT JJR	0.09572214
-2.882588	WDT JJS	-0.1670395
-1.606381	WDT NN	-0.08660063
-1.979498	WDT NNP	-0.3019746
-4.055119	WDT NNPS
-1.690702	WDT NNS	-0.3154845
-4.055119	WDT PDT
-1.815641	WDT PRP	0.01194859
-2.660739	WDT PRP$	-0.4028012
-1.486582	WDT RB	-0.4672589
-3.588734	WDT RBR
-3.11057	WDT RBS	-0.1242201
-3.373635	WDT VB
-1.304076	WDT VBD	0.06185287
-2.345469	WDT VBG	0.03352761
-2.93374	WDT VBN	-0.05471881
-0.9652573	WDT VBP	0.1100997
-0.7915073	WDT VBZ	0.2723656
-3.588734	WDT WDT
-3.588734	WDT WP
-2.83683	WDT WRB	-0.07228304
-2.882588	WDT ``	-0.1256663
-3.341654	WDT a	-0.05005881
-4.055119	WDT about
-3.588734	WDT after
-3.058679	WDT all	-0.0250283
-4.055119	WDT among
-3.341654	WDT an	0.1388068
-1.120827	WDT are	-0.09456003
-4.055119	WDT as
-3.271402	WDT at	-0.1104991
-4.055119	WDT before
-3.588734	WDT being
-4.055119	WDT between
-4.055119	WDT beyond
-4.055119	WDT both
-3.271402	WDT by	-0.1368924
-3.588734	WDT ca	0.9659992
-1.161052	WDT can	-0.09573901
-1.678468	WDT could	0.3363248
-4.055119	WDT despite
-3.271402	WDT did	0.2437382
-2.405467	WDT do	-0.245088
-2.268629	WDT does	-0.3111992
-3.588734	WDT each	0.04580745
-2.882588	WDT every	0.4998353
-3.588734	WDT for
-2.268629	WDT had	0.03673995
-1.663644	WDT has	0.378557
-1.743409	WDT have	-0.1383318
-4.055119	WDT if
-1.912551	WDT in	-0.5964017
-0.8536552	WDT is	-0.060969
-1.583977	WDT may	0.4185045
-2.051501	WDT might	0.6069762
-3.341654	WDT must	-0.3259658
-3.271402	WDT no	-0.02281402
-4.055119	WDT of
-4.055119	WDT on
-4.055119	WDT ought
-2.080956	WDT should	-0.002694488
-4.055119	WDT since
-4.055119	WDT some
-1.907411	WDT the	0.3957176
-3.588734	WDT these
-4.055119	WDT this
-4.055119	WDT until
-1.690702	WDT was	-0.1454003
-2.080956	WDT were	0.04390931
-3.588734	WDT whether
-1.289056	WDT will	-0.2866341
-3.271402	WDT with	-0.3053377
-4.055119	WDT within
-3.588734	WDT without
-1.819797	WDT would	0.4889091
-2.487138	WP ,	-0.1929911
-3.483579	WP -LRB-
-2.699861	WP -RRB-
-3.017194	WP .	1.622521
-3.483579	WP CD
-2.186108	WP JJ	0.1969462
-3.017194	WP JJS	-0.1929065
-1.903562	WP NN	-0.1199995
-2.26529	WP NNP	0.01946159
-1.986536	WP NNS	-0.08368023
-1.050446	WP PRP	-0.2840173
-2.487138	WP PRP$	0.1146416
-1.452376	WP RB	-0.4875732
-3.483579	WP RBR
-2.699861	WP VB	-0.1115
-1.16838	WP VBD	0.1427724
-3.017194	WP VBG
-2.802094	WP VBN	-0.1454798
-0.8570496	WP VBP	0.04161984
-1.356805	WP VBZ	-0.03198141
-3.483579	WP WDT
-3.483579	WP ``
-2.699861	WP a	0.5682299
-2.699861	WP about	-0.2053761
-0.6947467	WP are	-0.1080763
-3.017194	WP ca	0.9659992
-1.541014	WP can	0.4833012
-1.986536	WP could	0.9820459
-2.539029	WP did	0.2309324
-1.733811	WP do	-0.4188474
-2.802094	WP does	0.399977
-3.483579	WP every
-3.483579	WP for
-3.483579	WP get
-1.94307	WP had	-0.0628117
-1.802892	WP has	0.3845995
-1.148018	WP have	0.2141719
-2.186108	WP if	0.172566
-1.047806	WP is	0.03912282
-2.089198	WP may	1.098166
-2.311047	WP might	0.527828
-1.96426	WP should	0.9364926
-1.685506	WP the	0.4863285
-3.017194	WP these	0.1070063
-3.483579	WP this
-2.151346	WP to	-0.2850963
-2.3622	WP was	0.09757426
-1.818132	WP were	0.2103434
-1.612077	WP will	0.3819169
-3.483579	WP without
-3.017194	WP wo	1.053149
-2.186108	WP would	1.138726
-1.06804	WP$ JJ	-0.2088468
-1.851757	WP$ JJS
-0.2717406	WP$ NN	-0.2925978
-0.5195251	WP$ NNS	-0.2731551
-1.851757	WP$ WP
-1.851757	WP$ the
-2.590925	WRB ,	-0.09215439
-2.928587	WRB .	1.465162
-2.215262	WRB CC	-0.2816295
-1.821918	WRB CD	-0.3942789
-1.580202	WRB EX	-0.2265415
-0.9888654	WRB JJ	0.0173434
-2.347887	WRB JJR	-0.1682831
-2.998839	WRB JJS	-0.2319485
-1.147662	WRB NN	-0.3776149
-1.667941	WRB NNP	-0.2672482
-1.124799	WRB NNS	-0.5055128
-2.998839	WRB PDT	0.1548472
-0.6557962	WRB PRP	-0.5570082
-1.975501	WRB PRP$	0.3805653
-1.655166	WRB RB	-0.294172
-2.494015	WRB RBR	0.1762563
-2.928587	WRB RBS	0.1782472
-3.712304	WRB RP
-3.245919	WRB VB
-3.245919	WRB VBD	-0.2683531
-1.309324	WRB VBG	0.2141286
-1.554496	WRB VBN	-0.1415105
-2.998839	WRB VBP	-0.2721445
-2.928587	WRB VBZ	-0.1941051
-3.712304	WRB WDT
-3.712304	WRB WP
-3.245919	WRB WRB	-0.1808642
-2.590925	WRB ``	-0.09395453
-1.481178	WRB a	-0.4325923
-3.712304	WRB about
-3.712304	WRB above
-2.998839	WRB all	-0.1692201
-1.840803	WRB an	-0.1114721
-3.712304	WRB another
-3.245919	WRB any	-0.1354275
-2.928587	WRB are	-0.1202472
-3.245919	WRB being	0.05053842
-2.928587	WRB both
-3.712304	WRB by
-2.263566	WRB can	-0.2538056
-2.928587	WRB could
-3.03082	WRB did	-0.1670865
-2.263566	WRB do	-0.4331536
-2.715864	WRB does	-0.1544781
-3.245919	WRB each	0.04580745
-3.03082	WRB every	-0.1026214
-3.712304	WRB for
-3.712304	WRB from
-3.712304	WRB getting
-3.712304	WRB having
-3.712304	WRB if
-2.998839	WRB in	-0.0483674
-2.238743	WRB is	-0.2135093
-3.03082	WRB might	-0.319994
-2.715864	WRB no	0.5151914
-3.712304	WRB of
-2.590925	WRB should	-0.2075264
-2.347887	WRB some	0.3228497
-0.7771776	WRB the	-0.1056563
-2.289895	WRB these	0.2617012
-2.192985	WRB this	-0.4234595
-3.245919	WRB those
-1.292618	WRB to	-0.8045842
-3.712304	WRB under
-3.245919	WRB was
-2.494015	WRB will	-0.185682
-2.539773	WRB would	-0.2171236
-1.297968	`` ,	0.2062561
-1.193233	`` -LRB-	0.4104809
-2.426511	`` -RRB-	0.1232324
-1.312568	`` .	-0.0009636879
-2.602602	`` :
-1.836686	`` </s>
-1.94939	`` CC	-0.2298527
-1.595424	`` CD	0.2775765
-2.339361	`` EX	0.2057415
-2.815325	`` FW	-0.1165665
-0.9575079	`` JJ	-0.515868
-2.26681	`` JJR	0.004622966
-2.815325	`` JJS	-0.03962347
-3.599043	`` LS
-0.8354467	`` NN	0.06175894
-0.8244513	`` NNP	0.1227291
-2.477664	`` NNPS	-0.05554108
-1.40303	`` NNS	-0.07307148
-1.681784	`` PRP	-0.05491722
-2.654493	`` PRP$	0.04891336
-1.574574	`` RB	-0.123696
-2.917558	`` RBR
-2.917558	`` UH	-0.1141346
-1.574574	`` VB	-0.09182262
-2.102	`` VBD	-0.3742304
-1.673184	`` VBG	0.05938783
-1.80097	`` VBN	-0.1820313
-2.815325	`` VBP	-0.05317728
-2.019026	`` VBZ	-0.216528
-2.815325	`` WDT	-0.05544752
-2.654493	`` WP	-0.125364
-2.380754	`` WRB	-0.08331811
-3.132658	`` ``	-0.2206969
-2.000543	`` a	0.2452347
-3.132658	`` about
-3.132658	`` all
-2.885577	`` although	0.02021612
-3.599043	`` among
-2.654493	`` an	0.4682599
-3.132658	`` another	0.2067333
-3.599043	`` any
-2.426511	`` are	0.1800282
-3.599043	`` around
-2.301573	`` as	-0.07796031
-2.815325	`` at
-3.132658	`` be
-3.132658	`` because
-3.599043	`` before
-3.599043	`` besides
-3.599043	`` between
-2.339361	`` by	0.001668602
-2.602602	`` can	0.1055035
-3.599043	`` could
-2.917558	`` despite	0.1053469
-2.885577	`` do	-0.2909716
-2.917558	`` does	0.5514968
-2.917558	`` during	0.0003937781
-3.599043	`` each
-3.132658	`` for
-2.426511	`` from	-0.1092096
-3.599043	`` had
-2.477664	`` has	0.2568382
-2.917558	`` have
-3.132658	`` having
-2.301573	`` if	0.05782941
-2.019026	`` in	0.1066388
-2.234626	`` is	0.04698993
-2.917558	`` no	-0.07200277
-2.815325	`` of	-0.1905935
-3.132658	`` on
-3.132658	`` over
-2.917558	`` should
-3.132658	`` since
-3.599043	`` some
-2.815325	`` that	-0.1179074
-1.26681	`` the	0.3385076
-2.917558	`` these
-2.176634	`` this	0.1827224
-3.599043	`` those
-3.599043	`` through
-1.86224	`` to	-0.06634828
-3.599043	`` until
-2.917558	`` was
-3.599043	`` will
-2.234626	`` with	0.08067355
-3.132658	`` without
-3.132658	`` would
-3.156356	a $	0.4007165
-4.416038	a ,
-4.416038	a -LRB-
-3.734553	a -RRB-	-0.1577372
-3.471488	a .	1.222124
-4.416038	a </s>
-3.734553	a CC
-2.193428	a CD	-0.5806615
-4.416038	a FW
-0.3908233	a JJ	-0.8747361
-1.314088	a JJR	-1.056662
-3.419598	a JJS	-0.4699125
-0.3424117	a NN	0.4391121
-1.985561	a NNP	-0.6190961
-2.457386	a NNS	-0.3308318
-1.509329	a RB	-1.322861
-1.86937	a RBR	-0.678529
-3.734553	a RBS	0.3031859
-3.156356	a VB	-0.1035311
-4.416038	a VBD
-1.928236	a VBG	-1.05667
-2.233961	a VBN	-0.7544342
-3.197749	a VBP	-0.03949055
-4.416038	a WP
-2.507553	a ``	-0.3748523
-4.416038	a a
-4.416038	a by
-4.416038	a can
-3.051621	a must	-0.3039719
-0.2182889	a/ the
-0.2182889	a12 </s>
-2.036701	about $	0.4007165
-2.582918	about .	1.368252
-3.296383	about :
-1.931966	about CC	-0.6646582
-0.8527849	about CD	-0.6086829
-3.296383	about FW
-1.138575	about JJ	-0.3603489
-1.036701	about NN	-0.1209748
-1.329906	about NNP	-0.3075065
-1.600973	about NNS	0.02140069
-1.48703	about PRP	-0.3748178
-1.056905	about PRP$	-0.1221102
-2.614898	about RB
-1.405996	about VBG	0.01751035
-3.296383	about VBN
-2.829998	about WDT
-2.614898	about WP
-1.600973	about WRB	-0.221562
-2.614898	about ``	-0.1015967
-1.755875	about a	0.3438201
-2.351834	about an	0.03572747
-2.614898	about any
-2.829998	about being	-0.2141756
-3.296383	about both
-3.296383	about each
-3.296383	about every
-3.296383	about getting
-2.614898	about having
-3.296383	about if
-2.829998	about is
-3.296383	about no
-3.296383	about over
-2.829998	about some
-2.512666	about that
-0.4825979	about the	0.1560687
-2.582918	about these	0.2326422
-1.873974	about this	-0.2162272
-3.296383	about those
-2.582918	about to	0.2722715
-2.123852	about whether	-0.1426132
-0.604143	above ,	-0.1532376
-2.07205	above -LRB-	-0.1432782
-2.538435	above -RRB-
-1.019116	above .	0.7661922
-1.856951	above CC
-0.7638438	above CD	-0.1268295
-2.538435	above JJ
-1.593886	above NN
-1.593886	above NNS	-0.02461762
-1.754718	above PRP$	0.01188031
-2.07205	above RB
-2.07205	above VB
-2.538435	above VBD
-2.538435	above VBG
-2.07205	above VBN	-0.2780043
-2.07205	above VBP
-2.07205	above VBZ
-1.856951	above WP
-2.07205	above ``
-1.593886	above all	-0.1059469
-2.538435	above are
-2.538435	above as
-2.538435	above both
-2.07205	above by	-0.2624938
-2.07205	above can
-1.856951	above for	-0.1134682
-2.538435	above has
-1.856951	above have	-0.1371513
-1.856951	above in	-0.127125
-2.538435	above is
-2.538435	above may
-2.538435	above might
-1.856951	above that
-0.9777236	above the	-0.1001734
-2.538435	above this
-2.07205	above to
-1.856951	above with	-0.3117512
-2.538435	above would
-0.2182889	abreast of
-1.544296	across CD	-0.2487685
-1.226963	across JJ	0.1504915
-0.4701724	across NNP	0.1800337
-1.01424	across NNS	-0.01040278
-2.010681	across RB
-2.010681	across a
-2.010681	across both
-0.4121805	across the	0.4134251
-2.010681	across to
-2.010681	across with
-2.642884	after ,
-2.112828	after .	1.289071
-3.109268	after :
-2.427784	after CC
-1.346912	after CD	-0.268678
-1.299915	after JJ	-0.3795798
-2.642884	after JJR
-1.010166	after NN	-0.173584
-1.413858	after NNP	-0.117091
-1.476006	after NNS	-0.2030538
-2.112828	after PDT	-0.07400602
-1.078066	after PRP	-0.1479636
-1.19201	after PRP$	0.2752923
-0.9178517	after VBG	0.1365513
-3.109268	after VBN
-1.98789	after WDT	-0.242051
-2.642884	after WP	-0.2487756
-3.109268	after ``
-1.26773	after a	0.00219661
-3.109268	after about
-1.209738	after all	-0.6000771
-1.811798	after an	0.1518421
-3.109268	after another
-2.112828	after being	-0.052679
-2.325551	after by
-2.642884	after each	0.04580745
-3.109268	after every
-2.642884	after getting	-0.2177549
-2.325551	after having
-3.109268	after over
-3.109268	after since
-2.642884	after some	-0.07662618
-1.635707	after that	-0.5659049
-0.6454669	after the	0.03582299
-2.325551	after these	0.293456
-2.325551	after this	0.04962622
-3.109268	after those
-3.109268	after upon
-1.918872	against .	1.465162
-2.702589	against CC
-2.021104	against CD
-0.6582251	against JJ	-0.4512565
-0.8508314	against NN	-0.08205485
-1.758039	against NNP	0.007469907
-0.9791499	against NNS	-0.1246881
-2.702589	against PDT
-1.530057	against PRP	-0.2835312
-1.205546	against PRP$	0.6245452
-2.702589	against RB
-1.405119	against VBG	-0.08754538
-1.442907	against a	0.4027662
-2.702589	against an
-1.918872	against any	0.3202533
-2.021104	against by
-2.021104	against each	-0.1895756
-2.702589	against in
-2.702589	against of
-0.620977	against the	0.07195038
-2.236204	against these
-1.706149	against this	-5.066395e-05
-2.702589	against those
-1.063387	ago .
-1.063387	ago NNS
-1.063387	ago VBG
-1.063387	ago WRB
-1.063387	ago the
-0.597002	ago to	0.07693908
-0.2182889	al-2 </s>
-0.9172589	albeit JJ
-0.9172589	albeit VBN
-0.9172589	albeit a
-0.9172589	albeit the
-0.9172589	albeit this
-0.7161565	all ,	-0.03262532
-3.272902	all -LRB-
-2.806517	all -RRB-
-1.373372	all .	0.3859808
-2.806517	all :
-2.806517	all </s>
-2.276462	all CC
-2.276462	all CD	-0.09121302
-3.272902	all EX
-1.017187	all JJ	-0.03179735
-3.272902	all JJR
-1.228538	all NN	-0.1265458
-2.276462	all NNP
-2.276462	all NNPS	0.008847624
-0.6619161	all NNS	-0.0705381
-2.328353	all PRP	-0.05129234
-1.674402	all PRP$	0.518868
-1.850493	all RB	0.0735667
-2.806517	all RP
-2.559437	all VB	-0.001877323
-2.100371	all VBD	-0.0209639
-2.054613	all VBG	-0.1476051
-1.975432	all VBN	0.01225656
-1.474829	all VBP	-0.2283026
-2.559437	all VBZ
-2.806517	all WDT
-2.806517	all WP
-3.272902	all ``
-2.591417	all about
-3.272902	all above
-3.272902	all across
-3.272902	all along
-2.489185	all are
-1.94067	all around	-0.6599739
-2.591417	all as
-2.489185	all be	0.1334349
-3.272902	all because
-3.272902	all been
-3.272902	all being
-2.591417	all by	-0.1648036
-2.559437	all can	-0.004627347
-2.806517	all do
-2.591417	all for
-3.272902	all had
-2.100371	all have	-0.04480039
-3.272902	all if
-1.347043	all in	-0.8202112
-2.489185	all is
-1.248433	all of	-0.6910755
-2.806517	all out
-1.322219	all over	-0.9014404
-3.272902	all since
-2.328353	all that	0.004985176
-1.824164	all the	0.4472039
-1.878522	all these	-0.03975654
-3.272902	all through
-3.272902	all to
-3.272902	all was
-2.806517	all will
-3.272902	all within
-3.272902	all without
-1.676183	along .	1.622521
-2.142568	along :
-1.358851	along JJ	-0.1112094
-2.142568	along NN
-1.358851	along NNS
-2.142568	along PRP
-2.142568	along PRP$
-2.142568	along RB
-2.142568	along VBG
-2.142568	along by
-2.142568	along for
-2.142568	along is
-0.7201593	along the	-0.3560575
-1.676183	along to
-0.2521814	along with	-0.0109669
-1.121379	alongside CC
-0.4398943	alongside NN	-0.2717162
-1.121379	alongside NNP
-1.121379	alongside each
-1.121379	alongside the
-1.121379	alongside with
-1.639202	although ,	-0.1082845
-2.219902	although CD
-0.9791499	although EX	-0.1046199
-1.037142	although JJ	-0.1812407
-2.537234	although JJR
-2.537234	although JJS	-0.2079124
-1.172546	although NN	-0.2079237
-1.530057	although NNP	0.01154248
-1.353966	although NNS	-0.08182661
-2.537234	although PDT
-0.8076062	although PRP	-0.2837541
-1.831087	although PRP$	0.08680654
-1.78533	although RB	-0.1331717
-1.671386	although VBG	-0.207807
-3.003619	although ``
-2.219902	although a	0.01025943
-3.003619	although after
-2.537234	although all
-2.537234	although an
-3.003619	although are
-2.537234	although at
-2.219902	although both	0.03911878
-3.003619	although each
-3.003619	although every
-3.003619	although getting
-3.003619	although has
-2.537234	although having
-2.007179	although in	-0.02987044
-3.003619	although may
-2.537234	although no
-3.003619	although on
-1.205546	although some	0.02223456
-3.003619	although that
-0.6361107	although the	0.1759174
-1.671386	although these	0.03923535
-1.370356	although this	-0.3364951
-3.003619	although until
-0.2182889	amid VBG
-1.172531	amidst PDT
-1.172531	amidst PRP$
-1.172531	amidst VBG
-0.7061464	amidst a
-0.4910468	amidst the	-0.03604507
-1.172531	amidst this
-1.819544	among CD	-0.31647
-1.066216	among JJ	0.1452101
-2.102519	among JJR	-0.4476228
-1.342423	among NN	-0.4509428
-2.1345	among NNP	-0.1618493
-2.032267	among NNPS	-0.1180549
-0.9642267	among NNS	-0.136271
-1.166331	among PDT	-0.2015911
-1.318942	among PRP	-0.2320143
-2.102519	among PRP$	-0.1804448
-2.1345	among RB
-2.815984	among VBG
-2.815984	among WDT
-2.349599	among a
-1.393575	among all	0.1236007
-2.349599	among both	-0.1291701
-2.815984	among some
-0.3400166	among the	1.134775
-1.451567	among these	0.3672133
-2.032267	among this	0.1450413
-1.871435	among those	-0.04198047
-1.009974	amongst JJ	0.01124912
-1.723439	amongst NN
-0.9397217	amongst NNS	-0.05458283
-1.723439	amongst PRP
-1.723439	amongst PRP$
-1.723439	amongst all
-0.2747011	amongst the	-0.07148692
-1.723439	amongst these
-1.723439	amongst those
-3.095273	an -LRB-	-0.1578567
-3.095273	an CD	-0.04171807
-0.3820879	an JJ	-0.2948662
-1.877227	an JJR	-0.352987
-0.3797793	an NN	-0.07163322
-2.0144	an NNP	-0.4238905
-2.604226	an NNS	-0.3578349
-1.655379	an RB	-0.766045
-3.063292	an VB
-1.077026	an VBG	-1.522615
-1.558469	an VBN	-0.8573032
-3.776757	an VBP
-2.382377	an ``	-0.3600298
-3.310373	an all
-3.776757	an inside
-3.776757	an over
-3.776757	an this
-3.776757	an under
-3.066478	another $
-2.070038	another ,
-1.61774	another .	0.8367732
-3.066478	another CC
-1.592917	another CD	-0.3107294
-0.7478186	another JJ	-1.131926
-2.282761	another JJR	-0.005145788
-0.1669479	another NN	-0.2127038
-2.353013	another NNP
-2.353013	another NNS
-1.893947	another RB	-0.09491126
-2.070038	another VBG	-0.2925851
-2.600093	another VBN	-0.2688136
-3.066478	another VBP
-3.066478	another VBZ
-3.066478	another WRB
-3.066478	another ``
-3.066478	another a
-3.066478	another from
-2.384994	another in
-2.070038	another is	-0.04211518
