
\data\
ngram 1=47
ngram 2=1417
ngram 3=11661
ngram 4=43439
ngram 5=87796

\1-grams:
-4.13677	#	-2.056062
-3.497328	$	-2.659413
-3.028114	''	-1.791577
-1.348697	,	-2.99587
-1.992108	-LRB-	-3.709155
-1.988798	-RRB-	-2.11004
-1.356728	.	-4.272851
-2.16515	:	-2.249369
-1.329364	</s>
-99	<s>	-3.423778
-1.60403	CC	-3.315007
-1.670102	CD	-1.133909
-1.067081	DT	-2.757904
-2.635449	EX	-3.036118
-3.596201	FW	-1.39533
-0.9891733	IN	-2.893877
-1.101385	JJ	-0.6791086
-2.202158	JJR	-2.293288
-2.882855	JJS	-2.365107
-3.346587	LS	-2.985933
-1.727198	MD	-3.727071
-0.815595	NN	-2.655257
-1.414016	NNP	-1.951145
-3.010613	NNPS	-1.832379
-1.235581	NNS	-0.4014626
-3.267274	PDT	-2.86745
-2.452994	POS	-2.641603
-1.806789	PRP	-3.080897
-2.103482	PRP$	-4.14249
-1.410794	RB	-2.025833
-2.607882	RBR	-2.587675
-3.182527	RBS	-2.259254
-2.667527	RP	-3.063513
-4.68822	SYM	-1.169805
-1.56412	TO	-4.046185
-4.705948	UH	-1.33233
-1.371294	VB	-1.412837
-2.138187	VBD	-2.558346
-1.757719	VBG	-1.969487
-1.622252	VBN	-2.96417
-1.791385	VBP	-1.562513
-1.615911	VBZ	-3.132503
-2.249393	WDT	-3.146222
-2.819693	WP	-2.619379
-4.452691	WP$	-1.933177
-2.592284	WRB	-2.596621
-2.705045	``	-1.534957

\2-grams:
-1.455491	# -RRB-	-0.2576543
-1.959041	# .
-1.288687	# </s>
-0.6802878	# CD	-0.6718351
-1.959041	# DT
-1.455491	# FW
-1.260071	# IN	-0.6999079
-1.959041	# JJ
-1.959041	# JJR
-1.113943	# LS	-0.295653
-0.4966434	# NN	-1.153289
-1.055951	# NNS	-0.5584149
-1.288687	# SYM	-0.4026588
-1.959041	# VBG
-1.959041	# VBN
-1.959041	# VBZ
-2.58995	$ ,
-2.58995	$ -LRB-
-2.086399	$ -RRB-	-0.3010508
-0.02410178	$ CD	-0.5313001
-2.086399	$ IN	-0.1281068
-1.510768	$ JJ	-0.4935654
-2.555255	'' ''	-0.2211994
-1.076534	'' ,	-0.08002216
-0.7283917	'' -LRB-	-0.101945
-2.058805	'' -RRB-	-0.1892652
-0.9653838	'' .	-0.1870056
-2.213707	'' :	-0.2082302
-1.979624	'' </s>
-1.310617	'' CC	-0.1047753
-2.555255	'' CD	-0.2955373
-1.596408	'' DT	-0.1981468
-3.058805	'' FW
-1.029422	'' IN	0.1423755
-1.540292	'' JJ	0.1185815
-2.555255	'' JJR	-0.2550762
-1.757776	'' MD	0.6812457
-0.8108322	'' NN	-0.0139699
-1.678594	'' NNP	-0.2930266
-2.555255	'' NNPS
-1.351235	'' NNS	0.1335499
-3.058805	'' PDT
-2.555255	'' PRP
-2.555255	'' PRP$	-0.9228984
-1.854686	'' RB	-0.08590119
-2.757776	'' RBR
-3.058805	'' RP
-1.716383	'' TO	-0.3208117
-2.359835	'' VB	-0.1072057
-1.882714	'' VBD	-0.2125998
-2.280654	'' VBG	-0.3781488
-2.213707	'' VBN	-0.649238
-2.104563	'' VBP	-0.2340784
-1.368609	'' VBZ	-0.1705297
-1.757776	'' WDT	-0.9734021
-2.213707	'' WRB	-0.1683115
-2.388451	'' ``
-4.038501	, $	0.890094
-4.038501	, ''	-0.2997291
-4.737471	, ,
-2.585183	, -LRB-	-0.1842375
-4.038501	, -RRB-	-0.1137988
-4.737471	, .
-4.737471	, :
-4.436441	, </s>
-1.360894	, CC	0.01971793
-0.964636	, CD	-0.590775
-0.7587427	, DT	-0.9487517
-1.65829	, EX	-0.6280055
-2.839844	, FW	-0.1202824
-1.03418	, IN	0.4417946
-1.140215	, JJ	-0.6022995
-2.154272	, JJR	-0.3459333
-2.6371	, JJS	-0.5472435
-4.067117	, LS	-0.5586475
-2.279589	, MD	-0.1156271
-1.066947	, NN	-0.544981
-1.010744	, NNP	-0.6984086
-3.322498	, NNPS	-0.2360773
-1.361807	, NNS	-0.9357189
-3.013195	, PDT	0.4850903
-1.068992	, PRP	-1.433721
-2.236412	, PRP$	-0.3318435
-1.390727	, RB	-0.2924428
-2.931291	, RBR	-0.3334324
-3.375743	, RBS	-0.2964025
-2.279589	, TO	-0.452846
-4.436441	, UH
-2.353656	, VB	0.1031808
-2.29972	, VBD	-0.1721172
-1.47597	, VBG	-0.7679967
-2.195892	, VBN	-0.7610173
-2.272088	, VBP	-0.2350363
-2.06445	, VBZ	-0.2528684
-1.617555	, WDT	-0.4909713
-2.616897	, WP	-0.3550838
-3.65829	, WP$	0.263351
-2.208554	, WRB	-0.07735348
-2.31917	, ``	-0.6464438
-3.590606	-LRB- $	0.2117736
-3.793127	-LRB- ''
-2.353794	-LRB- -LRB-	-1.846114
-3.423802	-LRB- -RRB-
-3.094157	-LRB- CC	-0.06405678
-0.5885996	-LRB- CD	-2.184548
-1.983567	-LRB- DT	-0.4901002
-3.139914	-LRB- FW	-0.1830607
-2.164738	-LRB- IN	-0.7172639
-1.553827	-LRB- JJ	-1.092894
-3.316005	-LRB- JJR	-0.1281414
-3.793127	-LRB- JJS
-1.831705	-LRB- LS	-1.860915
-3.395187	-LRB- MD	-0.2433602
-0.4560668	-LRB- NN	-1.870657
-0.5440506	-LRB- NNP	-1.78944
-3.191067	-LRB- NNPS	-0.1825335
-1.948029	-LRB- NNS	-0.836861
-3.793127	-LRB- PRP
-3.793127	-LRB- PRP$
-2.514373	-LRB- RB	-0.400261
-4.094157	-LRB- SYM
-3.590606	-LRB- TO	0.1481149
-2.890037	-LRB- VB	-0.4961506
-2.662793	-LRB- VBG	-0.0615274
-1.976885	-LRB- VBN	-1.103676
-3.590606	-LRB- VBP	-0.2951043
-3.423802	-LRB- VBZ
-3.423802	-LRB- WDT	-0.03697795
-2.838884	-LRB- WP	-0.2480041
-3.139914	-LRB- WRB	-0.5955766
-2.224925	-LRB- ``	-0.8987381
-4.097431	-RRB- $
-3.427077	-RRB- ''	-0.4105489
-1.093109	-RRB- ,	-0.09352517
-0.9366623	-RRB- -LRB-	-0.9538745
-2.258582	-RRB- -RRB-	-0.1008412
-0.3417084	-RRB- .	-0.5317972
-2.29809	-RRB- :	0.1362068
-1.045122	-RRB- </s>
-1.832613	-RRB- CC	-0.291993
-2.334003	-RRB- CD	0.1632957
-1.847011	-RRB- DT	-0.1524608
-3.31928	-RRB- EX	-0.01094633
-4.097431	-RRB- FW
-1.51197	-RRB- IN	0.09069681
-1.918454	-RRB- JJ	-0.5136612
-2.818677	-RRB- JJR	-0.4060529
-4.097431	-RRB- JJS
-2.277887	-RRB- MD	0.2446055
-1.53395	-RRB- NN	0.3852242
-1.549656	-RRB- NNP	-0.3334473
-3.398461	-RRB- NNPS	-0.1198873
-2.007526	-RRB- NNS	-0.2926171
-3.427077	-RRB- PDT	1.655124
-3.252333	-RRB- POS	-0.02362019
-2.775212	-RRB- PRP	-0.3474726
-3.59388	-RRB- PRP$
-1.751078	-RRB- RB	-0.761771
-3.796401	-RRB- RBR	-0.3189416
-3.59388	-RRB- RBS	-0.2617939
-4.097431	-RRB- SYM
-2.246172	-RRB- TO	-0.159746
-3.143188	-RRB- VB	-0.322952
-1.771095	-RRB- VBD	-0.4251549
-2.381428	-RRB- VBG	-0.05707783
-2.252333	-RRB- VBN	-0.4403438
-2.194341	-RRB- VBP	-0.07379729
-1.642586	-RRB- VBZ	-0.3719302
-2.228199	-RRB- WDT	-0.03244621
-3.143188	-RRB- WP	-0.8834818
-4.097431	-RRB- WP$
-2.842158	-RRB- WRB	-0.2489752
-2.381428	-RRB- ``	-0.1778521
-3.88435	. ''	-0.7953182
-3.729448	. ,	-0.4158264
-4.428418	. -LRB-
-4.059094	. -RRB-	-0.2985221
-3.349237	. .	0.5119643
-0.00537732	. </s>
-4.729448	. CD
-3.951297	. DT	-0.1496754
-4.428418	. IN	-0.5786127
-3.09598	. JJ	-0.9597009
-4.428418	. LS	-0.6280941
-1.989876	. NN	-1.890804
-4.059094	. NNP	-0.0726307
-4.729448	. NNS
-4.428418	. RB
-4.729448	. VB
-3.921114	: #
-3.620084	: $	0.6348725
-3.921114	: ,
-1.745023	: -LRB-	-1.39008
-3.620084	: .
-3.222144	: :	0.09402411
-1.379535	: </s>
-2.267901	: CC	-0.317412
-1.478634	: CD	-0.2425486
-1.432563	: DT	-0.06975651
-3.018024	: EX	0.1285995
-3.921114	: FW
-1.938843	: IN	-0.1407237
-1.252728	: JJ	-0.2615663
-2.921114	: JJR	-0.5827224
-3.417563	: JJS	-0.2123068
-3.921114	: LS
-2.921114	: MD	-0.1464114
-0.3547944	: NN	-1.508176
-1.093745	: NNP	-0.3097789
-3.25076	: NNPS	-0.1907193
-1.576722	: NNS	-0.7451274
-3.921114	: PDT
-1.986616	: PRP	-0.9922426
-2.716994	: PRP$	0.6631268
-1.750852	: RB	-0.7371687
-2.807171	: TO	-0.3537432
-0.7291044	: VB	-1.666198
-3.921114	: VBD
-2.002036	: VBG	-0.2154153
-2.966872	: VBN	-0.1858816
-3.417563	: VBP
-2.690665	: VBZ	-0.2695597
-2.774986	: WDT	-0.6719686
-2.921114	: WP	-0.2654072
-2.443993	: WRB	-0.007225037
-2.377046	: ``	-0.1856503
-4.086457	<s> $	0.7053707
-3.911713	<s> ''	-0.2041668
-3.911713	<s> ,	-0.5609251
-1.390388	<s> -LRB-	-0.3361225
-2.993383	<s> -RRB-	-0.4314558
-3.756811	<s> .	0.8685117
-3.27969	<s> :	-0.2577612
-2.060455	<s> CC	-0.4460585
-1.740196	<s> CD	-0.5475441
-0.7789503	<s> DT	-0.3867369
-2.01803	<s> EX	-0.4099042
-3.756811	<s> FW	-0.2746579
-0.7119578	<s> IN	-1.316686
-1.31732	<s> JJ	-0.5255563
-2.788328	<s> JJR	-0.1151049
-2.699906	<s> JJS	-0.9442488
-2.301966	<s> LS	-1.160257
-3.094053	<s> MD	-0.6622853
-1.331114	<s> NN	-0.2762854
-0.9942825	<s> NNP	-0.9533033
-2.723387	<s> NNPS	0.09046495
-1.440841	<s> NNS	-0.8432264
-2.666906	<s> PDT	0.1240623
-1.376057	<s> PRP	-1.564443
-2.629706	<s> PRP$	-0.6901232
-0.7499601	<s> RB	-2.199863
-2.822313	<s> RBR	-0.4907899
-3.610683	<s> RBS	-1.096867
-3.853721	<s> SYM	-0.281247
-2.049241	<s> TO	-0.8621544
-3.552691	<s> UH	-0.3544448
-2.547296	<s> VB	-0.5734607
-4.25326	<s> VBD	-0.3050914
-1.653007	<s> VBG	-0.607149
-1.443366	<s> VBN	-1.581791
-3.309653	<s> VBP	-0.7755116
-3.113358	<s> VBZ	-0.2659065
-3.294413	<s> WDT	-0.2412025
-2.649601	<s> WP	-0.5644246
-4.756811	<s> WP$
-2.216481	<s> WRB	-0.2916393
-2.014872	<s> ``	-0.4222533
-3.368201	CC $	0.153787
-4.482144	CC ''
-2.689753	CC ,	-0.2896637
-3.226872	CC -LRB-	-0.07407919
-3.783174	CC .	1.209819
-2.86936	CC CC	-0.3741723
-2.0381	CC CD	0.02770865
-1.021999	CC DT	0.04063153
-2.364873	CC EX	0.02284634
-3.527902	CC FW	-0.413251
-1.480411	CC IN	-0.09699547
-0.860034	CC JJ	-0.2175138
-1.749751	CC JJR	0.07983613
-3.139722	CC JJS	-0.263427
-1.858895	CC MD	0.2242039
-0.7034144	CC NN	0.3432355
-1.214973	CC NNP	-0.3422412
-3.005023	CC NNPS	-0.348548
-1.048695	CC NNS	0.059165
-3.402963	CC PDT	1.103541
-1.52742	CC PRP	-0.9200522
-1.771181	CC PRP$	0.01125646
-1.045823	CC RB	0.09595895
-2.13384	CC RBR	-0.1631802
-2.858895	CC RBS	-0.8897521
-3.783174	CC RP	-0.06773084
-2.06054	CC TO	-0.2774255
-1.160132	CC VB	-0.7882951
-1.882261	CC VBD	-0.3731524
-1.421824	CC VBG	0.0494647
-1.761985	CC VBN	-0.6991924
-1.818443	CC VBP	-0.7108548
-1.702548	CC VBZ	-0.09653878
-3.203391	CC WDT	0.3168752
-2.819386	CC WP	0.4006451
-4.181114	CC WP$	-0.4807669
-2.532754	CC WRB	-0.2370511
-2.810046	CC ``	-0.289888
-3.745754	CD #	-0.4656425
-3.302164	CD $	1.251625
-3.160835	CD ''	-0.3087539
-0.6969422	CD ,	-0.6292512
-1.695948	CD -LRB-	-0.2736015
-0.5917866	CD -RRB-	-0.05704904
-1.300497	CD .	-0.3298297
-2.26998	CD :	-0.5961097
-1.95371	CD </s>
-1.852627	CD CC	-0.3283899
-1.572875	CD CD	-0.258586
-2.616767	CD DT	-0.104982
-3.745754	CD EX	-0.1805391
-3.160835	CD FW	-1.233305
-1.126965	CD IN	-0.9707565
-1.427995	CD JJ	-0.4915409
-3.001134	CD JJR	-0.1667596
-3.57101	CD JJS	-0.3644233
-3.912557	CD LS	-0.2933264
-2.121641	CD MD	-0.6243325
-0.9292524	CD NN	0.1590161
-1.454687	CD NNP	-0.8900753
-3.336926	CD NNPS	-0.09543771
-1.05062	CD NNS	0.232702
-2.110756	CD POS	-0.1422093
-3.513018	CD PRP	-0.2615515
-4.416108	CD PRP$
-2.583599	CD RB	-0.3707399
-4.416108	CD RBR
-3.160835	CD RBS	-0.7041153
-3.912557	CD RP	-0.2933126
-4.416108	CD SYM
-1.843236	CD TO	-0.3761315
-4.416108	CD VB
-2.552785	CD VBD	-0.1244591
-2.725912	CD VBG	-0.05104434
-2.645256	CD VBN	-0.006447196
-2.87204	CD VBP	-0.1291506
-2.085694	CD VBZ	-0.3332068
-2.596564	CD WDT	-0.4602372
-3.912557	CD WP	-0.2402945
-4.115077	CD WP$
-3.160835	CD WRB	-0.280434
-2.734866	CD ``	-0.4433264
-3.814967	DT $	0.03728139
-5.019087	DT ''
-2.250449	DT ,	-0.5521419
-3.676665	DT -LRB-	-0.4750226
-4.240936	DT -RRB-	-0.2609771
-2.908498	DT .	-0.204039
-4.240936	DT :	-0.1032811
-4.515536	DT </s>
-3.375634	DT CC	-0.2579775
-2.026534	DT CD	-0.2340794
-3.212907	DT DT	-0.07093036
-4.515536	DT EX
-4.515536	DT FW	-0.2686871
-2.105273	DT IN	-0.8442742
-0.5658453	DT JJ	0.317229
-1.831003	DT JJR	-0.3621724
-2.194961	DT JJS	-0.48353
-2.036816	DT MD	-0.2496196
-0.3248682	DT NN	-0.7352078
-1.439875	DT NNP	-0.3183806
-3.462785	DT NNPS	0.01312986
-1.037767	DT NNS	-0.7277873
-5.019087	DT PDT
-3.439304	DT PRP	-0.6879674
-3.406303	DT PRP$	-0.4382714
-1.986066	DT RB	-0.558381
-2.571929	DT RBR	-0.8237259
-2.289922	DT RBS	-0.1314925
-4.348733	DT RP	-0.04270387
-3.740334	DT TO	-0.2175235
-3.161755	DT VB	-0.4223484
-2.828756	DT VBD	-0.221006
-1.699149	DT VBG	-1.278653
-2.180868	DT VBN	-0.3490719
-2.507204	DT VBP	0.04831338
-1.826241	DT VBZ	-0.4292103
-3.676665	DT WDT	-0.116082
-2.680631	DT WP	-0.9744842
-4.320117	DT WRB
-2.635272	DT ``	-1.046455
-3.451172	EX ,
-2.49693	EX DT	-0.1946561
-2.780818	EX IN
-2.780818	EX JJ
-0.8207443	EX MD	-1.138915
-3.451172	EX NN
-3.150142	EX PRP
-2.128953	EX RB	-0.5875273
-2.780818	EX TO	-0.1615327
-1.181659	EX VBD	-0.9758818
-3.451172	EX VBG
-0.3796583	EX VBP	-1.257853
-0.4586186	EX VBZ	-1.347271
-3.451172	EX WP
-0.8039585	FW ,	-0.35777
-1.716003	FW -LRB-	-0.1995797
-1.649057	FW -RRB-	-0.1045106
-0.8606861	FW .	0.2664517
-1.002793	FW :	-0.9104934
-2.494155	FW </s>
-1.990604	FW CC	-0.2701031
-1.795185	FW CD	-0.2157269
-2.193125	FW DT
-0.5910646	FW FW	-0.340292
-1.795185	FW IN	-0.1611964
-1.990604	FW JJ
-2.193125	FW LS	-0.6151291
-1.990604	FW MD	-0.4636114
-1.031757	FW NN	-0.1830934
-1.990604	FW NNP	-0.1735786
-2.494155	FW NNPS
-2.494155	FW NNS
-1.990604	FW RB	-0.2903672
-1.8238	FW TO	-0.04123452
-2.193125	FW VB
-2.494155	FW VBG
-2.193125	FW VBN
-1.649057	FW VBP	-0.04184877
-1.649057	FW VBZ	-0.2280723
-1.8238	FW WDT
-1.795185	FW ``	-0.1375388
-3.051667	IN $	-0.7775925
-4.39802	IN ''	-0.1165621
-2.393698	IN ,	0.141728
-2.215605	IN -LRB-	-1.317482
-3.950862	IN -RRB-	0.1579515
-2.540687	IN .	-0.6463982
-2.827477	IN :	0.2239662
-3.38942	IN </s>
-2.587787	IN CC	-0.12825
-1.567816	IN CD	0.0322907
-0.4637235	IN DT	-0.166723
-2.299722	IN EX	-0.2834187
-4.055597	IN FW	-0.3149343
-1.762737	IN IN	-0.7005812
-0.9302639	IN JJ	-0.8316898
-2.065986	IN JJR	-0.8081204
-2.534697	IN JJS	-0.1782686
-3.406794	IN MD	0.141314
-0.7315768	IN NN	-0.4912167
-1.293192	IN NNP	-0.3855312
-2.9864	IN NNPS	-0.2340666
-1.245059	IN NNS	-0.3018537
-2.750637	IN PDT	-0.130821
-1.367097	IN PRP	-0.4283078
-1.464431	IN PRP$	0.2197185
-2.02474	IN RB	-0.397107
-3.59184	IN RBR	-0.5891737
-5.09699	IN RBS
-2.288779	IN TO	-0.6526839
-3.105764	IN VB	-0.5182147
-4.055597	IN VBD	-0.1462212
-1.260919	IN VBG	-0.09299564
-2.194443	IN VBN	-0.3345389
-3.406794	IN VBP	0.1077198
-2.884802	IN VBZ	0.03305173
-2.733378	IN WDT	0.6129516
-3.014205	IN WP	-0.03778589
-2.682017	IN WRB	-0.3986717
-2.697316	IN ``	-0.5752759
-4.984779	JJ #
-4.285809	JJ $	0.5676453
-2.870836	JJ ''	-0.254016
-1.607291	JJ ,	-0.04846215
-2.701478	JJ -LRB-	0.3787532
-2.823411	JJ -RRB-	-0.1280253
-1.48523	JJ .	-1.288615
-3.016296	JJ :	0.1938607
-3.341326	JJ </s>
-1.4442	JJ CC	-0.1759403
-1.995775	JJ CD	-0.211002
-2.525387	JJ DT	-0.2680457
-4.206628	JJ EX	-0.07878982
-4.984779	JJ FW
-1.123066	JJ IN	-0.4523304
-1.253997	JJ JJ	-0.3155646
-2.623051	JJ JJR	0.0120858
-3.569806	JJ JJS	-0.3897499
-4.984779	JJ LS
-1.937115	JJ MD	-0.03025711
-0.3750355	JJ NN	-0.7971802
-1.971942	JJ NNP	-0.3847407
-3.252386	JJ NNPS	-0.03675842
-0.6671337	JJ NNS	-0.3007638
-4.481228	JJ PDT	1.161527
-3.0605	JJ POS	-0.5421444
-3.076294	JJ PRP	0.02736813
-3.66256	JJ PRP$	0.6108049
-2.171198	JJ RB	0.1356329
-3.4533	JJ RBR	-0.427562
-3.984779	JJ RBS	-0.07582903
-4.683749	JJ RP	-0.4654544
-1.257482	JJ TO	-0.3819926
-2.931701	JJ VB	-0.139293
-2.823411	JJ VBD	-0.2855547
-2.230431	JJ VBG	-0.3795898
-2.423678	JJ VBN	-0.3322114
-2.234271	JJ VBP	-0.4365503
-2.166553	JJ VBZ	0.1032436
-3.19945	JJ WDT	-0.1202024
-2.85124	JJ WP	-0.3365364
-4.285809	JJ WP$	-0.05640298
-2.920321	JJ WRB	-0.02802634
-2.971942	JJ ``	-0.3649184
-3.583029	JJR ''
-1.559776	JJR ,	0.1527958
-2.35258	JJR -LRB-	-0.8512375
-1.516703	JJR .	-0.1564215
-3.583029	JJR :
-2.980969	JJR </s>
-1.301995	JJR CC	-1.252454
-2.605305	JJR CD	-0.2913454
-2.271275	JJR DT	-0.5523369
-3.583029	JJR FW	-0.5041913
-0.9174477	JJR IN	-0.5497853
-1.072484	JJR JJ	-0.5018425
-2.583029	JJR JJR	-0.1937088
-2.436901	JJR MD	0.3991809
-0.4027594	JJR NN	-1.110557
-2.522331	JJR NNP	-0.1619493
-2.884059	JJR NNPS	-0.03305065
-0.7027869	JJR NNS	-0.4079882
-2.707967	JJR POS	-0.09587836
-2.884059	JJR PRP	-0.4598978
-3.105907	JJR PRP$	-0.1041785
-2.113207	JJR RB	-0.2710465
-3.380508	JJR RBR	0.002861053
-3.185089	JJR RP	-0.1479328
-1.682662	JJR TO	-0.3469261
-2.522331	JJR VB	-0.5109976
-2.605305	JJR VBD	-0.04670107
-2.038961	JJR VBG	-0.5903772
-2.020736	JJR VBN	-0.6304688
-2.561839	JJR VBP	0.06630808
-2.541636	JJR VBZ	-0.03416932
-2.980969	JJR WDT	0.2057599
-3.380508	JJR WP	-0.2670948
-2.65361	JJR WRB	-0.2615253
-3.038961	JJR ``	-0.3416294
-3.203577	JJS ''
-1.279297	JJS ,	-0.1756467
-3.203577	JJS -LRB-
-1.861154	JJS .	0.5481765
-3.203577	JJS :
-2.425426	JJS CC	-0.26701
-1.513381	JJS CD	-0.4672974
-1.948304	JJS DT	-0.4732693
-0.6916934	JJS IN	-0.8843734
-0.9808603	JJS JJ	-0.5510907
-2.425426	JJS MD	0.1146669
-0.5277984	JJS NN	-0.5743419
-2.203577	JJS NNP	-0.1898206
-0.7025175	JJS NNS	-0.3521826
-2.425426	JJS PRP	-0.04083511
-2.162184	JJS RB	-0.07293957
-1.726456	JJS TO	-1.017951
-2.027486	JJS VB	-0.1346671
-2.700026	JJS VBD	-0.9843262
-2.249334	JJS VBG	-0.2828474
-1.788603	JJS VBN	-0.4062092
-2.358479	JJS VBP	-0.06143453
-2.504607	JJS VBZ	-0.2815529
-2.700026	JJS WDT	-0.3028848
-3.203577	JJS ``
-0.2179185	LS -RRB-	-0.3223534
-0.4850902	LS .	-0.3477741
-2.740363	LS :
-2.070009	LS CD	-0.4649413
-2.740363	LS DT
-1.962211	LS JJ	-0.6072797
-1.39794	LS NN	-1.15866
-2.439333	LS NNP	-0.4953812
-4.358981	MD ''
-3.036762	MD ,	-0.5614403
-3.855431	MD -LRB-
-3.855431	MD -RRB-	-0.3082702
-3.58083	MD .	1.064806
-4.358981	MD :
-3.128532	MD CC	-0.6511154
-3.2798	MD CD	-0.7237714
-2.225442	MD DT	-0.6977952
-2.329597	MD IN	-0.744331
-2.735732	MD JJ	0.1509743
-3.855431	MD JJR
-4.358981	MD JJS
-2.445167	MD NN	-0.1421794
-3.317589	MD NNP	-0.2890002
-2.86762	MD NNS	-0.232856
-4.057951	MD PDT	1.584626
-2.455891	MD PRP	-1.332436
-3.455891	MD PRP$	-0.02828026
-0.6509004	MD RB	-1.700738
-2.927618	MD RBR	-0.08742696
-2.911823	MD RBS	-0.3243041
-2.88186	MD TO	-1.017951
-0.1282258	MD VB	-1.776029
-3.036762	MD VBD	-0.1564071
-3.455891	MD VBG
-3.103709	MD VBN	-0.1233874
-2.997253	MD VBZ	-0.1855073
-3.212853	MD ``	-0.6567517
-3.389753	NN #	0.3158412
-3.607809	NN $	0.6299798
-2.388612	NN ''	-0.02101421
-1.039505	NN ,	-0.7107124
-1.911681	NN -LRB-	0.2008715
-1.709943	NN -RRB-	-0.175756
-0.9422282	NN .	-0.1330738
-1.605737	NN :	-0.02706957
-2.10562	NN </s>
-1.21899	NN CC	-0.2626805
-1.952922	NN CD	-0.413213
-2.376805	NN DT	-0.1318917
-3.793446	NN EX	0.1828412
-3.890356	NN FW	-0.1571788
-0.6381097	NN IN	0.8945196
-1.737813	NN JJ	-0.09061885
-3.077442	NN JJR	0.07064009
-4.270567	NN JJS	-0.03168978
-1.393772	NN MD	-0.2609689
-0.9634777	NN NN	-0.294884
-2.468478	NN NNP	-0.2737072
-4.571597	NN NNPS	-0.6727841
-1.281562	NN NNS	-0.1029358
-4.492416	NN PDT	1.372386
-1.926371	NN POS	-0.7616507
-2.505644	NN PRP	-0.3911066
-3.471226	NN PRP$	-0.01875615
-1.819856	NN RB	-0.3620677
-2.980532	NN RBR	-0.1199586
-4.316325	NN RBS	0.3622963
-3.739088	NN RP	-0.03501147
-4.425469	NN SYM	-0.07306674
-1.390898	NN TO	-0.514998
-5.270567	NN UH
-2.744228	NN VB	-0.3309158
-1.88801	NN VBD	0.2514207
-2.281562	NN VBG	0.06418288
-2.020391	NN VBN	-0.2976829
-2.088723	NN VBP	-0.06310582
-1.180133	NN VBZ	-0.4083896
-1.846666	NN WDT	0.06687975
-3.027529	NN WP	-0.7836661
-4.367477	NN WP$	-0.0808256
-2.422994	NN WRB	-0.4315346
-4.371132	NNP #
-2.894011	NNP $	-0.5104209
-3.672163	NNP ''	-0.7850077
-0.7709222	NNP ,	0.1891747
-1.249245	NNP -LRB-	-0.5850375
-1.569386	NNP -RRB-	0.09831548
-1.116947	NNP .	-0.2153859
-1.802344	NNP :	-0.1050158
-2.295586	NNP </s>
-1.419309	NNP CC	-0.8439862
-1.090327	NNP CD	-0.7483463
-2.763678	NNP DT	-0.01489002
-3.71792	NNP EX	0.1787488
-3.081098	NNP FW	-0.4959749
-1.269729	NNP IN	-0.7356166
-2.074467	NNP JJ	-0.4999629
-3.894011	NNP JJR	-0.1148341
-4.001808	NNP JJS	-0.2040868
-2.908735	NNP LS	-1.366949
-2.027724	NNP MD	-0.3464204
-1.305366	NNP NN	-0.3432004
-0.5664821	NNP NNP	-0.6402438
-1.815434	NNP NNPS	-0.03207755
-1.804106	NNP NNS	-0.1244451
-4.672163	NNP PDT
-1.721798	NNP POS	0.03565848
-3.274223	NNP PRP	-0.1050341
-3.558219	NNP PRP$	0.0375438
-2.262229	NNP RB	-0.5763735
-4.168612	NNP RBR	0.002861053
-4.672163	NNP RBS
-4.672163	NNP SYM
-2.290145	NNP TO	-0.3502167
-4.672163	NNP UH
-2.575253	NNP VB	0.06520909
-1.816643	NNP VBD	0.1220498
-2.592981	NNP VBG	0.1660803
-2.916288	NNP VBN	-0.3907939
-2.221913	NNP VBP	-0.3084611
-1.442993	NNP VBZ	-0.2339423
-2.742743	NNP WDT	-0.4489353
-3.274223	NNP WP	0.1456963
-4.672163	NNP WP$
-3.038694	NNP WRB	-0.02518809
-2.393409	NNP ``	-0.4367144
-3.075912	NNPS $
-0.7926105	NNPS ,	-0.1743754
-1.519609	NNPS -LRB-	-0.1463873
-2.075912	NNPS -RRB-	0.1127288
-0.7536924	NNPS .	-0.412315
-1.359908	NNPS :	0.1916474
-2.121669	NNPS </s>
-1.256368	NNPS CC	-0.7086364
-1.845463	NNPS CD	-0.185173
-2.774882	NNPS DT
-3.075912	NNPS FW
-0.8637242	NNPS IN	-0.2523029
-1.774882	NNPS JJ	-0.07227558
-2.774882	NNPS JJR
-1.598791	NNPS MD	0.05409276
-1.660938	NNPS NN	0.04018465
-1.063075	NNPS NNP	-0.2546956
-2.376942	NNPS NNPS
-2.121669	NNPS NNS	-0.1542656
-2.034519	NNPS POS	-0.01737776
-3.075912	NNPS PRP
-2.034519	NNPS RB	-0.321571
-3.075912	NNPS RBS
-1.871792	NNPS TO	-0.3365316
-2.774882	NNPS VB
-1.531844	NNPS VBD	0.009287417
-2.29776	NNPS VBG	-0.07337637
-2.121669	NNPS VBN	-0.7583826
-1.218579	NNPS VBP	-0.1298986
-1.628754	NNPS VBZ	-0.4867776
-2.034519	NNPS WDT	-0.1825718
-2.121669	NNPS WP	-0.2684799
-2.405557	NNPS WRB	-0.176249
-1.774882	NNPS ``	-0.5289077
-4.151621	NNS #	0.007479504
-4.34704	NNS $	0.2117736
-3.102403	NNS ''	-0.1715246
-1.052148	NNS ,	-0.1328766
-1.847993	NNS -LRB-	-0.2715433
-2.562789	NNS -RRB-	-0.256562
-0.848425	NNS .	-1.040347
-2.038346	NNS :	0.09175766
-2.200284	NNS </s>
-1.096855	NNS CC	-0.04374981
-3.151621	NNS CD	-0.02468395
-2.315297	NNS DT	-0.4547815
-3.809198	NNS EX	-0.7442164
-4.07244	NNS FW	-0.1902378
-0.6557716	NNS IN	-0.333457
-1.654415	NNS JJ	-0.5601568
-3.110228	NNS JJR	0.3316588
-4.151621	NNS JJS	-0.278888
-4.850591	NNS LS
-1.180345	NNS MD	-0.09860182
-1.995072	NNS NN	-0.3095604
-2.817167	NNS NNP	0.1358405
-4.850591	NNS NNPS
-2.425709	NNS NNS	-0.1165873
-4.180237	NNS PDT	1.655124
-1.918117	NNS POS	-0.2618089
-2.504238	NNS PRP	-0.2375389
-3.388193	NNS PRP$	0.1892357
-1.590281	NNS RB	-0.3711209
-2.713871	NNS RBR	-0.09807038
-3.947501	NNS RBS	-0.1535056
-4.005493	NNS RP	-0.0809935
-1.238762	NNS TO	-0.8865623
-2.583419	NNS VB	0.02756405
-1.682978	NNS VBD	-0.01568317
-1.82202	NNS VBG	-0.3598039
-1.725435	NNS VBN	-0.5368453
-0.9856057	NNS VBP	-0.06036186
-1.743381	NNS VBZ	-0.05525732
-1.530653	NNS WDT	-0.3632264
-2.085668	NNS WP	-0.9418936
-3.850591	NNS WP$	-0.2199369
-2.306523	NNS WRB	-0.4237845
-2.612545	NNS ``	-0.3045926
-0.002640096	PDT DT	-0.4653986
-2.315993	PDT PRP$	-0.8183862
-3.129817	POS $	0.2117736
-3.129817	POS ''	-0.2381251
-2.053584	POS ,	0.1292155
-2.402919	POS -LRB-	0.4261338
-3.633368	POS -RRB-
-2.487239	POS .	0.733813
-3.633368	POS :
-2.27164	POS CC	-0.2160589
-2.402919	POS CD	-0.7810141
-3.129817	POS DT	-0.1733413
-2.429247	POS IN	0.06505716
-0.7577275	POS JJ	-0.6879175
-2.855216	POS JJR	-0.2590131
-2.311148	POS JJS	-1.119758
-2.730278	POS MD	0.9612354
-0.2333478	POS NN	0.02306795
-1.285063	POS NNP	-0.2898717
-3.332337	POS NNPS
-0.9335297	POS NNS	-0.2368202
-3.332337	POS PRP$
-2.554186	POS RB	-0.2991352
-2.679125	POS RBS	-0.3311015
-2.679125	POS TO	0.06743845
-2.679125	POS VB	-0.2536778
-3.633368	POS VBD
-1.855216	POS VBG	-0.5592109
-2.78827	POS VBN	-0.379357
-2.855216	POS VBP	-0.05152493
-2.730278	POS VBZ	-0.1642681
-2.963013	POS WDT	-0.3006343
-3.332337	POS WP
-2.730278	POS ``	-0.1946894
-3.609062	PRP ''	-0.4105489
-1.83071	PRP ,	0.2229476
-2.515988	PRP -LRB-	-0.4968097
-4.279416	PRP -RRB-
-1.265736	PRP .	-1.430973
-3.103325	PRP :	-0.3313586
-1.817018	PRP CC	-0.8634999
-3.376326	PRP CD	-0.2386659
-1.955134	PRP DT	-0.2177597
-4.279416	PRP EX
-4.279416	PRP FW
-1.358771	PRP IN	-0.5096338
-1.869483	PRP JJ	-0.4439887
-2.515988	PRP JJR	0.02947342
-4.279416	PRP JJS
-0.6463517	PRP MD	-0.009121656
-2.392925	PRP NN	-0.1493986
-3.775865	PRP NNP	-0.1735786
-3.978386	PRP NNPS	-0.6057762
-2.699632	PRP NNS	-0.1773277
-3.775865	PRP PDT	1.161527
-3.279416	PRP POS	-0.08074325
-3.325173	PRP PRP	-0.04057376
-3.434318	PRP PRP$	0.7091391
-1.295339	PRP RB	-0.512558
-2.523541	PRP RBR	-0.2821774
-3.775865	PRP RBS
-2.607318	PRP RP	-0.6440551
-1.496943	PRP TO	-0.3431506
-1.857812	PRP VB	0.0903374
-1.219096	PRP VBD	0.05059648
-2.381789	PRP VBG	-0.1165648
-3.048967	PRP VBN	-0.3222067
-0.7049217	PRP VBP	-0.04626751
-0.6243736	PRP VBZ	-0.1314604
-3.325173	PRP WDT	-0.08236594
-3.434318	PRP WP	-0.1318924
-2.645947	PRP WRB	-0.3704322
-3.165473	PRP ``	-0.231317
-3.982723	PRP$ ''
-3.681693	PRP$ -LRB-	-0.4458438
-3.982723	PRP$ -RRB-
-1.692689	PRP$ CC	-1.5982
-2.86878	PRP$ CD	-0.3335934
-2.982723	PRP$ DT	-0.0145269
-2.982723	PRP$ IN	-0.06042357
-0.6057816	PRP$ JJ	-0.5601264
-2.143874	PRP$ JJR	-0.4639183
-2.283753	PRP$ JJS	-0.7670084
-3.312369	PRP$ MD
-0.3753756	PRP$ NN	-1.314285
-2.038241	PRP$ NNP	-0.3723651
-0.5785741	PRP$ NNS	-0.3331974
-3.982723	PRP$ PDT
-2.426421	PRP$ RB	-0.6573989
-3.204572	PRP$ RBS	-0.221957
-3.479173	PRP$ TO	0.1481149
-3.283753	PRP$ VB	-0.1551069
-3.681693	PRP$ VBD	-0.6208975
-2.023682	PRP$ VBG	-0.8801998
-2.380663	PRP$ VBN	-0.7801584
-3.681693	PRP$ VBP
-3.681693	PRP$ VBZ
-2.941331	PRP$ ``	-0.3493623
-3.499293	RB $	0.06361032
-4.00503	RB ''
-0.6720529	RB ,	-0.2558534
-2.735865	RB -LRB-	-0.3445763
-3.675384	RB -RRB-	-0.05908204
-1.398463	RB .	-0.8898956
-3.170234	RB :	-0.1554331
-4.374354	RB </s>
-1.962734	RB CC	0.2357384
-2.087673	RB CD	-0.9733266
-1.33237	RB DT	-0.0875175
-2.711596	RB EX	0.1717671
-0.9905388	RB IN	0.02637458
-0.9653515	RB JJ	-0.3870335
-2.013572	RB JJR	-0.04639363
-2.772294	RB JJS	-0.6928596
-4.675384	RB LS
-2.164839	RB MD	0.04196978
-1.85191	RB NN	-0.6602167
-2.564795	RB NNP	0.122967
-4.171834	RB NNPS
-2.103675	RB NNS	-0.3124627
-3.170234	RB PDT	1.073137
-4.374354	RB POS
-1.964421	RB PRP	-0.842564
-2.711596	RB PRP$	-0.530686
-1.196818	RB RB	-0.2262578
-2.094459	RB RBR	0.3764237
-3.830286	RB RBS	0.05271614
-4.675384	RB SYM
-1.773381	RB TO	0.3333311
-0.8287379	RB VB	-0.5009172
-1.892912	RB VBD	-0.3858714
-1.548279	RB VBG	-0.1600723
-1.166451	RB VBN	-0.09639549
-1.573294	RB VBP	-0.2043792
-1.507476	RB VBZ	-0.1135426
-3.396631	RB WDT	0.03661227
-3.143905	RB WP	0.1278316
-2.442388	RB WRB	-0.236511
-3.107183	RB ``	-0.02757972
-3.478566	RBR ''
-1.597753	RBR ,	-0.3358303
-2.975016	RBR -LRB-
-1.433244	RBR .	-0.1393136
-3.177536	RBR :
-1.410381	RBR CC	-1.031148
-3.478566	RBR CD
-2.302475	RBR DT	-0.6668648
-1.052055	RBR IN	0.1048899
-0.2885151	RBR JJ	-0.5450375
-2.633468	RBR JJR	-0.3235685
-2.399385	RBR MD	-0.4868358
-1.202105	RBR NN	-0.4535219
-3.478566	RBR NNP
-2.975016	RBR NNPS
-1.258458	RBR NNS	-0.1661917
-2.779597	RBR PRP	-0.23302
-2.975016	RBR PRP$	-0.07348472
-1.084115	RBR RB	-0.7049299
-2.223294	RBR TO	0.1526124
-1.762563	RBR VB	-0.5419307
-3.177536	RBR VBD	-0.5530692
-1.845098	RBR VBG	-0.2925372
-1.529176	RBR VBN	-0.648065
-2.975016	RBR VBP	-0.2755674
-2.399385	RBR VBZ	-0.2346328
-3.177536	RBR WDT
-2.633468	RBR WRB	-0.2848174
-2.808212	RBR ``	-0.4497703
-2.603144	RBS ,
-2.904174	RBS -LRB-
-2.001084	RBS .	0.9556618
-2.904174	RBS DT
-1.824993	RBS IN	-0.1504129
-0.1181332	RBS JJ	-0.2943083
-1.790231	RBS NN	-0.3786283
-2.904174	RBS NNP
-1.347872	RBS NNS	-0.09638608
-0.9696759	RBS RB	-0.1187587
-2.400624	RBS TO	-0.2414942
-2.603144	RBS VB
-2.904174	RBS VBD
-2.059076	RBS VBG	-0.2638881
-1.824993	RBS VBN	-0.3046205
-2.904174	RBS VBP
-2.603144	RBS VBZ	-0.5367743
-2.603144	RBS WRB	-0.6104349
-2.748444	RP ''
-1.285259	RP ,	-0.3482811
-2.640647	RP -LRB-	-0.698963
-3.418798	RP -RRB-
-1.228467	RP .	-0.2832202
-2.719828	RP :	-0.1341965
-1.592723	RP CC	-0.3364034
-2.003825	RP CD	-0.8219155
-0.7215689	RP DT	-0.3246015
-0.4950363	RP IN	-0.1762534
-1.248537	RP JJ	-0.9652679
-2.020858	RP JJR	-0.5669078
-3.117768	RP JJS	-0.5341095
-2.515708	RP MD	0.9291541
-1.397609	RP NN	-0.3619658
-2.5737	RP NNP
-1.489379	RP NNS	-0.5414678
-2.377406	RP PDT	1.138303
-2.5737	RP PRP	-0.2086385
-1.427572	RP PRP$	-0.1206516
-1.469408	RP RB	-0.4998032
-2.418798	RP RBR	0.01152402
-1.128764	RP TO	0.1346538
-3.418798	RP VB
-3.418798	RP VBD
-1.775346	RP VBG	0.03660744
-2.5737	RP VBN	-0.225341
-3.418798	RP VBP
-2.418798	RP VBZ	-0.07804638
-2.915248	RP WDT
-2.515708	RP WP	0.108906
-2.27267	RP WRB	-0.0341969
-2.640647	RP ``
-0.4607309	SYM :	-0.2496831
-0.5118834	SYM </s>
-1.113943	SYM CD
-1.414973	SYM DT
-1.113943	SYM JJ
-1.113943	SYM NN
-1.414973	SYM NNP
-2.888584	TO $	-0.3757223
-3.317933	TO ,	-0.1918725
-3.618963	TO -LRB-	-0.09183633
-3.030691	TO .	0.4047544
-4.522053	TO :
-2.849955	TO CC	-0.482801
-1.78486	TO CD	-1.077178
-0.8297347	TO DT	-0.606698
-4.522053	TO EX
-4.522053	TO FW
-2.683204	TO IN	0.1455389
-1.324221	TO JJ	-0.4633759
-2.2692	TO JJR	-0.8772605
-3.522053	TO JJS	-0.2713179
-1.378414	TO NN	-0.425866
-1.888584	TO NNP	-0.5904298
-3.851698	TO NNPS	-0.1461887
-1.746078	TO NNS	-0.5308162
-3.199833	TO PDT	0.8750613
-2.234251	TO PRP	-0.860424
-1.734592	TO PRP$	0.1532369
-2.018262	TO RB	-0.5945148
-3.074895	TO RBR	-0.3170172
-3.823083	TO RBS	-0.3241992
-4.221023	TO TO
-0.185353	TO VB	0.1560645
-2.01285	TO VBG	-0.0854857
-2.898803	TO VBN	-0.03357208
-3.141842	TO VBZ	-0.2329187
-3.522053	TO WDT	-0.3669107
-2.96575	TO WP	-0.6839497
-3.124113	TO WRB	-0.03092259
-2.930988	TO ``	-0.8531222
-0.3565473	UH ,	-0.3710619
-0.6197888	UH .	1.064806
-1.39794	UH NN
-0.8943893	UH PRP	-0.1999304
-1.39794	UH SYM
-1.39794	UH TO
-1.39794	UH VBG
-3.76064	VB $	0.2677304
-2.97452	VB ''	-0.1256261
-2.030936	VB ,	0.09560132
-3.112823	VB -LRB-	-0.04502714
-4.211332	VB -RRB-	-1.002556
-1.756797	VB .	0.07067895
-1.532468	VB :	-1.69166
-3.76064	VB </s>
-1.792676	VB CC	-0.2780602
-2.156174	VB CD	-1.384749
-0.6280248	VB DT	-0.3830731
-3.811793	VB EX	-0.165466
-4.714883	VB FW
-0.9478011	VB IN	-0.02513289
-0.9810438	VB JJ	-0.7397701
-1.582943	VB JJR	-0.6476922
-3.37246	VB JJS	-0.4655231
-3.353155	VB MD	0.766461
-1.210412	VB NN	-0.5986493
-2.343815	VB NNP	-0.4049436
-4.044528	VB NNPS	-0.473323
-1.404614	VB NNS	-0.1824489
-2.785464	VB PDT	0.2829856
-3.811793	VB POS	-0.4648612
-1.55894	VB PRP	0.5471666
-1.403977	VB PRP$	-0.3786161
-1.408243	VB RB	-0.2222662
-1.995551	VB RBR	-0.5252256
-3.60094	VB RBS	0.1850896
-1.653807	VB RP	-0.1287961
-1.395152	VB TO	-0.212678
-2.201665	VB VB	-0.8636538
-3.334671	VB VBD	0.03535911
-2.015913	VB VBG	-0.1385219
-0.8924531	VB VBN	-1.697771
-3.76064	VB VBP	-0.02221525
-2.765493	VB VBZ	-0.07320023
-3.237761	VB WDT	-0.2409395
-2.845651	VB WP	0.2212406
-4.714883	VB WP$
-2.471845	VB WRB	-0.1151086
-3.316943	VB ``	-0.7997358
-3.044932	VBD $	0.3134878
-1.801893	VBD ,	0.1049166
-3.044932	VBD -LRB-	-0.3668162
-3.948022	VBD -RRB-
-1.827448	VBD .	-0.2139472
-2.993779	VBD :	-0.06265502
-3.102923	VBD </s>
-2.003539	VBD CC	-0.3111684
-1.795733	VBD CD	-0.9418032
-0.8180096	VBD DT	-0.7035378
-3.444471	VBD EX
-0.7807042	VBD IN	-0.04958582
-1.120006	VBD JJ	-0.5030936
-2.17717	VBD JJR	-0.1064557
-3.646991	VBD JJS	-0.5341095
-2.368238	VBD MD	-0.08826983
-1.364823	VBD NN	-0.3235438
-1.956795	VBD NNP	-0.2113183
-3.948022	VBD NNPS
-1.566005	VBD NNS	-0.0528971
-3.277667	VBD PDT	1.655124
-1.865236	VBD PRP	-0.3011187
-1.865236	VBD PRP$	-0.03373444
-0.8918793	VBD RB	-0.5464169
-2.345962	VBD RBR	-0.08502042
-3.646991	VBD RBS	-0.009716868
-1.603629	VBD RP	-0.07537603
-1.166985	VBD TO	0.07573617
-2.533048	VBD VB	-0.4103934
-2.692749	VBD VBD	-0.1281861
-1.760501	VBD VBG	-0.0326823
-0.7751268	VBD VBN	-0.1480653
-2.948022	VBD VBP	-0.1453045
-2.669268	VBD VBZ	-0.1374388
-3.044932	VBD WDT	-0.1769873
-3.16987	VBD WP
-2.669268	VBD WRB	-0.2093265
-2.669268	VBD ``	-0.06582531
-3.55033	VBG $	0.4226323
-2.866084	VBG ''	-0.1317825
-1.961126	VBG ,	-0.4838499
-2.94827	VBG -LRB-	-0.3894114
-3.006262	VBG -RRB-	-0.5028479
-1.75561	VBG .	0.03600276
-3.182353	VBG :	-0.1008527
-3.182353	VBG </s>
-1.709388	VBG CC	-0.2258317
-2.231571	VBG CD	-1.183079
-0.687305	VBG DT	-0.5844841
-4.328482	VBG EX
-4.027452	VBG FW	-0.5904897
-0.9255327	VBG IN	-0.1899338
-0.9880374	VBG JJ	-0.5298622
-1.741894	VBG JJR	-0.1443226
-3.658127	VBG JJS	-0.4016563
-2.656384	VBG MD	0.2300313
-0.7149568	VBG NN	-0.4266679
-2.103172	VBG NNP	-0.3728976
-3.824931	VBG NNPS	-0.2471366
-1.039562	VBG NNS	0.078089
-2.823332	VBG PDT	0.712334
-1.65362	VBG PRP	0.2219117
-1.672383	VBG PRP$	-0.05097342
-1.583407	VBG RB	-0.7511014
-2.188602	VBG RBR	-0.007943511
-3.824931	VBG RBS	-0.2911096
-1.808654	VBG RP	-0.06051755
-1.198148	VBG TO	0.3347393
-3.098033	VBG VB	-0.08502728
-2.881324	VBG VBD	-0.05468976
-2.275403	VBG VBG	-0.2045941
-1.53539	VBG VBN	-0.6713315
-3.049728	VBG VBP	-0.2009385
-2.32416	VBG VBZ	-0.2673399
-3.049728	VBG WDT	-0.3906568
-3.55033	VBG WP	-0.4373415
-3.049728	VBG WRB	0.005235314
-3.374239	VBG ``	-0.3563598
-3.960372	VBN $	0.2117736
-3.185169	VBN ''	-0.03610289
-1.530942	VBN ,	0.2525244
-2.438617	VBN -LRB-	0.1500224
-3.384742	VBN -RRB-	0.05987889
-1.163327	VBN .	-1.390691
-2.791825	VBN :	-0.1975578
-3.317795	VBN </s>
-1.527409	VBN CC	-0.02891374
-1.949375	VBN CD	-1.382239
-1.333911	VBN DT	-0.6149925
-3.793569	VBN EX	0.02437125
-4.162893	VBN FW	-0.5041913
-0.4400944	VBN IN	-0.04761219
-1.464792	VBN JJ	-0.492419
-2.555438	VBN JJR	0.007145882
-3.764953	VBN JJS	-0.6013367
-2.486199	VBN MD	0.07529879
-1.358413	VBN NN	-0.4896442
-1.281508	VBN NNP	-1.110399
-4.463923	VBN NNPS
-1.65369	VBN NNS	-0.28992
-3.560833	VBN PDT	1.263242
-2.42253	VBN PRP	-0.1214001
-2.438617	VBN PRP$	-0.005016804
-1.325936	VBN RB	-1.262972
-2.399465	VBN RBR	-0.277992
-4.162893	VBN RBS
-1.728324	VBN RP	-0.2336824
-0.8338002	VBN TO	0.2648749
-3.032559	VBN VB	-0.5365948
-2.81071	VBN VBD	-0.05310488
-1.988252	VBN VBG	0.1637537
-1.456602	VBN VBN	-0.5636159
-2.625074	VBN VBP	-0.2175446
-2.336818	VBN VBZ	-0.1177155
-2.972561	VBN WDT	0.1813173
-3.287832	VBN WP	-0.006478876
-2.430499	VBN WRB	-0.4965141
-2.861863	VBN ``	-0.3185727
-3.993789	VBP $	0.6348725
-3.791268	VBP ''
-2.118727	VBP ,	-0.2373481
-3.180876	VBP -LRB-	-0.1357015
-3.624465	VBP -RRB-
-2.041966	VBP .	-0.3453683
-2.952396	VBP :	0.005497813
-3.516668	VBP </s>
-2.303593	VBP CC	-0.3805304
-1.978848	VBP CD	-1.036289
-0.9248612	VBP DT	-0.4607064
-2.952396	VBP EX	0.05806124
-0.9977152	VBP IN	-0.5514919
-0.8532808	VBP JJ	0.07053423
-1.820603	VBP JJR	-0.3993776
-3.391729	VBP JJS	-0.367023
-2.832421	VBP MD	0.5092096
-1.442949	VBP NN	-0.5477338
-2.546631	VBP NNP	0.04161918
-4.294819	VBP NNPS
-1.513782	VBP NNS	-0.6041622
-3.449721	VBP PDT	1.612255
-4.294819	VBP POS
-1.824997	VBP PRP	-0.6103168
-1.881519	VBP PRP$	-0.5864049
-0.7794749	VBP RB	-0.9446241
-1.774991	VBP RBR	-0.4211451
-2.9726	VBP RBS	0.1005657
-2.261395	VBP RP	0.02204132
-1.105328	VBP TO	-0.701156
-4.294819	VBP UH
-2.234121	VBP VB	-0.2842959
-3.391729	VBP VBD	-0.4223001
-1.335777	VBP VBG	-0.0856595
-0.7906199	VBP VBN	-0.605737
-2.9726	VBP VBP	-0.010077
-2.641606	VBP VBZ	0.03247237
-3.624465	VBP WDT
-3.215637	VBP WP	0.05028006
-2.832421	VBP WRB	-0.07287431
-2.847661	VBP ``	-0.2110885
-3.266144	VBZ $	0.03728139
-3.771293	VBZ ''	-0.3251499
-2.081097	VBZ ,	0.09106934
-3.324135	VBZ -LRB-	0.07053822
-2.131807	VBZ .	-0.4305397
-3.148044	VBZ :	-0.2500657
-3.799909	VBZ </s>
-2.36646	VBZ CC	-0.3467358
-1.760993	VBZ CD	-1.022444
-0.7022917	VBZ DT	-0.8054659
-3.391082	VBZ EX	-0.01839647
-1.018324	VBZ IN	-0.4017017
-0.8982055	VBZ JJ	-0.4409425
-1.801877	VBZ JJR	-0.4719903
-3.214991	VBZ JJS	-0.4003968
-3.0389	VBZ MD	-0.1830847
-1.446599	VBZ NN	-0.7497623
-2.150117	VBZ NNP	-0.581672
-4.470263	VBZ NNPS
-1.812252	VBZ NNS	-0.7356536
-3.266144	VBZ PDT	0.987035
-1.920035	VBZ PRP	-0.3686658
-2.018477	VBZ PRP$	-0.2584974
-0.7568569	VBZ RB	-0.7147713
-2.026219	VBZ RBR	-0.08835876
-3.072323	VBZ RBS	0.1922508
-2.271606	VBZ RP	0.2349126
-1.197262	VBZ TO	-0.3438938
-2.346412	VBZ VB	-0.197596
-2.926195	VBZ VBD	-0.5838418
-1.535765	VBZ VBG	-0.1398097
-0.8469108	VBZ VBN	0.03006864
-2.965113	VBZ VBP	-0.3816842
-2.729901	VBZ VBZ	0.3472358
-3.567173	VBZ WDT	-0.2011934
-3.169234	VBZ WP	-0.2521706
-2.359674	VBZ WRB	-0.1150565
-2.650719	VBZ ``	-0.04579806
-2.63271	WDT ,	-0.07343873
-3.5358	WDT -LRB-	-0.4458438
-3.83683	WDT -RRB-
-3.83683	WDT .
-3.33328	WDT CC
-2.558077	WDT CD	-0.3497668
-1.754045	WDT DT	-0.08635831
-3.33328	WDT EX	-0.07657665
-1.768644	WDT IN	-0.5062678
-1.72962	WDT JJ	-0.2394824
-2.757649	WDT JJR	-0.8121804
-2.882588	WDT JJS	-0.2271364
-0.6969512	WDT MD	-0.1602304
-1.608944	WDT NN	-0.5234016
-1.979498	WDT NNP	-0.8452932
-3.83683	WDT NNPS
-1.690702	WDT NNS	-0.7981424
-3.83683	WDT PDT
-1.815641	WDT PRP	-0.8892008
-2.660739	WDT PRP$	-0.6374907
-1.486582	WDT RB	-0.7583542
-3.5358	WDT RBR
-2.991732	WDT RBS	-0.3373489
-3.33328	WDT VB	-0.2590908
-1.073402	WDT VBD	-0.2505715
-2.318316	WDT VBG	-0.20334
-2.93374	WDT VBN	-0.1054486
-0.6863809	WDT VBP	-0.02347398
-0.4831063	WDT VBZ	-0.2894289
-3.5358	WDT WDT
-3.5358	WDT WP
-2.83683	WDT WRB	-0.06835453
-2.882588	WDT ``	-0.3547589
-2.488786	WP ,	-0.2375187
-3.266937	WP -LRB-
-2.596583	WP -RRB-
-2.965907	WP .	1.277046
-3.266937	WP CD
-1.604179	WP DT	-0.4269165
-2.011664	WP IN	-0.58657
-2.187756	WP JJ	0.1525533
-2.965907	WP JJS	-0.5368302
-1.016517	WP MD	0.140426
-1.905209	WP NN	-0.3083463
-2.266937	WP NNP	-0.3955736
-1.988183	WP NNS	-0.2456543
-1.052093	WP PRP	-0.992001
-2.488786	WP PRP$	-0.08261329
-1.454024	WP RB	-0.9484553
-3.266937	WP RBR
-2.152993	WP TO	-0.686958
-2.596583	WP VB	-0.2030501
-0.9904751	WP VBD	0.04680407
-2.965907	WP VBG
-2.763386	WP VBN	-0.2877266
-0.364934	WP VBP	-0.4578995
-0.8228921	WP VBZ	-0.1827778
-3.266937	WP WDT
-3.266937	WP ``
-1.643453	WP$ DT
-0.9730984	WP$ JJ	-0.3245414
-1.643453	WP$ JJS
-0.2817248	WP$ NN	-0.7090194
-0.5295093	WP$ NNS	-0.5894354
-1.643453	WP$ WP
-2.591065	WRB ,	-0.179101
-2.8238	WRB .	1.347545
-2.215401	WRB CC	-0.6614144
-1.822057	WRB CD	-0.7301682
-0.6237507	WRB DT	-0.8448085
-1.580341	WRB EX	0.1302613
-2.380211	WRB IN	-0.01318642
-0.9890046	WRB JJ	-0.112836
-2.348027	WRB JJR	-0.3175112
-2.795185	WRB JJS	-0.278888
-1.786584	WRB MD	-0.9420962
-1.147802	WRB NN	-0.9165215
-1.661646	WRB NNP	-0.5623241
-1.124939	WRB NNS	-0.9846444
-2.795185	WRB PDT	1.517399
-0.6559353	WRB PRP	-1.367195
-1.975641	WRB PRP$	-0.2423459
-1.655306	WRB RB	-0.6623533
-2.494155	WRB RBR	-0.3525724
-2.8238	WRB RBS	0.0607813
-3.494155	WRB RP
-1.292758	WRB TO	-1.236565
-3.193125	WRB VB	-0.5808934
-2.649057	WRB VBD	-0.2967177
-1.298255	WRB VBG	-0.09749687
-1.554635	WRB VBN	-0.4943216
-2.079181	WRB VBP	-0.5408683
-2.046997	WRB VBZ	-0.2657884
-3.494155	WRB WDT
-3.494155	WRB WP
-3.193125	WRB WRB	-0.5244882
-2.591065	WRB ``	-0.1831354
-1.298871	`` ,	0.1788824
-1.194136	`` -LRB-	0.105911
-2.427414	`` -RRB-	-0.01187855
-1.313471	`` .	-0.1619776
-2.603505	`` :
-1.837588	`` </s>
-1.950293	`` CC	-0.4231284
-1.596327	`` CD	0.04150271
-1.096099	`` DT	-0.1330526
-2.340264	`` EX	-0.09105492
-2.711302	`` FW	-0.2030911
-1.291751	`` IN	-0.1715544
-0.9584106	`` JJ	-0.8333359
-2.267713	`` JJR	-0.1229191
-2.711302	`` JJS	-0.1113589
-3.381656	`` LS
-2.267713	`` MD	1.00609
-0.8351138	`` NN	-0.2001441
-0.825354	`` NNP	-0.1367476
-2.478566	`` NNPS	-0.1425133
-1.403933	`` NNS	-0.2989903
-1.682686	`` PRP	-0.3821225
-2.536558	`` PRP$	-0.1645164
-1.568743	`` RB	-0.2249294
-2.878106	`` RBR
-1.863142	`` TO	-0.3411153
-2.878106	`` UH	-0.251806
-1.555582	`` VB	-0.5471755
-2.019929	`` VBD	-0.3390217
-1.657381	`` VBG	-0.300577
-1.801873	`` VBN	-0.9445407
-2.080626	`` VBP	-0.134816
-1.700415	`` VBZ	-0.3851485
-2.711302	`` WDT	-0.03697795
-2.536558	`` WP	-0.301035
-2.381656	`` WRB	-0.1976694
-3.080626	`` ``	-0.5642245

\3-grams:
-0.1649015	CD # LS	-0.4838071
-1.443655	NN # -RRB-	0.04188201
-1.417775	NN # </s>
-0.7346855	NN # CD	-0.4694344
-1.443655	NN # FW
-1.278475	NN # IN	-0.3773113
-1.417775	NN # LS	-0.1891504
-0.4658403	NN # NN	0.1963623
-1.159603	NN # NNS	-0.1072385
-1.417775	NN # SYM	-0.07506621
-0.5130797	NNS # NN	-0.2544666
-0.2359318	, $ CD	-0.143962
-0.03996278	-LRB- $ CD	-0.2584198
-0.1151397	: $ CD
-0.1390218	<s> $ CD	0.07576956
-0.03476211	CC $ CD	-0.3027425
-0.6767849	CD $ CD
-0.9280531	CD $ IN
-0.3927328	CD $ JJ	0.004265517
-0.02632894	DT $ CD	-0.5554412
-0.003930293	IN $ CD	-0.2101711
-0.09663168	JJ $ CD	0.1195345
-1.476868	NN $ -RRB-	-0.2016894
-0.06069784	NN $ CD	0.2158983
-1.476868	NN $ JJ	-0.4533346
-0.007299239	NNP $ CD	-0.2595552
-0.03996278	NNS $ CD
-0.03996278	POS $ CD	-0.1789966
-0.02802872	RB $ CD	-0.1800332
-0.009984221	TO $ CD	-0.0152356
-0.04575749	VB $ CD	-0.03043863
-0.05115252	VBD $ CD	0.04952994
-0.06694679	VBG $ CD	-0.3658614
-0.03996278	VBN $ CD	-0.4560783
-0.1151397	VBP $ CD
-0.02632894	VBZ $ CD	0.04624081
-0.291231	'' '' -LRB-	0.01148915
-0.5130797	, '' -LRB-
-0.5130797	, '' VBZ
-0.1649015	-RRB- '' -LRB-
-0.06694679	. '' .	1.324751
-0.4079396	<s> '' DT	0.01713353
-0.3521825	CD '' -LRB-	0.1002715
-1.069382	CD '' </s>
-0.818114	CD '' NN
-0.5130797	IN '' IN
-1.159701	JJ '' ,	-0.1064459
-0.7337321	JJ '' -LRB-	-0.08978111
-1.392733	JJ '' .	0.464245
-1.650905	JJ '' </s>
-1.159701	JJ '' CC	-0.1454956
-1.928053	JJ '' DT	-0.2264379
-0.9678153	JJ '' IN	-0.1602212
-1.511605	JJ '' JJ	-0.4564797
-0.6825796	JJ '' NN	-0.2728371
-0.9098234	JJ '' NNS	-0.170484
-1.676785	JJ '' TO	-0.2076866
-1.928053	JJ '' VBD
-1.650905	JJ '' VBZ	-0.03859887
-1.006894	NN '' ,	0.1072529
-0.8027737	NN '' -LRB-	-0.02396393
-2.103804	NN '' -RRB-	-0.07573034
-0.8649216	NN '' .	0.07572079
-2.279617	NN '' :	-0.03351533
-2.418917	NN '' </s>
-1.325652	NN '' CC	-0.07228565
-2.696065	NN '' CD	-0.2016894
-1.840562	NN '' DT	0.01952344
-1.012723	NN '' IN	0.1908585
-1.580925	NN '' JJ	0.1019707
-1.603201	NN '' MD	-0.00283587
-0.8250501	NN '' NN	-0.1763
-1.559736	NN '' NNP	0.01194775
-1.390593	NN '' NNS	0.06005502
-2.696065	NN '' PRP
-1.840562	NN '' RB	-0.01923403
-2.696065	NN '' RBR
-1.705864	NN '' TO	0.05294585
-2.418917	NN '' VB
-1.881955	NN '' VBD	0.06206745
-2.279617	NN '' VBG	-0.02355978
-2.103804	NN '' VBN	0.2187402
-2.279617	NN '' VBP	0.01644731
-1.363441	NN '' VBZ	-0.001507759
-1.626683	NN '' WDT	0.0222764
-2.444797	NN '' WRB	-0.05386515
-2.444797	NN '' ``
-0.2218488	NNP '' -LRB-	0.0484463
-0.5628415	NNP '' VBZ
-1.562298	NNS '' ,	-0.4847159
-0.447158	NNS '' -LRB-	-0.1867515
-1.31103	NNS '' -RRB-	-0.1303331
-1.31103	NNS '' .	1.380335
-1.14585	NNS '' CC	-0.1418684
-1.562298	NNS '' IN	-0.2542128
-0.845098	NNS '' NN	-0.3134283
-1.31103	NNS '' VBP	-0.1117639
-1.31103	NNS '' VBZ	-0.1230452
-0.291231	POS '' NN
-0.1649015	PRP '' -LRB-	0.2550606
-1.277324	VB '' ,
-0.8372727	VB '' -LRB-	0.3674794
-1.303204	VB '' .	1.380335
-0.7403627	VB '' DT	0.2178035
-1.138024	VB '' IN	-0.02917665
-1.303204	VB '' JJR	0.04188201
-0.7861202	VB '' NN	-0.02916883
-1.554472	VB '' PRP$	0.5432121
-1.276508	VBG '' ,
-0.9993598	VBG '' -LRB-	0.3395069
-0.9993598	VBG '' IN
-1.025239	VBG '' JJ
-0.559308	VBG '' NN	-0.08904197
-1.276508	VBG '' RB
-0.6764153	VBN '' -LRB-	0.1089707
-1.092863	VBN '' CC
-0.8157154	VBN '' IN	-0.1909309
-1.092863	VBN '' NN
-0.2618115	VBZ '' VBZ
-0.9822713	'' , CC	-0.1951328
-1.519233	'' , CD	-0.1307605
-0.9408786	'' , DT	-0.4769304
-1.079181	'' , IN	-0.2785415
-1.20412	'' , JJ	0.1123152
-1.261061	'' , NN	-0.2304239
-0.8683279	'' , NNP	-0.05486366
-1.379933	'' , PRP	-0.06054547
-1.796381	'' , RB
-1.379933	'' , VBD	-0.2685471
-1.545113	'' , VBG
-0.9408786	'' , WDT	-0.2594606
-1.20412	'' , ``	-0.2159214
-1.800201	-RRB- , -LRB-	0.519498
-2.818431	-RRB- , </s>
-1.472842	-RRB- , CC	-0.00103581
-0.9251401	-RRB- , CD	0.3052189
-0.7687929	-RRB- , DT	-0.3373448
-1.703291	-RRB- , EX	-0.5897112
-2.818431	-RRB- , FW
-1.233469	-RRB- , IN	-0.3000321
-1.21193	-RRB- , JJ	-0.2069759
-2.567163	-RRB- , JJR
-2.567163	-RRB- , JJS	0.005122542
-2.22617	-RRB- , MD	-0.1641111
-0.9589984	-RRB- , NN	-0.2706127
-1.123508	-RRB- , NNP	-0.3090918
-2.567163	-RRB- , NNPS
-1.51296	-RRB- , NNS	0.09214449
-1.256133	-RRB- , PRP	-0.139497
-2.567163	-RRB- , PRP$	-0.159049
-1.485807	-RRB- , RB	-0.1984801
-2.401983	-RRB- , TO	-0.3903665
-1.858193	-RRB- , VBD	-0.3038183
-1.51296	-RRB- , VBG	-0.043293
-1.703291	-RRB- , VBN	-0.2224529
-2.401983	-RRB- , VBP
-1.725568	-RRB- , VBZ	-0.06785643
-1.263959	-RRB- , WDT	0.1819673
-2.567163	-RRB- , WP	-0.2055041
-2.050079	-RRB- , WRB	-0.1224852
-1.460253	-RRB- , ``	-0.1420876
-0.5369618	. , CD	-0.363728
-0.3976617	. , NN	-0.2775028
-0.4079396	<s> , CD	-0.4428768
-0.4079396	<s> , NNP
-0.6462637	CC , DT	-0.1948647
-1.606501	CC , EX
-0.5619428	CC , IN	-0.6437235
-1.606501	CC , JJ
-1.329353	CC , NN	-0.1583458
-1.606501	CC , NNP
-1.190053	CC , PRP	0.07343486
-0.8381492	CC , RB	-0.907659
-2.543074	CD , -LRB-	0.3548633
-3.256127	CD , -RRB-	-0.2597895
-2.075713	CD , CC	-0.1735119
-0.4138141	CD , CD	-0.6331314
-1.384712	CD , DT	-0.3931064
-2.321225	CD , EX	0.5190595
-0.5827621	CD , IN	-1.252517
-2.056408	CD , JJ	0.2711927
-2.816076	CD , JJR	-0.9151118
-3.256127	CD , MD	0.2775198
-1.317765	CD , NN	-0.4613823
-0.7165675	CD , NNP	-1.095677
-2.639984	CD , NNS	-0.05582479
-2.200652	CD , PRP	0.723971
-3.116827	CD , PRP$	-0.6835471
-2.139382	CD , RB	0.01808429
-2.941014	CD , TO	0.3745283
-3.533275	CD , VB
-2.605222	CD , VBD	-0.11527
-2.573037	CD , VBG	-0.1857199
-2.256768	CD , VBN	-0.4197156
-3.116827	CD , VBP	-0.05397701
-2.677773	CD , VBZ	-0.1029178
-2.242044	CD , WDT	-0.5651367
-3.533275	CD , WP
-2.515045	CD , WRB	-0.2782819
-2.764923	CD , ``	-0.02906725
-1.990487	DT , CC	-0.1243206
-1.990487	DT , CD	-0.1870185
-0.5157851	DT , DT	-0.1665015
-1.489884	DT , EX	0.3224355
-1.145389	DT , IN	-0.2266155
-1.069668	DT , JJ	-0.3514293
-2.582748	DT , JJR
-2.582748	DT , JJS
-0.9977861	DT , NN	-0.6152353
-1.426215	DT , NNP	-0.2606581
-1.044362	DT , NNS	-0.09470147
-0.871011	DT , PRP	0.4980167
-2.582748	DT , PRP$
-1.426215	DT , RB	-0.2388425
-2.33148	DT , RBR
-2.33148	DT , TO	-0.02954483
-2.582748	DT , VB
-1.426215	DT , VBG	-0.1335264
-2.33148	DT , VBN	0.1080532
-2.582748	DT , WP
-2.582748	DT , WRB
-2.582748	DT , ``
-0.2130748	FW , CD	-1.260538
-1.504306	FW , DT
-1.504306	FW , IN
-1.087858	FW , NN	-0.07238921
-1.504306	FW , NNP
-1.253038	FW , PRP	-0.1897496
-1.749049	IN , CC	-0.2818638
-2.240253	IN , CD
-0.5602766	IN , DT	0.1037544
-1.402261	IN , EX	-0.3096155
-0.9324394	IN , IN	-0.1267055
-1.159223	IN , JJ	-0.572866
-2.240253	IN , JJR	-0.2851527
-2.240253	IN , JJS	-0.02883904
-2.266133	IN , MD	0.1930735
-1.159223	IN , NN	-0.126283
-1.589348	IN , NNP	-0.4888773
-1.198141	IN , NNS	-0.1256245
-0.9324394	IN , PRP	0.4130974
-2.517401	IN , PRP$
-1.381072	IN , RB	0.02012643
-2.517401	IN , RBR
-2.517401	IN , TO	-0.4545364
-1.557163	IN , VB	-0.5257407
-2.517401	IN , VBD	-0.44235
-1.32308	IN , VBG	0.04420304
-2.240253	IN , VBN	0.1924995
-2.517401	IN , VBZ
-2.100953	IN , WDT	0.1509384
-1.92514	IN , WRB
-2.240253	IN , ``
-3.191598	JJ , $
-2.91445	JJ , -LRB-	0.1350525
-1.008273	JJ , CC	0.03251779
-1.485394	JJ , CD	-0.1592025
-0.8396693	JJ , DT	0.03543365
-1.557944	JJ , EX	-0.6445204
-1.14196	JJ , IN	-0.2481842
-0.6953433	JJ , JJ	0.07823384
-2.173368	JJ , JJR	-0.05955714
-2.599337	JJ , JJS	-0.1885295
-2.055269	JJ , MD	-0.06614769
-1.204302	JJ , NN	-0.5212749
-1.962515	JJ , NNP	-0.3980125
-1.538639	JJ , NNS	-0.2791621
-0.9318842	JJ , PRP	-0.3086056
-1.91509	JJ , PRP$	0.1328971
-1.162645	JJ , RB	0.04895198
-2.599337	JJ , RBR	0.1190482
-2.298307	JJ , TO	-0.3921513
-2.336096	JJ , VB	-0.1615057
-2.91445	JJ , VBD	-0.1124643
-1.508257	JJ , VBG	-0.02476329
-2.147039	JJ , VBN	0.1207078
-2.423246	JJ , VBP	-0.07901606
-2.055269	JJ , VBZ	-0.02482462
-1.621614	JJ , WDT	0.322853
-2.336096	JJ , WP	-0.1945886
-2.336096	JJ , WRB	-0.5345634
-2.656278	JJ , ``	-0.1716956
-1.148191	JJR , CC	-0.2233677
-1.861244	JJR , CD	-0.1785279
-0.7928035	JJR , DT	-0.1057637
-1.721944	JJR , EX	0.2568992
-1.093834	JJR , IN	0.0249868
-1.546131	JJR , JJ	-0.4949304
-0.9093091	JJR , JJR	-0.6259925
-1.421193	JJR , NN	-0.02972006
-1.887124	JJR , NNP	-0.1916835
-1.603072	JJR , NNS	-0.08655159
-0.8471612	JJR , PRP	-0.3668323
-1.861244	JJR , PRP$	-0.01060915
-1.06901	JJR , RB	0.01714715
-1.210339	JJR , RBR	-0.4691314
-1.546131	JJR , VBG	-0.1638099
-2.138392	JJR , VBN
-2.138392	JJR , VBP
-2.138392	JJR , VBZ
-1.861244	JJR , WDT	-0.1125581
-1.738389	JJS , CD
-0.4191293	JJS , DT	0.04364657
-1.203069	JJS , IN	0.08021308
-1.146128	JJS , JJ	0.2088271
-0.9242793	JJS , NN	-0.3145523
-1.461241	JJS , NNP	-0.1785724
-1.461241	JJS , NNS
-1.146128	JJS , PRP	0.2686505
-1.738389	JJS , PRP$	-0.4026204
-1.487121	JJS , RBS	-0.1378943
-0.243038	MD , IN	-0.02968052
-0.719881	MD , RB	-0.3686795
-4.045171	NN , $	-0.1351082
-2.930032	NN , -LRB-	0.3498393
-1.246534	NN , CC	0.2625561
-1.416148	NN , CD	-0.168587
-0.7091393	NN , DT	0.1078472
-1.639997	NN , EX	0.3150265
-2.725912	NN , FW	-0.1172728
-1.128971	NN , IN	-0.3708496
-1.089926	NN , JJ	0.04642105
-2.04073	NN , JJR	-0.164103
-2.54982	NN , JJS	-0.7232748
-2.13764	NN , MD	0.06520224
-0.8792653	NN , NN	-0.06967902
-1.463164	NN , NNP	-0.680517
-3.189669	NN , NNPS	-0.1098361
-1.299096	NN , NNS	0.1015714
-3.026942	NN , PDT	0.5019448
-1.004977	NN , PRP	-0.07623172
-2.134152	NN , PRP$	-0.1335615
-1.307818	NN , RB	-0.1490006
-3.327972	NN , RBR	0.03502801
-2.257934	NN , TO	-0.06866384
-2.267274	NN , VB	-0.1227087
-2.222461	NN , VBD	-0.02285063
-1.388452	NN , VBG	0.06006384
-2.201678	NN , VBN	-0.01467979
-2.144702	NN , VBP	-0.01689434
-1.950028	NN , VBZ	0.09451079
-1.402402	NN , WDT	0.1140841
-2.783904	NN , WP	0.4431156
-3.793903	NN , WP$	-0.01847631
-2.181844	NN , WRB	-0.006636858
-2.404987	NN , ``	-0.1313155
-2.026179	NNP , -LRB-	-0.1978875
-1.510305	NNP , CC	-0.7348473
-0.4713266	NNP , CD	-0.7037534
-1.221812	NNP , DT	-0.2030776
-2.115911	NNP , EX	-0.01344562
-2.725149	NNP , FW	-1.077805
-1.790651	NNP , IN	0.06405163
-1.844335	NNP , JJ	0.2829869
-3.18003	NNP , JJR	-0.2693766
-3.438202	NNP , JJS	0.125228
-3.438202	NNP , LS	-0.07506621
-3.298902	NNP , MD	-0.6151497
-1.386693	NNP , NN	-0.3220582
-0.4047258	NNP , NNP	-0.7612693
-3.71535	NNP , NNPS
-2.081696	NNP , NNS	-0.09392142
-3.71535	NNP , PDT	1.219649
-1.80087	NNP , PRP	0.2141981
-2.787297	NNP , PRP$	0.7911984
-2.115911	NNP , RB	-0.02456892
-3.464082	NNP , RBR	0.07460877
-2.645968	NNP , TO	-0.09112138
-3.298902	NNP , VB	-0.08958505
-2.219999	NNP , VBD	0.07160819
-2.115911	NNP , VBG	-0.1366165
-2.39609	NNP , VBN	-0.3563824
-2.670791	NNP , VBP	-0.4695722
-2.20227	NNP , VBZ	-0.2430557
-1.971821	NNP , WDT	0.01140261
-2.670791	NNP , WP	-0.7445292
-3.438202	NNP , WP$	-0.1537616
-2.5033	NNP , WRB	-0.06260318
-2.344938	NNP , ``	-0.3730432
-1.846143	NNPS , CC
-0.4771213	NNPS , CD	-0.1920587
-0.8853612	NNPS , DT	-0.1727623
-1.846143	NNPS , EX	-0.5366667
-1.820263	NNPS , IN	-0.06813533
-1.820263	NNPS , JJ	-0.1780852
-1.283301	NNPS , NN	-0.3075996
-0.6498328	NNPS , NNP	-0.07353854
-1.562091	NNPS , PRP	-0.1344319
-2.097411	NNPS , PRP$	-0.5072261
-1.50515	NNPS , RB	-0.2614829
-1.680963	NNPS , VBG
-1.820263	NNPS , VBN	-0.08175501
-1.846143	NNPS , VBP	-0.2187637
-3.361285	NNS , ''
-3.335405	NNS , -LRB-	-0.2692035
-1.088326	NNS , CC	0.2967219
-1.719262	NNS , CD	-0.5724673
-0.8006204	NNS , DT	0.1403264
-1.67787	NNS , EX	0.6931528
-2.476224	NNS , FW	-0.02118441
-1.184602	NNS , IN	-0.9720631
-0.9997928	NNS , JJ	-0.04153216
-2.058081	NNS , JJR	0.1940432
-2.51969	NNS , JJS	0.4276029
-2.074167	NNS , MD	0.1469152
-1.04486	NNS , NN	0.2695611
-1.652315	NNS , NNP	-0.5466205
-1.080773	NNS , NNS	0.1353894
-3.335405	NNS , PDT	1.094968
-1.065246	NNS , PRP	0.0003756285
-2.090873	NNS , PRP$	-0.3610713
-1.103838	NNS , RB	0.1963346
-3.612553	NNS , RBR
-2.196383	NNS , TO	0.02791107
-2.307082	NNS , VB	-0.06032544
-2.230242	NNS , VBD	-0.2174941
-1.272104	NNS , VBG	0.08513546
-2.099473	NNS , VBN	-0.05165297
-1.972369	NNS , VBP	-0.3242006
-1.91763	NNS , VBZ	-0.2029858
-1.360693	NNS , WDT	-0.167796
-2.18566	NNS , WP	-0.4193998
-3.335405	NNS , WP$	-0.2920632
-2.242141	NNS , WRB	-0.2175322
-2.594323	NNS , ``	-0.1669586
-1.393893	POS , CC	-0.441519
-1.393893	POS , CD
-0.6255411	POS , DT	0.208737
-1.116745	POS , IN	-0.0525618
-1.393893	POS , JJ
-0.9774452	POS , NNP	-0.235774
-1.393893	POS , PRP
-1.393893	POS , RB
-1.393893	POS , VBG
-0.9863083	PRP , CC	-0.2388071
-2.011548	PRP , CD
-0.7411361	PRP , DT	0.07940787
-1.846368	PRP , EX	-0.1830371
-2.262816	PRP , FW	-0.3633056
-0.9863083	PRP , IN	-0.1409552
-1.218257	PRP , JJ	-0.06817138
-1.985668	PRP , MD	-0.1630077
-1.545616	PRP , NN	-0.08818165
-1.727496	PRP , NNP	-0.09765443
-1.494464	PRP , NNS	-0.04557773
-0.9301924	PRP , PRP	0.148868
-1.727496	PRP , PRP$	-0.06772369
-0.9435564	PRP , RB	-0.1069573
-1.846368	PRP , TO	0.2717668
-2.262816	PRP , VB
-1.272615	PRP , VBG	-0.1331984
-2.011548	PRP , VBP
-1.670555	PRP , VBZ	-0.01158012
-1.846368	PRP , WDT	-0.3226973
-2.262816	PRP , WP
-2.262816	PRP , WRB	-0.3262506
-3.566173	RB , -LRB-	-0.1339182
-2.053941	RB , CC	-0.4496562
-2.170822	RB , CD	-0.8816447
-0.5253423	RB , DT	-0.1889596
-1.411155	RB , EX	0.4272118
-3.817441	RB , FW
-0.9166156	RB , IN	-1.392622
-1.030203	RB , JJ	-0.5034959
-2.100241	RB , JJR	0.1032934
-2.540933	RB , JJS	-0.2208598
-2.401271	RB , MD	0.4933295
-1.12943	RB , NN	-0.6184474
-1.757819	RB , NNP	-0.8057857
-3.566173	RB , NNPS	-0.1709516
-1.22663	RB , NNS	-0.321238
-2.62312	RB , PDT	0.3344537
-0.8609418	RB , PRP	-0.4050398
-2.22518	RB , PRP$	0.1788402
-1.520458	RB , RB	-0.04282057
-3.400993	RB , RBR	-0.07148108
-2.857203	RB , RBS	-0.2729931
-2.122518	RB , TO	-0.3075382
-2.52621	RB , VB	-0.1127695
-2.571968	RB , VBD	0.1676966
-1.376991	RB , VBG	0.2256424
-2.359879	RB , VBN	-0.001890361
-2.401271	RB , VBP	-0.1181818
-2.218001	RB , VBZ	0.1844987
-2.401271	RB , WDT	0.03085846
-2.660908	RB , WP	-0.02810198
-2.02106	RB , WRB	-0.181289
-2.571968	RB , ``	-0.2584152
-1.278475	RBR , CC	-0.2474787
-0.9265711	RBR , DT	-0.07533386
-0.9777236	RBR , IN	-0.02438536
-1.417775	RBR , JJ	-0.5059984
-0.9265711	RBR , JJR	-0.78583
-1.102662	RBR , NN
-1.443655	RBR , NNS	-0.1397619
-0.8394209	RBR , PRP	0.05153239
-1.159603	RBR , RB
-1.694923	RBR , RBR
-1.443655	RBR , VB	-0.2177963
-1.443655	RBR , VBG
-1.670501	RP , CC
-0.5314789	RP , DT	-0.07290876
-1.670501	RP , EX	-0.004818857
-1.133539	RP , IN	-0.09527829
-0.9294189	RP , JJ	-0.3594756
-1.054358	RP , NN	-0.2143377
-1.355388	RP , NNP	-0.6033518
-1.412328	RP , NNS	-0.05518511
-0.9874108	RP , PRP	0.4249388
-1.133539	RP , RB	-0.3199396
-1.670501	RP , VBG	-0.06997414
-1.69638	RP , WDT	-0.1766074
-0.6017817	TO , CC	-0.06973638
-0.7410818	TO , JJ	0.04164635
-0.8555024	UH , DT
-0.2632414	UH , PRP	-0.5469343
-1.040494	VB , CC	-0.2729351
-1.962736	VB , CD	0.06170441
-0.7345572	VB , DT	0.07603168
-1.683947	VB , EX	0.5322329
-1.040494	VB , IN	-0.2083436
-1.236789	VB , JJ	-0.3743355
-2.246789	VB , MD	0.1930735
-1.236789	VB , NN	-0.08965617
-1.683947	VB , NNP	-0.04178074
-1.537819	VB , NNS	0.0341326
-2.498057	VB , PDT	1.219649
-0.8710338	VB , PRP	-0.6008003
-2.498057	VB , PRP$
-1.115745	VB , RB	-0.05456516
-2.081609	VB , RBR	-0.07148108
-2.246789	VB , TO	-0.02954483
-1.152468	VB , VB	-0.482433
-2.498057	VB , VBD
-1.286007	VB , VBG	0.1362261
-2.246789	VB , VBN	0.1080532
-2.246789	VB , VBP	-0.2187637
-1.905796	VB , VBZ	-0.09713539
-1.780857	VB , WDT	-0.07736897
-2.498057	VB , WP
-2.220909	VB , WRB
-2.246789	VB , ``
-1.032185	VBD , CC	-0.09201227
-1.54379	VBD , CD	-0.1314052
-0.7147643	VBD , DT	-0.5909383
-1.960238	VBD , EX
-1.191885	VBD , IN	-0.01612698
-1.243038	VBD , JJ	-0.02750432
-1.960238	VBD , JJS
-1.367977	VBD , NN	-0.08767699
-1.424917	VBD , NNP	-0.1646712
-1.960238	VBD , NNS
-0.8673744	VBD , PRP	0.9348813
-1.367977	VBD , RB	-0.08725248
-1.70897	VBD , VB
-1.424917	VBD , VBG	-0.1516436
-1.960238	VBD , WDT
-0.9156791	VBD , ``	-0.1340787
-1.136907	VBG , CC	-0.02076104
-0.7338875	VBG , DT	0.2604364
-1.930197	VBG , EX	-0.0369473
-1.221228	VBG , IN	-0.3119978
-1.163236	VBG , JJ	-0.08028579
-2.181466	VBG , MD	-0.05049789
-1.066326	VBG , NN	-0.3665529
-1.904318	VBG , NNP	-0.09778492
-1.367356	VBG , NNS	-0.1040474
-0.8622059	VBG , PRP	-0.1284172
-1.136907	VBG , RB	-0.2720814
-2.181466	VBG , RBR	-0.4699926
-1.930197	VBG , VBD
-0.9201979	VBG , VBG	-0.4167672
-2.181466	VBG , VBN
-1.464266	VBG , WDT	-0.07736897
-2.181466	VBG , WRB
-2.181466	VBG , ``
-1.100472	VBN , CC	-0.1342847
-2.330642	VBN , CD	-0.1350601
-0.7128727	VBN , DT	-0.004102468
-1.427831	VBN , EX	0.01147914
-2.747091	VBN , FW
-0.9787383	VBN , IN	-0.174849
-1.140589	VBN , JJ	0.2486103
-1.932981	VBN , JJR	0.03486305
-2.747091	VBN , JJS
-1.978738	VBN , MD	-0.1569208
-1.45586	VBN , NN	-0.4779834
-1.8538	VBN , NNP	-0.07636162
-1.330921	VBN , NNS	-0.06769651
-2.747091	VBN , PDT	1.219649
-0.8574339	VBN , PRP	0.2778715
-2.469943	VBN , PRP$	0.2091224
-1.13364	VBN , RB	-0.14112
-2.21177	VBN , RBR	0.1031897
-2.029891	VBN , TO	0.1906895
-2.469943	VBN , VB	-0.13335
-2.15483	VBN , VBD	-0.1524712
-1.414467	VBN , VBG	-0.153976
-1.631951	VBN , VBN	-0.04671752
-2.21177	VBN , VBP	-0.1427123
-2.15483	VBN , VBZ	-0.1222558
-1.341916	VBN , WDT	0.1421204
-2.469943	VBN , WRB
-2.15483	VBN , ``
-1.273001	VBP , CC	-0.1170117
-0.6197888	VBP , DT	-0.4132391
-1.713053	VBP , EX	-0.3178307
-1	VBP , IN	-0.07984307
-1.134699	VBP , JJ	-0.0396229
-1.738933	VBP , MD	0.1930735
-1.713053	VBP , NN	-0.131832
-1.39794	VBP , NNP	-0.09105204
-1.176091	VBP , NNS	-0.2912621
-1	VBP , PRP	0.3420649
-1.738933	VBP , PRP$	-0.159049
-1.273001	VBP , RB	-0.2538445
-1.713053	VBP , TO	-0.3462503
-1.738933	VBP , VBG	-0.2128768
-1.990201	VBP , VBN
-1.713053	VBP , VBP	-0.182439
-1.39794	VBP , WDT	-0.2903919
-1.389166	VBZ , CC	-0.1494656
-1.786828	VBZ , CD	-0.1415651
-0.6183141	VBZ , DT	-0.2614559
-1.786828	VBZ , EX	-0.03223151
-1.158717	VBZ , IN	-0.07245466
-1.185046	VBZ , JJ	-0.140629
-2.203276	VBZ , JJS
-1.952008	VBZ , MD	0.1930735
-1.389166	VBZ , NN	-0.1346723
-1.611015	VBZ , NNP	-0.1539569
-1.088136	VBZ , NNS	-0.03663826
-0.845098	VBZ , PRP	0.10191
-2.203276	VBZ , PRP$	-0.1188953
-1.110412	VBZ , RB	-0.325753
-2.203276	VBZ , RBR
-1.786828	VBZ , VBG
-2.203276	VBZ , VBP
-1.667956	VBZ , VBZ	-0.1491352
-1.926128	VBZ , WDT	-0.1125581
-1.952008	VBZ , WRB
-1.389166	VBZ , ``	-0.01755336
-1.01823	WDT , DT	-0.2170635
-0.6017817	WDT , IN	-0.1138153
-1.01823	WDT , JJ	-0.2863714
-0.315113	WP , CD	-0.1307605
-0.4659315	WRB , WRB	-0.7114012
-1.896895	`` , -LRB-	-0.4432416
-1.645627	`` , CC	-0.1979476
-0.7403627	`` , CD	-0.7676947
-1.041393	`` , DT	0.09947038
-1.179695	`` , IN	-0.1114495
-1.619747	`` , JJ	-0.1688513
-1.082785	`` , NN	-0.3075996
-1.003604	`` , NNP	-0.4723837
-1.480447	`` , NNS	-0.01155065
-1.361575	`` , PRP	0.02563435
-1.619747	`` , RB	-0.06843178
-1.896895	`` , TO	0.1742853
-1.619747	`` , VBD	-0.1652776
-1.645627	`` , VBG
-1.619747	`` , VBN	-0.02723208
-1.480447	`` , VBZ	-0.2786764
-1.896895	`` , WDT
-1.041393	`` , ``	-0.1491083
-2.144523	'' -LRB- -LRB-	-0.05113551
-1.154323	'' -LRB- CD	0.4336101
-1.893255	'' -LRB- DT	-0.09308195
-1.893255	'' -LRB- JJ	-0.2366996
-1.376171	'' -LRB- LS	1.264818
-1.008194	'' -LRB- NN	0.1215307
-0.1543225	'' -LRB- NNP	0.2283849
-1.893255	'' -LRB- RB	-0.104363
-2.144523	'' -LRB- VBN	-0.4248571
-1.893255	'' -LRB- ``	0.1376605
-0.2830566	, -LRB- CD	0.3494276
-1.966398	, -LRB- JJ
-1.966398	, -LRB- LS	1.752073
-0.5725048	, -LRB- NN	-0.2341354
-0.8300691	, -LRB- NNP	0.1734414
-1.303204	-LRB- -LRB- JJ	-0.2173944
-0.1840602	-LRB- -LRB- NN	-0.3245016
-0.5362427	-LRB- -LRB- NNP	0.05598038
-1.799041	-RRB- -LRB- CD	0.04002535
-2.69773	-RRB- -LRB- JJ	0.01121029
-2.55843	-RRB- -LRB- LS	1.187421
-0.04151267	-RRB- -LRB- NN	-1.77843
-1.698371	-RRB- -LRB- NNP	0.3697981
-2.974878	-RRB- -LRB- VB	-0.4257541
-2.974878	-RRB- -LRB- VBG
-1.368377	-RRB- -LRB- VBN	-1.261853
-1.738933	: -LRB- -LRB-	-0.2549656
-1.990201	: -LRB- DT	-0.5034335
-1.573753	: -LRB- LS	1.187421
-0.06888129	: -LRB- NN	-1.191102
-1.176091	: -LRB- VBN	-0.503905
-2.004695	<s> -LRB- -LRB-	0.1852206
-3.180533	<s> -LRB- -RRB-
-0.3460617	<s> -LRB- CD	-0.6071751
-2.190332	<s> -LRB- DT	0.3111226
-2.929265	<s> -LRB- IN
-1.667453	<s> -LRB- JJ	0.02163684
-1.25248	<s> -LRB- LS	0.1475465
-0.688816	<s> -LRB- NN	0.5433458
-0.6487525	<s> -LRB- NNP	-0.08342612
-2.32503	<s> -LRB- NNS	-0.1131449
-2.903385	<s> -LRB- VBG	-0.3389567
-2.366423	<s> -LRB- VBN	0.4474744
-3.180533	<s> -LRB- WP	-0.3625486
-2.903385	<s> -LRB- WRB	-0.2470492
-2.111151	<s> -LRB- ``	0.383636
-0.818114	CC -LRB- CD	-0.2179115
-1.069382	CC -LRB- LS	1.752073
-0.3521825	CC -LRB- NN	-0.08059777
-2.534269	CD -LRB- $	0.5432121
-0.6373739	CD -LRB- CD	0.2165745
-1.516039	CD -LRB- DT	0.04956198
-1.942008	CD -LRB- IN	-0.395909
-1.441406	CD -LRB- JJ	-0.4980837
-0.5648233	CD -LRB- NN	0.2497195
-0.4624807	CD -LRB- NNP	-0.1200321
-2.117821	CD -LRB- NNS	-0.4639463
-2.283001	CD -LRB- RB
-2.283001	CD -LRB- VB	-0.1821827
-2.257121	CD -LRB- VBG	-0.15932
-1.678767	CD -LRB- VBN	-0.3097029
-2.534269	CD -LRB- WRB
-1.998949	CD -LRB- ``	0.1552205
-0.7400844	DT -LRB- JJ	-0.2362176
-0.4393327	DT -LRB- NN	-0.8238738
-0.5642715	DT -LRB- NNP	0.1525335
-1.156532	DT -LRB- VBG
-0.3409928	FW -LRB- CD	-0.2179115
-0.592261	FW -LRB- NNP	-0.424737
-2.695494	IN -LRB- CD
-2.103233	IN -LRB- JJ	-0.2607228
-0.02405216	IN -LRB- NN	-1.781779
-1.602631	IN -LRB- NNP	-0.2718438
-1.802203	IN -LRB- NNS	-0.7608109
-1.004548	JJ -LRB- CD	0.6466621
-1.562091	JJ -LRB- DT	-0.004346356
-2.097411	JJ -LRB- FW	-0.2572493
-1.846143	JJ -LRB- IN
-0.9215734	JJ -LRB- JJ	0.05479315
-1.846143	JJ -LRB- LS	1.548243
-0.6600519	JJ -LRB- NN	-0.7086651
-0.3912066	JJ -LRB- NNP	-0.6392225
-1.820263	JJ -LRB- NNS	0.1040686
-2.097411	JJ -LRB- RB
-2.097411	JJ -LRB- ``
-1.345589	JJR -LRB- DT
-1.068441	JJR -LRB- JJ	-0.2085213
-0.3853509	JJR -LRB- NN	-0.5032346
-0.3853509	JJR -LRB- NNP	-0.5949349
-2.358886	NN -LRB- -LRB-	0.185845
-2.580735	NN -LRB- CC	-0.0272902
-0.9040413	NN -LRB- CD	0.7190607
-1.677645	NN -LRB- DT	-0.1360021
-2.895848	NN -LRB- FW	-0.103559
-1.756826	NN -LRB- IN	0.07320923
-1.354565	NN -LRB- JJ	0.02137601
-2.921728	NN -LRB- JJR
-2.921728	NN -LRB- LS	1.548243
-3.172996	NN -LRB- MD	-0.3535744
-0.3857583	NN -LRB- NN	0.2795749
-0.4838249	NN -LRB- NNP	0.4175365
-2.103614	NN -LRB- NNS	-0.09544325
-2.358886	NN -LRB- RB	-0.1350148
-2.921728	NN -LRB- TO	0.04188201
-2.895848	NN -LRB- VB	-0.2003385
-2.404644	NN -LRB- VBG	-0.05690888
-2.154766	NN -LRB- VBN	0.3994319
-3.172996	NN -LRB- VBZ
-3.172996	NN -LRB- WDT
-3.172996	NN -LRB- WP
-3.172996	NN -LRB- WRB
-2.016464	NN -LRB- ``	-0.06824005
-2.82058	NNP -LRB- -LRB-	0.04634604
-0.2370926	NNP -LRB- CD	-0.5664587
-2.82058	NNP -LRB- DT	0.2824782
-2.519828	NNP -LRB- IN	-0.006518394
-1.769705	NNP -LRB- JJ	-0.2473368
-3.237028	NNP -LRB- LS	1.752073
-1.385491	NNP -LRB- NN	-0.6775317
-0.4710949	NNP -LRB- NNP	-0.2371895
-2.080495	NNP -LRB- NNS	-0.4515672
-2.381525	NNP -LRB- VBN	0.1938042
-2.82058	NNP -LRB- WP	-0.2115778
-3.237028	NNP -LRB- ``
-0.6532125	NNPS -LRB- CD	-0.3388126
-0.2552725	NNPS -LRB- NN	-0.3952683
-0.8350919	NNPS -LRB- NNP	0.08044431
-2.816708	NNS -LRB- -LRB-
-2.816708	NNS -LRB- CC
-1.389814	NNS -LRB- CD	0.5656313
-1.772149	NNS -LRB- DT	0.4311916
-2.816708	NNS -LRB- FW	-0.2572493
-1.723844	NNS -LRB- IN	-0.1107131
-1.262235	NNS -LRB- JJ	-0.504337
-2.816708	NNS -LRB- MD	-0.1685998
-0.6046579	NNS -LRB- NN	0.3395779
-0.2916349	NNS -LRB- NNP	-0.08165312
-1.231746	NNS -LRB- NNS	-0.1845445
-1.961205	NNS -LRB- RB	-0.1010983
-2.53956	NNS -LRB- VBG	-0.15932
-2.40026	NNS -LRB- VBN	-0.2001089
-2.53956	NNS -LRB- WP	-0.03453097
-1.888655	NNS -LRB- ``	-0.134768
-0.6281106	POS -LRB- CD	-0.5787331
-0.7674107	POS -LRB- NN	-0.5070571
-0.5092383	POS -LRB- NNP	-0.0965888
-1.32627	PRP -LRB- JJ	-0.073236
-1.32627	PRP -LRB- NN	-0.2345527
-0.1401787	PRP -LRB- NNP	-0.7031215
-1.577538	PRP -LRB- NNS	-0.2239491
-1.577538	PRP -LRB- RB
-1.577538	PRP -LRB- WP	-0.3625486
-0.1151397	PRP$ -LRB- NN	-0.4781241
-1.476481	RB -LRB- DT	-0.1571916
-1.337181	RB -LRB- JJ	-0.09205921
-1.218309	RB -LRB- NN	0.2029947
-0.1471276	RB -LRB- NNP	-0.7638784
-0.06694679	RP -LRB- NNP	-0.06233847
-0.4659315	TO -LRB- NN	0.07269022
-0.4400518	TO -LRB- NNP	-0.09103781
-1.164901	VB -LRB- CD	-0.2179115
-1.164901	VB -LRB- DT	-0.02190636
-1.41617	VB -LRB- JJ	-0.3168074
-1.41617	VB -LRB- NN	-0.3823758
-0.139662	VB -LRB- NNP	-0.06528616
-0.4659315	VBD -LRB- JJ
-0.4400518	VBD -LRB- NNP	-0.1542954
-1.194321	VBG -LRB- DT	-0.3366534
-0.4771213	VBG -LRB- NN	-0.2935935
-0.3388186	VBG -LRB- NNP	-0.06458461
-1.839416	VBN -LRB- CD
-1.839416	VBN -LRB- DT	-0.2654778
-1.422968	VBN -LRB- JJ	-0.1496424
-0.794857	VBN -LRB- NN	0.6491457
-0.1802078	VBN -LRB- NNP	-0.3173606
-1.839416	VBN -LRB- RB
-1.839416	VBN -LRB- ``	-0.1059109
-0.9280531	VBP -LRB- NN
-0.2108534	VBP -LRB- NNP	-0.2965814
-0.7089695	VBZ -LRB- NN	-0.1388045
-0.4249175	VBZ -LRB- NNP	0.08044431
-0.1151397	WDT -LRB- NN	-0.3823758
-2.001631	`` -LRB- -LRB-
-1.108339	`` -LRB- CD	-0.6152801
-1.724483	`` -LRB- JJ	-0.1127448
-1.041393	`` -LRB- LS	1.088726
-0.8864907	`` -LRB- NN	-0.4800499
-0.2284793	`` -LRB- NNP	-0.5386725
-2.001631	`` -LRB- NNS	-0.3919224
-1.750362	`` -LRB- ``	-0.309741
-0.291231	# -RRB- -LRB-	0.52745
-0.291231	$ -RRB- VBZ	-0.5104004
-0.5369618	'' -RRB- .	2.419327
-0.8141097	'' -RRB- </s>
-0.5628415	'' -RRB- RB	-0.2787068
-0.2359318	, -RRB- .	2.419327
-1.236511	-RRB- -RRB- ,
-0.7596679	-RRB- -RRB- -LRB-	0.2620434
-0.5166298	-RRB- -RRB- .	1.71433
-1.117638	-RRB- -RRB- </s>
-1.236511	-RRB- -RRB- DT	0.1008579
-1.375811	-RRB- -RRB- IN	-0.1900656
-1.401691	-RRB- -RRB- NN
-0.9357591	-RRB- -RRB- RB	0.0139057
-0.1390218	. -RRB- .	2.419327
-0.5873367	<s> -RRB- ,	-0.3088731
-1.042217	<s> -RRB- -LRB-	0.4991329
-1.16109	<s> -RRB- </s>
-0.8091855	<s> -RRB- IN	0.03260368
-1.30039	<s> -RRB- JJ	-0.3590204
-1.32627	<s> -RRB- NN
-1.32627	<s> -RRB- RB	0.1686947
-1.577538	<s> -RRB- WP	0.4414979
-1.577538	<s> -RRB- ``
-1.062393	CD -RRB- ,	0.0290848
-1.64823	CD -RRB- -LRB-	-0.2905419
-2.502102	CD -RRB- -RRB-	-0.2096776
-0.1905498	CD -RRB- .	-0.577019
-2.171109	CD -RRB- :	-0.2740926
-1.532065	CD -RRB- </s>
-2.068446	CD -RRB- CC	0.3047919
-2.462593	CD -RRB- CD	-0.1949873
-1.794937	CD -RRB- DT	-0.004440665
-3.387163	CD -RRB- EX
-1.581283	CD -RRB- IN	0.01292205
-1.915836	CD -RRB- JJ	0.2197822
-3.361283	CD -RRB- JJR
-2.74514	CD -RRB- MD	-0.1047354
-1.734416	CD -RRB- NN	-0.08219093
-1.554808	CD -RRB- NNP	0.2266421
-2.108318	CD -RRB- NNS	-0.02434087
-3.361283	CD -RRB- PDT	-0.07506621
-3.638431	CD -RRB- POS
-2.74514	CD -RRB- PRP	-0.1134082
-1.687601	CD -RRB- RB	-0.2480742
-3.638431	CD -RRB- RBR	0.1201133
-3.638431	CD -RRB- RBS
-2.620201	CD -RRB- TO	-0.09587014
-1.703747	CD -RRB- VBD	-0.1602316
-2.319171	CD -RRB- VBG	0.006553471
-2.319171	CD -RRB- VBN	0.06373805
-2.523291	CD -RRB- VBP	-0.03129941
-1.851193	CD -RRB- VBZ	-0.2307897
-2.3472	CD -RRB- WDT	0.2762654
-3.361283	CD -RRB- WP	0.3168166
-3.103111	CD -RRB- WRB	0.04941678
-2.426381	CD -RRB- ``	0.1449498
-0.592261	DT -RRB- ,
-0.592261	DT -RRB- NNP	-0.4303527
-0.2427597	FW -RRB- .	1.979356
-0.7089695	IN -RRB- -LRB-	0.3236199
-0.9602377	IN -RRB- .	2.544008
-0.6830899	IN -RRB- </s>
-1.69833	JJ -RRB- ,
-0.4711719	JJ -RRB- -LRB-	-0.6587754
-0.763428	JJ -RRB- .	1.641779
-0.5931663	JJ -RRB- </s>
-1.69833	JJ -RRB- CC
-1.72421	JJ -RRB- CD	-0.1289945
-1.975478	JJ -RRB- IN
-1.55903	JJ -RRB- NN
-1.69833	JJ -RRB- NNP	-0.555034
-1.72421	JJ -RRB- NNS	-0.2587956
-1.975478	JJ -RRB- VBZ
-1.619354	LS -RRB- ,	-0.0862014
-1.291995	LS -RRB- -LRB-	0.1766001
-0.598165	LS -RRB- .	1.127334
-2.059406	LS -RRB- :
-1.443263	LS -RRB- </s>
-1.200225	LS -RRB- DT	0.06514561
-1.243691	LS -RRB- IN	-0.1588857
-1.481052	LS -RRB- JJ	-0.0375026
-0.899195	LS -RRB- NN	-0.3771437
-0.6711859	LS -RRB- NNP	-0.4089509
-2.336554	LS -RRB- NNPS
-2.085286	LS -RRB- NNS
-2.085286	LS -RRB- PRP
-1.481052	LS -RRB- RB	0.01589128
-1.801234	LS -RRB- VB	-0.1458201
-2.336554	LS -RRB- VBD
-1.920106	LS -RRB- VBG	-0.09462202
-2.085286	LS -RRB- VBZ
-1.920106	LS -RRB- ``	-0.09462202
-0.291231	MD -RRB- VBP
-3.097586	NN -RRB- ''	0.09594619
-1.244654	NN -RRB- ,	0.2054483
-0.5390211	NN -RRB- -LRB-	-0.4627585
-1.958564	NN -RRB- -RRB-	-0.141629
-0.7051047	NN -RRB- .	0.148689
-2.657534	NN -RRB- :	-0.2218234
-0.6608034	NN -RRB- </s>
-1.715526	NN -RRB- CC	-0.2339954
-2.330175	NN -RRB- CD	-0.104013
-2.069262	NN -RRB- DT	-0.005808592
-3.374734	NN -RRB- EX
-1.601583	NN -RRB- IN	0.04469812
-1.992422	NN -RRB- JJ	-0.1662431
-2.384533	NN -RRB- JJR	-0.09979892
-2.004321	NN -RRB- MD	-0.1369046
-1.446681	NN -RRB- NN	0.05168992
-1.98084	NN -RRB- NNP	-0.4546139
-3.374734	NN -RRB- NNPS
-1.98084	NN -RRB- NNS	0.06181324
-3.374734	NN -RRB- POS	-0.2974365
-3.374734	NN -RRB- PRP	-0.1905253
-3.374734	NN -RRB- PRP$
-1.969559	NN -RRB- RB	-0.2160349
-2.162684	NN -RRB- TO	0.1947049
-2.198896	NN -RRB- VBD	0.03323674
-2.657534	NN -RRB- VBG	-0.1157006
-2.238405	NN -RRB- VBN	-0.2083592
-2.113466	NN -RRB- VBP	-0.02418679
-1.499926	NN -RRB- VBZ	-0.2125419
-2.218201	NN -RRB- WDT	-0.8348448
-2.958286	NN -RRB- WRB	0.01303357
-2.414496	NN -RRB- ``	-0.1834455
-0.8697805	NNP -RRB- ,	-0.2989955
-1.125053	NNP -RRB- -LRB-	0.61294
-2.639738	NNP -RRB- -RRB-
-0.4215354	NNP -RRB- .	0.3755112
-2.500438	NNP -RRB- :	-0.2445307
-1.584263	NNP -RRB- </s>
-1.584263	NNP -RRB- CC	-0.174868
-2.102777	NNP -RRB- CD	-0.2380803
-2.324625	NNP -RRB- DT	-0.01973063
-1.263928	NNP -RRB- IN	-0.2909899
-2.023595	NNP -RRB- JJ	-0.3208883
-2.023595	NNP -RRB- MD	-0.4057653
-1.362414	NNP -RRB- NN	-0.04871798
-1.395206	NNP -RRB- NNP	-0.02139884
-1.801747	NNP -RRB- NNS	0.1804595
-2.665618	NNP -RRB- POS
-2.916886	NNP -RRB- PRP
-1.926685	NNP -RRB- RB	0.05305189
-1.780557	NNP -RRB- TO	-0.374051
-1.395206	NNP -RRB- VBD	-0.06297362
-2.639738	NNP -RRB- VBG
-2.023595	NNP -RRB- VBN	0.1032223
-2.023595	NNP -RRB- VBP	-0.337778
-1.303436	NNP -RRB- VBZ	-0.02415931
-1.956649	NNP -RRB- WDT	-0.6129844
-2.324625	NNP -RRB- WRB	0.1869719
-2.639738	NNP -RRB- ``	-0.04850715
-0.8141097	NNPS -RRB- -LRB-	0.52745
-0.5369618	NNPS -RRB- .	2.419327
-1.11171	NNS -RRB- ,	-0.1825753
-0.6967371	NNS -RRB- -LRB-	0.292783
-0.7563228	NNS -RRB- .	1.512684
-0.8728284	NNS -RRB- </s>
-1.083682	NNS -RRB- CC	0.1425924
-2.101912	NNS -RRB- CD
-1.287802	NNS -RRB- IN	-0.1762542
-1.824764	NNS -RRB- MD	0.03599
-1.850643	NNS -RRB- NNS	-0.2501821
-1.850643	NNS -RRB- RB	0.1686947
-1.566591	NNS -RRB- TO	-0.05901784
-2.101912	NNS -RRB- VBD
-2.101912	NNS -RRB- VBG
-1.824764	NNS -RRB- VBN	0.08058755
-1.057353	NNS -RRB- VBP	0.1581993
-2.101912	NNS -RRB- VBZ
-1.850643	NNS -RRB- WDT
-0.8141097	RB -RRB- -LRB-	0.52745
-0.8141097	RB -RRB- </s>
-0.03996278	VB -RRB- -LRB-	0.3236199
-0.3679768	VBG -RRB- -LRB-	0.04019463
-1.136329	VBG -RRB- -RRB-	-0.4867917
-0.6010087	VBG -RRB- </s>
-0.8932909	VBN -RRB- ,
-0.8932909	VBN -RRB- .	2.544008
-0.6420228	VBN -RRB- DT	-0.02735338
-0.5170841	`` -RRB- .	2.340178
-0.7683522	`` -RRB- CD
-0.003488328	'' . </s>
-0.0003812611	-RRB- . </s>
-3.569832	-RRB- . NN	0.8466164
-0.01772877	. . </s>
-0.04139268	<s> . </s>
-0.09663168	CC . </s>
-0.001333215	CD . </s>
-2.678452	CD . NN	0.6427863
-0.003353642	DT . </s>
-0.009984221	FW . </s>
-0.001208052	IN . </s>
-0.000275044	JJ . </s>
-0.003743941	JJR . </s>
-0.01930515	JJS . </s>
-0.00240607	LS . </s>
-0.06694679	MD . </s>
-3.550188	NN . ,	-0.2069768
-4.142448	NN . -RRB-	0.04961509
-3.374096	NN . .	0.39794
-0.01106964	NN . </s>
-4.142448	NN . DT	-0.2253553
-4.142448	NN . IN	0.1201133
-3.124219	NN . JJ	-0.1743189
-1.634612	NN . NN	-0.08929133
-4.142448	NN . NNP
-3.369325	NNP . -LRB-
-2.777064	NNP . .	0.6257806
-0.002668857	NNP . </s>
-2.513823	NNP . NN	0.2801799
-0.002073009	NNPS . </s>
-3.565008	NNS . ''	0.5759248
-3.816276	NNS . ,
-3.816276	NNS . .	0.8851954
-0.001731984	NNS . </s>
-2.483652	NNS . NN	0.5939867
-0.02996322	POS . </s>
-2.827789	PRP . ''	0.3323534
-0.0008424726	PRP . </s>
-0.0006891742	RB . </s>
-0.003895044	RBR . </s>
-0.05115252	RBS . </s>
-0.0027929	RP . </s>
-0.01378828	TO . </s>
-0.06694679	UH . </s>
-0.01558174	VB . </s>
-2.772196	VB . DT	-0.2253553
-1.560146	VB . JJ	-0.3835649
-2.772196	VB . LS	0.1201133
-2.520927	VB . NN	0.6427863
-0.00327771	VBD . </s>
-0.005845236	VBG . </s>
-0.000217419	VBN . </s>
-0.002419474	VBP . </s>
-0.001987621	VBZ . </s>
-0.1151397	WP . </s>
-0.1390218	WRB . </s>
-0.003696145	`` . </s>
-0.6592078	'' : DT	-0.3685862
-0.6592078	'' : JJ
-1.197002	-RRB- : -LRB-	0.4736074
-0.3222193	-RRB- : CD	-0.4110097
-1.197002	-RRB- : DT	-0.1078797
-1.61345	-RRB- : JJ
-1.61345	-RRB- : NN
-1.021189	-RRB- : NNP	-0.06966493
-1.61345	-RRB- : NNS
-1.197002	-RRB- : VB	0.9378974
-0.5130797	: : NN	-0.5093124
-0.8747829	<s> : -LRB-	-0.2437278
-1.039963	<s> : NN
-0.2730013	<s> : NNP	-0.09567556
-1.039963	<s> : VB	0.6365858
-1.960238	CD : $	0.1201133
-1.424917	CD : -LRB-	0.6559544
-0.447158	CD : CD	0.2593098
-1.243038	CD : DT	0.02085513
-1.960238	CD : IN
-1.424917	CD : JJ	0.08907738
-0.9420081	CD : NN	-0.09204024
-0.60206	CD : NNP	-0.2782221
-1.70897	CD : RB
-1.70897	CD : VBG	-0.1354249
-1.960238	CD : VBN	-0.3435272
-0.592261	DT : JJ
-0.2126081	FW : CD	-1.247716
-0.4913617	FW : NN	-0.4282317
-0.5213249	IN : -LRB-	-0.9222063
-1.832354	IN : </s>
-2.083623	IN : CC
-2.083623	IN : CD
-1.832354	IN : DT	-0.03830107
-2.083623	IN : IN
-1.832354	IN : JJ
-1.22812	IN : NN	-0.2498863
-1.667175	IN : NNP	-0.140562
-1.667175	IN : NNS	-0.09759968
-1.667175	IN : RB	0.001451731
-0.3556991	IN : VB	-0.5659176
-2.083623	IN : VBG	-0.4687278
-1.782593	JJ : </s>
-1.366145	JJ : CC	-0.2029856
-0.7132105	JJ : DT	-0.105625
-1.505445	JJ : IN	0.03411633
-1.190332	JJ : JJ	-0.1918316
-0.7923917	JJ : NN	-0.672407
-1.505445	JJ : NNP	-0.137675
-1.531325	JJ : NNS
-1.247272	JJ : PRP	-0.02497113
-0.7132105	JJ : RB	-0.1490378
-1.782593	JJ : TO	0.3001688
-1.505445	JJ : VB	0.7157346
-1.782593	JJ : VBG
-1.95726	NN : -LRB-	-0.374557
-3.227671	NN : :
-2.342611	NN : </s>
-2.488739	NN : CC	-0.07214552
-1.710587	NN : CD	-0.4028685
-1.589283	NN : DT	-0.07894087
-3.201792	NN : EX	-0.002930775
-2.031362	NN : IN	-0.02739859
-1.254897	NN : JJ	-0.2171859
-2.943619	NN : JJR	0.2287465
-2.886679	NN : MD
-0.3273707	NN : NN	-0.1080554
-1.471705	NN : NNP	0.2704284
-1.589283	NN : NNS	-0.03826237
-2.146316	NN : PRP	0.3713106
-2.76174	NN : PRP$	-0.05924028
-1.872438	NN : RB	-0.06543094
-3.201792	NN : TO	0.1754875
-0.5306528	NN : VB	-0.1917355
-2.173468	NN : VBG	-0.06075138
-3.227671	NN : VBN
-2.623437	NN : VBZ	-0.03998792
-2.943619	NN : WDT	0.3040363
-3.227671	NN : WP
-2.518702	NN : WRB	-0.1356473
-2.550887	NN : ``	-0.105158
-1.568788	NNP : -LRB-	0.2615297
-0.9155757	NNP : </s>
-1.392697	NNP : CD	-0.6548878
-1.226366	NNP : DT	-0.4089459
-2.43266	NNP : IN
-1.364668	NNP : JJ	-0.4393629
-1.19772	NNP : NN	0.78111
-0.3345241	NNP : NNP	-0.6975014
-2.43266	NNP : NNPS	-0.05906589
-1.42266	NNP : NNS	-0.6162848
-2.683928	NNP : PRP
-2.091667	NNP : RB	-0.09345478
-1.162248	NNP : VB	-0.1277858
-1.72369	NNP : VBG	-0.2333187
-2.683928	NNP : VBP
-2.43266	NNP : VBZ
-2.43266	NNP : WDT	0.1285233
-2.091667	NNP : WP	-0.182833
-2.40678	NNP : WRB	-0.3075485
-2.26748	NNP : ``
-1.252965	NNPS : </s>
-1.278845	NNPS : CD
-0.9378521	NNPS : DT	-0.08162944
-1.278845	NNPS : JJ
-0.9947928	NNPS : NN	-0.1836523
-0.4372497	NNPS : NNP	-0.05327988
-1.530113	NNPS : NNS
-1.113665	NNPS : VB	0.9378974
-2.034093	NNS : -LRB-	0.483239
-0.4718006	NNS : </s>
-1.666117	NNS : CC	-0.08298072
-1.533491	NNS : CD	0.01117218
-0.9797358	NNS : DT	0.1222799
-1.414305	NNS : IN	-0.09388331
-1.131003	NNS : JJ	0.1308153
-2.375086	NNS : JJR	0.1287668
-0.9927008	NNS : NN	0.6108006
-1.178776	NNS : NNP	-0.07837951
-1.636153	NNS : NNS	-0.4635966
-1.450517	NNS : PRP	0.7441446
-1.365087	NNS : RB	0.07005924
-2.626354	NNS : TO	0.3001688
-1.232461	NNS : VB	-0.6917323
-1.733063	NNS : VBG	-0.1159933
-2.375086	NNS : VBN	-0.1880053
-2.626354	NNS : WDT
-2.091034	NNS : WRB	-0.2073927
-2.375086	NNS : ``
-0.7389328	PRP : DT	-0.2519142
-0.990201	PRP : IN
-0.990201	PRP : PRP
-0.7389328	PRP : RB
-1.042112	RB : CC	-0.0629933
-0.9028116	RB : DT	-0.1118037
-1.067991	RB : NN
-0.9028116	RB : PRP	-0.09773305
-0.7269987	RB : RB	-0.02305344
-1.31926	RB : ``
-0.5130797	RP : JJ
-0.7683522	SYM : JJ
-0.5170841	SYM : PRP	-0.5224389
-1.720017	VB : CD	-0.9668615
-2.745256	VB : DT	-0.1250148
-2.745256	VB : IN
-1.258135	VB : JJ	-0.7883081
-0.06315877	VB : NN	-0.9900569
-1.650936	VB : NNP	-0.4724776
-1.602631	VB : NNS	-0.6811042
-2.719377	VB : VB	-0.6275455
-2.228172	VB : VBG	-0.8676733
-0.7683522	VBD : </s>
-0.9602377	VBG : </s>
-0.9602377	VBG : NN
-0.9602377	VBG : NNS
-0.7089695	VBG : PRP
-0.9602377	VBG : RB
-1.486208	VBN : CC
-1.486208	VBN : CD
-0.6307052	VBN : DT	0.139828
-1.20906	VBN : IN	-0.4185827
-1.069759	VBN : JJ	-0.1080598
-1.20906	VBN : NN
-1.486208	VBN : NNP
-0.7690079	VBN : RB	-0.0009767711
-1.486208	VBN : TO
-1.486208	VBN : VBG
-1.486208	VBN : ``
-1.156532	VBP : </s>
-0.7400844	VBP : DT	-0.143838
-1.156532	VBP : JJ
-0.9052642	VBP : NN	-0.6126531
-1.156532	VBP : VBG
-1.156532	VBP : ``
-0.8591811	VBZ : JJ	-0.1809806
-1.136329	VBZ : MD	-0.3637412
-0.8850608	VBZ : RB	0.02027494
-1.136329	VBZ : VBG
-1.136329	VBZ : ``
-1.026977	'' CC DT	0.09138204
-1.562298	'' CC IN
-1.28515	'' CC JJ	-0.4191222
-1.562298	'' CC MD
-1.31103	'' CC NN	-0.2035977
-1.026977	'' CC RB	-0.1432514
-1.14585	'' CC VB	0.0003512651
-1.562298	'' CC VBP
-0.544068	'' CC ``	0.09442034
-2.913539	, CC ,
-3.190687	, CC -LRB-
-1.832509	, CC CD	-0.3304596
-0.8202745	, CC DT	-0.2438338
-2.097823	, CC EX	0.1387731
-1.180677	, CC IN	-0.3135254
-1.126157	, CC JJ	-0.2297645
-2.230449	, CC JJR	-0.1007653
-1.723364	, CC MD	0.06320524
-1.104735	, CC NN	0.07373452
-1.018642	, CC NNP	-0.6405073
-1.412789	, CC NNS	-0.07958937
-2.913539	, CC PDT	0.4765174
-1.050241	, CC PRP	-0.6020591
-1.978637	, CC PRP$	0.08803749
-0.710996	, CC RB	-0.6508965
-2.297396	, CC RBR	0.1056684
-2.774239	, CC RBS	-0.04728627
-1.753328	, CC TO	0.1515123
-1.644183	, CC VB	-0.2527713
-1.808375	, CC VBD	0.2318827
-1.584185	, CC VBG	0.1907707
-2.376577	, CC VBN	-0.07220113
-1.753328	, CC VBP	0.3244618
-1.652301	, CC VBZ	-0.07159477
-3.190687	, CC WDT
-2.297396	, CC WP	0.07905874
-2.172457	, CC WRB	0.07748362
-3.190687	, CC ``	-0.3721257
-0.8141097	-LRB- CC JJ
-0.5628415	-LRB- CC NN	-0.2669992
-1.543607	-RRB- CC -LRB-	0.05285022
-1.80178	-RRB- CC CD	-0.06496457
-0.6850342	-RRB- CC DT	0.07684743
-1.150874	-RRB- CC IN	-0.2816654
-0.8024198	-RRB- CC JJ	-0.333629
-2.078928	-RRB- CC MD	-0.1566671
-0.8498445	-RRB- CC NN	-0.1745936
-0.9637879	-RRB- CC NNP	-0.2401273
-1.827659	-RRB- CC NNS
-1.486667	-RRB- CC PRP	-0.1380941
-1.034369	-RRB- CC RB	-0.1466139
-1.543607	-RRB- CC VB	-0.1103
-1.80178	-RRB- CC VBZ
-0.6118198	: CC DT	-0.1676613
-0.7501225	: CC IN	-0.08684823
-1.050874	: CC JJ	-0.1675804
-1.467322	: CC PRP	-0.3468949
-1.050874	: CC RB	-0.249441
-1.216054	: CC VB
-1.216054	: CC VBG
-1.177842	<s> CC ,	0.06367958
-2.233318	<s> CC CD	-0.06496457
-0.6751671	<s> CC DT	-0.03907454
-1.520265	<s> CC EX	-0.3430761
-0.582413	<s> CC IN	-0.7064759
-1.441084	<s> CC JJ	0.1444786
-2.510466	<s> CC MD
-1.654964	<s> CC NN	-0.1816749
-1.073107	<s> CC NNP	-0.3111188
-1.582413	<s> CC NNS	-0.141246
-2.233318	<s> CC PDT	0.4765174
-1.083573	<s> CC PRP	-0.1474145
-2.510466	<s> CC PRP$	-0.3216095
-1.062888	<s> CC RB	-0.5175781
-2.259198	<s> CC TO	-0.03533351
-2.510466	<s> CC VB
-2.259198	<s> CC VBG
-2.259198	<s> CC VBP	-0.6933553
-2.259198	<s> CC VBZ	-0.2492446
-1.793266	<s> CC WP	-0.08385447
-1.975146	<s> CC WRB	-0.2065443
-0.3575113	CC CC CC	-0.4036436
-1.426894	CC CC CD	-0.3929823
-1.426894	CC CC DT	-0.2281106
-1.010445	CC CC JJ	-1.068916
-1.149746	CC CC NN	-0.4855247
-1.426894	CC CC NNP	-0.5034913
-1.149746	CC CC NNPS	-0.5405159
-1.426894	CC CC NNS	-0.4997457
-1.961143	CD CC $	0.03654695
-0.6092386	CD CC CD	-0.1013255
-0.9836975	CD CC DT	-0.1364707
-2.377591	CD CC EX
-1.044967	CD CC IN	0.1638649
-1.201753	CD CC JJ	-0.2762418
-1.032002	CD CC JJR	-0.4055073
-2.377591	CD CC MD
-1.38739	CD CC NN	-0.2283022
-1.4843	CD CC NNP	-0.1991085
-1.961143	CD CC NNS	-0.2407926
-1.78533	CD CC PRP	-0.4519504
-0.7309722	CD CC RB	-0.5172513
-2.100443	CD CC VB
-1.660391	CD CC VBD	-0.03355014
-2.126323	CD CC VBG
-2.377591	CD CC VBN
-1.78533	CD CC VBP	-0.1593553
-1.84227	CD CC VBZ	0.005265281
-2.377591	CD CC ``
-0.60206	DT CC DT	-0.04766166
-1.457562	DT CC IN
-1.206294	DT CC JJ	-0.05086945
-0.7403627	DT CC NN	-0.3816248
-1.180414	DT CC NNS
-0.7403627	DT CC RB	-0.04126994
-1.457562	DT CC VBP
-0.291231	FW CC RB
-2.323312	IN CC ,
-2.323312	IN CC CD	-0.4379157
-0.6007175	IN CC DT	-0.2369331
-1.128991	IN CC IN	-0.1428595
-1.094229	IN CC JJ	-0.1259317
-2.046164	IN CC JJR	-0.6331726
-0.7768087	IN CC NN	-0.3938764
-2.323312	IN CC NNP
-1.208173	IN CC NNS	-0.2402324
-1.731051	IN CC PRP	-0.1380554
-1.509202	IN CC PRP$	-0.9880069
-0.8964187	IN CC RB	-0.3226824
-2.046164	IN CC TO	0.2767828
-1.230449	IN CC VB	-0.1456016
-1.906864	IN CC VBD	-0.1321435
-1.606112	IN CC VBG	0.03718863
-1.731051	IN CC VBN	-0.04999699
-2.072044	IN CC VBP	-0.631513
-2.323312	IN CC VBZ
-3.354689	JJ CC $	0.6011987
-3.354689	JJ CC CC	-0.2616886
-2.819369	JJ CC CD	-0.01543352
-1.190332	JJ CC DT	-0.2398745
-2.178852	JJ CC EX	0.3540895
-1.659766	JJ CC IN	-0.2623315
-0.312693	JJ CC JJ	0.15014
-1.949515	JJ CC JJR	-0.2039743
-3.103421	JJ CC JJS	0.07324946
-1.606081	JJ CC MD	-0.445673
-1.096535	JJ CC NN	-0.2383288
-2.54058	JJ CC NNP	-0.1644552
-3.354689	JJ CC NNPS	-0.4158346
-1.769728	JJ CC NNS	0.1710137
-1.536258	JJ CC PRP	-0.03726077
-2.049218	JJ CC PRP$	0.08650696
-1.001504	JJ CC RB	-0.2776694
-1.833009	JJ CC RBR	-0.2611256
-2.499187	JJ CC RBS	0.316211
-2.33646	JJ CC TO	-0.1622016
-1.476122	JJ CC VB	-0.03451657
-2.03543	JJ CC VBD	0.1291804
-1.677257	JJ CC VBG	-0.1793481
-1.824576	JJ CC VBN	-0.1322262
-1.800217	JJ CC VBP	-0.2017204
-1.677257	JJ CC VBZ	-0.07278305
-3.354689	JJ CC WP
-3.077542	JJ CC WRB	-0.1438219
-3.103421	JJ CC ``
-1.405972	JJR CC DT	0.3266581
-2.396173	JJR CC EX
-1.540671	JJR CC IN	-0.1160095
-1.259844	JJR CC JJ	-0.2205725
-0.3102218	JJR CC JJR	-0.2062899
-1.803912	JJR CC MD	0.04357597
-1.46812	JJR CC NN	-0.2650916
-1.803912	JJR CC PRP	-0.1263696
-1.220335	JJR CC RB	-0.1168325
-0.9588141	JJR CC RBR	-0.6209788
-1.220335	JJR CC VB	-0.2108199
-1.803912	JJR CC VBG	-0.1906718
-2.119025	JJR CC VBN	0.02757654
-1.435935	JJR CC VBP	-0.2557289
-1.803912	JJR CC VBZ	-0.1236556
-0.592261	JJS CC DT
-0.592261	JJS CC RBS	-0.3044687
-0.2304489	MD CC MD	-0.003438711
-1.044559	MD CC NN	-0.49406
-0.7932904	MD CC VB
-3.449239	NN CC $	0.6986803
-3.097334	NN CC ,	-0.002958357
-3.865687	NN CC -LRB-
-3.330366	NN CC CC	-0.0005571842
-2.295702	NN CC CD	-0.2852288
-1.008608	NN CC DT	-0.0647285
-2.471793	NN CC EX	-0.2413807
-3.273426	NN CC FW	-0.3708625
-1.623442	NN CC IN	-0.3826903
-0.9539726	NN CC JJ	-0.08729601
-1.861245	NN CC JJR	-0.2643055
-3.449239	NN CC JJS	-0.328051
-1.902358	NN CC MD	-0.1652436
-0.4117917	NN CC NN	-0.1950095
-1.899289	NN CC NNP	-0.06508195
-1.247437	NN CC NNS	-0.2865372
-3.614419	NN CC PDT	0.3973686
-1.71312	NN CC PRP	-0.2162406
-1.965217	NN CC PRP$	0.07483721
-1.15121	NN CC RB	-0.6338131
-3.588539	NN CC RBR	-0.04737967
-2.937634	NN CC RBS	0.2790469
-2.083094	NN CC TO	-0.3373678
-1.210844	NN CC VB	0.05013978
-1.861245	NN CC VBD	0.04612541
-1.395479	NN CC VBG	0.06732535
-2.165086	NN CC VBN	-0.4445246
-1.875486	NN CC VBP	0.3681886
-1.650176	NN CC VBZ	-0.4180542
-3.588539	NN CC WDT
-3.097334	NN CC WP	0.01815376
-2.671366	NN CC WRB	-0.05041486
-3.614419	NN CC ``
-3.066963	NNP CC CC	-0.2616886
-1.854913	NNP CC CD	-0.4912114
-1.135582	NNP CC DT	-0.359003
-2.173672	NNP CC IN	-0.2938816
-1.298611	NNP CC JJ	-0.532594
-3.066963	NNP CC MD	-0.1566671
-1.303463	NNP CC NN	-0.329476
-0.1369099	NNP CC NNP	0.09081483
-2.531642	NNP CC NNPS	0.03888574
-1.775732	NNP CC NNS	0.006295443
-2.474702	NNP CC PRP	-0.3147867
-2.022404	NNP CC PRP$	0.2058066
-1.951823	NNP CC RB	-0.04578003
-2.252853	NNP CC VB	-0.01846808
-2.173672	NNP CC VBD	-0.1463811
-2.474702	NNP CC VBG	-0.05891858
-2.531642	NNP CC VBN	-0.02726465
-2.789815	NNP CC VBP	-0.1176231
-2.531642	NNP CC VBZ	-0.1049136
-3.066963	NNP CC ``
-1.041393	NNPS CC CC	-0.5211034
-1.098333	NNPS CC DT	-0.007248044
-1.633654	NNPS CC IN
-1.382385	NNPS CC JJ	-0.1136339
-1.217206	NNPS CC NN
-0.5185139	NNPS CC NNP	0.1027537
-0.7056006	NNPS CC NNPS	-0.00565818
-1.041393	NNPS CC NNS	-0.08097357
-1.382385	NNPS CC PRP$
-2.799494	NNS CC ,	-0.2335775
-3.567846	NNS CC -LRB-
-3.290698	NNS CC CC	-0.1534024
-2.197434	NNS CC CD	-0.401653
-1.102458	NNS CC DT	0.03881621
-2.577645	NNS CC EX	0.9590499
-1.508224	NNS CC IN	0.3522727
-0.9408228	NNS CC JJ	-0.7036422
-1.845251	NNS CC JJR	-0.1437962
-3.290698	NNS CC JJS	0.1576958
-2.090978	NNS CC MD	-0.463822
-0.8627566	NNS CC NN	-0.09381986
-2.235222	NNS CC NNP	-0.2674765
-3.316578	NNS CC NNPS
-0.511692	NNS CC NNS	0.107115
-1.696831	NNS CC PRP	0.01160443
-1.861642	NNS CC PRP$	-0.4241692
-1.124327	NNS CC RB	-0.4118856
-3.567846	NNS CC RBR	-0.1556658
-3.151398	NNS CC RBS	-0.7094196
-1.968406	NNS CC TO	0.004425406
-1.163787	NNS CC VB	-0.2309393
-1.914887	NNS CC VBD	0.1495029
-1.405431	NNS CC VBG	-0.242306
-2.235222	NNS CC VBN	-0.1189258
-1.766964	NNS CC VBP	-0.309472
-1.678189	NNS CC VBZ	0.2313505
-3.567846	NNS CC WDT
-3.316578	NNS CC WP
-2.639793	NNS CC WRB	-0.2753773
-3.151398	NNS CC ``
-0.8986896	POS CC DT	0.09990709
-0.9245694	POS CC JJ	-0.1136339
-0.5835766	POS CC NN	-0.112755
-0.8986896	POS CC NNP	-0.179056
-1.175838	POS CC VBD
-1.047425	PRP CC DT	0.02869761
-1.421005	PRP CC IN	-0.1196264
-1.559308	PRP CC JJ	0.2364402
-1.86006	PRP CC MD	0.5849732
-2.025239	PRP CC NN	-0.1689617
-0.4986102	PRP CC PRP	0.4881929
-1	PRP CC PRP$	0.3065569
-0.8091855	PRP CC RB	-0.1124554
-0.8289295	PRP CC VB	0.2881513
-2.025239	PRP CC VBD
-1.508155	PRP CC VBG	-0.02471554
-2.276508	PRP CC VBN
-2.276508	PRP CC VBP
-1.684247	PRP CC VBZ	-0.1527074
-1.335792	PRP$ CC NNP	-0.9469035
-1.826996	PRP$ CC NNS	-0.1753416
-0.03718158	PRP$ CC PRP$	-0.7849289
-2.275491	RB CC CD
-1.059437	RB CC DT	-0.05091226
-2.275491	RB CC EX	-0.07098
-1.370227	RB CC IN	-0.2131199
-1.433896	RB CC JJ	0.2855287
-2.275491	RB CC JJR
-2.110311	RB CC JJS	0.05442625
-1.566522	RB CC MD	0.06813967
-1.758407	RB CC NN	-0.1151677
-2.526759	RB CC NNP
-1.80956	RB CC NNS	-0.1431919
-1.370227	RB CC PRP	-0.377617
-1.991439	RB CC PRP$	0.2365837
-0.3741932	RB CC RB	-0.03309309
-2.526759	RB CC RBR
-1.991439	RB CC TO	0.1401795
-0.8931057	RB CC VB	0.2200562
-1.457377	RB CC VBD	-0.07740918
-1.50853	RB CC VBG	-0.268258
-1.991439	RB CC VBN	-0.2492696
-1.758407	RB CC VBP	-0.1106222
-1.934498	RB CC VBZ	-0.09163672
-1.882296	RBR CC DT
-1.882296	RBR CC JJ
-1.882296	RBR CC MD	-0.3061358
-1.605148	RBR CC RB
-0.07255067	RBR CC RBR	0.05862737
-1.882296	RBR CC VB
-1.631027	RBR CC VBP	-0.1841115
-1.640185	RP CC DT
-1.363037	RP CC JJ	0.004537404
-1.223737	RP CC MD	0.5849732
-1.047924	RP CC NN	-0.01384655
-0.9229848	RP CC RB	-0.05942527
-1.223737	RP CC RP	0.01820824
-1.388916	RP CC TO	-0.03533351
-0.6799468	RP CC VB	-0.1550346
-1.223737	RP CC VBG
-1.047924	RP CC VBN	-0.02468508
-1.388916	RP CC VBZ
-1.640185	RP CC WRB
-0.4168254	TO CC DT	-0.1782655
-1.234939	TO CC IN	-0.5244007
-1.20906	TO CC JJ	-0.02918762
-0.6720979	TO CC NN	-0.1783967
-1.486208	TO CC RB	-0.467358
-0.8939466	TO CC VB	0.02725513
-1.320146	VB CC DT	-0.2445129
-2.485048	VB CC EX	-0.1853257
-1.666934	VB CC IN	-0.05661736
-1.643453	VB CC JJ	0.267296
-2.319868	VB CC JJR	-0.04001197
-2.019116	VB CC MD	0.8536931
-1.459808	VB CC NN	-0.2121065
-2.736316	VB CC NNP
-1.967964	VB CC NNS	-0.1908689
-1.560478	VB CC PRP	-0.112716
-2.736316	VB CC PRP$
-1.214636	VB CC RB	-0.2307849
-2.485048	VB CC RBR	0.08790559
-1.718086	VB CC TO	-0.5228788
-0.1701578	VB CC VB	-0.3056705
-2.319868	VB CC VBD	-0.1009855
-2.200996	VB CC VBG	-0.1654988
-2.485048	VB CC VBN
-2.019116	VB CC VBP	-0.195105
-1.880814	VB CC VBZ	-0.08719243
-2.459168	VB CC WP	-0.1699949
-2.485048	VB CC WRB
-0.90309	VBD CC DT	0.2750211
-1.507324	VBD CC IN	-0.2483514
-1.041393	VBD CC JJ	-0.1509656
-1.507324	VBD CC NN
-1.758592	VBD CC NNS	-0.5020487
-1.041393	VBD CC RB	-0.0592575
-1.758592	VBD CC TO	0.1684966
-1.342144	VBD CC VB	0.0003512651
-0.4393327	VBD CC VBD	0.02722931
-1.223272	VBD CC VBG	-0.3986394
-1.758592	VBD CC WRB	-0.3958635
-1.318063	VBG CC DT	-0.02076995
-2.433203	VBG CC EX	-0.3197526
-1.664851	VBG CC IN	-0.2158524
-1.20412	VBG CC JJ	-0.1204741
-2.433203	VBG CC JJR
-1.897883	VBG CC MD	0.3770881
-1.113943	VBG CC NN	-0.178825
-1.897883	VBG CC NNP	-0.05420882
-1.577701	VBG CC NNS	-0.1160919
-1.716003	VBG CC PRP	0.04920712
-1.443002	VBG CC RB	-0.2320875
-2.156055	VBG CC TO	0.2767828
-1.443002	VBG CC VB	0.05273515
-2.181935	VBG CC VBD	-0.6884005
-0.2388821	VBG CC VBG	0.05892479
-2.156055	VBG CC VBN	-0.1652713
-2.156055	VBG CC VBP	-0.3980469
-2.156055	VBG CC VBZ	-0.1517646
-2.473475	VBN CC CD	-0.1226992
-0.9542425	VBN CC DT	-0.3520873
-2.215303	VBN CC EX	0.02690318
-1.681241	VBN CC IN	0.05369964
-1.079181	VBN CC JJ	0.2629095
-1.857332	VBN CC JJR	-0.06895149
-1.538574	VBN CC MD	-0.03787076
-1.32373	VBN CC NN	0.1106004
-2.750623	VBN CC NNP	-0.5106267
-1.50515	VBN CC NNS	-0.5623138
-1.50515	VBN CC PRP	0.6512032
-2.499355	VBN CC PRP$	-0.5254396
-0.9452876	VBN CC RB	-0.005402148
-2.158362	VBN CC RBR	0.1060157
-2.334175	VBN CC TO	0.2668224
-1.303045	VBN CC VB	-0.2065434
-2.215303	VBN CC VBD	-0.159586
-1.614294	VBN CC VBG	0.232346
-0.4507923	VBN CC VBN	-0.02302706
-1.706065	VBN CC VBP	-0.1383926
-1.760422	VBN CC VBZ	-0.002615839
-2.750623	VBN CC WP
-2.033424	VBN CC WRB	-0.01971564
-0.845098	VBP CC DT	-0.2276906
-1.805336	VBP CC IN
-1.213075	VBP CC JJ	-0.2162538
-1.528188	VBP CC MD	0.1713506
-0.9912261	VBP CC NN	-0.06594385
-1.554068	VBP CC NNS
-1.554068	VBP CC PRP	-0.5421672
-1.088136	VBP CC RB	-0.292826
-1.805336	VBP CC VB
-1.805336	VBP CC VBD
-1.805336	VBP CC VBN
-0.4597472	VBP CC VBP	-0.3925431
-1.805336	VBP CC VBZ
-1.554068	VBP CC WP	-0.1746171
-1.917913	VBZ CC CD	-0.4952111
-0.8485312	VBZ CC DT	0.02114278
-1.666645	VBZ CC IN	-0.0769992
-0.9576757	VBZ CC JJ	-0.235664
-1.917913	VBZ CC MD	-0.1566671
-0.8485312	VBZ CC NN	-0.1423768
-1.666645	VBZ CC NNP	-0.2599199
-0.7815844	VBZ CC NNS	-0.07380879
-1.917913	VBZ CC PRP$	-0.2656745
-1.200714	VBZ CC RB	-0.1154094
-1.640766	VBZ CC VB	-0.2631452
-0.7235925	VBZ CC VBZ	-0.034711
-1.917913	VBZ CC WDT
-1.092863	WRB CC MD
-1.092863	WRB CC NNS
-0.8415951	WRB CC TO	-0.7099398
-1.092863	WRB CC WP
-0.3756636	WRB CC WRB	0.008788243
-0.9942053	`` CC DT
-1.245474	`` CC NNS
-0.9942053	`` CC PRP
-0.3521825	`` CC ``	-0.02264546
-0.1026623	# CD </s>
-2.379957	$ CD $	-0.4101066
-1.611605	$ CD ,	-0.1326063
-1.844637	$ CD -LRB-	0.07570082
-1.611605	$ CD -RRB-	-0.3108001
-1.361728	$ CD .	1.283102
-1.787697	$ CD :	-0.533658
-1.524455	$ CD CC	-0.3094496
-0.3457397	$ CD CD	-0.2030935
-1.389757	$ CD DT	-0.5912284
-0.7269987	$ CD IN	-0.2733807
-2.379957	$ CD JJR	-0.4863302
-2.379957	$ CD MD
-1.389757	$ CD NN	0.02514344
-1.787697	$ CD NNP	-0.2136775
-2.128689	$ CD NNS	-0.2562536
-2.379957	$ CD RB	-0.4284237
-1.20412	$ CD TO	-0.6730836
-0.291231	'' CD NNP	-0.3316408
-3.586945	, CD ''	-0.2574721
-0.555351	, CD ,	-0.6920302
-1.813794	, CD -LRB-	-1.053463
-0.3301984	, CD -RRB-	0.1055422
-1.264979	, CD .	0.00434804
-2.357862	, CD :	-0.4383376
-2.091594	, CD </s>
-2.818592	, CD CC	-0.1106692
-2.073865	, CD CD	-0.3867432
-3.586945	, CD DT
-2.517562	, CD FW	0
-1.079988	, CD IN	-0.6546119
-2.129382	, CD JJ	-0.2114242
-3.335676	, CD LS	0.04188201
-1.848556	, CD MD	-0.1069334
-1.662245	, CD NN	-0.1345829
-1.869745	, CD NNP	-0.3428597
-2.040441	, CD NNS	-0.2165005
-2.994684	, CD POS	-0.1272267
-3.335676	, CD RB	-0.1442345
-3.586945	, CD TO	-0.05714428
-3.335676	, CD VBD
-3.586945	, CD VBN
-2.471805	, CD VBZ	-0.3374301
-3.335676	, CD WDT
-3.335676	, CD ``
-0.5566552	-LRB- CD ,	-1.743841
-0.1657082	-LRB- CD -RRB-	-0.2564881
-2.784346	-LRB- CD .	0.8808855
-3.068398	-LRB- CD :	-0.5246892
-3.068398	-LRB- CD CC	-0.5940027
-3.068398	-LRB- CD CD	-0.2428443
-1.925773	-LRB- CD NN	-0.7524942
-1.727406	-LRB- CD NNP	-0.5552003
-2.505557	-LRB- CD NNS	-0.4331535
-3.319667	-LRB- CD TO	-0.05714428
-1.16109	-RRB- CD ,
-1.577538	-RRB- CD -LRB-
-1.577538	-RRB- CD -RRB-	-0.06317183
-1.32627	-RRB- CD .	1.796976
-0.9852768	-RRB- CD </s>
-1.577538	-RRB- CD IN	-0.2626191
-1.30039	-RRB- CD JJ	0.01805611
-1.577538	-RRB- CD MD	0.1004804
-0.8091855	-RRB- CD NN	0.01080446
-0.559308	-RRB- CD NNP	-0.5557497
-1.32627	-RRB- CD NNS	-0.2310442
-1.840141	: CD ,	-0.3226432
-1.187207	: CD -LRB-	-0.8861396
-1.296352	: CD -RRB-	-0.219434
-0.9373298	: CD .	0.9950366
-1.363299	: CD :	0.05217147
-0.9373298	: CD </s>
-1.664329	: CD CD	-0.08772916
-1.44248	: CD IN	-0.1218932
-1.979442	: CD JJ	-0.1840416
-0.4424798	: CD NN	-0.5328234
-1.163726	: CD NNP	0.2426675
-1.44248	: CD NNS	-0.4350624
-1.979442	: CD VBN	-0.449419
-2.005321	: CD VBP	-0.249706
-1.511466	<s> CD ,	0.326812
-1.539494	<s> CD -LRB-	-0.5082582
-0.9995822	<s> CD -RRB-	-0.1711432
-0.979189	<s> CD .	0.4721577
-2.113526	<s> CD :	-0.096596
-1.737862	<s> CD </s>
-2.579457	<s> CD CC	-0.1466012
-2.113526	<s> CD CD	-0.2406535
-2.579457	<s> CD DT	-0.6415101
-0.6345985	<s> CD IN	-1.248447
-0.9197055	<s> CD JJ	-0.6052174
-2.553577	<s> CD JJR	-0.2447576
-1.601642	<s> CD MD	0.3670059
-0.8405243	<s> CD NN	-0.4863744
-1.082117	<s> CD NNP	-0.4547836
-1.344518	<s> CD NNS	-0.5431904
-2.830725	<s> CD POS	-0.1567833
-2.295405	<s> CD RB	-0.4973595
-2.238464	<s> CD VBG	-0.1981983
-2.830725	<s> CD VBN
-1.654888	<s> CD VBZ	-0.4476503
-1.267954	CC CD ,	-0.1950129
-2.006886	CC CD -LRB-	-0.5329739
-1.540955	CC CD -RRB-	0.2928184
-1.489802	CC CD .	1.513551
-1.402652	CC CD CC	-0.1513592
-1.267954	CC CD CD	-0.1364492
-0.875843	CC CD IN	-0.3093393
-1.540955	CC CD JJ	0.2867085
-2.006886	CC CD MD	-0.1033497
-0.61797	CC CD NN	-0.3566548
-1.165291	CC CD NNP	-0.6752456
-0.8005921	CC CD NNS	-0.2017868
-2.258154	CC CD POS
-1.489802	CC CD RB	-0.5425335
-2.006886	CC CD TO	0.1864271
-1.981007	CC CD VBD
-2.258154	CC CD VBG
-2.006886	CC CD VBN	-0.2485497
-2.258154	CC CD VBP
-1.540955	CC CD VBZ	-0.3819067
-2.258154	CC CD WDT
-1.180475	CD CD ,	-0.1649871
-1.667142	CD CD -LRB-	-0.08983436
-1.542203	CD CD -RRB-	-0.0842737
-1.057903	CD CD .	0.7211589
-2.380195	CD CD </s>
-1.428259	CD CD CC	-0.1960051
-1.697105	CD CD CD	-0.1605986
-2.406074	CD CD DT
-0.7750469	CD CD IN	-0.1839739
-1.230449	CD CD JJ	-0.506628
-2.380195	CD CD MD	-0.02420092
-0.9456057	CD CD NN	0.02423888
-1.230449	CD CD NNP	-0.2918171
-2.406074	CD CD NNPS
-0.6445757	CD CD NNS	0.03421891
-2.406074	CD CD RB
-1.428259	CD CD TO	0.2454991
-2.065082	CD CD VBD	-0.4706052
-1.843233	CD CD VBN	-0.2972379
-2.657342	CD CD VBP
-1.843233	CD CD VBZ	-0.6333741
-2.406074	CD CD WDT	0.1032127
-1.515432	DT CD ,	-0.1664457
-2.529515	DT CD -LRB-	-0.2208576
-2.555395	DT CD -RRB-	0.1803996
-2.038311	DT CD .	1.513551
-1.816462	DT CD CC	-0.03197235
-1.87861	DT CD CD	-0.2608322
-2.806663	DT CD DT
-1.56119	DT CD IN	-0.416318
-0.9631698	DT CD JJ	-0.1102487
-2.806663	DT CD JJR
-2.806663	DT CD JJS
-2.390215	DT CD MD	1.194043
-0.6872022	DT CD NN	-0.3002656
-1.063135	DT CD NNP	-0.280025
-2.806663	DT CD NNPS
-0.4059662	DT CD NNS	-0.4505967
-1.992553	DT CD POS	-0.4143305
-2.390215	DT CD RB	-0.1008447
-1.846426	DT CD RBS	-0.1918855
-1.992553	DT CD TO	-0.3548462
-2.806663	DT CD VBD
-1.951161	DT CD VBG	0.1023849
-1.87861	DT CD VBN	-0.1792954
-2.529515	DT CD VBP	-0.07202262
-2.529515	DT CD VBZ	-0.07442123
-1.992553	DT CD WDT	0.1062556
-2.806663	DT CD WRB
-0.2618115	FW CD -RRB-	0.1803996
-3.092015	IN CD $	-0.04381795
-2.807963	IN CD ''	0.003659308
-0.9303831	IN CD ,	0.6484672
-1.479956	IN CD -LRB-	-0.1498142
-2.574931	IN CD -RRB-	-0.1447726
-1.101039	IN CD .	0.08379817
-2.529174	IN CD :	-0.05151282
-3.343283	IN CD </s>
-1.49979	IN CD CC	-0.1713139
-1.330516	IN CD CD	-0.3274468
-2.186751	IN CD DT	0.1589023
-1.131234	IN CD IN	0.5134437
-1.41523	IN CD JJ	-0.118229
-2.807963	IN CD JJR	-0.1533916
-1.960972	IN CD MD	0.2551352
-0.7030988	IN CD NN	-0.1403728
-1.293645	IN CD NNP	-0.2133963
-3.092015	IN CD NNPS
-0.791981	IN CD NNS	-0.2668921
-1.659942	IN CD POS	-0.1543661
-3.092015	IN CD PRP	-0.5347786
-2.25042	IN CD RB	0.2274664
-3.343283	IN CD RP	-0.2016894
-1.219543	IN CD TO	-0.5331085
-2.01066	IN CD VBD	0.08835191
-2.383046	IN CD VBG	-0.4003268
-2.487781	IN CD VBN	-0.03719062
-2.41523	IN CD VBP	0.06722957
-1.758322	IN CD VBZ	0.1320823
-2.574931	IN CD WDT	0.02170911
-2.529174	IN CD WRB	-0.2446156
-2.298725	IN CD ``	-0.2424032
-2.525966	JJ CD #	0.09594619
-2.803114	JJ CD ''	-0.4740542
-1.376221	JJ CD ,	0.3732821
-1.909823	JJ CD -LRB-	0.4464895
-0.5858841	JJ CD -RRB-	-0.7480536
-1.16293	JJ CD .	0.6810416
-0.9436817	JJ CD </s>
-1.113943	JJ CD CC	-0.7200526
-1.511883	JJ CD CD	-0.5740206
-2.803114	JJ CD DT
-1.666785	JJ CD IN	-0.1024161
-2.034762	JJ CD JJ	-0.1404202
-1.025217	JJ CD NN	-0.6036249
-1.842877	JJ CD NNP	-0.7379216
-0.7611179	JJ CD NNS	-0.2609493
-2.803114	JJ CD POS	-0.4929506
-1.627277	JJ CD TO	-0.1213345
-2.803114	JJ CD VBG
-2.803114	JJ CD VBN
-2.525966	JJ CD VBP	-0.1652597
-1.574031	JJ CD VBZ	-0.3374121
-2.803114	JJ CD WDT	-0.1403587
-2.551846	JJ CD ``	-0.1677155
-0.5006024	JJR CD .	1.741391
-0.8157154	JJR CD IN	-0.154333
-0.8415951	JJR CD NN
-1.227158	JJS CD .	1.876125
-1.504306	JJS CD CD	-0.4011006
-0.9689855	JJS CD IN	-0.5673507
-1.227158	JJS CD JJ	-0.4346429
-0.544068	JJS CD NN	-0.5831763
-0.6488034	JJS CD NNS	-0.06074284
-1.504306	JJS CD TO
-0.1390218	LS CD ,	-0.6160127
-0.07918125	MD CD NN	-0.2990794
-2.880487	NN CD $	-0.04381795
-3.131755	NN CD ''
-1.057574	NN CD ,	0.5130495
-1.147384	NN CD -LRB-	-0.1786257
-0.8927639	NN CD -RRB-	-0.1802597
-1.317646	NN CD .	1.211557
-1.937434	NN CD :	0.1519895
-2.087197	NN CD </s>
-1.855247	NN CD CC	-0.1557267
-1.840524	NN CD CD	-0.2006835
-1.726581	NN CD IN	0.2006494
-1.150328	NN CD JJ	-0.48976
-2.363403	NN CD MD	1.282738
-0.4794263	NN CD NN	-0.5715238
-1.436832	NN CD NNP	-0.9299191
-0.916245	NN CD NNS	-0.05237341
-2.715307	NN CD POS	-0.0593017
-2.854607	NN CD RB	-0.3201376
-2.238464	NN CD TO	0.2305104
-2.317646	NN CD VBD	0.0009026229
-3.131755	NN CD VBG
-3.131755	NN CD VBP
-2.171518	NN CD VBZ	-0.01891571
-2.363403	NN CD WDT	0.2666981
-2.854607	NN CD ``
-0.3058339	NNP CD ,	-0.5783827
-1.810984	NNP CD -LRB-	-0.248596
-0.5840129	NNP CD -RRB-	-0.2108108
-1.251422	NNP CD .	0.1811121
-2.050357	NNP CD :	0.1652471
-2.063322	NNP CD </s>
-2.326563	NNP CD CC	-0.2022174
-1.865833	NNP CD CD	-0.5246944
-3.395946	NNP CD DT
-1.647337	NNP CD IN	-0.2652128
-1.544409	NNP CD JJ	-0.2394943
-3.118798	NNP CD MD	1.304601
-1.810984	NNP CD NN	-0.3448368
-1.810984	NNP CD NNP	0.02549756
-1.394315	NNP CD NNS	-0.4794531
-3.395946	NNP CD RB
-2.540443	NNP CD TO	-0.3862383
-2.581836	NNP CD VBD	-0.1665478
-3.144677	NNP CD VBN
-3.395946	NNP CD VBP
-2.979498	NNP CD VBZ	-0.1776907
-3.118798	NNP CD WDT	0.05152684
-2.627594	NNP CD ``
-0.7932904	NNPS CD -LRB-	-0.08557235
-1.044559	NNPS CD -RRB-
-0.7674107	NNPS CD .	1.876125
-0.7932904	NNPS CD NNP	-0.2648803
-1.235932	NNS CD -RRB-	0.2648458
-0.9777594	NNS CD .	0.8808855
-0.9777594	NNS CD CC	-0.41923
-1.261811	NNS CD CD
-1.51308	NNS CD IN
-1.096632	NNS CD NN
-1.51308	NNS CD NNP
-0.69897	NNS CD NNS	-0.06381318
-1.51308	NNS CD TO	-0.05714428
-1.044559	POS CD .	2.000806
-0.3273589	POS CD NN	-0.1957315
-0.7932904	POS CD NNP	-0.258117
-0.7932904	POS CD NNS
-0.4659315	PRP CD IN	-0.4664492
-0.7171997	PRP CD NN
-0.6509051	PRP$ CD JJ	0.08738257
-0.511605	PRP$ CD NN	-0.5387086
-0.9280531	PRP$ CD NNS
-2.124673	RB CD ,
-1.633469	RB CD .	1.513551
-1.985373	RB CD CC	-0.01838996
-1.308957	RB CD CD	-0.07076725
-0.8717076	RB CD IN	-0.4182655
-1.140553	RB CD JJ	-0.670185
-2.124673	RB CD MD	0.2087665
-0.3755234	RB CD NN	-0.5464622
-2.124673	RB CD NNP
-0.7552021	RB CD NNS	-0.2587523
-2.150553	RB CD RB	-0.1442345
-1.546318	RB CD TO	-0.5857924
-2.401821	RB CD VBD
-2.401821	RB CD VBG
-2.401821	RB CD VBZ
-1.985373	RB CD WDT	0.2314239
-1.229083	RP CD JJ
-0.2688453	RP CD NN	-1.218317
-0.6368221	RP CD NNS	-0.09648529
-1.229083	RP CD POS	-0.1567833
-1.458439	TO CD ,	-0.09962326
-1.737193	TO CD -LRB-	-0.04340866
-1.322219	TO CD .	1.082187
-2.015982	TO CD CC	0.02675918
-1.029622	TO CD CD	-0.5061527
-2.551302	TO CD DT
-0.8287076	TO CD IN	-0.6222762
-1.737193	TO CD JJ	0.2297275
-0.5118834	TO CD NN	-0.7157699
-2.015982	TO CD NNP	-0.1579926
-0.6764948	TO CD NNS	-0.07834679
-1.458439	TO CD POS	-0.293615
-1.78295	TO CD TO	0.1040384
-2.300034	TO CD VBG	-0.04137513
-2.551302	TO CD VBN	-0.3100943
-2.134854	TO CD VBZ	-0.1350276
-2.300034	TO CD WDT	0.1032127
-2.551302	TO CD ``
-2.372818	VB CD -LRB-
-1.780557	VB CD .	1.741391
-1.41258	VB CD CC	-0.28526
-1.257679	VB CD CD	-0.1880024
-2.12155	VB CD DT
-0.7013761	VB CD IN	-0.6171266
-1.196981	VB CD JJ	-0.1373742
-0.5252848	VB CD NN	-0.5635054
-1.655619	VB CD NNP	-0.2245229
-0.8344327	VB CD NNS	-0.1606679
-1.111551	VB CD POS	-0.6879847
-2.12155	VB CD RB	-0.1848523
-1.517316	VB CD TO	0.07952923
-2.372818	VB CD VBN	-0.3100943
-2.372818	VB CD VBZ
-2.372818	VB CD WDT	-0.1403587
-1.68925	VBD CD .	1.876125
-1.71513	VBD CD :	-0.5246892
-1.966398	VBD CD CC
-1.431078	VBD CD CD	-0.07295241
-1.966398	VBD CD DT
-0.7543483	VBD CD IN	-0.4488445
-1.073107	VBD CD JJ	-0.3223341
-0.6898903	VBD CD NN	-0.1906228
-1.71513	VBD CD NNP	-0.08806942
-0.4620923	VBD CD NNS	-0.3228906
-1.966398	VBD CD VBZ
-1.91102	VBG CD .	2.000806
-1.91102	VBG CD CC
-1.659752	VBG CD CD	-0.1575292
-0.6197888	VBG CD IN	-0.6894537
-0.7544873	VBG CD JJ	0.3058824
-0.7544873	VBG CD NN	-0.3984671
-0.79588	VBG CD NNS	-0.2070061
-0.8181564	VBG CD POS	-0.1767057
-1.91102	VBG CD TO	-0.05714428
-1.793337	VBN CD ,	-0.5688436
-2.077389	VBN CD .	1.796976
-2.077389	VBN CD :	-0.5246892
-1.473155	VBN CD CC	-0.4736281
-1.172125	VBN CD CD	-0.3104145
-1.134336	VBN CD IN	-1.328089
-1.310428	VBN CD JJ	0.005426288
-2.328657	VBN CD JJS	-0.2974365
-0.6820388	VBN CD NN	-0.6710609
-0.3684197	VBN CD NNP	-1.524493
-1.05215	VBN CD NNS	-0.202919
-1.878812	VBP CD .	1.796976
-2.13008	VBP CD CC
-1.361728	VBP CD CD	-0.1906289
-1.01494	VBP CD IN	-0.6111696
-0.4351568	VBP CD JJ	-1.19432
-0.900997	VBP CD NN	-0.2194187
