
\data\
ngram 1=48
ngram 2=1351
ngram 3=10063

\1-grams:
-4.105265	#	-1.776501
-3.481211	$	-3.127022
-2.979763	''	-1.942086
-1.349044	,	-4.17338
-5.991756	-LR	-0.4764
-1.987692	-LRB-	-3.263302
-1.984563	-RRB-	-2.262222
-1.354947	.	-4.025126
-2.169065	:	-2.291247
-1.327546	</s>
-99	<s>	-3.375966
-1.601917	CC	-3.218191
-1.678268	CD	-2.948476
-1.066691	DT	-2.595827
-2.645403	EX	-3.274052
-3.084882	FW	-1.492056
-0.9907797	IN	-2.740424
-1.074082	JJ	-0.5440416
-2.194488	JJR	-2.633764
-2.893458	JJS	-2.825887
-3.197965	LS	-2.094241
-1.72381	MD	-3.279549
-0.7404778	NN	-2.532574
-3.141109	NNP	-1.415905
-5.213604	NNPS	-1.157843
-1.21221	NNS	-0.682023
-3.352269	PDT	-3.179427
-2.470356	POS	-2.608988
-1.81419	PRP	-3.297492
-2.103576	PRP$	-3.616472
-1.409034	RB	-2.185158
-2.604544	RBR	-2.4335
-3.172212	RBS	-2.110865
-2.681062	RP	-2.631604
-4.400691	SYM	-1.621528
-1.56244	TO	-3.511209
-5.690726	UH	-1.01334
-1.369179	VB	-1.053737
-2.142521	VBD	-1.739305
-1.749936	VBG	-1.894067
-1.616312	VBN	-2.144569
-1.785254	VBP	-1.140981
-1.614686	VBZ	-2.710297
-2.249109	WDT	-3.208424
-2.825326	WP	-2.333168
-4.486606	WP$	-2.064602
-2.591045	WRB	-2.454282
-2.749712	``	-1.89507

\2-grams:
-1.752048	# -RRB-
-1.91838	# .
-0.9579447	# </s>
-0.7106557	# CD	-0.3877265
-1.91838	# DT
-1.752048	# FW
-1.354108	# IN	-0.5307999
-1.91838	# JJ
-1.91838	# JJR
-0.8751112	# LS	-0.156744
-0.8226295	# NN	-0.284568
-0.9179564	# NNS	-0.3734464
-0.9579447	# SYM	-0.2956536
-1.91838	# VB
-1.91838	# VBG
-1.91838	# VBP
-1.91838	# VBZ
-2.389048	$ -LRB-
-1.951111	$ -RRB-	-0.156946
-0.03238477	$ CD	-0.01104999
-1.951111	$ IN	0.01505128
-1.388624	$ JJ	-0.06003214
-2.389048	$ NN
-2.454306	'' ''	-0.08285442
-0.9855489	'' ,	0.1734061
-0.7527838	'' -LRB-	0.7004397
-1.880814	'' -RRB-	0.1821761
-0.9895151	'' .	0.0201056
-1.89182	'' :	-0.1148723
-1.985549	'' </s>
-1.319371	'' CC	0.09632555
-1.931808	'' CD	-0.1875857
-1.579784	'' DT	0.3589127
-1.097523	'' IN	0.3594763
-1.595578	'' JJ	0.5002031
-2.454306	'' JJR	-0.1121381
-1.85085	'' MD	0.7511182
-0.7939455	'' NN	0.3811701
-2.892243	'' NNP
-1.354844	'' NNS	0.1419385
-2.892243	'' PDT
-2.725912	'' PRP
-2.725912	'' PRP$	-0.1506922
-1.85085	'' RB	0.04235575
-2.725912	'' RBR
-2.892243	'' RP
-1.704722	'' TO	0.1594787
-2.892243	'' VB
-1.94776	'' VBD	0.03084415
-2.454306	'' VBG	-0.06913158
-2.072699	'' VBN	-0.1427262
-2.072699	'' VBP	-0.04402402
-1.302666	'' VBZ	0.06048065
-1.880814	'' WDT	-0.3528857
-1.89182	'' WRB	-0.02701696
-1.931808	'' ``	-0.009211026
-4.070175	, $	0.8343588
-3.507689	, ''	-0.2664064
-2.597488	, -LRB-	0.1008687
-3.943841	, -RRB-	-0.03446624
-4.508112	, .
-4.508112	, :
-4.341781	, </s>
-1.370969	, CC	0.7634479
-0.958055	, CD	-0.4686884
-0.7559816	, DT	-0.1940019
-1.652028	, EX	-0.07425034
-2.078145	, FW	-0.4264563
-1.034071	, IN	0.4492036
-1.086146	, JJ	0.1394212
-2.141751	, JJR	-0.143864
-2.605384	, JJS	-0.3402471
-3.642811	, LS	0.1068781
-2.090142	, MD	0.3633767
-0.8000766	, NN	0.03956532
-2.522237	, NNP	-0.2819806
-1.342433	, NNS	0.04418874
-3.040751	, PDT	0.6043062
-1.100483	, PRP	-1.300358
-2.213058	, PRP$	-0.1059771
-1.383456	, RB	0.7696239
-2.910417	, RBR	0.04228568
-3.387538	, RBS	0.3910881
-4.070175	, SYM
-2.277323	, TO	-0.1971346
-2.273595	, VB	0.6379488
-2.320591	, VBD	0.1287796
-1.467879	, VBG	-0.06531346
-2.095036	, VBN	-0.1076726
-2.24141	, VBP	0.3638172
-2.056223	, VBZ	0.5318494
-1.622449	, WDT	-0.02528298
-2.625777	, WP	0.2474908
-3.688568	, WP$	0.3682469
-2.22617	, WRB	0.3313938
-2.312397	, ``	-0.1802378
-0.1663314	-LR </s>
-3.433274	-LRB- $	0.8343588
-2.333812	-LRB- -LRB-	-0.561577
-2.910776	-LRB- -RRB-
-2.870787	-LRB- CC	0.0447125
-0.5854586	-LRB- CD	-1.407988
-1.976526	-LRB- DT	-0.01459467
-2.625698	-LRB- FW	-0.2817292
-2.160811	-LRB- IN	-0.06629348
-1.256173	-LRB- JJ	-0.4220451
-2.827942	-LRB- JJR	-0.08407352
-2.870787	-LRB- JJS	-0.383373
-1.829818	-LRB- LS	-1.579036
-2.829818	-LRB- MD	0.2256505
-0.2523264	-LRB- NN	-1.25684
-2.829818	-LRB- NNP	-0.2272784
-1.36842	-LRB- NNS	-0.6368688
-2.727156	-LRB- PRP	-0.2262312
-3.70488	-LRB- PRP$
-2.227758	-LRB- RB	-0.2722131
-3.433274	-LRB- TO	0.2968591
-2.80179	-LRB- VB	-0.3471235
-2.644182	-LRB- VBG	0.008515298
-1.891966	-LRB- VBN	-0.5743235
-3.871211	-LRB- VBP
-3.70488	-LRB- VBZ
-2.910776	-LRB- WDT	0.0556315
-2.829818	-LRB- WP	-0.02504304
-3.051667	-LRB- WRB	-0.1242743
-2.250035	-LRB- ``	-0.4634077
-3.873689	-RRB- $
-3.873689	-RRB- ''
-1.095103	-RRB- ,	0.3851944
-0.9416887	-RRB- -LRB-	-0.5884649
-2.244959	-RRB- -RRB-	0.2378724
-0.3327922	-RRB- .	-0.4051933
-2.385138	-RRB- :	-0.002102822
-1.05705	-RRB- </s>
-1.859168	-RRB- CC	-0.0001797676
-2.309417	-RRB- CD	0.489405
-1.859168	-RRB- DT	0.2003252
-2.873265	-RRB- EX	0.121071
-3.873689	-RRB- FW
-1.532716	-RRB- IN	0.6189193
-1.743569	-RRB- JJ	-0.1519611
-2.929206	-RRB- JJR	-0.1927757
-2.284111	-RRB- MD	0.584838
-1.374919	-RRB- NN	0.4989012
-3.435752	-RRB- NNP	-0.1345681
-1.951482	-RRB- NNS	0.1001235
-3.435752	-RRB- PDT	1.729245
-2.873265	-RRB- POS	0.2389652
-2.894444	-RRB- PRP	-0.1470542
-3.435752	-RRB- PRP$
-1.725086	-RRB- RB	0.1223032
-3.435752	-RRB- RBR	0.1467938
-3.707357	-RRB- RBS
-3.873689	-RRB- SYM
-2.244959	-RRB- TO	0.1216444
-3.105297	-RRB- VB	-0.4974928
-1.692417	-RRB- VBD	-0.1269597
-2.364934	-RRB- VBG	0.1043927
-2.385138	-RRB- VBN	-0.1694966
-2.116293	-RRB- VBP	0.3616436
-1.628176	-RRB- VBZ	0.1595539
-2.230236	-RRB- WDT	0.3233784
-2.83042	-RRB- WP	-0.6062974
-2.777938	-RRB- WRB	-0.122803
-2.531266	-RRB- ``	-0.03162438
-3.501877	. ''	-0.3381425
-3.636999	. ,	-0.2681897
-4.064363	. -RRB-	-0.03774318
-3.275271	. .	0.6958042
-0.005636535	. </s>
-4.502301	. CD
-3.501877	. DT	-0.09333542
-4.335969	. IN	-0.2254773
-3.057215	. JJ	-0.6827314
-4.335969	. LS	-0.2740458
-4.502301	. MD
-1.989616	. NN	-1.585405
-4.502301	. NNS
-4.502301	. RB
-4.502301	. VB
-4.502301	. VBN
-3.690922	: #
-3.524591	: $	0.8599291
-3.690922	: ,
-1.780298	: -LRB-	-0.7157124
-3.524591	: .
-2.730487	: :	0.1573195
-1.366228	: </s>
-2.320471	: CC	-0.04752648
-1.338482	: CD	0.106618
-1.373834	: DT	0.2107148
-2.730487	: EX	0.3852708
-2.730487	: FW	-0.1018559
-1.968288	: IN	0.1948763
-1.146193	: JJ	0.04435647
-2.784228	: JJR	-0.1263014
-3.252985	: JJS	-0.06987029
-3.690922	: LS
-2.647654	: MD	-0.1043369
-0.3271724	: NN	-0.7757577
-2.269318	: NNP	-0.5498897
-1.489161	: NNS	-0.1663175
-3.690922	: PDT
-1.974362	: PRP	-0.2239556
-2.711678	: PRP$	0.7501225
-1.74644	: RB	-0.4658433
-3.690922	: RBR
-2.871378	: TO	0.05050394
-0.7329002	: VB	-1.364708
-3.690922	: VBD
-1.922531	: VBG	0.1211275
-2.784228	: VBN	0.02312329
-3.524591	: VBP
-2.621501	: VBZ	-0.01661035
-2.825621	: WDT	-0.4322453
-2.647654	: WP	-0.08374275
-2.463893	: WRB	0.2853443
-2.3485	: ``	-0.07950869
-4.091753	<s> $	0.8343588
-3.486421	<s> ''	-0.09536012
-3.569254	<s> ,	-0.06837445
-1.392314	<s> -LRB-	0.09963489
-3.173026	<s> -RRB-	-0.1682335
-3.761298	<s> .	1.154442
-3.249415	<s> :	0.01936626
-2.072211	<s> CC	0.1838374
-1.759132	<s> CD	-0.08299148
-0.7710703	<s> DT	0.3944113
-2.076677	<s> EX	-1.028142
-3.21723	<s> FW	-0.3636618
-0.7129534	<s> IN	-0.2530961
-1.225688	<s> JJ	0.04795551
-2.750574	<s> JJR	0.1004703
-2.948385	<s> JJS	-0.4986133
-2.14325	<s> LS	-0.645821
-3.041139	<s> MD	-0.3428858
-0.9167433	<s> NN	0.07744408
-2.7006	<s> NNP	-0.1628193
-1.351154	<s> NNS	-0.1173697
-3.409116	<s> PDT	0.9510937
-1.397686	<s> PRP	-1.11025
-2.651551	<s> PRP$	0.01345253
-0.7396438	<s> RB	-0.5254636
-2.865047	<s> RBR	-0.1079552
-2.9162	<s> RBS	0.2645819
-3.761298	<s> SYM	-0.2867739
-2.047388	<s> TO	-0.3336469
-4.529689	<s> UH
-2.471263	<s> VB	-0.2512468
-3.965418	<s> VBD	-0.1673845
-1.622206	<s> VBG	-0.07791877
-1.425089	<s> VBN	-0.8678471
-3.664388	<s> VBP	-0.08784109
-3.062328	<s> VBZ	-0.1429825
-3.266448	<s> WDT	0.1768269
-2.668753	<s> WP	0.01744473
-4.529689	<s> WP$
-2.231419	<s> WRB	0.3118591
-1.99229	<s> ``	-0.001197577
-3.310994	CC $	0.2322988
-2.682605	CC ,	-0.1144188
-3.089145	CC -LRB-	0.2831055
-3.81754	CC .	1.580411
-2.756707	CC CC	-0.3423046
-2.059762	CC CD	0.5726028
-1.023006	CC DT	0.6626599
-2.403404	CC EX	0.5464451
-3.186055	CC FW	-0.2670168
-1.488172	CC IN	0.3452127
-0.8468524	CC JJ	0.2762506
-1.735037	CC JJR	0.4973819
-3.186055	CC JJS	0.008710712
-3.212208	CC LS	-0.431985
-1.869037	CC MD	0.2750299
-0.612676	CC NN	0.5075631
-2.570631	CC NNP	-0.5311025
-1.020403	CC NNS	0.8921833
-3.390175	CC PDT	1.206366
-1.543838	CC PRP	-0.7467917
-1.758731	CC PRP$	0.2442584
-1.048543	CC RB	0.7459221
-2.132497	CC RBR	0.1698344
-2.858696	CC RBS	0.07026428
-3.295042	CC RP
-4.255477	CC SYM
-2.059762	CC TO	0.1885899
-1.147882	CC VB	-0.1084384
-1.856149	CC VBD	0.3779113
-1.423564	CC VBG	0.4797121
-1.770039	CC VBN	0.1875831
-1.80925	CC VBP	0.06362522
-1.676685	CC VBZ	0.7425805
-3.276232	CC WDT	0.2026672
-2.766926	CC WP	0.7041055
-4.255477	CC WP$
-2.564101	CC WRB	0.2046382
-2.898814	CC ``	-0.1154484
-3.218818	CD #	-0.1468493
-3.23477	CD $	1.224657
-3.313951	CD ''	-0.2556033
-0.6842362	CD ,	0.07139754
-1.720665	CD -LRB-	0.1512309
-0.5765998	CD -RRB-	0.7313895
-1.295667	CD .	0.1539814
-2.313951	CD :	-0.2320454
-1.921255	CD </s>
-1.851554	CD CC	0.2753221
-1.562672	CD CD	0.3417628
-2.5358	CD DT	0.145452
-3.741316	CD EX
-2.971529	CD FW	-0.6302509
-1.116395	CD IN	-0.3533611
-1.49771	CD JJ	0.02596569
-2.971529	CD JJR	0.1155049
-3.614982	CD JJS	-0.0004555583
-3.741316	CD LS	-0.1507716
-2.078423	CD MD	0.08513343
-0.8305069	CD NN	0.95061
-3.218818	CD NNP	-0.01611793
-1.106048	CD NNS	0.3366785
-2.091235	CD POS	0.06026804
-3.23477	CD PRP	-0.1179547
-4.179253	CD PRP$
-2.581558	CD RB	-0.1208632
-3.109832	CD RBS	-0.07345766
-3.741316	CD RP	-0.1477124
-4.179253	CD SYM
-1.83683	CD TO	0.05905092
-2.494408	CD VBD	0.2250272
-2.711892	CD VBG	0.1099564
-2.651194	CD VBN	0.1790661
-2.851553	CD VBP	0.1344714
-2.086065	CD VBZ	0.131735
-2.558077	CD WDT	-0.1660458
-3.741316	CD WP	-0.09643608
-4.179253	CD WP$
-3.109832	CD WRB	0.07373598
-2.782473	CD ``	-0.2329439
-3.92525	DT $	0.5366057
-4.790552	DT ''
-2.23683	DT ,	-0.02604067
-3.563522	DT -LRB-	-0.2471926
-3.747283	DT -RRB-	-0.1489444
-2.694801	DT .	-0.1729168
-4.22628	DT :
-4.352614	DT </s>
-3.393771	DT CC	0.1884686
-2.029828	DT CD	0.3112108
-2.785371	DT DT	0.150944
-4.352614	DT EX
-3.790128	DT FW	-0.1040142
-2.098528	DT IN	-0.1181954
-0.548874	DT JJ	0.6224954
-1.826261	DT JJR	0.04376459
-2.185678	DT JJS	-0.1833314
-2.035388	DT MD	-0.1303467
-0.3078619	DT NN	0.2718058
-3.357049	DT NNP	-0.266425
-3.790128	DT NNPS	0.4162109
-1.028283	DT NNS	0.05576205
-4.790552	DT PDT
-2.929615	DT PRP	0.2706714
-3.381182	DT PRP$	0.4086406
-1.989743	DT RB	-0.05446184
-2.571142	DT RBR	-0.5354452
-2.315656	DT RBS	0.3033757
-4.352614	DT RP
-4.790552	DT SYM
-3.749159	DT TO	-0.06142625
-3.154398	DT VB	-0.1779116
-2.849703	DT VBD	0.05998313
-1.6852	DT VBG	-0.7306288
-2.141347	DT VBN	-0.2500442
-2.510277	DT VBP	0.4562312
-1.818719	DT VBZ	0.1294364
-3.669978	DT WDT	-0.2028337
-2.697363	DT WP	-0.6492668
-3.830117	DT WRB
-2.702534	DT ``	-0.6897814
-2.170338	EX DT	0.202471
-3.047275	EX IN
-3.047275	EX JJ
-0.8889124	EX MD	-0.481904
-3.213606	EX NN
-3.047275	EX PRP
-2.117856	EX RB	-0.2744701
-2.775669	EX TO	-0.1632834
-1.186937	EX VBD	-0.5114367
-0.3669394	EX VBP	-0.4389908
-0.4484844	EX VBZ	-0.9054108
-3.213606	EX WP
-1.158567	FW ,	-0.1190153
-1.29595	FW -LRB-	-0.1968579
-1.794297	FW -RRB-	0.143796
-1.230449	FW .	0.358562
-1.410905	FW :	-0.4356485
-2.79472	FW </s>
-2.230449	FW CC	-0.05180398
-1.725299	FW CD	-0.2652596
-1.834285	FW DT
-0.7926984	FW FW	-0.4658163
-1.794297	FW IN	-0.0271454
-2.026329	FW JJ	-0.000210911
-2.628389	FW LS
-1.137027	FW MD	0.0581069
-1.276206	FW NN	-0.006183177
-1.751452	FW NNS	-0.1001461
-2.79472	FW PRP
-1.373116	FW RB	-0.6315141
-1.834285	FW TO	0.2551616
-1.6072	FW VB	-0.09459125
-1.753328	FW VBD	-0.1146489
-2.79472	FW VBG
-2.026329	FW VBN	0.02863927
-0.5676911	FW VBP	-0.04045588
-2.628389	FW VBZ
-2.628389	FW WDT
-2.356783	FW ``
-3.014213	IN $	-0.6752917
-4.428349	IN ''
-2.405488	IN ,	0.4546723
-2.207194	IN -LRB-	-1.403211
-4.000985	IN -RRB-	-0.1278732
-2.534117	IN .	-0.1842099
-2.85797	IN :	0.3831094
-3.284981	IN </s>
-2.577739	IN CC	0.4405378
-1.565618	IN CD	0.6278241
-0.464881	IN DT	0.325963
-2.300281	IN EX	0.1512662
-3.377735	IN FW	-0.08895183
-1.761435	IN IN	0.08145285
-0.9021334	IN JJ	-0.1464994
-2.052572	IN JJR	-0.473647
-2.553827	IN JJS	0.3260005
-3.338227	IN MD	0.7268405
-0.6475686	IN NN	0.4009047
-3.081907	IN NNP	0.2606119
-1.226687	IN NNS	0.6623685
-2.765456	IN PDT	-0.02916217
-1.360603	IN PRP	-0.09738755
-1.470273	IN PRP$	0.5875826
-2.022348	IN RB	0.06557047
-3.569621	IN RBR	-0.466764
-2.300281	IN TO	0.04869723
-3.125923	IN VB	0.05802423
-3.959592	IN VBD	0.001665056
-1.252099	IN VBG	0.4455776
-2.186072	IN VBN	0.2006083
-3.377735	IN VBP	0.04772162
-2.887041	IN VBZ	0.3710582
-2.743306	IN WDT	0.08871388
-3.023261	IN WP	0.2763421
-2.674649	IN WRB	-0.07362556
-2.715427	IN ``	-0.2243525
-4.783201	JJ #
-3.739932	JJ $	0.466382
-2.880473	JJ ''	0.06893903
-1.609975	JJ ,	1.00925
-2.657828	JJ -LRB-	0.3058298
-2.697791	JJ -RRB-	0.03800923
-1.50326	JJ .	-1.131981
-2.958858	JJ :	0.5792841
-3.245801	JJ </s>
-1.452219	JJ CC	0.2025172
-1.875324	JJ CD	0.3361984
-2.554287	JJ DT	0.2351302
-3.822765	JJ EX
-3.739932	JJ FW	-0.07478891
-1.150002	JJ IN	0.7582226
-1.226552	JJ JJ	0.3762813
-2.636866	JJ JJR	0.4611503
-3.639146	JJ JJS	-0.1643226
-3.771771	JJ LS	0.04983887
-1.964623	JJ MD	-0.1010499
-0.3558443	JJ NN	0.3485603
-3.440778	JJ NNP	-0.02172464
-0.6757057	JJ NNS	0.4324696
-3.822765	JJ PDT	1.604306
-3.072801	JJ POS	0.1131495
-3.098355	JJ PRP	0.3723536
-3.741808	JJ PRP$	0.8501984
-2.187117	JJ RB	0.4037453
-3.440778	JJ RBR	-0.1820995
-4.218929	JJ RBS	0.2314351
-4.616869	JJ RP	-0.1221445
-1.285847	JJ TO	0.2623682
-2.968509	JJ VB	0.2228014
-2.794048	JJ VBD	0.26537
-2.263723	JJ VBG	0.2404615
-2.402025	JJ VBN	0.1340816
-2.247653	JJ VBP	0.08865631
-2.191172	JJ VBZ	0.4186373
-3.255141	JJ WDT	0.08603829
-2.846017	JJ WP	-0.03838104
-3.822765	JJ WP$	-0.1579088
-2.958858	JJ WRB	0.238009
-2.99362	JJ ``	-0.0288803
-3.664435	JJR ''
-1.55116	JJR ,	0.4876997
-2.456711	JJR -LRB-	-0.05331749
-1.558584	JJR .	0.04210854
-3.498104	JJR :
-2.704	JJR </s>
-1.289931	JJR CC	-0.3469175
-2.623042	JJR CD	-0.1663277
-2.307772	JJR DT	-0.2084233
-0.9234937	JJR IN	0.07490122
-1.059561	JJR JJ	0.02967644
-2.68519	JJR JJR	0.08776826
-2.476914	JJR MD	-0.2016437
-0.3967004	JJR NN	-0.4204186
-0.7022237	JJR NNS	0.1035697
-2.623042	JJR POS	0.03664461
-3.100164	JJR PRP	-0.2196135
-2.664012	JJR PRP$	0.1114507
-2.197074	JJR RB	-0.1322386
-3.226498	JJR RBR
-3.226498	JJR RP
-1.6688	JJR TO	-0.003478527
-2.52038	JJR VB	-0.1748221
-2.799134	JJR VBD	-0.1350813
-2.08313	JJR VBG	-0.3841356
-2.043259	JJR VBN	-0.137552
-2.623042	JJR VBP	0.03314966
-2.52038	JJR VBZ	0.1230485
-2.844891	JJR WDT	0.3685836
-3.226498	JJR WP	-0.1240566
-2.68519	JJR WRB	0.03358372
-2.621166	JJR ``	-0.314805
-2.970471	JJS ''
-1.334317	JJS ,	-0.1886258
-2.970471	JJS -LRB-
-1.959041	JJS .	0.911404
-2.970471	JJS :
-2.010036	JJS CC	-0.1184511
-1.536968	JJS CD	-0.2650549
-1.929078	JJS DT	0.187342
-2.406199	JJS FW	-0.4546959
-0.6969295	JJS IN	-0.4755715
-0.9845955	JJS JJ	-0.4105726
-2.406199	JJS MD	0.2740807
-0.5052863	JJS NN	-0.1305878
-0.7341016	JJS NNS	0.1682366
-2.010036	JJS PRP	0.000859648
-2.20208	JJS RB	-0.02769474
-1.743442	JJS TO	-0.5045063
-1.991226	JJS VB	-0.01891415
-2.532534	JJS VBD	-0.2385342
-2.20208	JJS VBG	-0.05595413
-1.78295	JJS VBN	0.03558388
-2.406199	JJS VBP
-2.532534	JJS VBZ	-0.07194137
-2.804139	JJS WDT	-0.2758648
-2.970471	JJS ``
-1.853969	LS ,	-0.03004619
-2.673512	LS -LRB-
-0.4261939	LS -RRB-	0.2753191
-0.6123113	LS .	-0.1383675
-1.630244	LS :	0.0399197
-2.673512	LS </s>
-1.694268	LS CC	-0.3371183
-2.109241	LS CD	-0.2052266
-1.713077	LS IN	0.06329045
-1.662083	LS JJ	-0.2190837
-2.673512	LS JJR
-1.662083	LS MD	0.7043705
-1.428	LS NN	-0.2830869
-1.345813	LS NNS	-0.1961612
-2.673512	LS POS
-2.673512	LS PRP
-1.529457	LS RB	-0.6162789
-2.673512	LS TO
-1.63212	LS VB	-0.1871785
-2.235575	LS VBD
-1.037359	LS VBP	-0.1457286
-2.235575	LS VBZ	-0.07194137
-3.013305	MD ,	-0.3265325
-3.173444	MD -LRB-	0.2368407
-3.189397	MD -RRB-	-0.02739844
-3.133456	MD .	1.279381
-4.133879	MD :
-3.092487	MD CC	-0.2259799
-2.098316	MD CD	-0.623714
-2.223255	MD DT	-0.1547586
-4.133879	MD FW
-2.344299	MD IN	-0.4224962
-2.655794	MD JJ	0.3632421
-3.695942	MD JJR
-3.967548	MD LS	-0.07962118
-2.41732	MD NN	0.1402227
-2.853605	MD NNS	-0.05541724
-4.133879	MD PDT
-2.476186	MD PRP	-0.9849531
-3.090611	MD PRP$	0.2094412
-0.6546305	MD RB	-1.263591
-2.946359	MD RBR	-0.02894112
-2.926155	MD RBS	-0.1429886
-2.967548	MD TO	-0.4438085
-0.1325554	MD VB	-0.8936751
-3.064458	MD VBD	0.07396397
-3.365488	MD VBG
-3.154635	MD VBN	0.08175024
-2.967548	MD VBZ	-0.06178954
-3.227185	MD ``	-0.4869224
-3.425225	NN #	0.4580826
-4.137357	NN $	0.7575914
-2.387383	NN ''	0.5370049
-0.9716101	NN ,	0.4491444
-1.676112	NN -LRB-	0.4529756
-1.674383	NN -RRB-	0.4227109
-0.9613767	NN .	0.08572316
-1.622502	NN :	0.7374742
-2.125169	NN </s>
-1.239391	NN CC	0.5789163
-1.705498	NN CD	0.1567743
-2.414976	NN DT	0.5736436
-3.732786	NN EX	0.2847461
-3.412451	NN FW	-0.1639026
-0.6946718	NN IN	1.121549
-1.682512	NN JJ	0.5890875
-3.117761	NN JJR	0.4170073
-4.209907	NN JJS	0.06670193
-3.359205	NN LS	0.03565878
-1.446888	NN MD	-0.0938313
-0.8840185	NN NN	0.6347435
-3.836327	NN NNP	0.1526192
-1.290021	NN NNS	0.4837363
-4.55233	NN PDT	1.507396
-1.884317	NN POS	0.1478294
-2.587599	NN PRP	-0.006632566
-3.495425	NN PRP$	0.4618128
-1.866946	NN RB	0.3779695
-3.04718	NN RBR	0.3152082
-4.2513	NN RBS	0.3693128
-3.889572	NN RP	0.004003704
-4.020851	NN SYM	0.06235653
-1.452511	NN TO	-0.05515337
-2.799514	NN VB	0.1961401
-1.873994	NN VBD	0.9695982
-2.313281	NN VBG	0.5601027
-2.056231	NN VBN	0.2768084
-2.08784	NN VBP	0.4564053
-1.20313	NN VBZ	1.074074
-1.902217	NN WDT	0.4566495
-3.081038	NN WP	-0.3785002
-4.073333	NN WP$	0.08162232
-2.470983	NN WRB	0.06787837
-0.6756733	NNP ,	-0.1456256
-1.4566	NNP -LRB-	-0.4367633
-1.394452	NNP -RRB-	-0.06511807
-1.139179	NNP .	1.244111
-1.6163	NNP :	0.08163163
-1.871573	NNP </s>
-1.123385	NNP CC	-0.4544009
-1.968483	NNP CD	0.003066033
-1.736451	NNP DT	0.1666666
-2.736874	NNP FW
-1.409175	NNP IN	-0.2551508
-1.736451	NNP JJ	0.1247278
-1.968483	NNP MD	0.9474086
-0.9320537	NNP NN	-0.09208608
-0.9125316	NNP NNP	-0.1463165
-1.792392	NNP NNS	-0.0143908
-1.871573	NNP POS	-0.05771562
-2.736874	NNP PRP
-1.736451	NNP RB	-0.1138889
-1.792392	NNP TO	0.04552782
-2.298937	NNP VB
-1.91733	NNP VBD	-0.04684455
-1.736451	NNP VBG	-0.07494776
-2.298937	NNP VBN
-2.570543	NNP VBP	-0.2292431
-1.164003	NNP VBZ	-0.07684979
-2.736874	NNP WDT
-2.736874	NNP WP
-2.298937	NNP WRB	-0.06089298
-2.570543	NNP ``
-0.1089862	NNPS NN	-0.02106152
-1.069421	NNPS NNS
-1.069421	NNPS VBP
-4.207105	NNS #
-3.457521	NNS $	-0.01073933
-3.211539	NNS ''	-0.04671165
-1.015042	NNS ,	0.8919013
-1.759794	NNS -LRB-	0.0707401
-2.374907	NNS -RRB-	0.5899968
-0.845596	NNS .	-0.2326441
-2.018565	NNS :	0.3551092
-2.215075	NNS </s>
-1.104237	NNS CC	0.2669373
-2.855461	NNS CD	0.4351795
-2.349988	NNS DT	-0.1821795
-3.779741	NNS EX	0.06908
-3.665797	NNS FW	0.07090211
-0.6699935	NNS IN	0.2883976
-1.640807	NNS JJ	-0.1607736
-3.188676	NNS JJR	-0.2115971
-3.684607	NNS JJS	-0.1115678
-4.645042	NNS LS
-1.196542	NNS MD	0.1096773
-1.808929	NNS NN	0.6376275
-4.207105	NNS NNP	-0.06435711
-2.265193	NNS NNS	0.434299
-3.684607	NNS PDT	1.604306
-1.937132	NNS POS	0.0177598
-2.522062	NNS PRP	0.02928972
-3.457521	NNS PRP$	0.7040704
-1.599902	NNS RB	0.5256476
-2.707859	NNS RBR	0.3086035
-3.644619	NNS RBS	-0.1115102
-4.080771	NNS RP	-0.06632818
-1.256515	NNS TO	-0.0381906
-2.589409	NNS VB	0.4476153
-1.702373	NNS VBD	0.3730383
-1.834272	NNS VBG	0.3856769
-1.741121	NNS VBN	0.1208882
-0.9946958	NNS VBP	0.4733617
-1.754025	NNS VBZ	0.3328623
-1.553141	NNS WDT	0.1986394
-2.108568	NNS WP	-0.6376719
-3.876651	NNS WP$	0.1942737
-2.317343	NNS WRB	-0.07794738
-2.578344	NNS ``	-0.1811224
-0.003993541	PDT DT	-0.2348523
-2.067846	PDT PRP$	-0.06770486
-2.955509	POS $	0.8343588
-3.227115	POS ''
-2.227115	POS ,	0.04834715
-2.382017	POS -LRB-	0.2904825
-2.528145	POS .	1.057532
-2.324025	POS CC	-0.06068566
-2.528145	POS CD	-0.3086052
-2.955509	POS DT	-0.0230715
-2.352054	POS IN	0.2713475
-0.7185854	POS JJ	-0.3487601
-2.433011	POS JJR	0.01368766
-2.272873	POS JJS	-0.5527012
-2.433011	POS MD	-0.01031257
-0.2193673	POS NN	0.6923274
-3.393446	POS NNP
-0.919619	POS NNS	-0.005566835
-3.227115	POS PRP$
-2.528145	POS RB	-0.1388571
-2.625055	POS RBS	0.0273152
-2.393023	POS TO	0.2265952
-2.448964	POS VB	0.03919782
-3.393446	POS VBD
-1.846904	POS VBG	-0.3502238
-2.350178	POS VBN	-0.1328987
-2.393023	POS VBP	-0.0001014918
-2.829175	POS VBZ
-2.955509	POS WDT	-0.06500524
-3.393446	POS WP
-2.393023	POS ``	-0.03140727
-2.478913	PRP $	-0.01483941
-3.605247	PRP ''	-0.08285442
-1.801306	PRP ,	0.519011
-2.461879	PRP -LRB-	-0.129482
-3.478913	PRP -RRB-	-0.08357938
-1.245916	PRP .	-0.6314396
-3.13649	PRP :	-0.1346548
-1.774762	PRP CC	0.2358903
-2.999915	PRP CD	-0.08036079
-1.939837	PRP DT	0.3811394
-4.043184	PRP EX
-3.876853	PRP FW	-0.2753533
-1.353757	PRP IN	0.1939298
-1.849503	PRP JJ	0.09641349
-2.52467	PRP JJR	0.5153914
-4.043184	PRP JJS
-0.6475549	PRP MD	-0.0313189
-2.195611	PRP NN	-0.07551312
-2.609681	PRP NNS	0.1060105
-4.043184	PRP PDT
-3.13649	PRP POS	0.04622221
-3.478913	PRP PRP
-3.478913	PRP PRP$	0.03213318
-1.32055	PRP RB	0.006647348
-2.487687	PRP RBR	-0.1235094
-3.605247	PRP RBS
-2.554633	PRP RP	-0.1773022
-1.476315	PRP TO	-0.1242253
-1.874687	PRP VB	0.2411975
-1.213152	PRP VBD	0.4293114
-2.351808	PRP VBG	0.1644166
-2.973763	PRP VBN	0.005005628
-0.7442728	PRP VBP	0.3068312
-0.6174977	PRP VBZ	0.3883181
-3.274793	PRP WDT	-0.07789177
-3.478913	PRP WP	-0.02163222
-2.62158	PRP WRB	-0.1639164
-3.22364	PRP ``	-0.07564712
-3.754547	PRP$ ''
-3.588216	PRP$ -LRB-	0.07228738
-3.754547	PRP$ -RRB-
-1.646208	PRP$ CC	-1.244092
-2.847853	PRP$ CD	-0.2141957
-2.935003	PRP$ DT	0.3475947
-2.711278	PRP$ IN
-0.6030138	PRP$ JJ	-0.3612223
-2.226488	PRP$ JJR	0.03267199
-2.276462	PRP$ JJS	-0.2972562
-3.31661	PRP$ MD
-0.3700742	PRP$ NN	-0.4901075
-3.754547	PRP$ NNP
-0.5789773	PRP$ NNS	0.4009601
-3.754547	PRP$ PDT
-2.457882	PRP$ RB	-0.4562867
-2.754124	PRP$ RBS	-0.0728718
-3.754547	PRP$ TO
-3.754547	PRP$ VB
-2.037987	PRP$ VBG	-0.5719061
-2.397884	PRP$ VBN	-0.6074978
-3.588216	PRP$ VBP
-3.588216	PRP$ VBZ
-2.889246	PRP$ ``	-0.3495629
-3.469085	RB $	0.1975367
-4.010393	RB ''
-0.6708066	RB ,	0.7003319
-2.73177	RB -LRB-	0.4023133
-3.503847	RB -RRB-	0.1724644
-1.390182	RB .	0.1387579
-3.091667	RB :	0.01467976
-4.281999	RB </s>
-1.956688	RB CC	0.5023668
-2.036486	RB CD	0.09504366
-1.343229	RB DT	0.6758131
-2.744179	RB EX	0.6662947
-3.406937	RB FW	-0.09401341
-0.9902969	RB IN	0.6243014
-0.9627885	RB JJ	0.2553322
-2.016002	RB JJR	0.2369375
-2.812177	RB JJS	-0.2516678
-3.487895	RB LS	-0.00500457
-2.09307	RB MD	0.08816695
-1.772796	RB NN	0.2472423
-3.628786	RB NNP	-0.3107123
-2.107358	RB NNS	0.29245
-3.240606	RB PDT	2.279908
-3.487895	RB POS	0.1926995
-1.985333	RB PRP	-0.45553
-2.713797	RB PRP$	0.3912711
-1.208097	RB RB	0.4830585
-2.100155	RB RBR	0.8078245
-3.487895	RB RBS	0.4070426
-4.44833	RB SYM
-1.789238	RB TO	0.6046475
-0.832366	RB VB	0.2504582
-1.903601	RB VBD	0.4271654
-1.545204	RB VBG	0.4441204
-1.171914	RB VBN	0.5361385
-1.565995	RB VBP	0.3328973
-1.506388	RB VBZ	0.4559176
-3.378909	RB WDT	0.3276277
-3.202817	RB WP	0.1545436
-2.418676	RB WRB	0.1245642
-3.185089	RB ``	0.1119658
-3.257118	RBR ''
-1.592476	RBR ,	0.06493595
-3.090787	RBR -LRB-
-1.428029	RBR .	0.09374428
-3.090787	RBR :
-1.418689	RBR CC	-0.7566158
-3.257118	RBR CD
-2.277874	RBR DT	0.3674509
-1.080063	RBR IN	0.3518767
-0.2883553	RBR JJ	0.03669703
-2.21385	RBR JJR	-0.08878277
-2.391817	RBR MD	-0.02694935
-1.245689	RBR NN	-0.004524112
-1.236481	RBR NNS	0.1689233
-2.296683	RBR PRP	-0.1227035
-1.088621	RBR RB	-0.1529465
-2.245689	RBR TO	0.5486058
-1.729059	RBR VB	-0.1631379
-3.257118	RBR VBD
-1.812033	RBR VBG	-0.04708984
-1.534484	RBR VBN	-0.1164105
-3.090787	RBR VBP	-0.2482083
-2.437574	RBR VBZ	-0.06449974
-3.090787	RBR WDT
-2.256695	RBR WRB	-0.02123832
-3.090787	RBR ``
-2.692671	RBS ,
-2.692671	RBS -LRB-
-1.924279	RBS .	1.154442
-2.692671	RBS DT
-1.785977	RBS IN	0.01721463
-0.1488509	RBS JJ	0.4732224
-1.873127	RBS NN	-0.1735295
-1.063941	RBS NNS	0.1160439
-0.9822713	RBS RB	-0.1948588
-2.692671	RBS TO
-2.254734	RBS VB
-1.732236	RBS VBG
-1.785977	RBS VBN	0.03550759
-2.526339	RBS VBP	-0.2380371
-2.526339	RBS VBZ	-0.1882555
-2.692671	RBS WRB
-2.224389	RP ''
-1.302489	RP ,	0.04124147
-2.1844	RP -LRB-	-0.02918726
-3.018492	RP -RRB-
-1.233163	RP .	-0.02882779
-2.224389	RP :
-1.647425	RP CC	0.01834852
-1.957795	RP CD	-0.3880342
-0.7262364	RP DT	-0.05430698
-0.5079474	RP IN	0.3456271
-1.270304	RP JJ	-0.4034192
-2.018492	RP JJR	0.1483667
-3.184824	RP JJS
-2.416432	RP MD	0.9474085
-1.355735	RP NN	-0.01655543
-1.54867	RP NNS	-0.13877
-2.36528	RP PDT	1.252124
-2.620553	RP PRP	-0.08513116
-1.427428	RP PRP$	0.3471893
-1.438709	RP RB	-0.2074551
-2.36528	RP RBR	0.2961291
-1.137679	RP TO	0.3170964
-3.184824	RP VB
-3.184824	RP VBD
-1.801008	RP VBG	0.3323068
-2.620553	RP VBN	0.03519861
-3.184824	RP VBP
-2.141555	RP VBZ	-0.02765968
-3.018492	RP WDT
-2.1844	RP WP	0.1629697
-2.27813	RP WRB	0.02994928
-2.620553	RP ``
-1.564271	SYM ,
-1.564271	SYM -LRB-
-1.564271	SYM .
-0.79588	SYM :	0.1559321
-0.563848	SYM </s>
-1.564271	SYM CC
-0.69897	SYM CD	-0.02816273
-1.564271	SYM DT
-1.39794	SYM FW
-1	SYM JJ	-0.05353442
-1.564271	SYM NN
-1.564271	SYM NNS
-1.564271	SYM VBG
-2.938132	TO $	-0.1798817
-4.294796	TO ''
-3.283366	TO ,	-0.09077721
-3.294372	TO -LRB-	0.1183376
-4.294796	TO -RRB-
-3.067766	TO .	0.6958042
-4.294796	TO :
-2.838429	TO CC	-0.1173638
-1.779186	TO CD	-0.6920166
-0.8315794	TO DT	-0.2960563
-4.294796	TO EX
-4.294796	TO FW
-2.681306	TO IN	0.4493705
-1.31156	TO JJ	-0.05875695
-2.250517	TO JJR	-0.3451723
-3.526404	TO JJS	-0.2914793
-1.323643	TO NN	0.1315238
-3.429494	TO NNP	0.03692727
-1.697905	TO NNS	0.1951238
-3.283366	TO PDT	1.060238
-2.239162	TO PRP	-0.6370976
-1.740185	TO PRP$	0.2858311
-2.036797	TO RB	-0.1624308
-3.067766	TO RBR	-0.06619421
-3.856858	TO RBS	-0.128091
-4.128464	TO TO
-0.1827246	TO VB	0.6944602
-2.009538	TO VBG	0.2993676
-2.861292	TO VBN	0.1173415
-3.174221	TO VBZ	-0.1779786
-3.475251	TO WDT	-0.2653662
-2.967096	TO WP	-0.3465441
-3.128464	TO WRB	0.1503683
-2.898015	TO ``	-0.4179602
-0.3424227	UH ,
-0.3424227	UH VBG
-3.668593	VB $	0.3572375
-2.999586	VB ''	0.05248761
-2.019691	VB ,	0.4259396
-3.091357	VB -LRB-	0.4584106
-3.527702	VB -RRB-	-0.06630518
-1.771577	VB .	0.8107202
-1.546195	VB :	-1.111915
-3.581443	VB </s>
-1.779603	VB CC	0.3038383
-2.08001	VB CD	0.4270997
-0.6288705	VB DT	0.1915815
-3.719745	VB EX	0.04818428
-4.321805	VB FW
-0.9509225	VB IN	0.9039602
-0.9775115	VB JJ	0.422848
-1.583421	VB JJR	-0.07736826
-3.344082	VB JJS	-0.4431759
-3.444868	VB LS	-0.01263137
-3.367563	VB MD	0.06286371
-1.186037	VB NN	0.3409464
-3.668593	VB NNP	-0.08791097
-1.397526	VB NNS	0.5338498
-2.783986	VB PDT	0.3675171
-3.668593	VB POS	-0.4120997
-1.552798	VB PRP	1.124479
-1.397785	VB PRP$	0.1361294
-1.413857	VB RB	0.385816
-1.997523	VB RBR	0.1041102
-3.668593	VB RBS	-0.2541574
-1.665228	VB RP	0.4628735
-1.390602	VB TO	0.3988996
-2.207862	VB VB	-0.3767907
-3.280413	VB VBD	0.1436931
-2.005835	VB VBG	0.4303238
-0.8973322	VB VBN	0.2226808
-3.487713	VB VBP
-2.765503	VB VBZ	0.2260494
-3.242624	VB WDT	0.03278121
-2.803292	VB WP	0.4964264
-4.488137	VB WP$
-2.479821	VB WRB	0.2167475
-3.321805	VB ``	-0.5702455
-2.716197	VBD $	0.5333288
-1.790622	VBD ,	0.3256104
-2.809927	VBD -LRB-	0.557711
-3.716621	VBD -RRB-
-1.817896	VBD .	0.02410829
-2.716197	VBD :	-0.0568773
-2.673352	VBD </s>
-1.976258	VBD CC	0.1210781
-1.761414	VBD CD	-0.6639585
-0.8235623	VBD DT	-0.1553575
-3.55029	VBD EX
-0.7951772	VBD IN	0.6164366
-1.100811	VBD JJ	0.1355209
-2.217851	VBD JJR	0.1508907
-3.716621	VBD JJS
-2.332806	VBD MD	0.4589742
-1.243865	VBD NN	0.08660722
-3.278684	VBD NNP
-1.545968	VBD NNS	0.3083346
-3.278684	VBD PDT	1.729245
-1.838482	VBD PRP	0.07166135
-1.901929	VBD PRP$	0.2434937
-0.9043763	VBD RB	0.3544831
-2.404161	VBD RBR	0.2038478
-3.55029	VBD RBS	0.2537286
-1.608281	VBD RP	0.03525275
-1.177377	VBD TO	0.3409283
-2.572566	VBD VB	-0.07152081
-2.675228	VBD VBD	0.002723098
-1.750949	VBD VBG	0.4154974
-0.7820215	VBD VBN	0.2835572
-2.897077	VBD VBP	-0.05659498
-2.620871	VBD VBZ	0.08097093
-2.897077	VBD WDT	0.1288941
-2.716197	VBD WP
-2.675228	VBD WRB	0.1483207
-2.737376	VBD ``	0.1161967
-4.107818	VBG #
-3.107394	VBG $	0.5333288
-2.811153	VBG ''	-0.01319236
-1.982445	VBG ,	-0.03447306
-4.107818	VBG -LR
-2.987244	VBG -LRB-	0.4534397
-2.811153	VBG -RRB-	0.01999491
-1.79381	VBG .	0.0913949
-3.242517	VBG :	-0.1512442
-3.201124	VBG </s>
-1.714887	VBG CC	0.02925873
-2.269389	VBG CD	-0.5521132
-0.6888763	VBG DT	0.1026893
-4.107818	VBG EX
-3.941487	VBG FW
-0.9421385	VBG IN	0.4719368
-0.9872441	VBG JJ	-0.2347461
-1.745587	VBG JJR	0.3043967
-3.147383	VBG JJS	-0.1115678
-2.629733	VBG MD	0.5607157
-0.6940043	VBG NN	0.8506409
-3.163335	VBG NNP	-0.3208312
-1.023719	VBG NNS	0.2751482
-2.780118	VBG PDT	0.9690939
-1.640457	VBG PRP	0.8085397
-1.687422	VBG PRP$	0.1847926
-1.586418	VBG RB	-0.3336179
-2.181819	VBG RBR	0.3368472
-3.669881	VBG RBS	-0.128091
-1.822561	VBG RP	0.2381112
-4.107818	VBG SYM
-1.197194	VBG TO	0.6133174
-3.066425	VBG VB	0.01665835
-2.880789	VBG VBD	0.2452732
-2.274034	VBG VBG	0.05697793
-1.532399	VBG VBN	0.2553222
-3.038397	VBG VBP	0.005665511
-2.344889	VBG VBZ	0.1231846
-3.038397	VBG WDT	-0.2364377
-3.669881	VBG WP	-0.2707506
-2.987244	VBG WRB	0.1601164
-3.064549	VBG ``	-0.0835277
-4.074615	VBN $	0.8599291
-3.053426	VBN ''	0.08694184
-1.529927	VBN ,	0.6457299
-2.416604	VBN -LRB-	0.2982531
-3.171525	VBN -RRB-	0.1048715
-1.163458	VBN .	-1.154656
-2.819343	VBN :	0.07639226
-3.171525	VBN </s>
-1.540589	VBN CC	0.5269989
-1.95569	VBN CD	-0.7513322
-1.340216	VBN DT	-0.1280248
-4.240947	VBN EX
-3.80301	VBN FW	-0.09096255
-0.4441366	VBN IN	0.343497
-1.429685	VBN JJ	0.2414354
-2.530547	VBN JJR	0.5282399
-3.80301	VBN JJS	-0.2117548
-2.512322	VBN MD	0.3710456
-1.008103	VBN NN	0.4332592
-4.074615	VBN NNP
-1.579765	VBN NNS	0.5248045
-3.280512	VBN PDT	1.604306
-2.426255	VBN PRP	0.3070518
-2.402518	VBN PRP$	0.2614578
-1.33307	VBN RB	-0.6399816
-2.416604	VBN RBR	0.2191803
-4.074615	VBN RBS
-1.761804	VBN RP	0.126943
-0.8390869	VBN TO	0.473237
-3.074615	VBN VB	-0.4465165
-2.831577	VBN VBD	0.1417079
-1.995434	VBN VBG	0.3467273
-1.466624	VBN VBN	-0.1993949
-2.635283	VBN VBP	0.05212551
-2.322567	VBN VBZ	0.3516755
-3.033223	VBN WDT	-0.02794442
-3.296464	VBN WP	0.08809175
-2.426255	VBN WRB	-0.04322958
-2.898524	VBN ``	-0.1447886
-3.906416	VBP $	0.8599291
-3.112312	VBP ''	-0.03461524
-2.096856	VBP ,	0.1464418
-3.061318	VBP -LRB-	0.6159384
-3.029479	VBP -RRB-	0.2074395
-1.995258	VBP .	-0.1546556
-2.906416	VBP :	0.1542432
-3.112312	VBP </s>
-2.283167	VBP CC	0.02905452
-1.961933	VBP CD	0.1645949
-0.9293785	VBP DT	-0.09144068
-2.976997	VBP EX	0.3953646
-3.906416	VBP FW
-1.0017	VBP IN	0.1979157
-0.8460958	VBP JJ	0.4262999
-1.812994	VBP JJR	0.01449907
-3.253203	VBP JJS	-0.4637504
-4.072747	VBP LS
-2.651143	VBP MD	0.590413
-1.395201	VBP NN	0.2097217
-3.63481	VBP NNP	-0.1592502
-1.513719	VBP NNS	0.496769
-3.072324	VBP PDT	1.428215
-3.508476	VBP POS	0.2433144
-1.870986	VBP PRP	0.07774353
-1.863054	VBP PRP$	-0.1367457
-0.7893103	VBP RB	-0.3507466
-1.777694	VBP RBR	-0.2349017
-3.031355	VBP RBS	0.01175737
-2.278027	VBP RP	0.12343
-1.106387	VBP TO	-0.1364079
-4.072747	VBP UH
-2.238963	VBP VB	0.06725448
-3.061318	VBP VBD	-0.1025178
-1.348909	VBP VBG	0.5204555
-0.7968373	VBP VBN	0.384514
-2.885226	VBP VBP	0.0978252
-2.627662	VBP VBZ	0.3376181
-3.63481	VBP WDT
-3.253203	VBP WP	-0.0105101
-2.809506	VBP WRB	0.1180202
-2.792473	VBP ``	-0.1023445
-3.121997	VBZ $	0.05620754
-3.804634	VBZ ''
-2.096236	VBZ ,	0.3825076
-3.335877	VBZ -LRB-	0.1879449
-2.175873	VBZ .	-0.143865
-3.17315	VBZ :	-0.1060475
-3.282136	VBZ </s>
-2.339843	VBZ CC	0.02999663
-1.755056	VBZ CD	-0.657912
-0.7052644	VBZ DT	-0.09032679
-3.37727	VBZ EX	0.06277715
-1.017624	VBZ IN	0.3249141
-0.8859081	VBZ JJ	0.1993736
-1.785093	VBZ JJR	-0.08927262
-3.121997	VBZ JJS	-0.1504522
-3.034847	VBZ MD	0.6350656
-1.403219	VBZ NN	-0.216015
-2.885908	VBZ NNP	-0.03615728
-1.818561	VBZ NNS	-0.06009126
-3.263326	VBZ PDT	1.092423
-1.903054	VBZ PRP	0.1865635
-2.013658	VBZ PRP$	0.07505715
-0.7619511	VBZ RB	-0.03005219
-2.023161	VBZ RBR	0.1769142
-3.098516	VBZ RBS	0.2933311
-2.309084	VBZ RP	0.2450142
-4.242571	VBZ SYM
-1.190879	VBZ TO	0.2994654
-2.347886	VBZ VB	0.1550637
-2.914872	VBZ VBD	-0.2339522
-1.535285	VBZ VBG	0.442627
-0.8464301	VBZ VBN	0.2920196
-2.914872	VBZ VBP	-0.04257756
-2.705172	VBZ VBZ	0.5630436
-3.804634	VBZ WDT	-0.06500524
-3.201179	VBZ WP	-0.1467279
-2.356081	VBZ WRB	0.08085978
-2.743801	VBZ ``	-0.0002298355
-2.630115	WDT ,	-0.00895109
-3.443028	WDT -LRB-	0.07228738
-3.60936	WDT -RRB-
-3.443028	WDT CC
-2.539938	WDT CD	-0.1289873
-1.761787	WDT DT	0.01471889
-3.171422	WDT EX	0.07652581
-2.664877	WDT FW	-0.3507108
-1.757286	WDT IN	-0.0893172
-1.752832	WDT JJ	-0.1098871
-2.744058	WDT JJR	0.1962265
-2.840968	WDT JJS	-0.09571782
-0.7102325	WDT MD	-0.1595812
-1.545401	WDT NN	-0.1592882
-3.443028	WDT NNP	-0.2527664
-1.657698	WDT NNS	-0.5164837
-3.60936	WDT PDT
-1.840968	WDT PRP	-0.3198682
-2.664877	WDT PRP$	-0.2971142
-1.4699	WDT RB	-0.3962438
-3.443028	WDT RBR
-2.608936	WDT RBS	-0.07552157
-3.443028	WDT VB
-1.0813	WDT VBD	0.08407307
-2.28166	WDT VBG	0.03974521
-2.566091	WDT VBN	-0.001010865
-0.6781052	WDT VBP	0.5071331
-0.479949	WDT VBZ	0.2030582
-3.60936	WDT WDT
-3.443028	WDT WP
-2.840968	WDT WRB	-0.006836478
-2.789816	WDT ``	-0.1188408
-2.599967	WP ,	-0.2584982
-2.077469	WP -RRB-
-2.599967	WP .	1.580411
-3.037904	WP CD
-1.581538	WP DT	0.1522142
-2.077469	WP FW	-0.07196227
-1.968483	WP IN	0.0886263
-2.13121	WP JJ	0.1907741
-3.037904	WP JJS
-1.023384	WP MD	0.4053208
-1.83018	WP NN	0.04559629
-2.026475	WP NNS	-0.1632893
-1.072232	WP PRP	-0.4843288
-2.473633	WP PRP$	0.2100866
-1.482407	WP RB	-0.6734601
-3.037904	WP RBR
-2.093422	WP TO	-0.4470854
-2.871573	WP VB
-0.9794784	WP VBD	0.3202107
-2.871573	WP VBG
-3.037904	WP VBN
-0.3739523	WP VBP	0.03462768
-0.8223549	WP VBZ	0.325277
-3.037904	WP ``
-1.39678	WP$ DT
-0.9588434	WP$ JJ	-0.05681136
-1.39678	WP$ JJS
-0.3273589	WP$ NN	-0.314102
-0.5314789	WP$ NNS	-0.4130537
-1.39678	WP$ WP
-2.274473	WRB ,	-0.1250496
-2.836959	WRB .	1.580411
-2.233504	WRB CC	-0.3261631
-1.841393	WRB CD	-0.3902936
-0.6454189	WRB DT	-0.3621854
-1.570746	WRB EX	0.6943678
-2.710625	WRB FW
-2.330414	WRB IN	0.167766
-0.9750261	WRB JJ	0.005169868
-2.368202	WRB JJR	-0.1748571
-2.314461	WRB JJS	-0.1115678
-1.829811	WRB MD	-0.6192756
-1.071139	WRB NN	-0.4086936
-2.836959	WRB NNP	-0.1364522
-1.106399	WRB NNS	-0.6452515
-2.314461	WRB PDT	1.604306
-0.6629608	WRB PRP	-0.8197243
-1.994622	WRB PRP$	0.5017079
-1.669232	WRB RB	-0.2451767
-2.455353	WRB RBR	-0.1844747
-2.314461	WRB RBS	0.1032194
-3.274896	WRB RP
-1.302385	WRB TO	-0.9768113
-3.108565	WRB VB	-0.2320368
-2.274473	WRB VBD	-0.1669136
-1.312685	WRB VBG	0.1402419
-1.546272	WRB VBN	-0.2240647
-2.087376	WRB VBP	-0.2586248
-2.154323	WRB VBZ	-0.1363644
-3.274896	WRB WDT
-3.274896	WRB WP
-3.108565	WRB WRB	-0.1772071
-2.231628	WRB ``	-0.05537415
-1.451323	`` ,	0.3897064
-1.171483	`` -LRB-	0.4019239
-2.678028	`` -RRB-
-1.387341	`` .	0.1942092
-2.678028	`` :
-1.745514	`` </s>
-2.209271	`` CC	-0.1524152
-1.51827	`` CD	-0.2203088
-0.9978109	`` DT	0.1755595
-2.250664	`` EX	0.2648414
-2.171483	`` FW	0.01391056
-1.286876	`` IN	0.196458
-0.8323627	`` JJ	-0.226864
-2.171483	`` JJR	0.2126701
-2.15553	`` JJS	-0.02163111
-3.115965	`` LS
-2.296422	`` MD	0.2762516
-0.6507809	`` NN	0.1953382
-2.15553	`` NNP	-0.06504519
-1.358569	`` NNS	-0.2019341
-1.706596	`` PRP	-0.03290898
-2.072697	`` PRP$	-0.06303102
-1.526388	`` RB	-0.1175483
-2.949634	`` RBR
-1.852724	`` TO	0.003761351
-1.502476	`` VB	-0.1346306
-1.995391	`` VBD	-0.14202
-1.543094	`` VBG	0.199406
-1.852724	`` VBN	-0.1115974
-2.074573	`` VBP	-0.03221895
-1.928445	`` VBZ	0.1966127
-3.115965	`` WDT
-2.115542	`` WP	-0.008119047
-2.296422	`` WRB	-0.012145
-2.949634	`` ``

\3-grams:
-0.4179723	CD # LS
-1.844227	NN # -RRB-
-1.423319	NN # </s>
-0.6078578	NN # CD
-1.844227	NN # FW
-1.278562	NN # IN
-1.423319	NN # LS
-0.6349628	NN # NN
-1.423319	NN # NNS
-1.423319	NN # SYM
-0.2930335	, $ CD
-0.2930335	-LRB- $ CD
-0.3191822	: $ CD
-0.2930335	<s> $ CD
-0.05684054	CC $ CD
-0.5316681	CD $ CD
-1.097333	CD $ IN
-0.5316681	CD $ JJ
-0.1233276	DT $ CD
-0.006641619	IN $ CD
-0.1025399	JJ $ CD
-1.132096	NN $ -RRB-
-0.237271	NN $ CD
-0.03156431	NNS $ CD
-0.2930335	POS $ CD
-0.03125679	PRP $ CD
-0.05219411	RB $ CD
-0.02112951	TO $ CD
-0.07757013	VB $ CD
-0.1222569	VBD $ CD
-0.1222569	VBG $ CD
-0.3191822	VBN $ CD
-0.3191822	VBP $ CD
-0.03705549	VBZ $ CD
-0.4952735	'' '' -LRB-
-0.7963035	, '' -LRB-
-0.3753957	, '' VBZ
-0.2306381	. '' .
-0.6610103	<s> '' DT
-0.3441056	CD '' -LRB-
-1.018152	CD '' </s>
-1.381532	JJ '' ,
-0.7044253	JJ '' -LRB-
-1.489913	JJ '' .
-1.489913	JJ '' </s>
-1.294868	JJ '' CC
-2.055579	JJ '' DT
-1.106586	JJ '' IN
-0.7044253	JJ '' NN
-0.9395491	JJ '' NNS
-2.055579	JJ '' TO
-2.055579	JJ '' VBD
-1.489913	JJ '' VBZ
-0.8976448	NN '' ,
-0.8165339	NN '' -LRB-
-1.987245	NN '' -RRB-
-0.902364	NN '' .
-2.316404	NN '' :
-2.67983	NN '' </s>
-1.313348	NN '' CC
-2.67983	NN '' CD
-1.841577	NN '' DT
-1.104039	NN '' IN
-1.620188	NN '' JJ
-1.732688	NN '' MD
-0.7756824	NN '' NN
-1.456903	NN '' NNS
-1.884921	NN '' RB
-2.88207	NN '' RBR
-1.732688	NN '' TO
-2.049145	NN '' VBD
-2.67983	NN '' VBG
-2.049145	NN '' VBN
-2.121359	NN '' VBP
-1.267014	NN '' VBZ
-1.802168	NN '' WDT
-2.67983	NN '' WRB
-2.67983	NN '' ``
-1.384114	NNS '' ,
-0.4369721	NNS '' -LRB-
-1.384114	NNS '' -RRB-
-1.384114	NNS '' .
-1.384114	NNS '' CC
-1.384114	NNS '' IN
-0.4952735	PRP '' -LRB-
-0.7465769	VB '' -LRB-
-1.641402	VB '' .
-0.8084775	VB '' DT
-1.641402	VB '' IN
-1.641402	VB '' JJ
-1.439162	VB '' JJR
-0.9673549	VB '' NN
-1.641402	VB '' NNS
-1.449516	VBG '' -LRB-
-1.449516	VBG '' DT
-1.028608	VBG '' IN
-1.247276	VBG '' JJ
-0.6165919	VBG '' NN
-1.449516	VBG '' RB
-1.340371	VBN '' ,
-0.6663249	VBN '' -LRB-
-1.340371	VBN '' CC
-0.9194638	VBN '' IN
-1.340371	VBN '' NN
-0.6202123	VBP '' -LRB-
-1.110552	'' , CC
-1.062397	'' , CD
-1.062397	'' , DT
-1.16472	'' , IN
-1.16472	'' , JJ
-0.7290487	'' , NN
-1.385498	'' , PRP
-2.059545	'' , RB
-1.638637	'' , VBD
-2.059545	'' , VBG
-1.638637	'' , VBZ
-1.226621	'' , WDT
-1.298834	'' , ``
-1.851535	-RRB- , -LRB-
-2.931436	-RRB- , </s>
-1.580283	-RRB- , CC
-0.8899167	-RRB- , CD
-0.8180173	-RRB- , DT
-1.782054	-RRB- , EX
-1.192894	-RRB- , IN
-1.161021	-RRB- , JJ
-2.729196	-RRB- , JJR
-2.729196	-RRB- , JJS
-2.25739	-RRB- , MD
-0.8009207	-RRB- , NN
-1.443052	-RRB- , NNS
-1.274516	-RRB- , PRP
-2.729196	-RRB- , PRP$
-1.443052	-RRB- , RB
-2.729196	-RRB- , TO
-1.934288	-RRB- , VBD
-1.458014	-RRB- , VBG
-1.695067	-RRB- , VBN
-2.931436	-RRB- , VBP
-1.722172	-RRB- , VBZ
-1.274516	-RRB- , WDT
-2.729196	-RRB- , WP
-2.170726	-RRB- , WRB
-1.473511	-RRB- , ``
-0.5972444	. , CD
-0.4524868	. , NN
-0.6202123	<s> , CD
-0.8927984	CC , DT
-0.5453681	CC , IN
-0.8308978	CC , NN
-1.725722	CC , NNS
-1.725722	CC , PRP
-1.051676	CC , RB
-2.607375	CD , -LRB-
-3.22696	CD , -RRB-
-2.11746	CD , CC
-0.4147317	CD , CD
-1.370772	CD , DT
-2.33906	CD , EX
-3.082202	CD , FW
-0.577588	CD , IN
-1.318963	CD , JJ
-2.887157	CD , JJR
-1.567029	CD , MD
-0.8131242	CD , NN
-3.647868	CD , NNP
-2.607375	CD , NNS
-2.189943	CD , PRP
-3.445628	CD , PRP$
-1.833642	CD , RB
-3.082202	CD , TO
-2.240055	CD , VB
-2.814944	CD , VBD
-2.498486	CD , VBG
-2.206013	CD , VBN
-3.445628	CD , VBP
-2.814944	CD , VBZ
-2.317371	CD , WDT
-2.698874	CD , WRB
-2.814944	CD , ``
-1.945862	DT , CC
-2.140907	DT , CD
-0.5284682	DT , DT
-1.526218	DT , EX
-2.504332	DT , FW
-1.218188	DT , IN
-1.049652	DT , JJ
-2.706572	DT , JJS
-0.8786725	DT , NN
-1.07008	DT , NNS
-0.8923461	DT , PRP
-2.706572	DT , PRP$
-1.497308	DT , RB
-2.285664	DT , RBR
-2.504332	DT , TO
-2.706572	DT , VB
-1.444691	DT , VBG
-2.504332	DT , VBN
-2.706572	DT , WP
-2.706572	DT , ``
-1.789004	FW , -LRB-
-0.3310793	FW , CD
-1.368096	FW , DT
-1.789004	FW , IN
-1.223339	FW , JJ
-0.8400112	FW , NN
-1.586764	FW , PRP
-1.852938	IN , CC
-2.192741	IN , CD
-0.5804389	IN , DT
-1.377279	IN , EX
-2.411408	IN , FW
-0.927783	IN , IN
-1.242776	IN , JJ
-2.613648	IN , JJR
-2.192741	IN , JJS
-2.613648	IN , MD
-1.096802	IN , NN
-1.140227	IN , NNS
-0.9372188	IN , PRP
-2.613648	IN , PRP$
-1.404384	IN , RB
-1.664655	IN , VB
-2.613648	IN , VBD
-1.377279	IN , VBG
-2.411408	IN , VBN
-2.047983	IN , WDT
-2.411408	IN , WRB
-2.613648	IN , ``
-2.905168	JJ , -LRB-
-1.032548	JJ , CC
-1.297082	JJ , CD
-0.8661848	JJ , DT
-1.548045	JJ , EX
-2.328928	JJ , FW
-1.185616	JJ , IN
-0.6914189	JJ , JJ
-2.246175	JJ , JJR
-2.652029	JJ , JJS
-3.326076	JJ , LS
-2.176694	JJ , MD
-1.150988	JJ , NN
-2.760411	JJ , NNP
-1.555661	JJ , NNS
-0.9704088	JJ , PRP
-1.918264	JJ , PRP$
-1.175895	JJ , RB
-2.760411	JJ , RBR
-2.328928	JJ , TO
-2.328928	JJ , VB
-3.326076	JJ , VBD
-1.525968	JJ , VBG
-2.145722	JJ , VBN
-2.493152	JJ , VBP
-1.99558	JJ , VBZ
-1.659292	JJ , WDT
-2.431251	JJ , WP
-2.431251	JJ , WRB
-2.565366	JJ , ``
-1.268977	JJR , CC
-1.845218	JJR , CD
-0.8409586	JJR , DT
-1.845218	JJR , EX
-1.150096	JJR , IN
-1.70046	JJR , JJ
-1.004244	JJR , JJR
-1.371301	JJR , NN
-1.505415	JJR , NNS
-0.8583133	JJR , PRP
-2.063885	JJR , PRP$
-1.085771	JJR , RB
-1.268977	JJR , RBR
-1.592079	JJR , VBG
-2.266125	JJR , VBN
-2.266125	JJR , VBP
-2.266125	JJR , VBZ
-1.845218	JJR , WDT
-0.3811921	JJS , DT
-1.789004	JJS , FW
-1.223339	JJS , IN
-1.586764	JJS , JJ
-0.8400112	JJS , NN
-1.789004	JJS , NNS
-1.789004	JJS , PRP$
-1.586764	JJS , RBS
-0.9723948	LS , CC
-1.071185	MD , CD
-0.4405007	MD , IN
-0.7077594	MD , RB
-4.297842	NN , $
-2.512327	NN , -LRB-
-1.312831	NN , CC
-0.9030165	NN , CD
-0.8006145	NN , DT
-1.719152	NN , EX
-2.090683	NN , FW
-1.238484	NN , IN
-1.157957	NN , JJ
-2.131927	NN , JJR
-2.66135	NN , JJS
-3.537132	NN , LS
-2.22843	NN , MD
-0.6567996	NN , NN
-2.535179	NN , NNP
-1.388974	NN , NNS
-3.217941	NN , PDT
-1.157957	NN , PRP
-2.22843	NN , PRP$
-1.438	NN , RB
-3.623795	NN , RBR
-4.095602	NN , SYM
-2.33261	NN , TO
-2.347582	NN , VB
-2.244148	NN , VBD
-1.487629	NN , VBG
-2.066098	NN , VBN
-2.184423	NN , VBP
-2.018361	NN , VBZ
-1.507715	NN , WDT
-2.717065	NN , WP
-4.095602	NN , WP$
-2.236218	NN , WRB
-2.384666	NN , ``
-1.06467	NNP , CC
-0.9052446	NNP , CD
-0.9776827	NNP , DT
-2.214052	NNP , FW
-1.648386	NNP , IN
-1.648386	NNP , JJ
-0.8062397	NNP , NN
-0.5376223	NNP , NNP
-2.214052	NNP , NNS
-2.011812	NNP , RB
-2.214052	NNP , VBZ
-1.793144	NNP , WDT
-3.782851	NNS , ''
-2.666822	NNS , -LRB-
-1.151356	NNS , CC
-1.175277	NNS , CD
-0.8350105	NNS , DT
-1.758114	NNS , EX
-1.886592	NNS , FW
-1.223709	NNS , IN
-1.032685	NNS , JJ
-2.116067	NNS , JJR
-2.666822	NNS , JJS
-2.106422	NNS , MD
-0.8706446	NNS , NN
-2.742358	NNS , NNP
-1.11291	NNS , NNS
-3.782851	NNS , PDT
-1.160983	NNS , PRP
-2.116067	NNS , PRP$
-1.1503	NNS , RB
-3.782851	NNS , RBR
-2.239293	NNS , TO
-2.393116	NNS , VB
-2.266004	NNS , VBD
-1.330885	NNS , VBG
-1.989979	NNS , VBN
-2.004821	NNS , VBP
-1.935216	NNS , VBZ
-1.423209	NNS , WDT
-2.280003	NNS , WP
-3.217186	NNS , WP$
-2.375039	NNS , WRB
-2.573587	NNS , ``
-0.5584718	POS , DT
-1.319182	POS , IN
-1.319182	POS , JJ
-1.116942	POS , NN
-1.319182	POS , RB
-1.023857	PRP , CC
-1.829064	PRP , CD
-0.7582372	PRP , DT
-1.829064	PRP , EX
-2.394729	PRP , FW
-1.004994	PRP , IN
-1.2787	PRP , JJ
-2.192489	PRP , MD
-1.397581	PRP , NN
-1.561805	PRP , NNS
-0.9063448	PRP , PRP
-1.634019	PRP , PRP$
-1.023857	PRP , RB
-1.973821	PRP , TO
-2.394729	PRP , VBD
-1.354236	PRP , VBG
-1.973821	PRP , VBZ
-1.973821	PRP , WDT
-2.394729	PRP , WP
-2.394729	PRP , WRB
-3.728134	RB , -LRB-
-2.109258	RB , CC
-2.022764	RB , CD
-0.5210173	RB , DT
-1.40097	RB , EX
-1.980114	RB , FW
-0.9306173	RB , IN
-1.015956	RB , JJ
-2.116148	RB , JJR
-2.505207	RB , JJS
-2.44199	RB , MD
-1.05942	RB , NN
-3.364709	RB , NNP
-1.226008	RB , NNS
-2.668493	RB , PDT
-0.893302	RB , PRP
-2.208691	RB , PRP$
-1.529255	RB , RB
-3.256328	RB , RBR
-2.933226	RB , RBS
-2.137502	RB , TO
-2.456953	RB , VB
-2.579221	RB , VBD
-1.390394	RB , VBG
-2.522562	RB , VBN
-2.44199	RB , VBP
-2.226231	RB , VBZ
-2.413527	RB , WDT
-2.780993	RB , WP
-2.063861	RB , WRB
-2.72111	RB , ``
-1.251827	RBR , CC
-1.143446	RBR , DT
-1.056782	RBR , IN
-1.615253	RBR , JJ
-0.9845687	RBR , JJR
-1.143446	RBR , NN
-0.8684998	RBR , PRP
-1.143446	RBR , RB
-1.817493	RBR , RBR
-1.817493	RBR , VB
-1.817493	RBR , VBG
-1.817493	RBR , VBN
-1.832946	RP , CC
-0.5047777	RP , DT
-1.832946	RP , EX
-2.035186	RP , FW
-1.361139	RP , IN
-0.919156	RP , JJ
-1.038037	RP , NN
-1.46952	RP , NNS
-1.274475	RP , PRP
-1.202262	RP , RB
-1.832946	RP , VBG
-1.832946	RP , WDT
-0.7433725	TO , CC
-0.9620403	TO , JJ
-1.052575	VB , CC
-1.94725	VB , CD
-0.7250371	VB , DT
-1.860586	VB , EX
-2.055631	VB , FW
-1.064975	VB , IN
-1.19613	VB , JJ
-1.231562	VB , NN
-1.624148	VB , NNS
-2.621297	VB , PDT
-0.9171531	VB , PRP
-1.10445	VB , RB
-2.419057	VB , RBR
-2.419057	VB , TO
-1.19613	VB , VB
-2.621297	VB , VBD
-1.270143	VB , VBG
-2.621297	VB , VBN
-2.621297	VB , VBP
-1.94725	VB , VBZ
-1.860586	VB , WDT
-2.200389	VB , WRB
-2.621297	VB , ``
-1.245926	VBD , CC
-1.081702	VBD , CD
-0.7483538	VBD , DT
-1.513185	VBD , IN
-1.513185	VBD , JJ
-2.07885	VBD , JJS
-0.9294683	VBD , NN
-2.07885	VBD , NNS
-0.9294683	VBD , PRP
-1.513185	VBD , RB
-2.07885	VBD , VB
-1.404803	VBD , VBG
-2.07885	VBD , WDT
-1.184025	VBD , ``
-1.198322	VBG , CC
-0.7613767	VBG , DT
-2.278224	VBG , EX
-2.075984	VBG , FW
-1.329231	VBG , IN
-1.198322	VBG , JJ
-2.278224	VBG , MD
-1.097869	VBG , NN
-1.4453	VBG , NNS
-0.8704115	VBG , PRP
-1.237731	VBG , RB
-2.278224	VBG , RBR
-2.278224	VBG , VB
-0.9073512	VBG , VBG
-1.604177	VBG , WDT
-2.278224	VBG , ``
-1.117138	VBN , CC
-2.10316	VBN , CD
-0.7234108	VBN , DT
-1.474135	VBN , EX
-2.442962	VBN , FW
-0.9973572	VBN , IN
-1.093455	VBN , JJ
-2.189824	VBN , JJR
-2.10316	VBN , MD
-1.361021	VBN , NN
-1.361021	VBN , NNS
-0.908562	VBN , PRP
-2.66163	VBN , PRP$
-1.150868	VBN , RB
-2.10316	VBN , RBR
-2.298205	VBN , TO
-2.66163	VBN , VB
-2.298205	VBN , VBD
-1.375486	VBN , VBG
-1.627501	VBN , VBN
-2.189824	VBN , VBP
-2.298205	VBN , VBZ
-1.347023	VBN , WDT
-2.66163	VBN , WRB
-2.030946	VBN , ``
-1.454695	VBP , CC
-0.6258931	VBP , DT
-1.707834	VBP , EX
-1.179749	VBP , IN
-1.048841	VBP , JJ
-1.926502	VBP , MD
-1.926502	VBP , NN
-1.563077	VBP , NNS
-1.088249	VBP , PRP
-1.926502	VBP , PRP$
-1.233917	VBP , RB
-1.926502	VBP , TO
-1.926502	VBP , VBG
-1.295818	VBP , VBP
-1.563077	VBP , WDT
-1.404361	VBZ , CC
-1.538475	VBZ , CD
-0.6626937	VBZ , DT
-2.096946	VBZ , EX
-1.149804	VBZ , IN
-1.183156	VBZ , JJ
-2.299186	VBZ , JJS
-2.299186	VBZ , MD
-1.350193	VBZ , NN
-1.183156	VBZ , NNS
-0.9283131	VBZ , PRP
-1.183156	VBZ , RB
-2.299186	VBZ , RBR
-1.625139	VBZ , VBG
-1.625139	VBZ , VBZ
-2.096946	VBZ , WDT
-2.096946	VBZ , WRB
-1.302037	VBZ , ``
-0.9298556	WDT , IN
-1.132096	WDT , JJ
-0.2930335	WP , CD
-0.5940635	WRB , WRB
-1.817493	`` , ''
-1.817493	`` , -LRB-
-0.9845687	`` , CD
-0.9845687	`` , DT
-1.251827	`` , IN
-1.615253	`` , JJ
-1.251827	`` , NN
-1.615253	`` , NNS
-1.615253	`` , PRP
-1.817493	`` , RB
-1.817493	`` , VBD
-1.817493	`` , VBG
-1.817493	`` , VBN
-1.615253	`` , VBZ
-0.9226682	`` , ``
-2.29231	'' -LRB- -LRB-
-1.055941	'' -LRB- CD
-2.09007	'' -LRB- DT
-1.871402	'' -LRB- FW
-1.343317	'' -LRB- JJ
-1.871402	'' -LRB- JJS
-1.343317	'' -LRB- LS
-0.2805987	'' -LRB- NN
-2.09007	'' -LRB- NNP
-0.9618139	'' -LRB- NNS
-2.09007	'' -LRB- RB
-2.29231	'' -LRB- VB
-1.871402	'' -LRB- VBN
-2.29231	'' -LRB- ``
-0.3332807	, -LRB- CD
-1.302765	, -LRB- JJ
-0.4375691	, -LRB- NN
-2.063475	, -LRB- NNP
-2.063475	, -LRB- NNS
-2.063475	, -LRB- RB
-0.9295397	-LRB- -LRB- JJ
-0.1215286	-LRB- -LRB- NN
-1.48801	-LRB- -LRB- NNS
-1.822969	-RRB- -LRB- CD
-2.410804	-RRB- -LRB- JJ
-2.663943	-RRB- -LRB- LS
-0.03831933	-RRB- -LRB- NN
-2.663943	-RRB- -LRB- NNS
-3.084851	-RRB- -LRB- VBG
-1.33008	-RRB- -LRB- VBN
-1.861235	: -LRB- -LRB-
-2.063475	: -LRB- DT
-2.063475	: -LRB- LS
-0.07438191	: -LRB- NN
-1.302765	: -LRB- VBN
-2.080962	<s> -LRB- -LRB-
-3.290226	<s> -LRB- -RRB-
-0.3439198	<s> -LRB- CD
-2.174196	<s> -LRB- DT
-3.087986	<s> -LRB- FW
-3.087986	<s> -LRB- IN
-1.405622	<s> -LRB- JJ
-1.252842	<s> -LRB- LS
-2.529516	<s> -LRB- MD
-0.4285122	<s> -LRB- NN
-1.551684	<s> -LRB- NNS
-3.087986	<s> -LRB- PRP
-2.616179	<s> -LRB- RB
-2.869318	<s> -LRB- VBG
-2.395401	<s> -LRB- VBN
-2.869318	<s> -LRB- WRB
-2.174196	<s> -LRB- ``
-0.6451356	CC -LRB- CD
-0.3701892	CC -LRB- NN
-2.611438	CD -LRB- $
-0.613156	CD -LRB- CD
-1.495409	CD -LRB- DT
-2.045773	CD -LRB- IN
-1.08103	CD -LRB- JJ
-0.3133276	CD -LRB- NN
-1.402174	CD -LRB- NNS
-2.190531	CD -LRB- RB
-2.611438	CD -LRB- VB
-2.409198	CD -LRB- VBG
-1.570945	CD -LRB- VBN
-2.611438	CD -LRB- WRB
-1.937392	CD -LRB- ``
-0.6191697	DT -LRB- JJ
-0.2999786	DT -LRB- NN
-1.37988	DT -LRB- VBG
-0.09529861	FW -LRB- CD
-1.085955	FW -LRB- NN
-2.051232	IN -LRB- JJ
-0.01743221	IN -LRB- NN
-1.77145	IN -LRB- NNS
-0.8202987	JJ -LRB- CD
-1.712558	JJ -LRB- DT
-2.278224	JJ -LRB- IN
-0.6313977	JJ -LRB- JJ
-2.278224	JJ -LRB- LS
-0.3487653	JJ -LRB- NN
-1.383399	JJ -LRB- NNS
-2.278224	JJ -LRB- ``
-1.360575	JJR -LRB- DT
-1.158335	JJR -LRB- JJ
-0.2806734	JJR -LRB- NN
-1.158335	JJR -LRB- NNS
-0.6202123	MD -LRB- NN
-2.47731	NN -LRB- -LRB-
-3.172432	NN -LRB- CC
-0.4514904	NN -LRB- CD
-1.93642	NN -LRB- DT
-2.760416	NN -LRB- FW
-1.989413	NN -LRB- IN
-1.328375	NN -LRB- JJ
-3.172432	NN -LRB- JJR
-3.3911	NN -LRB- LS
-3.027675	NN -LRB- MD
-0.302296	NN -LRB- NN
-3.027675	NN -LRB- NNP
-1.409268	NN -LRB- NNS
-2.644347	NN -LRB- PRP
-2.384076	NN -LRB- RB
-3.3911	NN -LRB- TO
-3.3911	NN -LRB- VB
-2.83263	NN -LRB- VBG
-2.168173	NN -LRB- VBN
-3.59334	NN -LRB- WDT
-2.83263	NN -LRB- WP
-3.59334	NN -LRB- WRB
-2.412986	NN -LRB- ``
-0.1471477	NNP -LRB- CD
-1.433126	NNP -LRB- JJ
-3.038099	NNS -LRB- -LRB-
-0.8691047	NNS -LRB- CD
-1.922069	NNS -LRB- DT
-2.617191	NNS -LRB- FW
-1.888717	NNS -LRB- IN
-0.9686866	NNS -LRB- JJ
-3.038099	NNS -LRB- JJR
-3.038099	NNS -LRB- MD
-0.2644317	NNS -LRB- NN
-2.835859	NNS -LRB- NNP
-0.9109493	NNS -LRB- NNS
-2.835859	NNS -LRB- PRP
-1.958197	NNS -LRB- RB
-3.038099	NNS -LRB- VB
-2.835859	NNS -LRB- VBG
-2.089106	NNS -LRB- VBN
-3.038099	NNS -LRB- WP
-2.040951	NNS -LRB- ``
-0.7433725	POS -LRB- CD
-0.3313562	POS -LRB- NN
-0.7370073	PRP -LRB- JJ
-0.3444206	PRP -LRB- NN
-1.313248	PRP -LRB- NNS
-1.313248	PRP -LRB- RB
-1.734156	PRP -LRB- WP
-0.3191822	PRP$ -LRB- NN
-1.869411	RB -LRB- CD
-1.667171	RB -LRB- DT
-0.9204175	RB -LRB- JJ
-0.192981	RB -LRB- NN
-1.667171	RB -LRB- NNS
-0.2306381	RP -LRB- NN
-0.3753957	TO -LRB- NN
-0.9839658	VB -LRB- CD
-1.128723	VB -LRB- JJ
-0.2636533	VB -LRB- NN
-1.549631	VB -LRB- NNS
-1.549631	VB -LRB- RB
-1.059545	VBD -LRB- CD
-0.4938795	VBD -LRB- JJ
-0.8573049	VBD -LRB- NN
-1.071185	VBG -LRB- CD
-0.7077594	VBG -LRB- JJ
-0.4405007	VBG -LRB- NN
-1.774954	VBN -LRB- CD
-1.977194	VBN -LRB- DT
-0.7968393	VBN -LRB- JJ
-0.2067787	VBN -LRB- NN
-1.303147	VBN -LRB- NNS
-1.977194	VBN -LRB- RB
-0.9620403	VBP -LRB- CD
-0.5986149	VBP -LRB- NN
-1.16428	VBP -LRB- NNS
-0.4938795	VBZ -LRB- NN
-0.3191822	WDT -LRB- NN
-2.097333	`` -LRB- -LRB-
-1.423287	`` -LRB- CD
-1.017432	`` -LRB- JJ
-0.9813039	`` -LRB- LS
-0.2561776	`` -LRB- NN
-1.336623	`` -LRB- NNS
-2.097333	`` -LRB- ``
-0.4952735	$ -RRB- VBZ
-0.9620403	'' -RRB- .
-1.16428	'' -RRB- </s>
-1.16428	'' -RRB- CD
-0.9620403	'' -RRB- RB
-0.2962145	, -RRB- .
-1.215915	-RRB- -RRB- ,
-0.7844319	-RRB- -RRB- -LRB-
-0.572316	-RRB- -RRB- .
-1.02087	-RRB- -RRB- </s>
-1.215915	-RRB- -RRB- DT
-1.78158	-RRB- -RRB- IN
-1.78158	-RRB- -RRB- NN
-1.215915	-RRB- -RRB- RB
-0.2930335	. -RRB- .
-0.9438486	<s> -RRB- ,
-1.088606	<s> -RRB- -LRB-
-1.088606	<s> -RRB- </s>
-0.7488035	<s> -RRB- IN
-1.509514	<s> -RRB- JJ
-1.509514	<s> -RRB- WP
-1.509514	<s> -RRB- ``
-1.075986	CD -RRB- ,
-1.649117	CD -RRB- -LRB-
-2.606122	CD -RRB- -RRB-
-0.1812268	CD -RRB- .
-2.267119	CD -RRB- :
-1.5774	CD -RRB- </s>
-2.174727	CD -RRB- CC
-2.54624	CD -RRB- CD
-1.831405	CD -RRB- DT
-3.553264	CD -RRB- EX
-1.58651	CD -RRB- IN
-1.70181	CD -RRB- JJ
-3.553264	CD -RRB- JJR
-2.806511	CD -RRB- MD
-1.551165	CD -RRB- NN
-3.755504	CD -RRB- NNP
-2.140448	CD -RRB- NNS
-3.553264	CD -RRB- PDT
-3.755504	CD -RRB- POS
-2.994793	CD -RRB- PRP
-1.652676	CD -RRB- RB
-3.553264	CD -RRB- RBR
-3.755504	CD -RRB- RBS
-2.675602	CD -RRB- TO
-1.638612	CD -RRB- VBD
-2.313649	CD -RRB- VBG
-2.384631	CD -RRB- VBN
-2.54624	CD -RRB- VBP
-1.842328	CD -RRB- VBZ
-2.365769	CD -RRB- WDT
-3.334596	CD -RRB- WP
-2.994793	CD -RRB- WRB
-2.639474	CD -RRB- ``
-0.8632503	DT -RRB- ,
-0.6610103	DT -RRB- NNS
-0.5940635	FW -RRB- .
-0.8159122	IN -RRB- -LRB-
-0.5972444	IN -RRB- </s>
-2.03602	JJ -RRB- ,
-0.5813406	JJ -RRB- -LRB-
-0.5341168	JJ -RRB- .
-0.7214134	JJ -RRB- </s>
-2.03602	JJ -RRB- CC
-2.03602	JJ -RRB- CD
-2.03602	JJ -RRB- IN
-1.122231	JJ -RRB- NN
-2.03602	JJ -RRB- NNS
-2.03602	JJ -RRB- RB
-2.23826	JJ -RRB- VBZ
-1.639459	LS -RRB- ,
-1.219815	LS -RRB- -LRB-
-0.7432496	LS -RRB- .
-1.359676	LS -RRB- </s>
-1.1638	LS -RRB- DT
-1.320268	LS -RRB- IN
-1.403021	LS -RRB- JJ
-0.552534	LS -RRB- NN
-1.505345	LS -RRB- NNS
-2.197929	LS -RRB- PRP
-1.451176	LS -RRB- RB
-1.639459	LS -RRB- VB
-2.400169	LS -RRB- VBD
-1.979262	LS -RRB- VBG
-1.979262	LS -RRB- VBZ
-1.979262	LS -RRB- ``
-0.4232869	MD -RRB- .
-0.8950935	MD -RRB- VBP
-1.097589	NN -RRB- ,
-0.6282459	NN -RRB- -LRB-
-2.026348	NN -RRB- -RRB-
-0.6119375	NN -RRB- .
-2.700245	NN -RRB- :
-0.7717371	NN -RRB- </s>
-1.676398	NN -RRB- CC
-2.243916	NN -RRB- CD
-2.137144	NN -RRB- DT
-3.595069	NN -RRB- EX
-1.541376	NN -RRB- IN
-1.840298	NN -RRB- JJ
-2.762145	NN -RRB- JJR
-2.014292	NN -RRB- MD
-1.330104	NN -RRB- NN
-1.899969	NN -RRB- NNS
-3.392829	NN -RRB- POS
-3.392829	NN -RRB- PRP
-1.969163	NN -RRB- RB
-2.026348	NN -RRB- TO
-1.747434	NN -RRB- VBD
-2.700245	NN -RRB- VBG
-2.646076	NN -RRB- VBN
-2.026348	NN -RRB- VBP
-1.43538	NN -RRB- VBZ
-2.169902	NN -RRB- WDT
-2.700245	NN -RRB- WRB
-2.762145	NN -RRB- ``
-0.5462804	NNP -RRB- -LRB-
-1.495273	NNP -RRB- -RRB-
-0.7345631	NNP -RRB- .
-0.6623495	NNP -RRB- </s>
-1.015174	NNS -RRB- ,
-0.8304797	NNS -RRB- -LRB-
-2.422986	NNS -RRB- -RRB-
-0.6844439	NNS -RRB- .
-0.9978191	NNS -RRB- </s>
-1.306956	NNS -RRB- CC
-2.220746	NNS -RRB- CD
-1.343084	NNS -RRB- IN
-2.422986	NNS -RRB- JJ
-2.002078	NNS -RRB- MD
-1.662276	NNS -RRB- NN
-1.662276	NNS -RRB- NNS
-2.002078	NNS -RRB- RB
-1.748939	NNS -RRB- TO
-1.857321	NNS -RRB- VBD
-1.662276	NNS -RRB- VBN
-1.186617	NNS -RRB- VBP
-1.748939	NNS -RRB- VBZ
-2.220746	NNS -RRB- WDT
-2.422986	NNS -RRB- ``
-0.7171223	PRP -RRB- VBD
-1.097333	RB -RRB- -LRB-
-0.5316681	RB -RRB- .
-0.6202123	VB -RRB- -LRB-
-0.409023	VBG -RRB- -LRB-
-1.449516	VBG -RRB- -RRB-
-1.449516	VBG -RRB- .
-0.6888056	VBG -RRB- </s>
-1.449516	VBG -RRB- NN
-1.020032	VBN -RRB- ,
-0.5482256	VBN -RRB- .
-1.222272	VBN -RRB- DT
-0.8632503	VBP -RRB- .
-0.005905436	'' . </s>
-0.0005936534	-RRB- . </s>
-3.491507	-RRB- . NN
-0.02872668	. . </s>
-0.08831818	<s> . </s>
-0.2930335	CC . </s>
-0.002703323	CD . </s>
-2.615529	CD . NN
-0.003777178	DT . </s>
-0.01297873	FW . </s>
-0.003679813	IN . </s>
-0.0004134494	JJ . </s>
-0.006214542	JJR . </s>
-0.04825063	JJS . </s>
-0.004091415	LS . </s>
-0.1222569	MD . </s>
-3.547365	NN . ,
-4.308075	NN . -RRB-
-3.158694	NN . .
-0.01019864	NN . </s>
-4.308075	NN . DT
-4.308075	NN . IN
-3.098811	NN . JJ
-1.686208	NN . NN
-0.02886273	NNP . </s>
-1.750546	NNP . NN
-3.750057	NNS . ''
-3.952297	NNS . ,
-3.750057	NNS . .
-0.001847242	NNS . </s>
-2.544485	NNS . NN
-0.06915919	POS . </s>
-2.950118	PRP . ''
-0.001767246	PRP . </s>
-3.210998	RB . .
-0.001806709	RB . </s>
-3.210998	RB . NN
-0.007005503	RBR . </s>
-0.08831818	RBS . </s>
-0.005272332	RP . </s>
-0.02872668	TO . </s>
-0.01777473	VB . </s>
-2.869411	VB . DT
-1.583433	VB . JJ
-2.869411	VB . LS
-2.667171	VB . NN
-0.005960493	VBD . </s>
-0.006967404	VBG . </s>
-0.0003924078	VBN . </s>
-0.003940125	VBP . </s>
-0.004039711	VBZ . </s>
-0.2930335	WP . </s>
-0.2930335	WRB . </s>
-0.008847539	`` . </s>
-0.7963035	'' : DT
-0.7963035	'' : JJ
-1.641402	-RRB- : -LRB-
-0.2902481	-RRB- : CD
-1.439162	-RRB- : DT
-1.439162	-RRB- : JJ
-1.439162	-RRB- : NN
-1.439162	-RRB- : NNS
-0.6202123	: : NN
-0.8674602	<s> : -LRB-
-0.3170959	<s> : NN
-1.433126	<s> : NNS
-1.433126	<s> : VB
-2.018152	CD : $
-1.815912	CD : -LRB-
-0.4494308	CD : CD
-1.344106	CD : DT
-2.018152	CD : IN
-1.069159	CD : JJ
-0.5929853	CD : NN
-1.452487	CD : NNS
-2.018152	CD : RB
-2.018152	CD : VBN
-0.1855128	FW : CD
-1.536666	FW : JJ
-0.7759557	FW : NN
-0.535261	IN : -LRB-
-1.958927	IN : </s>
-2.161167	IN : CC
-2.161167	IN : CD
-2.161167	IN : DT
-1.740259	IN : JJ
-1.328243	IN : NN
-1.740259	IN : NNS
-1.958927	IN : RB
-0.3610594	IN : VB
-2.161167	IN : VBG
-1.977194	JJ : </s>
-1.774954	JJ : CC
-1.411528	JJ : CD
-0.7968393	JJ : DT
-1.977194	JJ : IN
-1.14427	JJ : JJ
-0.6683864	JJ : NN
-1.556286	JJ : NNS
-1.216483	JJ : PRP
-0.8278118	JJ : RB
-1.556286	JJ : VB
-1.977194	JJ : VBG
-0.4423425	LS : JJ
-0.8632503	LS : NN
-1.916755	NN : -LRB-
-3.44471	NN : :
-1.676839	NN : </s>
-2.606457	NN : CC
-1.481035	NN : CD
-1.434206	NN : DT
-3.44471	NN : EX
-3.64695	NN : FW
-2.066173	NN : IN
-1.12976	NN : JJ
-2.886239	NN : JJR
-3.64695	NN : JJS
-3.44471	NN : MD
-0.3437968	NN : NN
-2.316453	NN : NNP
-1.481035	NN : NNS
-2.221783	NN : PRP
-2.886239	NN : PRP$
-1.884286	NN : RB
-3.44471	NN : TO
-0.5782136	NN : VB
-1.980165	NN : VBG
-2.886239	NN : VBN
-3.64695	NN : VBP
-2.567048	NN : VBZ
-2.886239	NN : WDT
-2.886239	NN : WP
-2.53092	NN : WRB
-2.606457	NN : ``
-1.071185	NNP : JJ
-0.4405007	NNP : NN
-2.213663	NNS : -LRB-
-0.4974738	NNS : </s>
-1.884503	NNS : CC
-1.448832	NNS : CD
-0.9447497	NNS : DT
-1.598974	NNS : IN
-1.057645	NNS : JJ
-2.577088	NNS : JJR
-0.8092175	NNS : NN
-1.49335	NNS : NNS
-1.517447	NNS : PRP
-1.428175	NNS : RB
-2.779328	NNS : TO
-1.210607	NNS : VB
-1.946404	NNS : VBG
-2.779328	NNS : WDT
-2.105281	NNS : WRB
-2.35842	NNS : ``
-0.8573049	PRP : DT
-1.059545	PRP : IN
-1.059545	PRP : PRP
-1.088606	RB : CC
-0.9438486	RB : DT
-1.088606	RB : NN
-0.9438486	RB : PRP
-0.9438486	RB : RB
-1.509514	RB : ``
-0.9212422	SYM : JJ
-0.9212422	SYM : NN
-0.9212422	SYM : PRP
-1.399692	VB : CD
-3.094793	VB : IN
-1.364598	VB : JJ
-0.06866752	VB : NN
-1.978763	VB : NNP
-1.621371	VB : NNS
-2.529127	VB : VB
-1.914438	VB : VBG
-0.7963035	VBD : DT
-1.018152	VBG : </s>
-0.8159122	VBG : PRP
-1.018152	VBG : RB
-1.574455	VBN : CD
-0.8137443	VBN : DT
-1.372215	VBN : IN
-1.153547	VBN : JJ
-1.008789	VBN : NN
-0.7415307	VBN : RB
-1.574455	VBN : ``
-1.319182	VBP : </s>
-0.8982745	VBP : DT
-1.116942	VBP : JJ
-0.7535169	VBP : NN
-1.319182	VBP : ``
-0.8013644	VBZ : JJ
-1.222272	VBZ : MD
-1.222272	VBZ : ``
-1.160057	'' CC DT
-1.725722	'' CC IN
-1.304815	'' CC JJ
-1.725722	'' CC MD
-1.304815	'' CC NN
-1.725722	'' CC PRP
-0.965012	'' CC RB
-1.523482	'' CC VB
-1.725722	'' CC VBP
-0.5453681	'' CC ``
-2.869086	, CC ,
-2.615947	, CC -LRB-
-3.289994	, CC CC
-1.848139	, CC CD
-0.826973	, CC DT
-2.292845	, CC EX
-2.869086	, CC FW
-1.180077	, CC IN
-1.14627	, CC JJ
-2.249501	, CC JJR
-1.759586	, CC MD
-0.8012431	, CC NN
-2.080729	, CC NNP
-1.40539	, CC NNS
-3.087754	, CC PDT
-1.05825	, CC PRP
-2.053625	, CC PRP$
-0.7101108	, CC RB
-2.292845	, CC RBR
-3.087754	, CC RBS
-1.733672	, CC TO
-1.633074	, CC VB
-1.773147	, CC VBD
-1.559799	, CC VBG
-2.395169	, CC VBN
-1.787145	, CC VBP
-1.686067	, CC VBZ
-2.341001	, CC WP
-2.292845	, CC WRB
-0.7963035	-LRB- CC JJ
-0.7963035	-LRB- CC NN
-1.965131	-RRB- CC -LRB-
-1.746464	-RRB- CC CD
-0.7255167	-RRB- CC DT
-1.218378	-RRB- CC IN
-0.816218	-RRB- CC JJ
-2.167371	-RRB- CC MD
-0.6645225	-RRB- CC NN
-1.965131	-RRB- CC NNS
-1.746464	-RRB- CC PRP
-1.01799	-RRB- CC RB
-1.334447	-RRB- CC VB
-1.746464	-RRB- CC VBZ
-0.6903782	: CC DT
-0.9576368	: CC IN
-1.102394	: CC JJ
-1.523302	: CC PRP
-1.321062	: CC RB
-1.321062	: CC VB
-1.523302	: CC VBG
-1.168474	<s> CC ,
-2.610329	<s> CC CC
-2.610329	<s> CC CD
-0.6755761	<s> CC DT
-1.569836	<s> CC EX
-2.189421	<s> CC FW
-0.5898902	<s> CC IN
-1.494299	<s> CC JJ
-2.610329	<s> CC JJR
-1.121945	<s> CC NN
-2.408089	<s> CC NNP
-1.460947	<s> CC NNS
-2.408089	<s> CC PDT
-1.239457	<s> CC PRP
-2.610329	<s> CC PRP$
-1.079921	<s> CC RB
-2.610329	<s> CC TO
-2.610329	<s> CC VB
-2.189421	<s> CC VBG
-2.408089	<s> CC VBP
-2.610329	<s> CC VBZ
-1.936282	<s> CC WP
-1.936282	<s> CC WRB
-0.4152514	CC CC CC
-1.651621	CC CC CD
-1.085955	CC CC JJ
-0.7567961	CC CC NN
-0.9775741	CC CC NNS
-1.914885	CD CC $
-0.6393943	CD CC CD
-1.007129	CD CC DT
-2.48055	CD CC EX
-1.055383	CD CC IN
-1.244181	CD CC JJ
-1.038696	CD CC JJR
-2.48055	CD CC MD
-1.244181	CD CC NN
-1.914885	CD CC NNS
-2.059643	CD CC PRP
-0.7503558	CD CC RB
-2.059643	CD CC VB
-1.806504	CD CC VBD
-2.27831	CD CC VBG
-2.48055	CD CC VBN
-1.806504	CD CC VBP
-1.806504	CD CC VBZ
-0.7167071	DT CC DT
-1.549631	DT CC IN
-1.347391	DT CC JJ
-0.9839658	DT CC NN
-1.549631	DT CC NNS
-0.8755845	DT CC RB
-1.549631	DT CC VBP
-0.7171223	FW CC RB
-2.441398	IN CC ,
-2.441398	IN CC CD
-0.6134985	IN CC DT
-1.179517	IN CC IN
-1.051663	IN CC JJ
-2.239158	IN CC JJR
-0.8049062	IN CC NN
-1.325369	IN CC NNS
-2.239158	IN CC PRP
-1.492405	IN CC PRP$
-0.9530137	IN CC RB
-2.02049	IN CC TO
-1.205029	IN CC VB
-1.875733	IN CC VBD
-1.680688	IN CC VBG
-2.239158	IN CC VBN
-2.239158	IN CC VBP
-2.441398	IN CC VBZ
-3.483832	JJ CC $
-3.281592	JJ CC CC
-2.809786	JJ CC CD
-1.209136	JJ CC DT
-2.175025	JJ CC EX
-1.705802	JJ CC IN
-0.3086686	JJ CC JJ
-1.966985	JJ CC JJR
-3.281592	JJ CC JJS
-1.649254	JJ CC MD
-1.046505	JJ CC NN
-1.753638	JJ CC NNS
-1.554374	JJ CC PRP
-2.094098	JJ CC PRP$
-1.038311	JJ CC RB
-1.857926	JJ CC RBR
-2.650908	JJ CC RBS
-2.367803	JJ CC TO
-1.48555	JJ CC VB
-2.058666	JJ CC VBD
-1.683725	JJ CC VBG
-1.857926	JJ CC VBN
-1.817048	JJ CC VBP
-1.636197	JJ CC VBZ
-3.483832	JJ CC WP
-3.483832	JJ CC WRB
-3.483832	JJ CC ``
-1.411325	JJR CC DT
-2.527355	JJR CC EX
-1.694431	JJR CC IN
-1.318091	JJR CC JJ
-0.3036521	JJR CC JJR
-2.106447	JJR CC MD
-1.411325	JJR CC NN
-1.853308	JJR CC PRP
-1.265473	JJR CC RB
-1.010508	JJR CC RBR
-1.347	JJR CC VB
-2.106447	JJR CC VBG
-2.325115	JJR CC VBN
-1.447453	JJR CC VBP
-1.853308	JJR CC VBZ
-0.6202123	JJS CC RBS
-1.132096	LS CC DT
-0.3713852	LS CC LS
-0.9298556	LS CC VB
-0.3613195	MD CC MD
-1.194244	MD CC NN
-0.9920035	MD CC VB
-3.609153	NN CC $
-3.081068	NN CC ,
-3.827821	NN CC -LRB-
-4.030061	NN CC .
-3.197137	NN CC CC
-2.229953	NN CC CD
-1.010379	NN CC DT
-2.622249	NN CC EX
-3.827821	NN CC FW
-1.662577	NN CC IN
-0.9738738	NN CC JJ
-1.896205	NN CC JJR
-3.827821	NN CC JJS
-1.945479	NN CC MD
-0.3704813	NN CC NN
-3.269351	NN CC NNP
-1.209458	NN CC NNS
-3.827821	NN CC PDT
-1.787822	NN CC PRP
-1.996851	NN CC PRP$
-1.192017	NN CC RB
-3.609153	NN CC RBR
-3.032912	NN CC RBS
-2.128089	NN CC TO
-1.251842	NN CC VB
-1.867248	NN CC VBD
-1.450178	NN CC VBG
-2.195482	NN CC VBN
-1.930821	NN CC VBP
-1.664524	NN CC VBZ
-3.609153	NN CC WDT
-3.197137	NN CC WP
-2.849706	NN CC WRB
-3.827821	NN CC ``
-1.76634	NNP CC -LRB-
-1.76634	NNP CC JJ
-1.345433	NNP CC NN
-0.1855636	NNP CC NNP
-1.345433	NNP CC RB
-1.345433	NNP CC VBD
-3.272748	NNS CC ,
-3.693656	NNS CC -LRB-
-2.798831	NNS CC CC
-2.303921	NNS CC CD
-1.099706	NNS CC DT
-2.744663	NNS CC EX
-3.491416	NNS CC FW
-1.5598	NNS CC IN
-0.9307975	NNS CC JJ
-1.893548	NNS CC JJR
-3.491416	NNS CC JJS
-2.137334	NNS CC MD
-0.8276052	NNS CC NN
-0.5118865	NNS CC NNS
-1.733357	NNS CC PRP
-1.814998	NNS CC PRP$
-1.153675	NNS CC RB
-3.693656	NNS CC RBR
-3.272748	NNS CC RBS
-1.980654	NNS CC TO
-1.160255	NNS CC VB
-1.930992	NNS CC VBD
-1.42869	NNS CC VBG
-2.285843	NNS CC VBN
-1.753672	NNS CC VBP
-1.673217	NNS CC VBZ
-3.693656	NNS CC WDT
-3.491416	NNS CC WP
-2.696507	NNS CC WRB
-3.491416	NNS CC ``
-1.222272	POS CC DT
-1.020032	POS CC JJ
-0.4615618	POS CC NN
-1.222272	POS CC VBD
-2.421273	PRP CC CD
-1.0504	PRP CC DT
-1.47228	PRP CC IN
-1.588349	PRP CC JJ
-2.000365	PRP CC MD
-1.660562	PRP CC NN
-2.421273	PRP CC NNS
-0.5136626	PRP CC PRP
-1.090777	PRP CC PRP$
-0.8525513	PRP CC RB
-0.8525513	PRP CC VB
-2.219033	PRP CC VBD
-1.588349	PRP CC VBG
-2.421273	PRP CC VBN
-2.421273	PRP CC VBP
-2.219033	PRP CC VBZ
-1.312197	PRP$ CC NN
-1.840283	PRP$ CC NNS
-0.04568063	PRP$ CC PRP$
-2.442253	RB CC CD
-1.156108	RB CC DT
-2.223585	RB CC EX
-1.464138	RB CC IN
-1.408123	RB CC JJ
-2.644493	RB CC JJR
-2.078827	RB CC JJS
-1.6955	RB CC MD
-1.749668	RB CC NN
-2.078827	RB CC NNS
-1.464138	RB CC PRP
-2.078827	RB CC PRP$
-0.3532745	RB CC RB
-2.223585	RB CC TO
-0.8740777	RB CC VB
-1.528463	RB CC VBD
-1.564591	RB CC VBG
-1.970446	RB CC VBN
-2.078827	RB CC VBP
-2.078827	RB CC VBZ
-1.99128	RBR CC DT
-1.99128	RBR CC JJ
-1.78904	RBR CC RB
-0.07810401	RBR CC RBR
-1.99128	RBR CC VB
-1.78904	RBR CC VBP
-1.48801	RP CC JJ
-1.48801	RP CC MD
-1.124585	RP CC NN
-1.269342	RP CC RB
-1.269342	RP CC RP
-0.6497571	RP CC VB
-1.269342	RP CC VBG
-1.124585	RP CC VBN
-1.69025	RP CC VBZ
-0.4288625	TO CC DT
-1.406977	TO CC IN
-1.406977	TO CC JJ
-0.7762928	TO CC NN
-1.188309	TO CC VB
-1.344538	VB CC DT
-2.659145	VB CC EX
-1.681031	VB CC IN
-1.625016	VB CC JJ
-2.440477	VB CC JJR
-2.100675	VB CC MD
-1.453573	VB CC NN
-2.028461	VB CC NNS
-1.625016	VB CC PRP
-2.861385	VB CC PRP$
-1.224893	VB CC RB
-2.861385	VB CC RBR
-1.864237	VB CC TO
-0.176221	VB CC VB
-2.29572	VB CC VBD
-2.100675	VB CC VBG
-2.659145	VB CC VBN
-2.187338	VB CC VBP
-1.912392	VB CC VBZ
-2.440477	VB CC WP
-2.659145	VB CC WRB
-1.06029	VBD CC DT
-1.690974	VBD CC IN
-1.06029	VBD CC JJ
-1.690974	VBD CC NN
-1.893214	VBD CC NNS
-1.219167	VBD CC RB
-1.893214	VBD CC TO
-1.472306	VBD CC VB
-0.4352886	VBD CC VBD
-1.132503	VBD CC VBG
-1.309413	VBG CC DT
-1.785072	VBG CC IN
-1.365428	VBG CC JJ
-2.545782	VBG CC JJR
-1.871735	VBG CC MD
-0.8789979	VBG CC NN
-1.650957	VBG CC NNS
-2.124874	VBG CC PRP
-1.548634	VBG CC RB
-2.545782	VBG CC TO
-1.465881	VBG CC VB
-0.2545641	VBG CC VBG
-2.124874	VBG CC VBN
-2.343542	VBG CC VBP
-2.343542	VBG CC VBZ
-2.432301	VBN CC CD
-0.9627374	VBN CC DT
-2.650968	VBN CC EX
-1.703827	VBN CC IN
-1.098438	VBN CC JJ
-2.020284	VBN CC JJR
-1.56723	VBN CC MD
-1.379787	VBN CC NN
-1.502055	VBN CC NNS
-1.463473	VBN CC PRP
-2.853208	VBN CC PRP$
-0.9400322	VBN CC RB
-2.179162	VBN CC RBR
-2.432301	VBN CC TO
-1.3228	VBN CC VB
-2.092498	VBN CC VBD
-1.773307	VBN CC VBG
-0.457517	VBN CC VBN
-1.737179	VBN CC VBP
-1.737179	VBN CC VBZ
-2.853208	VBN CC WP
-2.092498	VBN CC WRB
-0.9452832	VBP CC DT
-1.376766	VBP CC JJ
-1.740192	VBP CC MD
-1.181721	VBP CC NN
-1.942432	VBP CC NNS
-1.740192	VBP CC PRP
-1.109507	VBP CC RB
-1.942432	VBP CC VBD
-1.942432	VBP CC VBN
-0.4540471	VBP CC VBP
-1.740192	VBP CC WP
-2.055579	VBZ CC CD
-0.906197	VBZ CC DT
-1.05843	VBZ CC IN
-1.05843	VBZ CC JJ
-2.055579	VBZ CC MD
-0.8463145	VBZ CC NN
-0.906197	VBZ CC NNS
-1.222655	VBZ CC RB
-1.853339	VBZ CC VB
-0.8463145	VBZ CC VBZ
-1.194244	WRB CC TO
-0.9920035	WRB CC WP
-0.4335331	WRB CC WRB
-1.059545	`` CC PRP
-0.6386371	`` CC ``
-1.360575	# CD -RRB-
-0.1802206	# CD </s>
-2.509514	$ CD $
-1.835467	$ CD ,
-1.943848	$ CD -LRB-
-1.614689	$ CD -RRB-
-1.393484	$ CD .
-1.835467	$ CD :
-1.560521	$ CD CC
-0.3435992	$ CD CD
-1.360132	$ CD DT
-0.723999	$ CD IN
-2.509514	$ CD JJR
-2.509514	$ CD MD
-1.429612	$ CD NN
-2.088606	$ CD NNS
-1.32916	$ CD TO
-0.6202123	'' CD .
-0.6202123	'' CD NN
-3.702908	, CD ''
-0.5431404	, CD ,
-1.824251	, CD -LRB-
-0.3355699	, CD -RRB-
-1.282446	, CD .
-2.441026	, CD :
-2.122131	, CD </s>
-3.500668	, CD CC
-2.077002	, CD CD
-3.702908	, CD DT
-2.466539	, CD FW
-1.086482	, CD IN
-2.007807	, CD JJ
-3.500668	, CD LS
-1.806648	, CD MD
-1.507139	, CD NN
-2.066416	, CD NNS
-3.137243	, CD POS
-3.702908	, CD RB
-3.500668	, CD VBD
-3.500668	, CD VBG
-2.522553	, CD VBZ
-3.500668	, CD WDT
-0.5652178	-LRB- CD ,
-0.1640873	-LRB- CD -RRB-
-2.677893	-LRB- CD .
-3.438603	-LRB- CD :
-3.438603	-LRB- CD CC
-3.017695	-LRB- CD CD
-2.543778	-LRB- CD JJ
-3.438603	-LRB- CD MD
-1.578292	-LRB- CD NN
-2.543778	-LRB- CD NNS
-3.438603	-LRB- CD TO
-1.296214	-RRB- CD ,
-1.717122	-RRB- CD -LRB-
-1.717122	-RRB- CD -RRB-
-1.717122	-RRB- CD .
-1.151457	-RRB- CD </s>
-1.514882	-RRB- CD IN
-1.717122	-RRB- CD JJ
-1.514882	-RRB- CD MD
-0.408315	-RRB- CD NN
-1.514882	-RRB- CD NNS
-2.505291	: CD $
-1.939625	: CD ,
-1.508142	: CD -LRB-
-1.464798	: CD -RRB-
-1.115556	: CD .
-1.610466	: CD :
-1.016906	: CD </s>
-1.831244	: CD CD
-1.831244	: CD IN
-1.939625	: CD JJ
-0.255343	: CD NN
-1.74458	: CD NNS
-2.084383	: CD VBD
-2.303051	: CD ``
-1.714144	<s> CD ,
-1.614601	<s> CD -LRB-
-1.027149	<s> CD -RRB-
-0.9886554	<s> CD .
-2.249362	<s> CD :
-1.882915	<s> CD </s>
-2.923408	<s> CD CC
-2.090484	<s> CD CD
-2.923408	<s> CD FW
-0.6185125	<s> CD IN
-0.8501536	<s> CD JJ
-2.923408	<s> CD JJR
-1.63743	<s> CD MD
-0.6709213	<s> CD NN
-1.342632	<s> CD NNS
-2.162698	<s> CD RB
-2.502501	<s> CD VBG
-1.687039	<s> CD VBZ
-1.515642	CC CD ,
-2.146326	CC CD -LRB-
-2.146326	CC CD -RRB-
-1.515642	CC CD .
-1.515642	CC CD CC
-1.268664	CC CD CD
-0.9067113	CC CD IN
-1.515642	CC CD JJ
-2.348566	CC CD MD
-0.4945465	CC CD NN
-0.8317191	CC CD NNS
-1.782901	CC CD RB
-2.146326	CC CD TO
-1.927658	CC CD VBD
-2.348566	CC CD VBG
-2.348566	CC CD VBN
-2.348566	CC CD VBP
-1.674519	CC CD VBZ
-2.348566	CC CD WDT
-1.154376	CD CD ,
-1.68953	CD CD -LRB-
-1.533062	CD CD -RRB-
-1.047748	CD CD .
-2.348524	CD CD </s>
-1.379696	CD CD CC
-2.095385	CD CD CD
-0.7489926	CD CD IN
-1.438935	CD CD JJ
-2.348524	CD CD MD
-0.804199	CD CD NN
-0.652539	CD CD NNS
-2.203766	CD CD PRP
-2.567191	CD CD RB
-1.460624	CD CD TO
-2.348524	CD CD VBD
-1.936507	CD CD VBN
-2.769431	CD CD VBP
-1.820438	CD CD VBZ
-2.567191	CD CD WDT
-1.52384	DT CD ,
-2.492667	DT CD -LRB-
-2.239528	DT CD -RRB-
-2.080651	DT CD .
-1.764193	DT CD CC
-1.964582	DT CD CD
-2.711335	DT CD DT
-1.562421	DT CD IN
-0.9633149	DT CD JJ
-2.913575	DT CD JJR
-2.492667	DT CD MD
-0.5741807	DT CD NN
-0.3922751	DT CD NNS
-2.347909	DT CD POS
-2.711335	DT CD RB
-1.916427	DT CD RBS
-2.080651	DT CD TO
-2.913575	DT CD VBD
-2.347909	DT CD VBG
-1.873082	DT CD VBN
-2.711335	DT CD VBP
-2.492667	DT CD VBZ
-2.01875	DT CD WDT
-2.913575	DT CD WRB
-0.4615618	FW CD -RRB-
-0.5482256	FW CD .
-3.251279	IN CD $
-3.032611	IN CD ''
-0.9201182	IN CD ,
-1.518766	IN CD -LRB-
-2.504526	IN CD -RRB-
-1.093877	IN CD .
-2.779472	IN CD :
-3.453519	IN CD </s>
-1.513535	IN CD CC
-1.368937	IN CD CD
-2.167541	IN CD DT
-1.120388	IN CD IN
-1.387983	IN CD JJ
-2.887853	IN CD JJR
-1.995594	IN CD MD
-0.6322319	IN CD NN
-0.7711686	IN CD NNS
-1.632402	IN CD POS
-3.251279	IN CD PRP
-2.304137	IN CD RB
-3.453519	IN CD RP
-1.21388	IN CD TO
-2.028352	IN CD VBD
-2.373617	IN CD VBG
-2.620595	IN CD VBN
-2.413026	IN CD VBP
-1.777089	IN CD VBZ
-2.620595	IN CD WDT
-2.620595	IN CD WRB
-2.620595	IN CD ``
-2.63982	JJ CD #
-3.060728	JJ CD ''
-0.9951921	JJ CD ,
-1.824358	JJ CD -LRB-
-0.4476	JJ CD -RRB-
-1.206708	JJ CD .
-1.057923	JJ CD </s>
-1.26062	JJ CD CC
-1.652916	JJ CD CD
-3.060728	JJ CD DT
-1.851463	JJ CD IN
-2.386681	JJ CD JJ
-3.060728	JJ CD MD
-1.10542	JJ CD NN
-0.9268723	JJ CD NNS
-3.060728	JJ CD POS
-3.060728	JJ CD RB
-1.670993	JJ CD TO
-3.060728	JJ CD VBD
-3.060728	JJ CD VBN
-2.858488	JJ CD VBP
-1.751921	JJ CD VBZ
-2.858488	JJ CD ``
-0.7733357	JJR CD .
-0.7733357	JJR CD IN
-0.7733357	JJR CD NN
-1.384114	JJS CD .
-1.020689	JJS CD IN
-1.165446	JJS CD JJ
-0.5064525	JJS CD NN
-0.8256435	JJS CD NNS
-0.2962145	LS CD ,
-0.9791497	MD CD ,
-2.188414	MD CD -LRB-
-0.1387407	MD CD -RRB-
-1.514367	MD CD .
-2.188414	MD CD CD
-1.239421	MD CD NN
-0.3584142	NN CD ,
-1.416989	NN CD -LRB-
-0.7318687	NN CD -RRB-
-1.250173	NN CD .
-2.047107	NN CD :
-2.033546	NN CD </s>
-2.122099	NN CD CC
-1.817222	NN CD CD
-3.361714	NN CD DT
-1.570242	NN CD IN
-2.007632	NN CD JJ
-3.563954	NN CD JJR
-2.803244	NN CD MD
-0.7834775	NN CD NN
-3.563954	NN CD NNP
-2.020396	NN CD NNS
-2.998289	NN CD POS
-3.143046	NN CD RB
-2.484052	NN CD TO
-2.3836	NN CD VBD
-3.361714	NN CD VBN
-3.563954	NN CD VBP
-2.523461	NN CD VBZ
-2.803244	NN CD WDT
-2.803244	NN CD ``
-0.9212422	NNP CD -RRB-
-0.7190022	NNP CD .
-1.521524	NNS CD ,
-0.6119353	NNS CD -RRB-
-1.047607	NNS CD .
-1.740192	NNS CD :
-1.740192	NNS CD </s>
-1.268385	NNS CD CC
-1.942432	NNS CD CD
-1.740192	NNS CD IN
-0.8625301	NNS CD NN
-1.047607	NNS CD NNS
-1.942432	NNS CD TO
-1.018152	POS CD .
-0.3441056	POS CD NN
-1.018152	POS CD NNS
-0.6610103	PRP CD IN
-0.8632503	PRP CD NN
-0.6386371	PRP$ CD JJ
-0.6386371	PRP$ CD NN
-1.059545	PRP$ CD NNS
-1.731771	RB CD ,
-0.9496392	RB CD -RRB-
-1.731771	RB CD .
-1.99903	RB CD CC
-1.255888	RB CD CD
-1.047848	RB CD IN
-1.234199	RB CD JJ
-2.143787	RB CD MD
-0.4341794	RB CD NN
-0.8179626	RB CD NNS
-2.362455	RB CD RB
-1.890648	RB CD TO
-2.564695	RB CD VBD
-2.564695	RB CD VBG
-2.564695	RB CD VBZ
-1.99903	RB CD WDT
-1.37988	RP CD JJ
-0.3393871	RP CD NN
-0.7058334	RP CD NNS
-1.018152	SYM CD .
-0.8159122	SYM CD NN
-1.459195	TO CD ,
-1.907749	TO CD -LRB-
-1.337964	TO CD .
-1.994413	TO CD CC
-1.053404	TO CD CD
-2.66846	TO CD DT
-0.8144403	TO CD IN
-1.719467	TO CD JJ
-0.5447024	TO CD NN
-0.6656548	TO CD NNS
-1.459195	TO CD POS
-1.773635	TO CD TO
-2.46622	TO CD VBG
-2.66846	TO CD VBN
-2.247552	TO CD VBZ
-2.247552	TO CD WDT
-2.66846	TO CD ``
-2.14007	VB CD ,
-2.560978	VB CD -LRB-
-1.103053	VB CD -RRB-
-1.728054	VB CD .
-2.560978	VB CD :
-2.560978	VB CD </s>
-1.520485	VB CD CC
-1.275	VB CD CD
-2.358738	VB CD DT
-0.7829471	VB CD IN
-1.230481	VB CD JJ
-0.5536967	VB CD NN
-0.9141517	VB CD NNS
-1.209824	VB CD POS
-2.358738	VB CD RB
-1.800267	VB CD TO
-2.560978	VB CD VBN
-2.560978	VB CD WDT
-2.108057	VBD CD -LRB-
-1.542392	VBD CD .
-2.108057	VBD CD :
-1.347347	VBD CD CD
-2.108057	VBD CD DT
-0.7992501	VBD CD IN
-1.213233	VBD CD JJ
-0.5776494	VBD CD NN
-0.5272807	VBD CD NNS
-1.99128	VBG CD .
-1.99128	VBG CD CC
-1.99128	VBG CD CD
-0.6204076	VBG CD IN
-0.7820159	VBG CD JJ
-0.8752505	VBG CD NN
-0.9507871	VBG CD NNS
-0.8109258	VBG CD POS
-1.99128	VBG CD TO
-1.872443	VBN CD ,
-2.0172	VBN CD .
-2.438108	VBN CD :
-1.489115	VBN CD CC
-1.201739	VBN CD CD
-1.257754	VBN CD IN
-1.257754	VBN CD JJ
-2.438108	VBN CD JJS
-0.2253641	VBN CD NN
-0.9801831	VBN CD NNS
-2.263665	VBP CD ,
-1.842757	VBP CD -RRB-
-1.589618	VBP CD .
-1.430741	VBP CD CD
-1.223172	VBP CD IN
-0.4707923	VBP CD JJ
-2.061425	VBP CD MD
-0.8927925	VBP CD NN
-0.6377589	VBP CD NNS
-2.061425	VBP CD POS
-1.697999	VBP CD TO
-2.438126	VBZ CD $
-2.219459	VBZ CD ,
-2.219459	VBZ CD -LRB-
-2.219459	VBZ CD .
-2.640366	VBZ CD :
-2.438126	VBZ CD CC
-1.691373	VBZ CD CD
-0.3778679	VBZ CD IN
-1.151982	VBZ CD JJ
-0.7271902	VBZ CD NN
-0.973582	VBZ CD NNS
-1.269494	VBZ CD POS
-1.643218	VBZ CD TO
-1.643218	VBZ CD WDT
-1.222272	WDT CD IN
-0.6566069	WDT CD MD
-1.020032	WDT CD NN
-1.222272	WDT CD VBZ
-1.586354	WRB CD JJ
-1.384114	WRB CD MD
-0.9123073	WRB CD NN
-1.384114	WRB CD NNS
-0.3244725	WRB CD VBZ
-0.5701917	`` CD -RRB-
-0.8557214	`` CD IN
-1.750546	`` CD JJ
-0.5701917	`` CD NN
-1.329638	`` CD NNS
-1.750546	`` CD ``
-0.7045999	'' DT JJ
-0.3492806	'' DT NN
-1.26307	'' DT NNS
-3.702741	, DT $
-2.268489	, DT .
-3.702741	, DT CC
-2.083865	, DT CD
-2.01451	, DT IN
-0.6247274	, DT JJ
-1.997371	, DT JJR
-2.596174	, DT JJS
-1.758017	, DT MD
-0.2744131	, DT NN
-3.484073	, DT NNP
-1.000605	, DT NNS
-2.668612	, DT PRP
-3.904981	, DT PRP$
-2.112109	, DT RB
-2.619003	, DT RBR
-2.447056	, DT RBS
-3.904981	, DT TO
-3.230935	, DT VB
-2.907833	, DT VBD
-1.717955	, DT VBG
-2.097757	, DT VBN
-2.43156	, DT VBP
-1.695021	, DT VBZ
-3.904981	, DT WDT
-3.010157	, DT WP
-2.788952	, DT ``
-2.047536	-LRB- DT CD
-0.8671817	-LRB- DT JJ
-2.047536	-LRB- DT JJS
-0.2333101	-LRB- DT NN
-0.9315064	-LRB- DT NNS
-1.845296	-LRB- DT VB
-2.047536	-LRB- DT WP
-1.845296	-LRB- DT ``
-2.167371	-RRB- DT IN
-0.6939497	-RRB- DT JJ
-1.746464	-RRB- DT MD
-0.3133518	-RRB- DT NN
-1.272547	-RRB- DT NNS
-2.167371	-RRB- DT RB
-2.167371	-RRB- DT VBD
-1.493325	-RRB- DT VBG
-1.08747	-RRB- DT VBZ
-0.3753957	. DT JJ
-2.267699	: DT CD
-2.469939	: DT IN
-0.4998282	: DT JJ
-2.267699	: DT JJR
-1.709228	: DT MD
-0.3427891	: DT NN
-1.260674	: DT NNS
-1.709228	: DT RB
-1.904273	: DT VBG
-1.429446	: DT VBZ
-2.469939	: DT ``
-2.870977	<s> DT ,
-3.91147	<s> DT -LRB-
-3.70923	<s> DT -RRB-
-3.70923	<s> DT .
-1.94136	<s> DT CD
-1.992798	<s> DT DT
-1.736382	<s> DT IN
-0.6967195	<s> DT JJ
-2.342749	<s> DT JJR
-2.486303	<s> DT JJS
-1.241528	<s> DT MD
-0.3874182	<s> DT NN
-2.914322	<s> DT NNP
-0.9987094	<s> DT NNS
-3.016645	<s> DT PRP
-1.931764	<s> DT RB
-3.078546	<s> DT RBR
-2.198468	<s> DT RBS
-3.70923	<s> DT VB
-2.097244	<s> DT VBD
-1.736382	<s> DT VBG
-2.285564	<s> DT VBN
-2.044957	<s> DT VBP
-0.9456254	<s> DT VBZ
-3.016645	<s> DT WP
-3.15076	<s> DT ``
-3.183082	CC DT ,
-3.183082	CC DT .
-3.183082	CC DT CC
-2.034168	CC DT CD
-2.014449	CC DT IN
-0.6449241	CC DT JJ
-2.034168	CC DT JJR
-2.344829	CC DT JJS
-1.690221	CC DT MD
-0.2950932	CC DT NN
-1.037715	CC DT NNS
-3.183082	CC DT PRP
-3.183082	CC DT PRP$
-1.804545	CC DT RB
-2.624611	CC DT RBR
-2.30542	CC DT RBS
-2.819656	CC DT VB
-2.552398	CC DT VBD
-1.614907	CC DT VBG
-1.960155	CC DT VBN
-2.388173	CC DT VBP
-1.512694	CC DT VBZ
-2.624611	CC DT WP
-2.819656	CC DT ``
-0.9633794	CD DT .
-0.8473104	CD DT IN
-0.9633794	CD DT JJ
-1.796304	CD DT JJS
-1.594064	CD DT MD
-0.5103257	CD DT NN
-1.594064	CD DT RB
-2.158031	DT DT CD
-0.7871588	DT DT JJ
-1.117538	DT DT MD
-0.7682964	DT DT NN
-0.4194893	DT DT NNS
-2.158031	DT DT VB
-2.158031	DT DT VBN
-1.325107	DT DT VBP
-1.737123	DT DT VBZ
-0.8632503	EX DT JJ
-0.2975849	EX DT NN
-4.133348	IN DT $
-1.921704	IN DT ,
-3.721332	IN DT -LRB-
-2.783841	IN DT .
-3.373902	IN DT CC
-1.908198	IN DT CD
-3.096331	IN DT DT
-4.554256	IN DT EX
-3.98859	IN DT FW
-2.317233	IN DT IN
-0.5166747	IN DT JJ
-1.841036	IN DT JJR
-2.322512	IN DT JJS
-2.706621	IN DT MD
-0.3030688	IN DT NN
-3.474355	IN DT NNP
-1.04762	IN DT NNS
-2.90743	IN DT PRP
-3.793545	IN DT PRP$
-2.184834	IN DT RB
-2.74003	IN DT RBR
-2.404075	IN DT RBS
-4.133348	IN DT TO
-3.344992	IN DT VB
-3.474355	IN DT VBD
-1.62201	IN DT VBG
-2.138985	IN DT VBN
-2.799485	IN DT VBP
-2.669652	IN DT VBZ
-3.659431	IN DT WDT
-2.74003	IN DT WP
-2.799485	IN DT ``
-2.381764	JJ DT -RRB-
-2.381764	JJ DT </s>
-2.179524	JJ DT IN
-0.7248445	JJ DT JJ
-1.621054	JJ DT JJR
-1.816099	JJ DT JJS
-0.2445942	JJ DT NN
-1.232382	JJ DT NNS
-2.381764	JJ DT RB
-1.816099	JJ DT VBG
-2.381764	JJ DT VBP
-1.816099	JJ DT VBZ
-0.1583605	JJR DT NN
-1.307274	JJR DT NNS
-1.194244	JJS DT CD
-0.5201969	JJS DT JJ
-0.5201969	JJS DT NN
-0.9140934	MD DT JJ
-0.1969622	MD DT NN
-1.022982	MD DT NNS
-1.302765	MD DT VB
-2.063475	MD DT VBP
-2.652236	NN DT ,
-2.854476	NN DT -LRB-
-1.568498	NN DT .
-1.905483	NN DT CD
-1.813983	NN DT IN
-0.7239609	NN DT JJ
-1.545669	NN DT JJR
-2.093766	NN DT JJS
-2.652236	NN DT MD
-0.2745934	NN DT NN
-1.054369	NN DT NNS
-1.774575	NN DT RB
-2.021552	NN DT RBR
-2.854476	NN DT RBS
-1.959652	NN DT VBG
-2.433568	NN DT VBN
-2.652236	NN DT VBZ
-2.652236	NN DT ``
-0.5940635	NNP DT NN
-2.447905	NNS DT CD
-0.9450557	NNS DT IN
-0.7093624	NNS DT JJ
-1.773858	NNS DT JJR
-0.2698007	NNS DT NN
-1.23864	NNS DT NNS
-2.447905	NNS DT RB
-2.447905	NNS DT VBD
-1.882239	NNS DT VBP
-1.657492	PDT DT CD
-2.65464	PDT DT IN
-0.6473591	PDT DT JJ
-2.65464	PDT DT MD
-0.4391305	PDT DT NN
-0.5012665	PDT DT NNS
-2.65464	PDT DT RBR
-1.759816	PDT DT VBG
-2.233732	PDT DT VBN
-2.65464	PDT DT VBP
-0.4952735	POS DT JJ
-1.835291	PRP DT ,
-2.256198	PRP DT .
-0.5992786	PRP DT JJ
-1.582152	PRP DT JJR
-2.256198	PRP DT JJS
-2.256198	PRP DT MD
-0.6197064	PRP DT NN
-1.495488	PRP DT NNS
-1.361374	PRP DT RB
-2.256198	PRP DT RP
-1.495488	PRP DT VBD
-2.256198	PRP DT VBG
-0.7126401	PRP DT VBP
-0.9723948	PRP$ DT JJ
-0.4067294	PRP$ DT NN
-3.055712	RB DT ,
-3.257952	RB DT .
-2.178051	RB DT CD
-2.692287	RB DT DT
-1.816097	RB DT IN
-0.4598227	RB DT JJ
-1.88708	RB DT JJR
-1.949145	RB DT JJS
-2.077598	RB DT MD
-0.3667538	RB DT NN
-1.07388	RB DT NNS
-3.257952	RB DT PRP
-1.832785	RB DT RB
-2.497242	RB DT RBR
-2.021583	RB DT RBS
-3.055712	RB DT VB
-1.927456	RB DT VBG
-2.363127	RB DT VBN
-2.837044	RB DT VBP
-2.10857	RB DT VBZ
-3.257952	RB DT WDT
-2.217459	RB DT WP
-3.257952	RB DT ``
-0.9298556	RBR DT JJ
-0.2991715	RBR DT NN
-1.132096	RBR DT NNS
-1.937392	RP DT IN
-0.5824441	RP DT JJ
-1.778514	RP DT JJR
-2.611438	RP DT JJS
-0.2762096	RP DT NN
-0.9855322	RP DT NNS
-2.611438	RP DT PRP$
-2.409198	RP DT RB
-2.409198	RP DT RBS
-2.190531	RP DT VBG
-2.190531	RP DT VBN
-2.245194	TO DT ,
-3.616067	TO DT -LRB-
-2.721242	TO DT .
-3.616067	TO DT CC
-2.406802	TO DT CD
-2.94202	TO DT DT
-2.158142	TO DT IN
-0.5328848	TO DT JJ
-1.697395	TO DT JJR
-2.379698	TO DT JJS
-0.2890241	TO DT NN
-1.094767	TO DT NNS
-2.94202	TO DT PRP
-3.616067	TO DT PRP$
-2.012139	TO DT RB
-2.536165	TO DT RBR
-3.616067	TO DT VB
-1.562373	TO DT VBG
-2.09922	TO DT VBN
-2.94202	TO DT VBP
-3.616067	TO DT VBZ
-2.174212	TO DT WP
-2.783143	TO DT ``
-2.932216	VB DT ,
-3.251407	VB DT .
-4.012117	VB DT :
-3.809877	VB DT CC
-2.509269	VB DT CD
-3.251407	VB DT DT
-2.226602	VB DT IN
-0.551089	VB DT JJ
-1.666549	VB DT JJR
-2.046885	VB DT JJS
-3.251407	VB DT MD
-0.2895976	VB DT NN
-3.591209	VB DT NNP
-0.9579241	VB DT NNS
-4.012117	VB DT PRP
-2.971624	VB DT PRP$
-2.018405	VB DT RB
-2.355197	VB DT RBR
-2.386211	VB DT RBS
-3.809877	VB DT TO
-3.338071	VB DT VB
-1.711733	VB DT VBG
-2.335688	VB DT VBN
-3.591209	VB DT VBP
-3.179193	VB DT VBZ
-2.70331	VB DT WP
-2.932216	VB DT ``
-3.045909	VBD DT .
-2.048761	VBD DT CD
-2.151085	VBD DT IN
-0.5356566	VBD DT JJ
-2.371863	VBD DT JJR
-2.212986	VBD DT JJS
-0.2631867	VBD DT NN
-1.231683	VBD DT NNS
-3.045909	VBD DT PRP
-1.675037	VBD DT RB
-3.045909	VBD DT RBR
-2.285199	VBD DT RBS
-3.045909	VBD DT TO
-2.843669	VBD DT VB
-2.212986	VBD DT VBG
-2.212986	VBD DT VBN
-3.045909	VBD DT VBP
-2.151085	VBD DT ``
-3.006127	VBG DT ,
-3.571793	VBG DT -LRB-
-3.571793	VBG DT .
-2.285815	VBG DT CD
-3.571793	VBG DT DT
-2.391438	VBG DT IN
-0.5439652	VBG DT JJ
-1.737214	VBG DT JJR
-2.16398	VBG DT JJS
-3.571793	VBG DT MD
-0.2915387	VBG DT NN
-0.9642181	VBG DT NNS
-2.897746	VBG DT PRP
-3.571793	VBG DT PRP$
-2.054946	VBG DT RB
-2.285815	VBG DT RBR
-2.676968	VBG DT RBS
-1.764568	VBG DT VBG
-1.924967	VBG DT VBN
-3.571793	VBG DT VBZ
-3.571793	VBG DT WDT
-3.150885	VBG DT WP
-3.006127	VBG DT ``
-3.053582	VBN DT ,
-2.013089	VBN DT CD
-2.056434	VBN DT IN
-0.5032771	VBN DT JJ
-2.104589	VBN DT JJR
-2.104589	VBN DT JJS
-2.632674	VBN DT MD
-0.280678	VBN DT NN
-1.193271	VBN DT NNS
-3.053582	VBN DT PRP
-3.053582	VBN DT PRP$
-2.056434	VBN DT RB
-2.487917	VBN DT RBS
-1.767604	VBN DT VBG
-2.292871	VBN DT VBN
-2.851342	VBN DT ``
-3.29622	VBP DT ,
-3.29622	VBP DT .
-3.29622	VBP DT CC
-2.115865	VBP DT CD
-1.925347	VBP DT IN
-0.540455	VBP DT JJ
-1.610354	VBP DT JJR
-1.871053	VBP DT JJS
-0.3660963	VBP DT NN
-0.8254716	VBP DT NNS
-1.765812	VBP DT RB
-2.010242	VBP DT RBS
-1.945066	VBP DT VBG
-1.965723	VBP DT VBN
-3.09398	VBP DT VBP
-3.29622	VBP DT VBZ
-2.535509	VBP DT WP
-2.401395	VBP DT ``
-3.690158	VBZ DT -LRB-
-3.016111	VBZ DT .
-2.319285	VBZ DT CD
-3.487918	VBZ DT DT
-2.857234	VBZ DT IN
-0.4393834	VBZ DT JJ
-1.644542	VBZ DT JJR
-1.682877	VBZ DT JJS
-3.016111	VBZ DT MD
-0.3271167	VBZ DT NN
-3.690158	VBZ DT NNP
-1.469169	VBZ DT NNS
-1.552988	VBZ DT RB
-2.359661	VBZ DT RBR
-1.89005	VBZ DT RBS
-3.690158	VBZ DT VB
-3.487918	VBZ DT VBD
-1.849002	VBZ DT VBG
-2.232233	VBZ DT VBN
-3.26925	VBZ DT VBP
-3.26925	VBZ DT VBZ
-3.690158	VBZ DT WP
-2.319285	VBZ DT ``
-0.5926113	WDT DT JJ
-0.2618814	WDT DT NN
-1.326377	WDT DT NNS
-1.798183	WDT DT PRP
-2.000423	WDT DT RB
-0.6602238	WP DT JJ
-1.609217	WP DT JJR
-0.459835	WP DT NN
-0.6120686	WP DT NNS
-2.580088	WRB DT IN
-0.6257854	WRB DT JJ
-2.108282	WRB DT JJR
-0.2542644	WRB DT NN
-0.8475755	WRB DT NNS
-2.580088	WRB DT VBD
-2.361421	WRB DT VBG
-2.216663	WRB DT VBN
-2.108282	WRB DT VBP
-0.5324632	`` DT JJ
-2.068765	`` DT JJS
-0.3362524	`` DT NN
-1.510295	`` DT NNS
-2.271005	`` DT RBR
-2.068765	`` DT RBS
-1.596959	`` DT VBG
-2.271005	`` DT VBN
-1.322012	`` DT VBZ
-2.271005	`` DT WP
-0.7666956	, EX MD
-2.011787	, EX RB
-1.295933	, EX VBD
-0.37744	, EX VBP
-0.4702626	, EX VBZ
-0.7963035	-RRB- EX MD
-0.7963035	-RRB- EX VBZ
-0.6202123	: EX VBP
-0.6202123	: EX VBZ
-1.180696	<s> EX VBD
-0.2345107	<s> EX VBP
-0.4720077	<s> EX VBZ
-0.8555422	CC EX MD
-1.172	CC EX VBD
-0.4613657	CC EX VBP
-0.4241473	CC EX VBZ
-0.8342517	IN EX MD
-2.718856	IN EX RB
-1.09295	IN EX VBD
-0.4072796	IN EX VBP
-0.4417604	IN EX VBZ
-0.9710008	NN EX MD
-0.3274019	NN EX VBP
-0.5876731	NN EX VBZ
-1.018152	NNS EX VBP
-0.1852282	NNS EX VBZ
-0.859853	RB EX MD
-1.857001	RB EX VBD
-0.4672664	RB EX VBP
-0.3835797	RB EX VBZ
-0.5003344	VB EX MD
-0.7190022	VB EX VBP
-1.046361	VBP EX TO
-0.4878907	VBP EX VBP
-1.248601	VBP EX VBZ
-0.5972444	VBZ EX DT
-1.018152	VBZ EX VBP
-0.4952735	WDT EX VBP
-1.436094	WRB EX MD
-1.096291	WRB EX VBD
-0.6206321	WRB EX VBP
-0.2644951	WRB EX VBZ
-0.8159122	`` EX VBP
-0.3441056	`` EX VBZ
-1.822108	, FW ,
-1.140964	, FW .
-2.582818	, FW CC
-2.380578	, FW CD
-0.8786748	, FW FW
-2.380578	, FW IN
-0.9677626	, FW MD
-1.633825	, FW NN
-1.157651	, FW RB
-1.58567	, FW VB
-1.687994	, FW VBD
-2.582818	, FW VBN
-0.3457949	, FW VBP
-2.582818	, FW WDT
-0.8326981	-LRB- FW ,
-0.9774557	-LRB- FW CD
-0.4493704	-LRB- FW FW
-0.6202123	: FW :
-0.8996449	<s> FW :
-0.7912636	<s> FW FW
-0.3159285	<s> FW VBP
-1.020032	CC FW RB
-0.2732792	CC FW VBP
-1.360575	CD FW .
-0.1513107	CD FW :
-1.360575	CD FW CD
-0.5940635	DT FW NN
-0.5861514	FW FW ,
-0.5623666	FW FW -LRB-
-1.589207	FW FW -RRB-
-1.11438	FW FW .
-2.154873	FW FW :
-1.952633	FW FW CD
-1.157724	FW FW FW
-2.154873	FW FW JJ
-1.11438	FW FW NN
-1.733965	FW FW NNS
-2.154873	FW FW VBD
-0.5615001	IN FW FW
-1.641402	IN FW MD
-0.9673549	IN FW NN
-1.641402	IN FW VB
-1.220494	IN FW VBN
-0.7465769	IN FW VBP
-0.6610103	JJ FW FW
-0.8632503	JJ FW MD
-0.1514569	JJS FW FW
-1.096291	NN FW ,
-1.654761	NN FW -LRB-
-1.654761	NN FW .
-1.291336	NN FW :
-0.4318344	NN FW FW
-1.654761	NN FW JJ
-1.291336	NN FW MD
-1.291336	NN FW NN
-1.857001	NN FW VB
-1.132096	NNS FW ,
-0.9298556	NNS FW MD
-0.9298556	NNS FW VBP
-0.3191822	PRP FW CD
-1.194244	RB FW VB
-0.4335331	RB FW VBP
-0.4952735	VBN FW FW
-1.097333	WDT FW MD
-0.2025089	WDT FW VBP
-0.4179723	WP FW VBP
-1.097333	`` FW RB
-0.6764257	`` FW VBP
-0.1514569	# IN </s>
-0.4952735	$ IN DT
-1.947571	'' IN CC
-0.355065	'' IN DT
-1.526663	'' IN JJ
-0.7981893	'' IN NN
-1.745331	'' IN NNS
-1.526663	'' IN PRP
-1.526663	'' IN PRP$
-1.526663	'' IN VBG
-1.947571	'' IN VBN
-3.626892	, IN $
-3.205984	, IN ,
-1.06775	, IN -LRB-
-2.677899	, IN .
-2.677899	, IN :
-2.201725	, IN </s>
-1.569215	, IN CD
-0.5914862	, IN DT
-2.000986	, IN EX
-3.424652	, IN FW
-1.589508	, IN IN
-1.178136	, IN JJ
-2.138508	, IN JJR
-2.201725	, IN JJS
-3.061227	, IN MD
-0.5399873	, IN NN
-2.629744	, IN NNP
-1.476711	, IN NNS
-2.510863	, IN PDT
-1.263312	, IN PRP
-1.656782	, IN PRP$
-1.872121	, IN RB
-3.061227	, IN TO
-3.626892	, IN VBD
-1.340331	, IN VBG
-1.826784	, IN VBN
-3.205984	, IN VBZ
-1.9904	, IN WDT
-3.061227	, IN WP
-3.626892	, IN WRB
-3.424652	, IN ``
-0.7472206	-LRB- IN CD
-1.297585	-LRB- IN DT
-1.66101	-LRB- IN IN
-1.442343	-LRB- IN NN
-1.442343	-LRB- IN NNS
-1.86325	-LRB- IN PRP
-1.189204	-LRB- IN VBG
-0.3898286	-LRB- IN VBN
-2.291584	-RRB- IN ,
-2.493824	-RRB- IN -LRB-
-2.493824	-RRB- IN CC
-1.54483	-RRB- IN CD
-0.4244111	-RRB- IN DT
-2.291584	-RRB- IN EX
-1.453331	-RRB- IN IN
-1.068657	-RRB- IN JJ
-2.493824	-RRB- IN JJR
-2.493824	-RRB- IN MD
-0.6335123	-RRB- IN NN
-1.660899	-RRB- IN NNS
-2.493824	-RRB- IN PDT
-1.819777	-RRB- IN PRP
-1.733113	-RRB- IN PRP$
-1.819777	-RRB- IN RB
-1.496675	-RRB- IN VBG
-1.819777	-RRB- IN VBN
-2.493824	-RRB- IN WDT
-0.3191822	. IN JJ
-1.201438	: IN CD
-0.4175598	: IN DT
-1.201438	: IN JJ
-0.7955832	: IN NN
-1.201438	: IN PRP
-1.875485	: IN PRP$
-1.875485	: IN TO
-1.673245	: IN VBG
-1.722194	<s> IN ,
-2.707705	<s> IN -LRB-
-3.548679	<s> IN </s>
-3.403922	<s> IN CC
-1.651431	<s> IN CD
-0.4354909	<s> IN DT
-1.989881	<s> IN EX
-3.767347	<s> IN FW
-1.819406	<s> IN IN
-1.116044	<s> IN JJ
-2.141687	<s> IN JJR
-2.36566	<s> IN JJS
-0.4836005	<s> IN NN
-3.548679	<s> IN NNP
-1.524066	<s> IN NNS
-2.439179	<s> IN PDT
-1.472107	<s> IN PRP
-1.809898	<s> IN PRP$
-2.050915	<s> IN RB
-3.29554	<s> IN TO
-1.446926	<s> IN VBG
-1.940593	<s> IN VBN
-3.020594	<s> IN VBZ
-3.020594	<s> IN WDT
-3.969587	<s> IN WRB
-3.074762	<s> IN ``
-2.025331	CC IN .
-1.327649	CC IN CC
-1.389747	CC IN CD
-0.4555778	CC IN DT
-2.159445	CC IN EX
-1.403308	CC IN IN
-0.9750029	CC IN JJ
-2.35449	CC IN JJR
-1.840254	CC IN JJS
-2.717915	CC IN MD
-0.8664616	CC IN NN
-1.446733	CC IN NNS
-1.273329	CC IN PRP
-1.589659	CC IN PRP$
-1.971162	CC IN RB
-2.717915	CC IN TO
-2.920155	CC IN VBD
-1.376597	CC IN VBG
-2.025331	CC IN VBN
-1.923007	CC IN VBZ
-2.717915	CC IN WP
-2.717915	CC IN ``
-1.03461	CD IN -LRB-
-1.979339	CD IN :
-2.382784	CD IN </s>
-0.9314942	CD IN CD
-0.3704922	CD IN DT
-3.215708	CD IN FW
-1.885212	CD IN IN
-1.520608	CD IN JJ
-0.657818	CD IN NN
-2.035354	CD IN NNS
-1.558789	CD IN PRP
-1.929731	CD IN PRP$
-3.013469	CD IN RB
-2.320884	CD IN VBG
-2.382784	CD IN VBN
-2.066327	CD IN WDT
-2.642635	DT IN ,
-2.011951	DT IN CD
-0.2429256	DT IN DT
-2.844875	DT IN IN
-1.301316	DT IN JJ
-2.170828	DT IN JJR
-0.8997226	DT IN NN
-1.608505	DT IN NNS
-2.844875	DT IN PDT
-0.9722472	DT IN PRP
-1.558897	DT IN PRP$
-2.844875	DT IN RB
-1.63561	DT IN VBG
-1.847726	DT IN WDT
-0.5940635	FW IN DT
-0.7963035	FW IN PRP$
-3.257702	IN IN ,
-3.257702	IN IN .
-2.424778	IN IN CC
-1.169409	IN IN CD
-0.3922684	IN IN DT
-2.260554	IN IN EX
-2.217209	IN IN IN
-1.042192	IN IN JJ
-2.048438	IN IN JJR
-2.10832	IN IN JJS
-0.9641742	IN IN NN
-1.472187	IN IN NNS
-2.424778	IN IN PDT
-1.073629	IN IN PRP
-1.208029	IN IN PRP$
-1.948895	IN IN RB
-1.33903	IN IN TO
-1.51916	IN IN VBG
-2.692037	IN IN VBN
-3.257702	IN IN WRB
-3.055462	IN IN ``
-3.78605	JJ IN $
-2.576786	JJ IN ,
-3.025339	JJ IN -LRB-
-3.112003	JJ IN -RRB-
-3.365142	JJ IN .
-1.884078	JJ IN :
-2.636668	JJ IN CC
-1.796957	JJ IN CD
-0.5001329	JJ IN DT
-2.160144	JJ IN EX
-3.78605	JJ IN FW
-1.68681	JJ IN IN
-0.9566392	JJ IN JJ
-2.039318	JJ IN JJR
-2.636668	JJ IN JJS
-0.6972954	JJ IN NN
-3.112003	JJ IN NNP
-1.209756	JJ IN NNS
-2.706148	JJ IN PDT
-1.169624	JJ IN PRP
-1.426408	JJ IN PRP$
-1.951472	JJ IN RB
-3.112003	JJ IN TO
-3.365142	JJ IN VB
-1.04074	JJ IN VBG
-2.149558	JJ IN VBN
-2.837057	JJ IN VBP
-3.112003	JJ IN VBZ
-3.58381	JJ IN WDT
-2.837057	JJ IN WP
-2.524168	JJ IN WRB
-2.67002	JJ IN ``
-1.998968	JJR IN $
-0.6337751	JJR IN CD
-0.5091649	JJR IN DT
-2.691552	JJR IN EX
-2.060868	JJR IN IN
-1.021165	JJR IN JJ
-2.328127	JJR IN JJR
-2.893792	JJR IN JJS
-0.9285599	JJR IN NN
-1.542639	JJR IN NNS
-2.472884	JJR IN PDT
-1.405408	JJR IN PRP
-1.48598	JJR IN PRP$
-1.48598	JJR IN RB
-1.631911	JJR IN VBG
-1.896644	JJR IN VBN
-2.219746	JJR IN WP
-0.1713807	JJS IN DT
-2.005484	JJS IN JJ
-1.310363	JJS IN NN
-2.005484	JJS IN NNS
-1.075239	JJS IN PRP
-0.9529706	JJS IN PRP$
-2.426392	JJS IN VBN
-2.426392	JJS IN WP
-0.6202123	LS IN DT
-1.109507	MD IN DT
-1.181721	MD IN JJS
-0.164401	MD IN NN
-1.740192	MD IN NNS
-1.521524	MD IN PRP
-2.938288	NN IN $
-4.57478	NN IN ''
-3.185045	NN IN ,
-3.203908	NN IN -LRB-
-2.836238	NN IN .
-4.009115	NN IN :
-4.009115	NN IN </s>
-2.746881	NN IN CC
-1.683582	NN IN CD
-0.4931999	NN IN DT
-2.767556	NN IN EX
-3.625787	NN IN FW
-1.928722	NN IN IN
-0.8346092	NN IN JJ
-2.091948	NN IN JJR
-2.861778	NN IN JJS
-3.625787	NN IN MD
-0.5888683	NN IN NN
-3.018458	NN IN NNP
-1.146944	NN IN NNS
-2.907996	NN IN PDT
-1.494224	NN IN PRP
-1.486395	NN IN PRP$
-2.229212	NN IN RB
-3.625787	NN IN RBR
-2.781908	NN IN TO
-3.577632	NN IN VB
-4.009115	NN IN VBD
-1.185832	NN IN VBG
-2.348381	NN IN VBN
-3.81407	NN IN VBP
-2.907996	NN IN VBZ
-2.746881	NN IN WDT
-2.994004	NN IN WP
-2.702153	NN IN WRB
-2.994004	NN IN ``
-0.4006487	NNP IN DT
-0.6476262	NNP IN NN
-0.8065036	NNP IN PRP$
-3.367189	NNS IN $
-2.918635	NNS IN ,
-3.925659	NNS IN -LRB-
-3.047998	NNS IN .
-3.925659	NNS IN :
-2.978518	NNS IN CC
-1.818539	NNS IN CD
-0.4919579	NNS IN DT
-2.947545	NNS IN EX
-1.896155	NNS IN IN
-0.8088198	NNS IN JJ
-2.098905	NNS IN JJR
-2.866018	NNS IN JJS
-0.6361832	NNS IN NN
-3.294976	NNS IN NNP
-1.082998	NNS IN NNS
-3.130751	NNS IN PDT
-1.384221	NNS IN PRP
-1.412058	NNS IN PRP$
-2.182747	NNS IN RB
-2.866018	NNS IN TO
-3.925659	NNS IN VB
-1.207457	NNS IN VBG
-2.267588	NNS IN VBN
-3.130751	NNS IN VBP
-2.978518	NNS IN VBZ
-2.947545	NNS IN WDT
-3.706992	NNS IN WP
-2.669975	NNS IN WRB
-3.01187	NNS IN ``
-1.194244	POS IN DT
-0.9920035	POS IN JJ
-0.5201969	POS IN NN
-1.194244	POS IN VBG
-2.640038	PRP IN .
-1.762377	PRP IN CD
-0.4967099	PRP IN DT
-2.276613	PRP IN EX
-1.762377	PRP IN IN
-0.9075252	PRP IN JJ
-2.009354	PRP IN JJR
-0.9882586	PRP IN NN
-1.29872	PRP IN NNS
-1.31187	PRP IN PRP
-0.9576738	PRP IN PRP$
-1.893285	PRP IN RB
-2.081568	PRP IN TO
-2.842278	PRP IN VB
-0.9128197	PRP IN VBG
-2.640038	PRP IN VBN
-2.640038	PRP IN VBZ
-2.842278	PRP IN WP
-2.842278	PRP IN WRB
-2.302077	RB IN ,
-3.189976	RB IN -LRB-
-2.018378	RB IN .
-3.610884	RB IN :
-3.408644	RB IN CC
-1.714625	RB IN CD
-0.4736317	RB IN DT
-1.984978	RB IN EX
-3.045219	RB IN FW
-1.703274	RB IN IN
-0.9804483	RB IN JJ
-2.042163	RB IN JJR
-3.408644	RB IN JJS
-3.610884	RB IN MD
-0.8663894	RB IN NN
-1.336187	RB IN NNS
-2.936837	RB IN PDT
-1.154145	RB IN PRP
-1.412239	RB IN PRP$
-1.626459	RB IN RB
-1.321988	RB IN TO
-1.974392	RB IN VB
-1.088223	RB IN VBG
-2.169029	RB IN VBN
-3.189976	RB IN VBP
-2.850173	RB IN VBZ
-3.610884	RB IN WDT
-2.661891	RB IN WP
-2.43053	RB IN WRB
-3.045219	RB IN ``
-1.764241	RBR IN CD
-0.4279342	RBR IN DT
-1.764241	RBR IN IN
-0.9994099	RBR IN JJ
-0.7491295	RBR IN NN
-1.213876	RBR IN NNS
-1.289413	RBR IN PRP
-1.496982	RBR IN PRP$
-1.655859	RBR IN RB
-1.764241	RBR IN VBG
-2.127666	RBR IN VBN
-2.127666	RBR IN WRB
-0.6386371	RBS IN DT
-0.4938795	RBS IN NN
-2.627487	RP IN ,
-2.264062	RP IN .
-2.627487	RP IN CC
-1.31288	RP IN CD
-0.363599	RP IN DT
-2.829727	RP IN EX
-2.627487	RP IN IN
-0.8406339	RP IN JJ
-1.620463	RP IN JJR
-2.627487	RP IN JJS
-0.9570997	RP IN NN
-1.134627	RP IN NNS
-1.52092	RP IN PRP
-1.299319	RP IN PRP$
-2.264062	RP IN RB
-2.829727	RP IN TO
-1.832579	RP IN VBG
-2.829727	RP IN VBN
-2.829727	RP IN ``
-0.9334162	TO IN CD
-0.4803624	TO IN DT
-1.76634	TO IN EX
-1.76634	TO IN JJ
-1.345433	TO IN JJS
-1.5641	TO IN NN
-1.76634	TO IN NNS
-1.092294	TO IN PRP
-1.5641	TO IN TO
-1.76634	TO IN VBG
-3.487825	VB IN $
-2.201681	VB IN ,
-3.690065	VB IN -LRB-
-1.875839	VB IN .
-3.690065	VB IN :
-2.086138	VB IN CC
-1.636372	VB IN CD
-0.4194173	VB IN DT
-1.977063	VB IN EX
-3.690065	VB IN FW
-1.569727	VB IN IN
-0.9264261	VB IN JJ
-1.799594	VB IN JJR
-2.509711	VB IN JJS
-3.690065	VB IN MD
-0.9095887	VB IN NN
-3.690065	VB IN NNP
-1.350671	VB IN NNS
-2.857141	VB IN PDT
-1.108992	VB IN PRP
-1.208725	VB IN PRP$
-1.862166	VB IN RB
-3.690065	VB IN RBR
-1.977063	VB IN TO
-3.690065	VB IN VB
-1.405851	VB IN VBG
-2.428184	VB IN VBN
-3.269157	VB IN VBZ
-3.269157	VB IN WDT
-2.929355	VB IN WP
-2.453696	VB IN WRB
-3.487825	VB IN ``
-2.508629	VBD IN $
-2.24137	VBD IN ,
-2.872055	VBD IN -LRB-
-3.074295	VBD IN .
-3.074295	VBD IN :
-2.872055	VBD IN CC
-1.161118	VBD IN CD
-0.4567747	VBD IN DT
-1.958265	VBD IN EX
-3.074295	VBD IN FW
-1.26707	VBD IN IN
-1.016618	VBD IN JJ
-2.17947	VBD IN JJR
-2.400248	VBD IN JJS
-0.7924402	VBD IN NN
-1.327562	VBD IN NNS
-1.233139	VBD IN PRP
-1.61637	VBD IN PRP$
-2.077146	VBD IN RB
-2.872055	VBD IN TO
-1.530736	VBD IN VBG
-2.313584	VBD IN VBN
-2.653387	VBD IN VBZ
-2.653387	VBD IN WRB
-1.63244	VBD IN ``
-3.31853	VBG IN $
-2.238629	VBG IN ,
-3.31853	VBG IN -LRB-
-2.423706	VBG IN .
-2.321382	VBG IN CC
-1.830146	VBG IN CD
-0.403561	VBG IN DT
-2.55782	VBG IN EX
-1.801683	VBG IN IN
-0.8416981	VBG IN JJ
-1.893363	VBG IN JJR
-3.11629	VBG IN JJS
-2.897623	VBG IN MD
-0.7985962	VBG IN NN
-1.178071	VBG IN NNS
-2.897623	VBG IN PDT
-1.422271	VBG IN PRP
-1.289536	VBG IN PRP$
-2.009723	VBG IN RB
-2.752865	VBG IN RBR
-2.109266	VBG IN TO
-1.504304	VBG IN VBG
-2.485606	VBG IN VBN
-3.11629	VBG IN VBZ
-2.485606	VBG IN WRB
-2.644484	VBG IN ``
-2.952513	VBN IN $
-2.302835	VBN IN ,
-2.202929	VBN IN -LRB-
-2.164146	VBN IN .
-2.86976	VBN IN :
-2.432814	VBN IN CC
-1.440809	VBN IN CD
-0.3990693	VBN IN DT
-2.446812	VBN IN EX
-3.528753	VBN IN FW
-1.625024	VBN IN IN
-0.882086	VBN IN JJ
-2.065057	VBN IN JJR
-2.640854	VBN IN JJS
-3.054836	VBN IN MD
-0.7480886	VBN IN NN
-3.054836	VBN IN NNP
-1.221791	VBN IN NNS
-3.275614	VBN IN PDT
-1.509037	VBN IN PRP
-1.606141	VBN IN PRP$
-1.989362	VBN IN RB
-3.949661	VBN IN RBR
-2.598508	VBN IN TO
-3.747421	VBN IN VB
-1.355712	VBN IN VBG
-2.368884	VBN IN VBN
-3.747421	VBN IN VBP
-3.188951	VBN IN VBZ
-3.528753	VBN IN WP
-2.833631	VBN IN WRB
-2.345734	VBN IN ``
-2.80299	VBP IN $
-2.329073	VBP IN ,
-2.463187	VBP IN .
-2.463187	VBP IN CC
-1.631392	VBP IN CD
-0.4464344	VBP IN DT
-1.765973	VBP IN EX
-3.223898	VBP IN FW
-1.502215	VBP IN IN
-0.8392705	VBP IN JJ
-2.074516	VBP IN JJR
-2.226749	VBP IN JJS
-0.7485787	VBP IN NN
-1.416674	VBP IN NNS
-1.253787	VBP IN PRP
-1.453483	VBP IN PRP$
-1.816086	VBP IN RB
-2.549851	VBP IN TO
-1.42379	VBP IN VBG
-2.329073	VBP IN VBN
-2.80299	VBP IN VBZ
-2.658232	VBP IN WRB
-3.021658	VBP IN ``
-2.812133	VBZ IN $
-2.09182	VBZ IN ,
-2.428805	VBZ IN .
-3.377798	VBZ IN :
-2.482973	VBZ IN CC
-1.357359	VBZ IN CD
-0.4325179	VBZ IN DT
-1.83424	VBZ IN EX
-1.348804	VBZ IN IN
-0.9194803	VBZ IN JJ
-1.84739	VBZ IN JJR
-2.115916	VBZ IN JJS
-2.812133	VBZ IN MD
-0.8949657	VBZ IN NN
-1.357359	VBZ IN NNS
-2.617088	VBZ IN PDT
-1.208804	VBZ IN PRP
-1.720878	VBZ IN PRP$
-1.711014	VBZ IN RB
-2.812133	VBZ IN RBR
-2.197444	VBZ IN TO
-2.95689	VBZ IN VB
-1.366087	VBZ IN VBG
-2.261768	VBZ IN VBN
-3.377798	VBZ IN VBP
-2.95689	VBZ IN VBZ
-3.377798	VBZ IN WDT
-2.297897	VBZ IN WRB
-2.068991	VBZ IN ``
-2.004924	WDT IN CD
-0.6961167	WDT IN DT
-1.439259	WDT IN JJ
-0.2345091	WDT IN NN
-1.584016	WDT IN NNS
-2.004924	WDT IN VBG
-0.5482256	WP IN DT
-1.020032	WP IN NN
-0.8013644	WP IN NNS
-1.222272	WP IN PRP
-0.6764257	WRB IN DT
-0.6764257	WRB IN JJ
-0.8950935	WRB IN NN
-1.307893	`` IN CD
-0.425618	`` IN DT
-0.9847918	`` IN JJ
-0.8325583	`` IN NN
-1.416275	`` IN PRP
-1.7797	`` IN PRP$
-1.98194	`` IN RB
-1.561032	`` IN VBG
-1.561032	`` IN VBN
-0.7963035	$ JJ CC
-1.449516	'' JJ .
-1.449516	'' JJ IN
-1.247276	'' JJ JJ
-0.7754694	'' JJ NN
-1.028608	'' JJ NNS
-1.247276	'' JJ TO
-0.8838506	'' JJ ``
-1.509281	, JJ ,
-3.372576	, JJ -LRB-
-2.167004	, JJ -RRB-
-2.741892	, JJ .
-1.195829	, JJ CC
-1.384856	, JJ CD
-3.372576	, JJ DT
-1.107143	, JJ IN
-1.233355	, JJ JJ
-2.741892	, JJ JJR
-3.009151	, JJ LS
-2.338447	, JJ MD
-0.3936437	, JJ NN
-3.153909	, JJ NNP
-0.6178805	, JJ NNS
-3.372576	, JJ POS
-2.494915	, JJ RB
-1.529201	, JJ TO
-2.394462	, JJ VBD
-2.394462	, JJ VBG
-2.814106	, JJ VBN
-2.266009	, JJ VBP
-2.394462	, JJ VBZ
-3.372576	, JJ WP
-3.009151	, JJ ``
-1.005225	-LRB- JJ ,
-1.187112	-LRB- JJ -RRB-
-2.767889	-LRB- JJ .
-2.565649	-LRB- JJ :
-1.818895	-LRB- JJ CC
-0.9202532	-LRB- JJ CD
-2.007178	-LRB- JJ IN
-0.8075899	-LRB- JJ JJ
-0.3578703	-LRB- JJ NN
-1.360076	-LRB- JJ NNS
-2.202223	-LRB- JJ VBG
-2.565649	-LRB- JJ VBN
-2.767889	-LRB- JJ ``
-2.28297	-RRB- JJ -RRB-
-2.08073	-RRB- JJ </s>
-1.862062	-RRB- JJ CC
-1.133588	-RRB- JJ IN
-0.9524738	-RRB- JJ JJ
-0.2668731	-RRB- JJ NN
-0.9524738	-RRB- JJ NNS
-2.08073	-RRB- JJ RB
-1.388145	-RRB- JJ TO
-0.06752791	. JJ JJ
-1.395696	. JJ NN
-2.276672	: JJ ''
-1.700432	: JJ ,
-1.050754	: JJ -RRB-
-2.023534	: JJ .
-1.864656	: JJ :
-1.93687	: JJ </s>
-1.93687	: JJ CC
-1.657087	: JJ CD
-2.023534	: JJ IN
-1.194731	: JJ JJ
-0.222261	: JJ NN
-1.093653	: JJ NNS
-2.49534	: JJ TO
-2.69758	: JJ VBG
-2.49534	: JJ ``
-1.752709	<s> JJ ,
-2.696142	<s> JJ -LRB-
-2.376951	<s> JJ .
-2.562028	<s> JJ :
-1.596542	<s> JJ CC
-2.782806	<s> JJ CD
-3.456853	<s> JJ DT
-1.278749	<s> JJ IN
-1.057535	<s> JJ JJ
-2.562028	<s> JJ MD
-0.3136984	<s> JJ NN
-3.456853	<s> JJ NNP
-0.6201264	<s> JJ NNS
-3.254613	<s> JJ POS
-2.891187	<s> JJ RB
-1.350466	<s> JJ TO
-2.891187	<s> JJ VBD
-2.782806	<s> JJ VBG
-2.50786	<s> JJ VBN
-2.276499	<s> JJ VBP
-2.307471	<s> JJ VBZ
-2.891187	<s> JJ WP
-3.456853	<s> JJ ``
-3.561475	CC JJ ''
-1.642804	CC JJ ,
-2.352211	CC JJ -LRB-
-1.291617	CC JJ .
-3.359235	CC JJ :
-1.707456	CC JJ CC
-2.666651	CC JJ CD
-2.728551	CC JJ DT
-1.39556	CC JJ IN
-1.127469	CC JJ JJ
-2.325106	CC JJ JJR
-2.564327	CC JJ MD
-0.3878266	CC JJ NN
-0.5252352	CC JJ NNS
-3.359235	CC JJ PRP
-2.252668	CC JJ RB
-3.561475	CC JJ RBR
-1.536738	CC JJ TO
-3.561475	CC JJ VBD
-2.073091	CC JJ VBG
-2.520982	CC JJ VBN
-2.564327	CC JJ VBP
