
\data\
ngram 1=140
ngram 2=8873
ngram 3=42040

\1-grams:
-2.589158	"	-1.804977
-4.105273	#	-1.665947
-3.481218	$	-2.381026
-2.873829	%	-2.652731
-3.599066	''	-1.853715
-2.524303	's	-2.781452
-2.109979	(	-3.354433
-2.105837	)	-2.594113
-1.349042	,	-3.403283
-2.99003	-LRB-	-2.758572
-2.99003	-RRB-	-2.933959
-1.354945	.	-4.256532
-2.505616	2009	-3.125344
-2.168942	:	-2.773089
-1.327554	</s>
-99	<s>	-3.48163
-2.880837	=	-2.84979
-2.936385	CC	-2.275402
-1.798388	CD	-3.121123
-2.462718	DT	-2.705901
-3.086507	FW	-2.226715
-1.826608	IN	-2.730036
-1.213127	JJ	-2.497615
-2.345066	JJR	-2.494637
-2.893466	JJS	-2.330853
-3.197973	LS	-2.347954
-2.652709	MD	-2.835204
-0.8421286	NN	-0.5560927
-3.140505	NNP	-2.14564
-5.213612	NNPS	-0.7442563
-1.255199	NNS	-2.575016
-4.845635	PDT	-1.142745
-3.306918	POS	-2.207171
-2.724122	PRP	-2.47442
-2.653705	PRP$	-2.991951
-1.58669	RB	-2.618459
-3.261789	RBR	-2.203423
-3.172219	RBS	-2.404387
-2.693347	RP	-2.479971
-4.423562	SYM	-1.311844
-5.514642	TO	-0.5850942
-5.690733	UH	-0.4494869
-1.530895	VB	-2.829798
-2.246923	VBD	-2.471245
-1.772598	VBG	-2.586019
-1.674599	VBN	-2.50105
-2.182338	VBP	-2.145668
-2.091232	VBZ	-2.533264
-4.259369	WDT	-1.496309
-2.825333	WP	-2.642473
-4.486613	WP$	-1.349435
-2.909337	WRB	-2.382107
-2.822677	[	-2.944959
-2.822677	]	-2.425862
-1.879225	a	-3.667271
-2.71969	aged	-2.499485
-2.729312	aging	-2.623932
-2.88286	all	-2.265293
-2.571147	also	-2.652177
-2.528767	an	-3.224718
-1.697827	and	-3.462641
-2.166727	are	-2.922172
-2.118908	as	-3.084077
-2.755982	at	-2.788238
-2.038777	be	-3.218219
-2.891048	been	-2.670051
-2.883875	but	-2.484939
-2.399032	by	-2.974164
-2.310884	can	-3.15747
-2.857586	cost	-2.270877
-2.761314	country	-2.562091
-2.734085	design	-2.399568
-2.670994	development	-2.80652
-2.532823	elderly	-2.710911
-2.578967	energy	-2.534087
-2.061324	for	-3.198559
-2.307906	from	-3.028984
-2.857586	generation	-2.491618
-2.760039	genetic	-2.942817
-2.619404	government	-2.766655
-2.516528	has	-2.882685
-2.365628	have	-2.968664
-2.907902	help	-2.433933
-2.896594	high	-2.553176
-2.701061	however	-2.845603
-2.487564	http	-3.500796
-2.822677	if	-2.719615
-1.782195	in	-3.127621
-1.884859	is	-3.25975
-2.178449	it	-3.084877
-2.85157	its	-2.869488
-2.785477	many	-2.743651
-2.690516	may	-3.049155
-2.419008	more	-2.898023
-2.789547	new	-2.909765
-2.27053	not	-3.019539
-2.352675	nuclear	-3.198071
-1.581256	of	-3.56133
-2.22684	on	-2.975147
-2.681495	one	-2.62097
-2.891048	only	-2.362821
-2.603662	or	-2.692264
-2.671409	other	-2.714427
-2.50889	people	-2.569645
-2.735768	population	-2.343194
-2.697077	power	-2.31708
-2.899043	problem	-2.374391
-2.886935	problems	-2.415661
-2.701283	process	-2.462965
-2.705756	public	-2.61709
-2.799196	reactor	-2.300149
-2.857905	reactors	-2.284764
-2.770349	research	-2.425401
-2.757752	retrieved	-3.01099
-2.907902	safety	-2.532177
-2.509748	should	-3.028575
-2.758006	singapore	-2.386758
-2.872838	so	-2.511564
-2.831895	some	-2.789922
-2.778511	spending	-2.468858
-2.605264	such	-3.003593
-2.591398	technology	-2.507054
-2.052194	that	-3.021708
-1.248316	the	-4.16291
-2.371523	their	-3.341647
-2.820037	them	-2.376758
-2.623848	there	-2.994798
-2.747239	these	-2.772726
-2.48095	they	-3.227453
-2.319388	this	-2.86979
-1.562496	to	-3.614967
-2.879158	use	-2.371625
-2.903273	vhtr	-2.287705
-2.838864	was	-2.620626
-2.712781	we	-2.978266
-2.875488	when	-2.640677
-2.494143	which	-2.869504
-2.314248	will	-3.137982
-2.325526	with	-3.00125
-2.743055	would	-2.987842

\2-grams:
-3.101747	" "
-0.9762658	" (	0.3816902
-2.288834	" )	0.2623231
-1.253558	" ,	-0.003954649
-2.402777	" -LRB-	0.6725228
-3.402777	" -RRB-
-1.142706	" .	-0.2057697
-2.448534	" 2009	-0.6245656
-2.499687	" :	-0.08355436
-1.769309	" </s>
-3.101747	" CC
-1.822994	" CD	0.005271077
-2.402777	" DT	0.1483522
-2.323596	" FW	0.02957001
-2.004837	" IN	-0.05380523
-1.041049	" JJ	-0.2064276
-2.448534	" JJR	-0.00196591
-2.800717	" JJS	-0.0339872
-3.402777	" LS
-3.402777	" MD
-0.7878798	" NN	-0.008692503
-2.703807	" NNP	-0.03421079
-1.394177	" NNS	0.0579516
-2.703807	" PRP	-0.07542054
-2.499687	" PRP$	0.0932782
-1.712581	" RB	0.005515873
-3.402777	" RBR
-1.695207	" VB	-0.1013352
-2.101747	" VBD	-0.08487666
-1.678501	" VBG	-0.01085803
-1.940379	" VBN	-0.1850621
-2.288834	" VBP	-0.06278002
-1.940379	" VBZ	0.02975489
-3.402777	" WDT
-2.624626	" WP	-0.08516119
-2.448534	" WRB	-0.0237908
-2.101747	" [	-0.792219
-1.800717	" a	0.1016423
-2.624626	" aging
-3.402777	" all
-2.925656	" also	-0.132752
-2.499687	" an	0.5519645
-1.940379	" and	-0.2195108
-2.703807	" are	-0.08877917
-2.198657	" as	-0.08999594
-3.101747	" at
-3.101747	" be
-2.800717	" but	-0.08769319
-2.288834	" by	-0.07913455
-2.624626	" can	0.3547362
-3.101747	" cost
-2.624626	" design	-0.1119282
-3.101747	" development
-2.925656	" elderly
-2.557679	" energy	-0.05208939
-2.703807	" for	-0.07203817
-2.402777	" from	-0.05146983
-2.800717	" generation	0.07519643
-3.101747	" genetic
-2.925656	" government
-2.557679	" has	-0.115926
-2.925656	" have
-3.402777	" help
-3.402777	" high
-2.925656	" however	0.9406297
-1.800717	" http	1.575824
-2.288834	" if	0.0009827763
-2.041049	" in	0.1156773
-2.022566	" is	-0.09822431
-2.124023	" it	-0.09875631
-3.402777	" may
-2.448534	" more	-0.1200944
-2.925656	" new	0.08019586
-2.800717	" not
-1.925656	" nuclear	-0.1422987
-2.288834	" of	0.05169298
-2.624626	" on	0.1747892
-2.361384	" one	-0.04318425
-2.925656	" only
-2.448534	" or	-0.5278726
-2.800717	" people	-0.09208976
-2.925656	" population
-3.402777	" power
-3.101747	" problem
-3.101747	" process	-0.1239687
-2.361384	" public	-0.09116969
-3.402777	" reactor
-3.101747	" reactors
-3.101747	" research
-2.703807	" retrieved	-0.1422043
-2.925656	" should
-2.323596	" singapore	-0.03855374
-3.402777	" so
-3.101747	" some	-0.2139588
-3.402777	" spending
-2.925656	" such	0.04152578
-2.800717	" technology
-2.800717	" that
-1.316417	" the	-0.1110961
-3.402777	" their
-2.402777	" there	0.2265714
-3.101747	" these
-2.925656	" they
-2.256649	" this	-0.03841573
-1.811713	" to	0.1752366
-3.402777	" use
-3.101747	" vhtr
-2.703807	" was	0.05359672
-2.499687	" we	-0.1291021
-2.624626	" when	-0.1037116
-2.323596	" which	0.03206678
-2.925656	" will	-0.1023153
-2.361384	" with	0.1286107
-3.101747	" would
-1.892095	# -RRB-
-1.892095	# .
-1.290035	# </s>
-0.5496719	# CD	-0.5221388
-1.591065	# FW
-1.193125	# IN	-0.5480027
-1.892095	# JJR
-1.046997	# LS	-0.2982808
-0.6616457	# NN	-0.2499542
-1.113943	# NNS	-0.3811722
-1.290035	# SYM	-0.3901201
-1.892095	# VB
-1.892095	# VBG
-1.892095	# VBP
-1.892095	# VBZ
-1.892095	# ]
-1.892095	# a
-1.892095	# genetic
-2.511883	$ (
-2.034762	$ )	-0.1577191
-0.02052167	$ CD	-0.2289673
-2.511883	$ IN
-1.733732	$ JJ	-0.05736785
-2.511883	$ NN
-2.210853	$ for
-2.817235	% "
-3.118265	% %
-1.671107	% (	0.176203
-1.887816	% )	-0.167392
-1.862992	% ,	-0.278716
-1.516205	% .	0.4522418
-2.340113	% CC	-0.2221841
-0.4149733	% CD	-1.303415
-1.839511	% IN	-0.01622923
-1.703291	% JJ	0.1829994
-2.215175	% JJR	-0.2249159
-0.8395111	% NN	-0.4000647
-1.817235	% NNS	-0.2723861
-2.340113	% RB	-0.04791185
-3.118265	% RBR
-2.419295	% VBD
-3.118265	% VBG
-2.340113	% VBN	-0.3166721
-3.118265	% VBP
-2.817235	% VBZ
-3.118265	% WRB
-1.972137	% and	-0.1693975
-2.817235	% are
-3.118265	% as
-3.118265	% at
-2.817235	% but
-2.419295	% by	-0.290287
-3.118265	% cost
-2.004321	% for	-0.08497638
-2.340113	% from	-0.1875778
-3.118265	% has
-1.393989	% in	-0.2635788
-2.817235	% is
-1.574197	% more	-0.3515384
-0.7308749	% of	-0.4415616
-3.118265	% on
-2.817235	% or
-3.118265	% population
-1.914145	% to	-0.5525722
-2.641144	% when
-2.516205	% which	-0.3652507
-2.817235	% with
-1.549354	'' "	0.0003983378
-1.394452	'' (	-0.01143652
-1.91733	'' )	0.2220125
-0.8893017	'' ,	-0.03682388
-2.394452	'' :
-2.394452	'' DT
-1.91733	'' IN
-1.6163	'' JJ	-0.05003067
-0.6784483	'' NN	-0.04913822
-1.248324	'' NNS	0.01424523
-2.093422	'' RB
-2.394452	'' RP
-2.394452	'' VBD
-2.394452	'' VBG
-2.093422	'' VBN
-2.093422	'' VBP
-2.093422	'' VBZ
-2.394452	'' [
-2.394452	'' all
-1.31527	'' and	0.04433545
-2.394452	'' are
-1.695482	'' as
-1.91733	'' but
-1.549354	'' by	-0.1695378
-2.093422	'' can
-2.394452	'' country
-2.093422	'' development
-1.91733	'' for	-0.03880265
-2.093422	'' from
-1.792392	'' has	0.05539235
-2.394452	'' have
-2.394452	'' if
-1.695482	'' in
-1.491362	'' is	-0.05188216
-2.394452	'' it
-2.394452	'' may
-1.440209	'' of	-0.02963794
-2.394452	'' on
-2.394452	'' one
-1.91733	'' or
-2.394452	'' people
-2.394452	'' problem
-2.093422	'' reactors
-2.394452	'' retrieved
-2.093422	'' should	-0.04402798
-2.394452	'' spending
-2.394452	'' technology
-2.394452	'' that
-1.695482	'' the	0.08445878
-2.093422	'' this	-0.07610336
-1.549354	'' to	0.04861319
-2.394452	'' was
-2.394452	'' which
-2.093422	'' will	-0.1334908
-1.91733	'' with
-2.394452	'' would
-2.689457	's "	-0.1097115
-2.990487	's $	1.009341
-3.467608	's ''
-2.467608	's (	0.1756555
-2.513366	's ,	-0.0798251
-3.166578	's -LRB-
-2.513366	's .	1.100059
-3.467608	's :
-2.564518	's CD	-0.282025
-2.865548	's DT	-0.2193198
-2.990487	's IN
-0.8666352	's JJ	-0.2499052
-2.689457	's JJR	0.05249944
-2.237159	's JJS	-0.212292
-0.3510004	's NN	-0.1332797
-3.467608	's NNP
-1.00521	's NNS	0.06609386
-2.990487	's PRP$	0.1159197
-2.166578	's RB	-0.1783085
-2.564518	's RBS	-0.005373299
-2.426215	's VB	-0.05457954
-1.949094	's VBG	-0.2141281
-2.353665	's VBN	0.01267926
-3.467608	's WP
-2.768638	's WRB
-2.513366	's a	0.290891
-2.353665	's aging	-0.2678044
-3.467608	's also
-3.467608	's an
-2.689457	's and	-0.03554838
-3.467608	's at
-3.166578	's can
-3.467608	's cost
-3.467608	's country
-2.513366	's design	0.01261595
-0.9734535	's development	-0.5852762
-2.689457	's elderly	-0.06180855
-2.00521	's energy	-0.3282926
-3.467608	's for
-3.467608	's generation
-2.036244	's genetic	0.5984206
-2.125185	's government	-0.1520816
-2.689457	's help	-0.1201748
-2.865548	's high	0.2955555
-3.166578	's in
-3.467608	's is
-3.467608	's many
-3.467608	's may
-2.513366	's more	-0.5669407
-1.291517	's new	-1.399766
-2.990487	's not
-2.564518	's nuclear	0.1343943
-3.166578	's of
-3.467608	's on
-2.990487	's one
-2.768638	's only	-0.0740746
-3.166578	's or
-3.467608	's other
-1.768638	's population	-0.1155546
-2.564518	's power	-0.08686122
-3.166578	's problem
-2.990487	's problems
-3.467608	's process
-3.166578	's public
-3.166578	's reactors
-2.564518	's research	-0.03057719
-2.188854	's safety	0.1295876
-3.467608	's singapore
-2.513366	's spending	-0.235805
-3.467608	's such
-2.689457	's technology	-0.1475268
-3.166578	's the
-3.467608	's their
-2.865548	's to	0.2443408
-3.467608	's vhtr
-3.467608	's which
-3.467608	's will
-2.133653	( "	-0.3492729
-3.40472	( $	1.009341
-3.40472	( )
-2.290776	( -LRB-	0.7976858
-1.110253	( 2009	-1.194688
-3.881841	( CC
-0.5898066	( CD	-1.233333
-3.036743	( DT	-0.03503004
-2.539418	( FW	-0.2546631
-2.580811	( IN	-0.2591461
-1.263793	( JJ	-0.505694
-3.10369	( JJR	-0.07321719
-3.10369	( JJS	-0.3935509
-2.248373	( LS	-1.148079
-3.881841	( MD
-0.352539	( NN	-1.207459
-2.735713	( NNP	-0.3072277
-1.278697	( NNS	-0.8392299
-2.651392	( PRP	-0.2223586
-3.881841	( PRP$
-2.125966	( RB	-0.3173661
-2.735713	( VB	-0.3595462
-2.626569	( VBG	-0.03563973
-2.238388	( VBN	-0.2424328
-3.881841	( VBP
-3.580811	( VBZ
-2.735713	( WP	-0.2665922
-3.036743	( WRB	-0.1312726
-3.580811	( [	-0.2634721
-2.559622	( a	-0.1227524
-3.881841	( aged
-3.40472	( aging	-0.1568035
-3.182871	( an	0.02394126
-3.580811	( and
-2.419443	( as	-1.289461
-3.40472	( at	-0.1365239
-3.580811	( by
-3.881841	( cost
-3.881841	( design
-3.40472	( energy	-0.2164667
-3.279781	( for
-3.40472	( from	-0.1478647
-2.626569	( generation	-0.1653581
-2.580811	( genetic	-0.07652599
-3.279781	( government	-0.4467607
-3.881841	( help
-3.881841	( high
-2.50163	( http	1.797673
-3.182871	( in
-3.881841	( it
-2.767898	( may	-0.2694495
-3.881841	( more
-3.10369	( new	-0.04041663
-2.390479	( nuclear	-0.3148518
-3.881841	( of
-3.881841	( on
-3.881841	( only
-3.40472	( or	-0.08667256
-3.40472	( population	-0.1415607
-3.10369	( public	-0.3147983
-3.279781	( research	0.09748543
-3.10369	( safety	-0.1290782
-2.40472	( singapore	-0.6369239
-3.279781	( such	-0.08341295
-2.024508	( the	-0.2492481
-3.881841	( these
-3.40472	( to	0.1975821
-3.881841	( use
-1.788419	( vhtr	-1.61669
-3.881841	( we
-3.580811	( when
-3.40472	( which	-0.07663506
-3.881841	( will
-2.54356	) "	-0.1668903
-3.885983	) $
-3.283923	) 's	0.1402052
-2.23277	) (	0.1883373
-2.806802	) )	0.2773645
-1.016751	) ,	-0.02393609
-2.655534	) -LRB-	0.240529
-2.93174	) -RRB-	1.897564
-0.2308444	) .	-0.3256392
-2.306199	) :	-0.07354656
-1.736764	) </s>
-2.563764	) CD	-0.02025408
-3.187013	) DT	-0.0840334
-2.034724	) IN	0.1144861
-1.829078	) JJ	0.02127653
-3.107831	) JJR	-0.07321719
-3.283923	) MD	-0.01981981
-1.448232	) NN	0.0773434
-3.584953	) NNP
-1.903712	) NNS	0.09564674
-3.885983	) PRP$
-1.782179	) RB	-0.312674
-3.584953	) RBS
-3.885983	) SYM
-3.885983	) VB
-1.684586	) VBD	-0.2014668
-2.283923	) VBG	0.009384066
-2.380833	) VBN	-0.05428542
-2.408862	) VBP	-0.03593905
-1.926941	) VBZ	0.001110673
-3.408862	) WDT
-3.040885	) WP	-0.4196834
-2.806802	) WRB	-0.07667358
-3.040885	) [	0.5113783
-3.584953	) ]
-2.806802	) a	-0.1274618
-3.408862	) aging	-0.1428755
-3.885983	) all
-2.471009	) also	-0.5826544
-1.792561	) and	-0.03856003
-2.454619	) are	-0.05015063
-2.394621	) as	-0.09351689
-3.584953	) at
-3.584953	) but
-2.772039	) by	0.02710855
-2.681863	) can	0.2800668
-3.408862	) cost
-3.584953	) design
-3.584953	) development	-0.1336541
-3.283923	) energy	-0.1090801
-2.655534	) for	0.1111037
-2.772039	) from	-0.1040752
-3.187013	) generation	-0.2539099
-2.982893	) genetic	0.04819554
-3.885983	) government
-2.178413	) has	-0.2579031
-2.709892	) have	-0.003002644
-3.408862	) high	0.0851199
-2.63071	) however	-0.001198411
-2.84459	) http	2.136491
-3.187013	) if
-2.010921	) in	0.07940292
-1.936593	) is	-0.02310377
-2.982893	) it	0.1430345
-3.885983	) its
-3.885983	) many
-3.283923	) may	0.168737
-3.408862	) more	0.02592339
-3.408862	) new	0.08019586
-3.584953	) not
-2.63071	) nuclear	-0.1032816
-2.772039	) of	0.08248359
-2.739855	) on	-0.1639577
-3.107831	) one	0.03786597
-3.885983	) only
-2.93174	) or	-0.01314875
-3.885983	) people
-3.885983	) power
-3.885983	) process
-3.187013	) reactor	-0.05147379
-3.408862	) reactors
-3.408862	) research
-2.454619	) retrieved	0.3242164
-3.408862	) safety	-0.1022193
-2.739855	) should	-0.1700326
-3.107831	) singapore	-0.1521552
-3.187013	) so	-0.01587486
-3.584953	) some	-0.2115336
-3.187013	) such	0.2225007
-2.84459	) technology	-0.05318677
-2.488043	) that	-0.03205059
-2.040885	) the	-0.2364102
-3.885983	) their
-3.408862	) there
-3.040885	) these	0.2126046
-3.584953	) they
-2.471009	) this	0.06828532
-2.14562	) to	-0.141031
-3.885983	) use
-2.524255	) was	-0.2020653
-3.283923	) when	-0.03483737
-2.306199	) which	-0.05945471
-2.885983	) will	0.1799458
-2.681863	) with	0.1694933
-3.408862	) would	0.004112616
-2.300309	, "	-0.2151003
-4.16561	, $	1.009341
-2.728918	, (	-0.1441538
-4.040671	, )	-0.06660315
-3.211368	, -LRB-	1.013096
-4.642732	, -RRB-
-4.642732	, .
-1.342136	, 2009	-0.3184652
-4.642732	, :
-4.341702	, </s>
-2.373219	, CC	-0.1261407
-1.220799	, CD	-0.5937521
-2.24828	, DT	0.1264792
-2.078065	, FW	-0.2834948
-1.714336	, IN	0.3067788
-1.281004	, JJ	-0.08945704
-2.409735	, JJR	-0.1784252
-2.605305	, JJS	-0.2689723
-3.642731	, LS	-0.04911259
-3.211368	, MD	0.09415966
-0.8537858	, NN	-0.3392876
-2.522158	, NNP	-0.2482284
-1.399693	, NNS	0.07990336
-2.52546	, PRP	-0.4521925
-2.597409	, PRP$	-0.08866376
-1.514656	, RB	0.1623576
-3.688489	, RBR	0.1214417
-3.387459	, RBS	0.5473456
-4.16561	, SYM
-4.341702	, TO
-2.33738	, VB	-0.05914772
-2.407203	, VBD	0.08432508
-1.476894	, VBG	0.07126594
-2.187887	, VBN	-0.08776075
-2.4524	, VBP	0.00467217
-2.441334	, VBZ	0.08187091
-3.688489	, WDT	0.003002375
-2.625698	, WP	0.1553922
-3.688489	, WP$	0.4268082
-2.574546	, WRB	0.1218672
-4.341702	, [
-1.802625	, a	0.3699434
-4.16561	, aged	-0.1569351
-3.26252	, aging	0.2098439
-2.810223	, all	-0.2380199
-3.211368	, also	-0.2122381
-2.414845	, an	0.06647754
-1.601339	, and	0.1236522
-2.87188	, are	0.1248563
-1.998293	, as	0.01455796
-3.029948	, at	-0.05365106
-3.320512	, be	-0.07577351
-1.993397	, but	0.2206775
-2.56355	, by	-0.1554468
-2.979974	, can	0.2429716
-3.009263	, cost	-0.3013543
-4.040671	, country	0.0498567
-3.438612	, design	-0.06678687
-3.029948	, development	-0.3693322
-3.019482	, elderly	-0.1421126
-3.46664	, energy	0.009230047
-2.308278	, for	-0.3552166
-1.575289	, from	-0.5845817
-3.180334	, generation	-0.7851416
-2.857402	, genetic	0.2444544
-2.797633	, government	-0.1514741
-2.791473	, has	0.3150908
-3.086429	, have	0.01848829
-3.86458	, help	0.008247353
-3.195574	, high	0.03062296
-2.703212	, however	0.4793171
-3.281004	, http	1.816156
-2.21622	, if	0.378141
-1.876319	, in	-0.147473
-2.449607	, is	0.1644655
-1.348265	, it	-0.9126895
-2.836552	, its	0.1637252
-2.236191	, many	0.3415901
-2.487396	, may	-0.3557956
-2.361698	, more	0.04534769
-2.803882	, new	0.1839533
-2.585827	, not	-0.2569129
-2.197127	, nuclear	0.2710131
-3.320512	, of	-0.253607
-2.96149	, on	-0.2349868
-2.308278	, one	0.01405579
-2.989519	, only	-0.1627465
-2.502852	, or	0.05371702
-3.062948	, other	0.1171383
-2.275376	, people	-0.4594601
-3.56355	, population	-0.2685953
-3.797633	, power	-0.04600996
-4.642732	, problem
-3.642731	, problems	-0.02395302
-4.16561	, process	-0.1494518
-2.281004	, public	-0.923095
-3.943762	, reactor	-0.1151584
-4.040671	, reactors	-0.1079697
-2.698249	, research	-0.007945776
-2.785399	, retrieved	0.3049029
-2.739642	, safety	0.1247247
-2.999279	, should	0.4714936
-2.412283	, singapore	-0.02608645
-2.430544	, so	0.1161856
-2.237898	, some	0.3517139
-3.051667	, spending	-0.1194623
-2.16561	, such	-0.1169693
-2.894543	, technology	-0.09829873
-2.952535	, that	-0.1258125
-0.8906831	, the	0.6029524
-2.669604	, their	0.1112294
-1.651949	, there	0.04791856
-2.394758	, these	0.1684567
-1.797014	, they	0.26489
-1.973415	, this	0.1028039
-2.281004	, to	-0.1371484
-3.943762	, use	-0.08345129
-2.567185	, vhtr	-0.3103844
-3.111253	, was	-0.05221248
-1.815362	, we	0.06432831
-2.484369	, when	0.3802373
-1.634984	, which	-0.02112973
-2.779409	, will	0.3193812
-2.121593	, with	0.07484591
-3.26252	, would	0.7056
-3.002166	-LRB- "
-2.157068	-LRB- (	-0.05675548
-3.002166	-LRB- -RRB-
-2.701136	-LRB- CD
-3.002166	-LRB- FW
-1.483652	-LRB- JJ	-0.103137
-1.189253	-LRB- NN	-0.5557786
-3.002166	-LRB- NNP
-1.659743	-LRB- NNS	-0.3901316
-3.002166	-LRB- RB
-2.525045	-LRB- VBG
-2.701136	-LRB- VBN
-3.002166	-LRB- WP
-3.002166	-LRB- aging
-3.002166	-LRB- generation
-3.002166	-LRB- government
-2.701136	-LRB- high	0.1367791
-0.07019994	-LRB- http	0.2459178
-3.002166	-LRB- new
-3.002166	-LRB- nuclear
-3.002166	-LRB- singapore
-3.002166	-LRB- the
-3.002166	-RRB- NN
-0.0008651288	-RRB- [	-2.203695
-3.858678	. "	-0.3628356
-4.636829	. %
-4.159708	. )	0.05833557
-3.636829	. ,	-0.319861
-3.275101	. .	0.692574
-0.005456045	. </s>
-4.636829	. CD
-4.636829	. DT
-3.057045	. JJ	-0.7974116
-4.335799	. LS	-0.270589
-4.636829	. MD
-1.990425	. NN	-1.648366
-4.636829	. NNS
-4.636829	. RB
-4.636829	. VB
-4.636829	. VBN
-4.034769	. a	-0.4512556
-4.636829	. at
-4.636829	. from
-4.636829	. the
-3.185259	2009 "
-3.486289	2009 's
-2.532046	2009 (	-0.1522696
-0.4713484	2009 )	0.1039195
-0.3575665	2009 ,	-1.257408
-2.407108	2009 -LRB-	0.1297603
-1.517806	2009 .	0.08581889
-2.282169	2009 :	-0.08818319
-2.106077	2009 </s>
-3.185259	2009 CC
-3.185259	2009 CD
-3.486289	2009 IN
-2.372345	2009 JJ	-0.05356964
-1.504017	2009 NN	-0.9779592
-3.486289	2009 NNP
-3.486289	2009 SYM
-3.486289	2009 VBN
-3.486289	2009 VBZ
-3.185259	2009 [
-2.124561	2009 ]	0.09688997
-3.486289	2009 and
-3.486289	2009 for
-0.9336206	2009 from	-0.7548157
-3.486289	2009 government
-3.486289	2009 have
-3.009167	2009 http	2.700763
-3.486289	2009 in
-3.486289	2009 is
-3.009167	2009 may	-0.1319888
-2.884229	2009 on	-0.1092482
-3.185259	2009 retrieved
-3.486289	2009 singapore
-3.486289	2009 that
-3.486289	2009 there
-3.009167	2009 to
-3.486289	2009 when
-3.486289	2009 will
-2.345766	: "	-0.1065441
-3.822887	: #
-3.521857	: $	1.061
-3.521857	: %	-0.06393847
-2.868644	: (	-0.2058012
-3.822887	: ,
-1.845163	: -LRB-	-0.3218414
-3.521857	: .
-3.521857	: 2009	-0.09578513
-3.220827	: :	0.1559098
-1.363495	: </s>
-3.822887	: CC
-1.353065	: CD	-0.1598486
-2.919797	: DT	0.06255592
-3.220827	: FW	-0.0978368
-2.521857	: IN	0.07644813
-1.179434	: JJ	-0.1839468
-3.044736	: JJR	-0.4417334
-3.345766	: JJS
-3.822887	: LS
-0.3322263	: NN	-0.8875469
-2.266584	: NNP	-0.448309
-1.488433	: NNS	-0.3165863
-2.977789	: PRP	-0.05608756
-2.919797	: PRP$	0.05157557
-1.909073	: RB	-0.206667
-3.822887	: RBR
-2.009974	: VB	-0.2714388
-1.919797	: VBG	-0.1352542
-2.977789	: VBN	-0.1023485
-3.345766	: VBZ	-0.1347526
-2.977789	: WP	-0.08896057
-2.521857	: WRB	0.1553493
-2.977789	: [	-0.6689984
-1.936396	: a	0.02161008
-3.822887	: all
-2.646796	: an	-0.4208875
-2.391523	: and	-0.01087014
-3.521857	: are
-2.676759	: as	-0.1192143
-3.822887	: at
-3.345766	: be
-3.345766	: but
-3.521857	: by
-3.521857	: can
-3.123917	: cost
-3.822887	: country
-3.521857	: design
-3.822887	: elderly
-2.743706	: energy	-0.07963526
-2.977789	: for	-0.2056387
-3.123917	: from	-0.07529105
-3.521857	: generation	0.01959795
-2.977789	: genetic	0.1061875
-3.521857	: government
-3.822887	: has
-3.822887	: high
-2.391523	: however	0.3675328
-0.7539594	: http	0.1089561
-3.220827	: if
-2.743706	: in	0.1152259
-2.743706	: is	-0.2725191
-2.231822	: it	0.08909586
-3.345766	: its	-0.0904519
-3.521857	: many
-3.123917	: more	-0.1361906
-3.345766	: new
-3.220827	: not
-2.500668	: nuclear	-0.04371634
-3.220827	: on	-0.2027953
-2.822887	: one	-0.03186847
-3.822887	: only
-3.822887	: or
-3.822887	: other
-3.521857	: people
-3.521857	: population
-3.822887	: power
-3.521857	: problem
-3.822887	: public
-3.822887	: reactor
-3.345766	: research
-3.220827	: retrieved	-0.1681991
-3.521857	: safety
-3.345766	: should
-2.822887	: singapore	-0.07354122
-3.044736	: so	-0.03661631
-2.977789	: some	0.0897233
-3.345766	: such	-0.1385793
-3.220827	: technology	-0.4493126
-3.220827	: that	-0.10176
-1.641043	: the	-0.04855669
-3.521857	: their	-0.1017607
-3.220827	: there	0.2678829
-2.592438	: they	0.1084523
-2.544133	: this	0.2382438
-2.868644	: to	-0.06053129
-3.345766	: vhtr
-3.822887	: was
-2.919797	: we	0.05013374
-3.345766	: when	-0.08159606
-2.822887	: which	-0.1139118
-3.521857	: will
-3.345766	: with
-1.992121	<s> "	-0.08988822
-4.187098	<s> $	1.009341
-3.819121	<s> ''	-0.05894563
-1.457393	<s> (	-0.2335292
-3.217061	<s> )	-0.1562128
-4.062159	<s> ,	-0.08907613
-2.719736	<s> -LRB-	0.7402442
-4.363189	<s> -RRB-	2.426344
-3.761129	<s> .	1.151212
-3.408946	<s> 2009	-0.1153478
-3.249245	<s> :	0.04333112
-2.982978	<s> CC	-0.1412468
-2.086727	<s> CD	-0.0979206
-2.013911	<s> DT	-0.03926021
-3.217061	<s> FW	-0.3722286
-1.360159	<s> IN	0.05709541
-1.460099	<s> JJ	-0.2339202
-2.908344	<s> JJR	-0.2612534
-2.948215	<s> JJS	-0.7347562
-2.143081	<s> LS	-0.7264563
-3.886067	<s> MD	-0.1615793
-0.9810816	<s> NN	-0.3196428
-2.700431	<s> NNP	-0.1268767
-1.381144	<s> NNS	-0.139717
-4.664219	<s> PDT
-2.81296	<s> PRP	-0.2404539
-3.051435	<s> PRP$	0.1958091
-0.8781065	<s> RB	-0.6301515
-4.664219	<s> RBR
-2.916031	<s> RBS	0.4485142
-3.819121	<s> SYM	-0.2233211
-4.664219	<s> UH
-2.518091	<s> VB	-0.02888885
-3.965249	<s> VBD	-0.06444732
-1.641378	<s> VBG	-0.2429894
-2.337883	<s> VBN	-0.4080003
-3.819121	<s> VBP	-0.1503619
-3.342	<s> VBZ	-0.08605382
-3.385465	<s> WDT	0.1938015
-2.668584	<s> WP	-0.2696429
-4.664219	<s> WP$
-2.82537	<s> WRB	-0.03622541
-2.426173	<s> [	0.4991777
-4.664219	<s> ]
-2.034809	<s> a	0.1486257
-4.062159	<s> aged	-0.1101764
-2.878889	<s> aging	0.2978685
-2.499866	<s> all	-0.596357
-2.380918	<s> also	-0.9041796
-2.421181	<s> an	-0.1185099
-2.537114	<s> and	0.0272395
-4.187098	<s> are
-1.65096	<s> as	-0.07898438
-2.533885	<s> at	-0.3868694
-3.965249	<s> be	-0.314989
-2.361023	<s> but	-0.1789117
-2.259385	<s> by	-0.3755088
-4.062159	<s> can	-0.113564
-3.43377	<s> cost	0.131834
-3.249245	<s> design	0.2066053
-3.622826	<s> development	-0.2201856
-3.363189	<s> elderly	-0.1026521
-3.321796	<s> energy	-0.2347791
-1.692943	<s> for	-0.7600488
-2.43377	<s> from	-0.06707281
-2.886067	<s> generation	-0.7746719
-2.557009	<s> genetic	-0.0774256
-3.13274	<s> government	-0.2445763
-3.709976	<s> have	-0.3776423
-4.062159	<s> help	-0.04799405
-3.585037	<s> high	-0.04343179
-1.413555	<s> however	0.1673355
-2.651381	<s> http	1.165047
-2.076508	<s> if	0.4268658
-1.19117	<s> in	-0.5750709
-3.385465	<s> is	-0.2312842
-1.617334	<s> it	-0.8077359
-3.266279	<s> its	0.1428405
-2.378661	<s> many	0.02162832
-4.363189	<s> may	-0.2440066
-2.724699	<s> more	0.2247317
-2.638913	<s> new	-0.1627401
-2.886067	<s> not	-0.6420218
-2.070933	<s> nuclear	0.242062
-3.408946	<s> of	-0.116347
-2.107916	<s> on	-0.8209551
-2.036853	<s> one	-0.582953
-3.120151	<s> only	-0.1857228
-3.761129	<s> or	-0.0653778
-2.789157	<s> other	-0.1961862
-2.585037	<s> people	-0.2196644
-3.342	<s> population	-0.4872025
-3.761129	<s> power	-0.443852
-4.363189	<s> problem
-3.408946	<s> problems	-0.1076193
-4.363189	<s> process
-2.567309	<s> public	-0.840898
-4.062159	<s> reactor	-0.06555873
-2.939943	<s> research	-0.01326042
-1.481519	<s> retrieved	-0.003648281
-2.838144	<s> safety	-0.1616528
-3.284008	<s> should	-0.1712437
-2.371963	<s> singapore	0.03625017
-2.40654	<s> so	-0.4510893
-2.172857	<s> some	0.05723763
-3.342	<s> spending	-0.06522828
-2.626792	<s> such	0.1859601
-2.923856	<s> technology	-0.223809
-2.772124	<s> that	-0.6788835
-1.069826	<s> the	0.4329406
-3.096017	<s> their	0.2144368
-2.011006	<s> there	0.09375334
-2.037878	<s> these	0.1668404
-2.046171	<s> they	0.3410946
-1.387068	<s> this	0.04918003
-2.047218	<s> to	-0.4296607
-4.062159	<s> use	0.1873649
-2.982978	<s> vhtr	-0.1278352
-2.291307	<s> we	0.1605124
-2.358867	<s> when	0.4131952
-4.187098	<s> which
-4.187098	<s> will
-1.853315	<s> with	-0.1698005
-4.187098	<s> would	-0.1617937
-3.111263	= #
-2.810232	= %	-0.06393847
-3.111263	= -LRB-
-2.333111	= </s>
-2.810232	= CC	-0.04704642
-0.5759684	= CD	-1.097058
-2.333111	= IN	-0.3262728
-1.46781	= JJ	-0.4396105
-0.1921844	= NN	-1.451871
-1.749535	= NNS	-0.4327455
-2.810232	= RB
-2.810232	= WRB
-3.111263	= ]
-3.111263	= a
-2.509202	= all	-0.1153394
-3.111263	= an
-1.85599	= http	2.642988
-2.634141	= nuclear	-0.1623752
-3.111263	= the
-2.578639	CC %	-0.0948891
-2.05576	CC (	-0.02363104
-2.014368	CC ,	-0.1316319
-3.05576	CC -LRB-
-2.578639	CC .	1.577181
-3.05576	CC 2009
-3.05576	CC CC
-1.800488	CC CD	-0.3157648
-2.75473	CC DT
-3.05576	CC FW
-1.75473	CC IN	-0.3262776
-1.236217	CC JJ	-0.1394413
-2.277609	CC JJR	-0.05029704
-0.3892425	CC NN	-0.6326772
-1.292333	CC NNP	-0.6064471
-1.163666	CC NNS	-0.2564375
-3.05576	CC PRP
-2.014368	CC PRP$	-0.3653522
-1.879669	CC RB	-0.1896297
-3.05576	CC SYM
-2.05576	CC VB	-0.05143115
-1.675549	CC VBD	-0.3494896
-2.014368	CC VBG	-0.03995865
-2.101518	CC VBN
-2.05576	CC VBP	-0.0416838
-1.941817	CC VBZ	-0.7134713
-1.879669	CC a	0.2743749
-3.05576	CC also
-2.75473	CC an
-2.210662	CC and	-0.2955322
-2.578639	CC are
-2.453701	CC as	-0.07961594
-2.75473	CC at	-0.2740346
-3.05576	CC be
-2.277609	CC by	-0.03798316
-2.453701	CC can
-2.05576	CC development	-0.1415764
-3.05576	CC for
-3.05576	CC from
-3.05576	CC generation
-2.101518	CC genetic	-0.8012751
-3.05576	CC government
-2.75473	CC have
-2.75473	CC help	-0.2733585
-2.453701	CC high	0.1923776
-2.15267	CC in	0.02602567
-2.210662	CC is	-0.2944488
-2.75473	CC it
-3.05576	CC more
-3.05576	CC not
-2.578639	CC nuclear
-2.15267	CC of	-0.752082
-2.453701	CC on	-0.4507925
-1.909632	CC or	-0.9929639
-3.05576	CC people
-2.75473	CC population	-0.2738278
-2.75473	CC power	-0.2741306
-2.578639	CC public
-3.05576	CC reactor
-2.578639	CC research	0.05072674
-3.05576	CC should
-3.05576	CC so
-3.05576	CC some
-3.05576	CC spending
-2.356791	CC technology
-3.05576	CC that
-1.002682	CC the	-0.006182551
-1.976579	CC to	0.09597084
-2.75473	CC will	-0.2744267
-1.909632	CC with	-0.6182699
-3.05576	CC would
-2.602338	CD "	-0.04735848
-3.591343	CD #	-0.1783571
-3.114222	CD $	1.162356
-1.091312	CD %	0.6562353
-3.716282	CD ''
-3.193403	CD 's	-0.2596782
-1.669656	CD (	0.3103741
-0.5851979	CD )	0.1215385
-0.7301073	CD ,	-0.4994015
-3.017312	CD -LRB-	0.03285021
-2.220275	CD -RRB-	0.8786784
-1.235796	CD .	0.2711303
-2.831675	CD 2009	0.5758805
-2.269124	CD :	-0.1613278
-1.845098	CD </s>
-2.871184	CD CC	0.116586
-1.472417	CD CD	0.1804909
-3.047275	CD DT	-0.1592838
-2.85098	CD FW	-0.5566215
-2.164019	CD IN	-0.4041914
-1.624029	CD JJ	-0.3362374
-3.494433	CD JJR	-0.01813027
-3.591343	CD JJS	-0.1575775
-3.716282	CD LS	-0.1543272
-3.716282	CD MD	-0.01497246
-1.122996	CD NN	-0.2668306
-3.716282	CD NNP
-1.033235	CD NNS	-0.02149165
-3.415252	CD PRP	-0.3917547
-4.193403	CD PRP$
-2.661924	CD RB	0.06471071
-2.989283	CD RBS	-0.110567
-2.625201	CD VBD	-0.07260336
-2.702041	CD VBG	-0.2412663
-2.716282	CD VBN	0.009452045
-3.494433	CD VBP
-3.07946	CD VBZ	-0.09159693
-4.193403	CD WP
-4.193403	CD WP$
-3.494433	CD WRB	-0.0935535
-3.017312	CD [	-0.3609995
-1.790282	CD ]	-0.002668023
-3.290313	CD a	-0.1535244
-4.193403	CD aged
-4.193403	CD also
-4.193403	CD an
-1.86912	CD and	-0.2434906
-3.07946	CD are	0.1691424
-2.989283	CD as	-0.1158256
-2.77843	CD at	-0.3323681
-3.892373	CD but
-2.591343	CD by	-0.5741475
-4.193403	CD can
-4.193403	CD cost
-3.591343	CD design
-4.193403	CD development
-3.348305	CD elderly	-0.1538187
-4.193403	CD energy
-2.674889	CD for	0.1306891
-2.394062	CD from	-0.2519011
-2.494433	CD generation	-0.6743534
-3.114222	CD has	-0.1823015
-3.348305	CD have	-0.07199201
-3.716282	CD high	0.0851199
-3.716282	CD however	0.7769528
-2.93813	CD http	1.922611
-3.716282	CD if
-1.997503	CD in	-0.41799
-2.795463	CD is	-0.1790685
-4.193403	CD it
-4.193403	CD many
-3.114222	CD may	-0.04920211
-3.193403	CD more	0.1614918
-2.795463	CD new	0.282176
-4.193403	CD not
-2.45304	CD nuclear	-0.1604289
-2.445215	CD of	-0.1251011
-3.415252	CD on
-4.193403	CD one
-4.193403	CD only
-2.613619	CD or	-0.5398462
-3.591343	CD other	0.139974
-2.202177	CD people	-0.2176809
-3.892373	CD population
-2.702041	CD problems	-0.09805208
-3.07946	CD reactor	-0.2107829
-2.762039	CD reactors	0.0358178
-3.114222	CD retrieved	0.3526769
-3.716282	CD safety
-3.716282	CD singapore	-0.1535552
-3.494433	CD so	-0.148185
-4.193403	CD such
-3.716282	CD technology
-3.415252	CD that	-0.06156326
-3.047275	CD the	-0.1917687
-4.193403	CD there
-3.591343	CD this	-0.1960609
-1.755652	CD to	-0.666051
-3.047275	CD was	-0.08022463
-3.892373	CD we
-3.348305	CD when	-0.04206905
-2.962954	CD which	0.009728402
-2.962954	CD will	0.02916324
-3.23916	CD with	-0.1058409
-3.892373	CD would
-3.228144	DT "
-3.529174	DT $
-3.529174	DT ''
-3.529174	DT (
-3.529174	DT )
-2.449992	DT ,	-0.06752342
-1.927114	DT .	0.4522418
-3.529174	DT :
-1.875961	DT CD	-0.601219
-3.052052	DT DT
-3.529174	DT FW
-2.353082	DT IN	-0.1296238
-0.8363267	DT JJ	-0.2702656
-2.383046	DT JJR	0.0970848
-0.3830456	DT NN	-0.07068634
-0.9900975	DT NNS	0.2015701
-3.228144	DT PRP
-3.529174	DT PRP$
-2.206954	DT RB	-0.2017141
-3.529174	DT RBR
-3.228144	DT RBS	-0.2708317
-3.529174	DT SYM
-3.529174	DT VB
-2.684076	DT VBD
-1.736782	DT VBG	-0.08077732
-1.972871	DT VBN	-0.1464415
-2.487781	DT VBP	-0.0307927
-3.228144	DT VBZ
-1.322348	DT WP	-0.6738441
-3.529174	DT a
-2.383046	DT aged	-0.5699102
-2.626084	DT and	-0.3680322
-2.41523	DT are	-0.06734672
-3.529174	DT at
-3.529174	DT by
-3.052052	DT can	-0.1662267
-3.052052	DT cost
-1.830204	DT country	-0.1459833
-2.41523	DT design	-0.01897109
-2.751022	DT development
-2.186751	DT elderly	-0.2384047
-2.927114	DT energy	-0.006031051
-2.487781	DT for	-0.1286787
-2.927114	DT from
-2.927114	DT generation	0.1241052
-2.487781	DT genetic	0.9883916
-2.529174	DT government	-0.01362742
-2.684076	DT have	-0.0574008
-2.751022	DT help	-0.03231506
-3.052052	DT high	0.0851199
-2.353082	DT in	0.1089656
-2.830204	DT is
-3.529174	DT its
-2.186751	DT more	-0.01509514
-2.167446	DT new	0.3198429
-2.186751	DT nuclear	-0.3343321
-1.620689	DT of	-0.4196805
-3.529174	DT on
-1.665851	DT one	-0.008572161
-3.529174	DT only
-3.228144	DT or	-0.2442573
-1.584691	DT other	0.3459052
-2.383046	DT people	-0.2328039
-3.052052	DT power	-0.2500796
-2.01066	DT problem	-0.0985017
-2.325054	DT problems	-0.05958609
-3.052052	DT process
-3.052052	DT public	-0.08228776
-3.052052	DT reactor	-0.1554701
-3.052052	DT research
-2.751022	DT safety	-0.3127996
-3.529174	DT singapore
-3.529174	DT so
-3.052052	DT spending
-2.830204	DT such	-0.04078263
-2.574931	DT technology
-2.574931	DT that	-0.1706627
-3.529174	DT the
-2.529174	DT their	0.5524741
-3.052052	DT these	0.1613527
-3.228144	DT they	-0.156014
-2.927114	DT to	0.1411629
-3.052052	DT use
-3.529174	DT we
-3.529174	DT when
-2.927114	DT which
-2.131234	DT with	-0.2063111
-3.228144	DT would	-0.1079051
-2.428675	FW "
-1.272327	FW (	-0.1827536
-2.206826	FW )	0.2191716
-1.134944	FW ,	-0.3508405
-2.905796	FW -RRB-
-1.206826	FW .	0.3553318
-2.303736	FW 2009	-0.04018664
-1.387282	FW :	-0.4565688
-2.905796	FW </s>
-2.604766	FW CC
-1.826615	FW CD	-0.1473381
-2.905796	FW DT
-0.7786911	FW FW	-0.4489467
-2.905796	FW IN
-2.060698	FW JJ	-0.001392528
-2.604766	FW LS
-2.303736	FW MD	-0.01981981
-1.272327	FW NN	-0.1726044
-2.060698	FW NNS	-0.104957
-2.905796	FW PRP
-1.361728	FW RB	-0.741824
-1.583577	FW VB	-0.09725744
-1.729705	FW VBD	-0.06837421
-2.905796	FW VBG
-2.002706	FW VBN	-0.02859488
-0.5733574	FW VBP	-0.3326357
-2.905796	FW VBZ
-2.604766	FW a
-2.428675	FW and
-2.002706	FW can	-0.04512113
-2.905796	FW design
-2.905796	FW for
-1.729705	FW have	-0.2585422
-2.905796	FW in
-2.905796	FW is
-2.905796	FW not
-2.905796	FW nuclear
-2.905796	FW on
-2.905796	FW reactor
-2.905796	FW should
-2.905796	FW that
-2.905796	FW the
-2.303736	FW to	0.1411629
-2.905796	FW which
-1.443398	FW will	0.1272898
-2.604766	FW with
-1.604766	FW would	-0.3742177
-2.989094	IN "	0.04120196
-2.633706	IN $	-0.04501665
-3.864155	IN ''
-3.563125	IN (	-0.1964022
-3.864155	IN )
-1.77425	IN ,	-0.1221252
-3.688064	IN -RRB-	2.374685
-2.262095	IN .	0.1512119
-3.688064	IN 2009	-0.149388
-3.165185	IN :	-0.06062198
-3.165185	IN </s>
-2.934736	IN CC	-0.07294154
-1.382712	IN CD	0.009675741
-1.952997	IN DT	0.1662616
-3.387034	IN FW	0.06113861
-2.552401	IN IN	-0.01868728
-1.208057	IN JJ	-0.1897506
-2.440909	IN JJR	-0.1364771
-2.646671	IN JJS	-0.2515779
-3.563125	IN MD	-0.07139175
-0.9172117	IN NN	-0.03909063
-3.019057	IN NNP	-0.03029038
-1.413136	IN NNS	0.3302038
-3.466215	IN PDT	0.5700169
-2.119862	IN PRP	-0.2760077
-2.054595	IN PRP$	0.180601
-1.86852	IN RB	0.00548476
-2.803457	IN VB	0.004872829
-3.563125	IN VBD
-1.248205	IN VBG	0.1713372
-2.40931	IN VBN	0.07694653
-3.563125	IN VBP
-3.320087	IN VBZ	-0.002609849
-3.466215	IN WDT	-0.2092091
-2.688064	IN WP	-0.0758149
-2.585401	IN WRB	-0.05548149
-3.688064	IN ]	-0.01680908
-1.467956	IN a	0.5169104
-4.165185	IN aged
-3.210943	IN aging	0.05417103
-2.135801	IN all	-0.1791375
-2.215795	IN an	0.1221488
-2.702787	IN and	0.009981662
-3.864155	IN are
-3.086004	IN as	0.03548922
-3.165185	IN at	0.05177166
-4.165185	IN be
-3.864155	IN been
-3.563125	IN but	-0.1139796
-2.961065	IN by	0.04191689
-3.864155	IN can
-2.989094	IN cost	-0.08257368
-3.086004	IN design	-0.1191375
-3.210943	IN development	-0.05237731
-3.123792	IN elderly	-0.06210624
-3.262095	IN energy	-0.001823291
-2.57412	IN for	0.2525555
-3.051242	IN generation	-0.1746505
-2.502427	IN genetic	0.1778169
-3.210943	IN government	-0.1257021
-3.864155	IN has
-3.688064	IN have
-3.864155	IN help
-2.934736	IN high	-0.4360114
-3.086004	IN if	-0.03316885
-2.40931	IN in	0.1192353
-3.019057	IN is	0.09085891
-1.519763	IN it	0.04895294
-2.220702	IN its	0.08582789
-2.40931	IN many	0.1796579
-4.165185	IN may
-2.822762	IN more	0.1107028
-3.019057	IN new	0.12117
-2.767245	IN not	-0.3105665
-2.054595	IN nuclear	0.2453058
-1.520746	IN of	-0.2405087
-3.165185	IN on	0.2423511
-2.240906	IN one	-0.1025993
-3.262095	IN only	-0.09881683
-2.864155	IN or	-0.5720661
-2.178413	IN other	-0.0008023381
-2.449182	IN people	-0.01178107
-2.909912	IN population	-0.7106999
-3.864155	IN power
-4.165185	IN problem
-3.320087	IN problems	-0.03247463
-3.688064	IN process	-0.1549204
-2.767245	IN public	-0.2271521
-3.864155	IN reactor
-2.225666	IN research	-0.1323386
-2.767245	IN safety	-0.09222269
-3.688064	IN should
-2.394333	IN singapore	-0.1609282
-3.466215	IN so	-0.1534827
-2.230686	IN some	0.3759798
-2.750212	IN spending	-0.01558128
-2.552401	IN such	-0.473922
-3.086004	IN technology	-0.08018866
-1.834771	IN that	-0.4515869
-0.5794986	IN the	0.4895359
-1.714936	IN their	0.2649965
-2.201397	IN them	-0.3052081
-1.958359	IN there	0.2852321
-2.10828	IN these	0.1015013
-1.646671	IN they	-0.02763546
-1.851318	IN this	-0.3115815
-1.864155	IN to	0.05476665
-2.909912	IN use	-0.3061746
-2.585401	IN vhtr	-0.03409949
-2.365844	IN we	0.2619447
-3.123792	IN when	-0.03063041
-2.784974	IN which	-0.1627243
-2.466215	IN with	-0.005588472
-3.864155	IN would
-2.553334	JJ "	-0.08629459
-3.933545	JJ $	0.6413643
-3.824401	JJ %	-0.05938515
-3.737251	JJ ''	0.08433138
-3.030455	JJ 's	-0.2423065
-2.645104	JJ (	0.166857
-2.959099	JJ )	0.05428565
-1.602262	JJ ,	0.2749099
-4.477613	JJ -LRB-	-0.2602921
-3.145175	JJ -RRB-	1.218338
-1.523129	JJ .	-0.9690155
-2.986252	JJ 2009	0.4850497
-2.933545	JJ :	0.5818427
-3.316245	JJ </s>
-3.19886	JJ =	-0.4454899
-3.260129	JJ CC	-0.1230455
-2.07794	JJ CD	-0.1791678
-3.523371	JJ DT	-0.3362273
-3.933545	JJ FW	-0.03244874
-2.02968	JJ IN	0.1810219
-1.303844	JJ JJ	-0.1336499
-2.648309	JJ JJR	0.0877406
-3.523371	JJ JJS	-0.2305234
-3.632515	JJ LS	-0.06516531
-3.456424	JJ MD	0.03570268
-0.4349786	JJ NN	0.5516074
-3.347279	JJ NNP	0.02470449
-0.7018935	JJ NNS	0.3237573
-3.574523	JJ PRP	-0.1005401
-3.933545	JJ PRP$	0.07849883
-2.326857	JJ RB	-0.04895604
-3.933545	JJ RBR	-0.09231316
-4.079673	JJ RBS	0.1987467
-4.477613	JJ RP
-3.115885	JJ VB	0.03525567
-2.986252	JJ VBD	0.2043898
-2.213977	JJ VBG	-0.05714238
-2.326857	JJ VBN	0.111278
-3.030455	JJ VBP	0.09744129
-2.757454	JJ VBZ	0.1744792
-3.548194	JJ WP	-0.01266876
-4.778643	JJ WP$
-3.574523	JJ WRB	0.05546609
-3.933545	JJ [	0.5113783
-3.06264	JJ ]	-0.1835407
-3.737251	JJ a	-0.0916061
-3.222341	JJ aged	-0.003412724
-2.76161	JJ aging	0.4038485
-4.000492	JJ all	-0.2457964
-4.000492	JJ also	-0.2889608
-4.176583	JJ an	0.1058334
-1.430144	JJ and	-0.05242801
-3.273493	JJ are	0.259166
-2.150254	JJ as	0.1999568
-2.909411	JJ at	0.1795802
-3.737251	JJ be	0.2629638
-2.668053	JJ but	-0.1079675
-2.881016	JJ by	0.2139319
-3.287282	JJ can	-0.1890664
-2.513825	JJ cost	0.2276707
-2.886549	JJ country	0.1558881
-2.611326	JJ design	0.2665579
-2.310296	JJ development	0.4016706
-2.864829	JJ elderly	0.1128736
-1.995454	JJ energy	0.2433034
-1.929838	JJ for	0.1827055
-2.626355	JJ from	0.01457947
-2.444189	JJ generation	0.4923736
-2.471147	JJ genetic	-0.1769502
-2.80092	JJ government	0.1564318
-3.737251	JJ has	-0.01423226
-3.875553	JJ have	-0.02747089
-3.079673	JJ help	-0.1996401
-3.331485	JJ high	-0.2003639
-4.778643	JJ however
-2.979303	JJ if	0.1439016
-1.983459	JJ in	0.01077199
-2.770043	JJ is	0.1961045
-3.456424	JJ it	0.1436297
-4.477613	JJ its	-0.08513525
-4.778643	JJ many
-3.602552	JJ may	0.4852038
-3.699462	JJ more	0.0429683
-3.347279	JJ new	0.3146697
-3.416915	JJ not	-0.3206541
-2.329937	JJ nuclear	0.1956527
-2.249727	JJ of	-0.1031024
-2.651538	JJ on	0.06325758
-2.864829	JJ one	-0.09944806
-3.737251	JJ only	-0.1135772
-2.428395	JJ or	0.009084344
-3.699462	JJ other	0.120916
-2.29577	JJ people	0.4474864
-2.184251	JJ population	0.2804351
-2.46058	JJ power	0.06807667
-2.416915	JJ problem	0.09131223
-2.217542	JJ problems	0.4071289
-2.416915	JJ process	0.181425
-2.770043	JJ public	0.2720762
-2.201151	JJ reactor	0.2573293
-2.540597	JJ reactors	0.05671585
-2.154361	JJ research	-0.0342983
-4.176583	JJ retrieved	0.4149574
-2.588311	JJ safety	-0.1714296
-3.398432	JJ should	0.3947532
-3.737251	JJ singapore	-0.1985863
-3.347279	JJ so	-0.3384404
-4.477613	JJ some
-2.864829	JJ spending	0.3693165
-3.632515	JJ such	-0.1715119
-2.270787	JJ technology	0.2071509
-2.110257	JJ that	-0.03111905
-2.819602	JJ the	-0.01863408
-4.477613	JJ their	-0.1017607
-4.176583	JJ them
-4.176583	JJ there
-3.933545	JJ these	0.02659744
-3.778643	JJ they	-0.1019203
-4.176583	JJ this	0.0826731
-1.176583	JJ to	0.3240654
-2.778643	JJ use	-0.3405233
-3.737251	JJ vhtr	-0.05269082
-3.933545	JJ was	-0.03458565
-4.301522	JJ we
-3.015215	JJ when	0.1597664
-3.347279	JJ which	0.06303912
-3.301522	JJ will	0.5015672
-2.638764	JJ with	0.06427723
-3.737251	JJ would	0.2457443
-2.868644	JJR "	-0.1297369
-3.646796	JJR ''
-2.470704	JJR 's	-0.1126931
-2.500668	JJR (	-0.06946403
-1.464952	JJR ,	-0.02526444
-2.868644	JJR -LRB-	0.4307902
-1.464952	JJR .	0.1046546
-3.345766	JJR :
-3.044736	JJR </s>
-2.868644	JJR CC	-0.1675392
-2.801698	JJR CD	-0.02575986
-3.345766	JJR DT	-0.04272187
-1.132248	JJR IN	-0.1494077
-1.29077	JJR JJ	-0.07569033
-2.646796	JJR JJR	0.008435041
-3.646796	JJR MD
-0.4584298	JJR NN	-0.2987809
-0.815566	JJR NNS	0.2385625
-3.345766	JJR PRP	-0.260012
-2.605403	JJR RB	-0.01280297
-3.345766	JJR RBR
-3.169674	JJR RP
-2.416347	JJR VB	-0.03861876
-2.692553	JJR VBD	-0.1132849
-2.003343	JJR VBG	-0.4919592
-1.965554	JJR VBN	-0.1766697
-3.044736	JJR VBP
-2.947826	JJR VBZ
-3.169674	JJR WP
-3.169674	JJR a	-0.1102404
-3.646796	JJR aged
-2.868644	JJR aging	-0.0372164
-3.646796	JJR also
-1.268398	JJR and	-0.3412389
-2.947826	JJR are	-0.08877917
-2.285068	JJR as	0.02672154
-3.646796	JJR at
-3.646796	JJR be
-2.801698	JJR but
-2.947826	JJR by	-0.1929355
-2.868644	JJR can	-0.01642397
-2.102728	JJR cost	0.1675567
-2.470704	JJR design	-0.07239321
-3.646796	JJR development
-3.044736	JJR elderly
-2.115317	JJR energy	0.08830416
-2.023546	JJR for	-0.1891749
-3.646796	JJR from
-1.464952	JJR generation	-0.357348
-3.646796	JJR genetic
-3.169674	JJR government
-3.345766	JJR have
-3.646796	JJR help
-2.442676	JJR if	-0.1428309
-2.141646	JJR in	0.05596545
-2.646796	JJR is	0.0554594
-3.646796	JJR it
-3.345766	JJR its
-3.646796	JJR may
-3.646796	JJR more
-2.304373	JJR nuclear	-0.1623688
-2.567615	JJR of	-0.2972688
-2.743706	JJR on	0.1944493
-2.743706	JJR one	-0.2411296
-2.868644	JJR or	-0.1307123
-1.567614	JJR people	0.06711358
-2.090493	JJR population	0.06822236
-2.692553	JJR power	-0.3263038
-3.345766	JJR problem
-3.044736	JJR problems
-3.646796	JJR process
-2.868644	JJR public	0.1026655
-2.692553	JJR reactor	-0.09021637
-2.868644	JJR reactors	-0.06217168
-2.743706	JJR research	0.09381202
-2.500668	JJR safety	-0.3207591
-3.646796	JJR should
-3.044736	JJR so	0.05190299
-3.169674	JJR spending	0.009119809
-3.646796	JJR such
-2.500668	JJR technology	-0.1069776
-3.044736	JJR that
-2.285068	JJR the	-0.1793567
-3.044736	JJR their	0.0840517
-3.345766	JJR they	-0.156014
-3.646796	JJR this
-1.62149	JJR to	-0.3585176
-2.500668	JJR use	0.06956306
-2.605403	JJR when	-0.01218626
-2.947826	JJR which
-2.868644	JJR will	0.2591023
-2.692553	JJR with	-0.004870489
-3.646796	JJR would
-3.098644	JJS "
-3.098644	JJS ''
-3.098644	JJS (
-1.327792	JJS ,	-0.1607067
-1.952516	JJS .	0.9081738
-3.098644	JJS :
-1.736916	JJS CD	-0.2813647
-2.797614	JJS DT	-0.04272187
-2.399674	JJS FW	-0.4692264
-1.9847	JJS IN	-0.2411131
-1.12092	JJS JJ	-0.3252132
-3.098644	JJS MD
-0.569727	JJS NN	-0.1677167
-0.8785356	JJS NNS	-0.08132023
-3.098644	JJS PRP
-2.399674	JJS RB
-2.098644	JJS VB	-0.09785786
-2.621522	JJS VBD	-0.2824092
-2.195554	JJS VBG	-0.05635885
-1.776424	JJS VBN	-0.1289848
-2.797614	JJS VBP
-2.797614	JJS VBZ	-0.2149395
-2.496584	JJS a	-0.07998836
-2.797614	JJS aged
-1.952516	JJS aging	-0.3716191
-3.098644	JJS an
-2.496584	JJS and	-0.1153306
-2.621522	JJS are
-2.496584	JJS as	-0.2077869
-2.621522	JJS be	0.0237641
-2.797614	JJS by
-3.098644	JJS can
-2.253546	JJS cost	-0.05474693
-2.797614	JJS country
-2.253546	JJS design	-0.04208749
-3.098644	JJS development
-2.098644	JJS elderly	-0.04053545
-2.621522	JJS energy
-2.253546	JJS for	-0.1568064
-2.496584	JJS generation	0.07519643
-2.797614	JJS genetic
-3.098644	JJS high
-3.098644	JJS if
-1.9847	JJS in	0.03755289
-3.098644	JJS is
-2.797614	JJS it	-0.09356453
-3.098644	JJS not
-1.894524	JJS nuclear	0.1464848
-0.76419	JJS of	-0.4894997
-3.098644	JJS on
-1.952516	JJS one	0.1219385
-2.399674	JJS other	-0.2648211
-1.320493	JJS people	-0.04991639
-2.399674	JJS population	-0.05197388
-2.621522	JJS power
-2.621522	JJS problem
-2.496584	JJS problems
-3.098644	JJS public
-3.098644	JJS reactor
-2.399674	JJS reactors	-0.1876073
-3.098644	JJS research
-3.098644	JJS safety
-3.098644	JJS singapore
-3.098644	JJS some
-3.098644	JJS spending
-2.399674	JJS technology	-0.06696863
-2.621522	JJS that
-2.253546	JJS the	0.1092613
-1.736916	JJS to	-0.618505
-3.098644	JJS use
-3.098644	JJS we
-3.098644	JJS will
-2.797614	JJS would	-0.1079051
-2.794488	LS 's
-2.794488	LS (
-0.6772168	LS )	0.1882778
-1.840245	LS ,
-2.493458	LS -RRB-	2.426344
-0.5985884	LS .	-0.1415979
-1.94939	LS :	0.02539578
-2.794488	LS </s>
-2.016337	LS =	-0.1808605
-2.095518	LS CD	-0.226641
-2.493458	LS IN
-2.493458	LS JJ
-2.794488	LS JJR
-2.095518	LS MD	-0.1167298
-1.94939	LS NN
-2.794488	LS NNS
-1.539216	LS RB	-0.7119965
-1.618397	LS VB	-0.1055748
-2.493458	LS VBD
-1.070212	LS VBP	-0.5460991
-0.7610643	LS ]	0.375967
-1.680545	LS and	-0.3570974
-2.794488	LS can
-2.493458	LS for
-2.016337	LS have	0.05439769
-2.794488	LS however
-1.715307	LS http	2.098702
-2.317367	LS is
-2.794488	LS it
-2.016337	LS nuclear	-0.08445656
-2.192428	LS reactor
-1.34733	LS reactors	0.001289189
-2.794488	LS should
-2.794488	LS technology
-2.794488	LS to
-2.794488	LS was
-2.192428	LS will	0.004942372
-2.317367	LS would	-0.0008916557
-3.038223	MD "
-3.339253	MD (
-3.038223	MD )
-2.862131	MD ,	-0.3262433
-3.339253	MD .
-3.339253	MD =
-3.339253	MD CD
-3.038223	MD DT
-3.038223	MD JJ	-0.2448637
-2.436163	MD NN	-0.05307919
-3.339253	MD NNS
-1.108804	MD RB	-0.9843444
-2.561101	MD RBR	-0.6017067
-0.4339966	MD VB	0.1745433
-2.640283	MD VBD
-3.038223	MD VBN
-2.737193	MD VBZ
-3.339253	MD a
-3.339253	MD all
-1.458439	MD also	-0.8999879
-3.339253	MD and
-3.339253	MD as
-3.339253	MD at
-0.5399121	MD be	0.2103692
-3.339253	MD been
-2.737193	MD cost
-2.640283	MD design	-0.08440647
-2.737193	MD for
-2.862131	MD genetic	0.4741642
-1.168991	MD have	-0.0272674
-1.807774	MD help	-0.1606081
-3.339253	MD however
-3.038223	MD if
-2.29786	MD in	-0.3635362
-1.058219	MD not	-0.4862114
-3.339253	MD nuclear
-3.339253	MD one
-2.135133	MD only	-0.5203596
-3.339253	MD people
-3.339253	MD research
-2.737193	MD the	-0.2150813
-3.038223	MD they
-3.038223	MD this
-2.29786	MD to	-0.1657178
-2.193125	MD use	-0.1226003
-2.456791	NN "	-0.08480346
-3.330094	NN #	0.331434
-4.149638	NN $	1.083689
-4.00351	NN %	-0.1789462
-2.948241	NN ''	0.187526
-2.050303	NN 's	0.2259798
-1.657297	NN (	0.08221233
-1.878959	NN )	0.4787546
-0.9285367	NN ,	1.016914
-3.516169	NN -LRB-	0.02241373
-2.261458	NN -RRB-	0.1958232
-0.9586622	NN .	0.3266132
-2.859603	NN 2009	0.9098628
-1.830323	NN :	0.4211347
-2.046176	NN </s>
-2.069372	NN =	0.1891907
-2.618159	NN CC	-0.0580458
-1.715868	NN CD	-0.3396218
-3.417244	NN DT	-0.2265255
-3.336725	NN FW	-0.1648624
-1.744975	NN IN	0.3859608
-2.024482	NN JJ	0.04295051
-3.350297	NN JJR	0.1500791
-4.30454	NN JJS	-0.02827646
-3.558573	NN LS	-0.2876471
-2.437831	NN MD	0.06996727
-0.9724766	NN NN	0.471995
-3.751698	NN NNP	0.1474687
-1.339204	NN NNS	0.3083216
-4.30454	NN POS	-0.03424123
-3.18585	NN PRP	-0.1732867
-4.00351	NN PRP$	0.2411116
-2.043447	NN RB	0.07011366
-3.569854	NN RBR	-0.0747923
-4.371487	NN RBS	-0.1279599
-3.807215	NN RP	-0.09663628
-3.945518	NN SYM	-0.08942948
-2.93745	NN VB	0.2766593
-2.035027	NN VBD	0.3727145
-2.305782	NN VBG	0.0807057
-2.045834	NN VBN	-0.1943487
-2.616884	NN VBP	0.2793087
-1.835981	NN VBZ	0.4324511
-4.450668	NN WDT	0.01669386
-3.081452	NN WP	0.02855027
-4.450668	NN WP$	0.0976264
-2.716669	NN WRB	0.1935098
-3.116214	NN [	0.7800899
-2.171001	NN ]	0.01505804
-3.063278	NN a	0.07922852
-4.547578	NN aged	-0.0931525
-4.108245	NN aging	0.1295835
-3.919189	NN all	-0.1897085
-2.948241	NN also	-0.7453629
-3.973547	NN an	0.3748057
-1.30572	NN and	0.6579798
-2.467493	NN are	0.1235671
-2.160188	NN as	0.0424583
-2.584972	NN at	0.08294171
-3.459442	NN be	-0.1371252
-4.672516	NN been	0.06789055
-2.809194	NN but	0.01563883
-2.419663	NN by	0.1504827
-2.109035	NN can	0.1009123
-2.815184	NN cost	0.4212324
-3.70248	NN country	-0.1652506
-2.332734	NN design	-0.02709031
-2.99735	NN development	0.1136988
-4.246548	NN elderly	-0.02318919
-3.112211	NN energy	0.09759194
-1.71475	NN for	0.6140881
-2.267683	NN from	0.05025744
-3.350297	NN generation	0.2473151
-4.00351	NN genetic	0.03735387
-3.848608	NN government	-0.004386708
-2.155761	NN has	0.2517773
-2.807215	NN have	0.1297492
-3.718274	NN help	0.01412466
-4.108245	NN high	0.2449101
-4.547578	NN however	0.9873884
-3.672517	NN http	1.700763
-3.032367	NN if	0.1736025
-1.558907	NN in	0.4215982
-1.528877	NN is	0.4552788
-3.08894	NN it	-0.01192856
-3.973547	NN its	0.4438146
-3.945518	NN many	0.1366573
-2.601863	NN may	-0.1873288
-3.17651	NN more	0.07772946
-3.894365	NN new	-0.04649448
-3.280406	NN not	-0.1547363
-2.558573	NN nuclear	-0.2467687
-0.9753744	NN of	0.8328881
-1.99735	NN on	0.2374135
-3.593335	NN one	0.1018032
-3.459442	NN only	-0.13797
-2.292305	NN or	-0.2069603
-4.149638	NN other	0.1021114
-3.769427	NN people	-0.1069438
-3.459442	NN population	0.05983108
-3.18585	NN power	-0.01976442
-3.268824	NN problem	0.08534247
-3.063278	NN problems	0.2578757
-2.916642	NN process	0.1489061
-4.30454	NN public	0.29278
-2.528461	NN reactor	0.1963382
-2.57445	NN reactors	0.3192652
-3.268824	NN research	-0.003074229
-3.581436	NN retrieved	0.4275665
-3.357246	NN safety	0.09251341
-2.319691	NN should	0.03973436
-3.536854	NN singapore	0.1078498
-2.945518	NN so	-0.5771879
-4.195395	NN some	0.1236804
-3.364308	NN spending	0.2707851
-2.914109	NN such	-0.8328464
-2.275736	NN technology	0.158555
-1.924587	NN that	0.2127628
-2.610562	NN the	0.2049839
-3.734664	NN their	0.444531
-4.246548	NN them
-3.672517	NN there	0.212147
-4.070457	NN these	-0.02147856
-3.17651	NN they	0.04738593
-3.751698	NN this	-0.07393467
-1.417485	NN to	0.2536118
-3.672517	NN use	0.3171049
-3.848608	NN vhtr	-0.08138473
-2.36932	NN was	0.1690538
-3.246548	NN we	0.1146815
-2.743098	NN when	0.2824489
-2.212622	NN which	0.1155697
-2.111018	NN will	-0.02328086
-2.399129	NN with	0.1786868
-2.48312	NN would	0.2412924
-2.55084	NNP "
-1.85187	NNP 's	-0.2104245
-1.45393	NNP (	-0.2866606
-2.006772	NNP )	-0.07744482
-0.65597	NNP ,	-0.2996818
-1.85187	NNP -RRB-	1.851806
-1.119476	NNP .	1.307134
-1.596597	NNP :	0.0665457
-1.85187	NNP </s>
-1.218401	NNP CC	-0.7564139
-1.94878	NNP CD	0.001668975
-2.85187	NNP FW
-2.55084	NNP IN
-2.1529	NNP JJ	0.1086021
-0.9173712	NNP NN	-0.1113847
-0.8928282	NNP NNP	-0.2205164
-1.772688	NNP NNS	-0.08606799
-2.85187	NNP PRP
-2.24981	NNP RB
-2.374748	NNP VB
-1.94878	NNP VBD	-0.01713731
-2.073718	NNP VBG
-2.374748	NNP VBN
-2.85187	NNP VBP
-1.810477	NNP VBZ	0.005690247
-2.85187	NNP WP
-2.85187	NNP WRB
-2.85187	NNP [
-1.705742	NNP ]	-0.004222929
-2.374748	NNP a	0.05343658
-2.85187	NNP all
-2.55084	NNP also	-0.2191246
-1.810477	NNP and	-0.03496245
-2.85187	NNP are
-1.52965	NNP as	-0.3842291
-2.85187	NNP by
-2.85187	NNP can
-2.85187	NNP for
-2.1529	NNP has	0.1009751
-2.55084	NNP in	-0.2737721
-1.307802	NNP is	-0.1041784
-2.85187	NNP on
-2.55084	NNP or
-2.85187	NNP public
-2.85187	NNP reactor
-2.85187	NNP should
-2.85187	NNP the
-2.85187	NNP this
-1.772688	NNP to	0.009144276
-2.85187	NNP was
-2.55084	NNP when
-2.85187	NNP which
-2.1529	NNP will	-0.1175366
-2.85187	NNP with
-2.85187	NNP would
-0.3679768	NNPS NN
-0.845098	NNPS NNS
-0.845098	NNPS VBP
-0.845098	NNPS help
-2.471754	NNS "	-0.2244252
-4.25945	NNS #
-3.414352	NNS $	0.164243
-3.891474	NNS %	-0.4835744
-3.093119	NNS 's	-0.30972
-1.779923	NNS (	0.2729589
-2.486152	NNS )	0.3921719
-1.003535	NNS ,	0.7956156
-3.958421	NNS -LRB-	0.5812786
-3.231422	NNS -RRB-	1.346656
-0.8422557	NNS .	-0.2066956
-3.695179	NNS 2009	-0.04757398
-1.994633	NNS :	0.5052752
-2.192504	NNS </s>
-3.622628	NNS =	-0.08135843
-2.980697	NNS CC	0.08141446
-2.937231	NNS CD	0.2712174
-3.394149	NNS DT	-0.5643008
-3.622628	NNS FW	0.09147085
-1.458963	NNS IN	0.07029104
-2.074759	NNS JJ	-0.0443176
-3.274174	NNS JJR	-0.2636537
-4.134512	NNS JJS
-4.736572	NNS LS
-2.121675	NNS MD	0.1485659
-1.823818	NNS NN	0.3411502
-4.25945	NNS NNP	-0.05441424
-2.268224	NNS NNS	0.1407033
-2.07193	NNS POS	0.3988062
-3.123788	NNS PRP	-0.05045381
-4.134512	NNS PRP$
-1.759306	NNS RB	-0.1013549
-3.123788	NNS RBR	0.04668692
-3.958421	NNS RBS	-0.1097285
-4.134512	NNS RP	-0.08991838
-2.679667	NNS VB	0.186127
-1.739185	NNS VBD	0.1484526
-1.885926	NNS VBG	0.044415
-1.7616	NNS VBN	-0.1720959
-1.521728	NNS VBP	0.4356632
-2.328332	NNS VBZ	0.1664348
-2.252272	NNS WP	-0.4971009
-3.958421	NNS WP$	0.2311982
-2.650212	NNS WRB	-0.005638599
-3.083359	NNS [	0.3263249
-3.113322	NNS ]	0.0099231
-3.231422	NNS a	0.08526969
-3.205093	NNS aged	-0.975261
-4.435542	NNS aging
-3.156788	NNS all	-0.5581745
-2.661025	NNS also	-0.6700634
-3.657391	NNS an	0.5549122
-1.149422	NNS and	0.3791028
-1.368471	NNS are	-0.123818
-2.049043	NNS as	-0.1272231
-2.554728	NNS at	0.1020044
-3.736572	NNS be	-0.06734473
-4.134512	NNS been	0.1751482
-2.802073	NNS but	0.0160642
-2.412289	NNS by	0.0369879
-1.786207	NNS can	0.2160963
-3.891474	NNS cost	-0.01857705
-4.736572	NNS country
-3.622628	NNS design	-0.01733172
-3.481299	NNS development	-0.1542978
-4.25945	NNS energy
-1.628007	NNS for	0.3027794
-2.029002	NNS from	-0.3360204
-4.435542	NNS generation
-4.25945	NNS genetic	0.4741642
-4.134512	NNS government
-2.625982	NNS has	-0.1541949
-1.699145	NNS have	7.200241e-05
-3.274174	NNS help	-0.1253993
-4.25945	NNS high
-3.833482	NNS however	0.7336688
-4.037602	NNS http	2.478914
-2.844477	NNS if	0.09175843
-1.435542	NNS in	0.1046699
-2.013938	NNS is	0.2453401
-3.16837	NNS it	0.04589707
-4.435542	NNS its
-3.833482	NNS many	0.02512512
-2.110231	NNS may	-0.3304362
-2.844477	NNS more	0.001020908
-4.435542	NNS new
-3.205093	NNS not	-0.6756495
-3.782329	NNS nuclear	0.07756872
-1.093218	NNS of	0.3122211
-1.993062	NNS on	-0.02348626
-3.958421	NNS one	0.01604461
-3.274174	NNS only	-0.01941088
-2.027302	NNS or	-0.1890403
-3.736572	NNS other	-0.8336893
-3.657391	NNS people	-0.1553159
-4.134512	NNS population	-0.19798
-4.736572	NNS problem
-4.736572	NNS problems
-4.435542	NNS process
-4.435542	NNS public
-4.736572	NNS reactors
-4.037602	NNS research	-0.05885708
-3.695179	NNS retrieved	0.4501843
-4.25945	NNS safety
-2.074759	NNS should	0.1254627
-3.394149	NNS singapore	-0.03897724
-2.675874	NNS so	-0.6437734
-4.134512	NNS some	-0.0671096
-4.736572	NNS spending
-1.864999	NNS such	-1.508103
-3.590444	NNS technology	0.008408792
-1.675496	NNS that	-0.1101055
-2.650212	NNS the	-0.008705318
-3.622628	NNS their	-0.0712032
-4.736572	NNS them
-3.695179	NNS there	-0.06669109
-3.833482	NNS these	0.03531343
-3.029002	NNS they	0.1543978
-4.037602	NNS this	0.03307347
-1.245631	NNS to	0.0757004
-3.24521	NNS use	-0.1780869
-4.736572	NNS vhtr
-3.046376	NNS was	0.1374261
-3.289414	NNS we	-0.02454275
-2.569254	NNS when	0.0185408
-1.99542	NNS which	-0.1224156
-1.851776	NNS will	0.04242313
-2.118524	NNS with	0.07300204
-2.308437	NNS would	0.2058423
-0.3309932	PDT a	-0.1728653
-0.39794	PDT the	-0.0282748
-1.176091	PDT their
-2.384712	POS "
-2.384712	POS (
-1.644349	POS ,	0.005525641
-2.685742	POS .
-2.685742	POS CD
-2.208621	POS IN
-0.9453791	POS JJ	-0.19681
-2.685742	POS JJS
-0.3259062	POS NN	-0.07758343
-0.6404188	POS NNS	-0.02113229
-2.685742	POS VB
-2.685742	POS VBD
-1.907591	POS VBG	-0.06954458
-2.384712	POS VBP
-2.208621	POS VBZ
-2.685742	POS WP
-1.907591	POS and	-0.03554838
-2.384712	POS are
-2.685742	POS as
-2.685742	POS at
-2.685742	POS by
-2.384712	POS cost
-2.685742	POS design
-2.208621	POS development	-0.1226033
-2.384712	POS energy	-0.1648075
-2.685742	POS for
-2.384712	POS from
-2.083682	POS genetic	0.5814219
-2.685742	POS has
-2.384712	POS have	-0.2261608
-2.208621	POS of
-2.384712	POS or
-2.685742	POS population
-2.384712	POS research
-1.907591	POS safety	-0.04035289
-2.685742	POS should
-2.685742	POS spending
-2.384712	POS technology
-2.685742	POS that
-2.384712	POS the	-0.187531
-2.208621	POS to	0.1975821
-2.685742	POS which
-2.790754	PRP "
-1.568905	PRP $	0.1701771
-3.267875	PRP ''
-2.966846	PRP 's	-0.01857129
-2.121747	PRP (	-0.02104577
-2.790754	PRP )	-0.1537016
-1.375781	PRP ,	0.01333088
-0.8931271	PRP .	-0.3204466
-3.267875	PRP :
-2.665815	PRP =	-0.004769176
-3.267875	PRP CC
-2.790754	PRP DT
-2.966846	PRP FW	-0.2682692
-1.614663	PRP IN	0.1175325
-1.711573	PRP JJ	0.2193577
-2.790754	PRP JJR	-0.1387103
-1.836512	PRP MD	0.2573317
-1.634407	PRP NN	-0.1489145
-2.091784	PRP NNS	-0.003143206
-2.966846	PRP PRP
-2.966846	PRP PRP$
-1.375781	PRP RB	-0.09431377
-3.267875	PRP RBS
-2.188694	PRP RP	-0.2624292
-1.527513	PRP VB	0.03213391
-1.192328	PRP VBD	0.1155572
-2.226483	PRP VBG	-0.06698189
-2.313633	PRP VBN	-0.104414
-1.475484	PRP VBP	0.02384731
-1.5436	PRP VBZ	0.007974982
-2.665815	PRP WP
-2.364785	PRP WRB	0.006211817
-1.805477	PRP a	0.141385
-2.790754	PRP all
-2.364785	PRP also	-0.1755183
-2.966846	PRP an
-1.482546	PRP and	-0.1146803
-2.037426	PRP are	-0.01353414
-2.037426	PRP as	-0.08854081
-2.790754	PRP at
-2.790754	PRP be	0.187441
-3.267875	PRP been
-2.489724	PRP but	0.02158417
-2.966846	PRP by	-0.1516239
-1.655092	PRP can	0.2033842
-1.906148	PRP for	0.1184561
-2.121747	PRP from	-0.04149406
-2.489724	PRP government	-0.1123074
-1.749362	PRP has	0.05783403
-2.267875	PRP have	0.07759167
-3.267875	PRP help
-2.568905	PRP if	-0.002816945
-1.489724	PRP in	0.02081943
-1.435367	PRP is	0.2108269
-2.665815	PRP many	0.06411867
-1.836512	PRP may	0.3467813
-2.267875	PRP more	0.1922925
-2.665815	PRP not	-0.07982713
-2.966846	PRP nuclear
-2.568905	PRP of	-0.0869311
-2.966846	PRP on
-3.267875	PRP one
-2.790754	PRP only	-0.1544354
-1.370248	PRP or	-0.8711203
-3.267875	PRP problems
-2.091784	PRP should	-0.1082563
-2.665815	PRP so	-0.04983794
-3.267875	PRP some
-3.267875	PRP spending
-3.267875	PRP such
-2.188694	PRP that	0.0005313009
-2.153932	PRP the	0.02290764
-1.157286	PRP to	-0.237116
-1.836512	PRP was	0.0297398
-2.364785	PRP when	-0.1672945
-2.665815	PRP which	-0.1330543
-1.577679	PRP will	0.3039591
-1.711573	PRP with	0.1753526
-2.037426	PRP would	0.1263515
-3.037227	PRP$ "
-3.338257	PRP$ (
-3.338257	PRP$ 2009
-2.384015	PRP$ CC	-0.5758269
-2.861136	PRP$ DT	-0.09438103
-3.037227	PRP$ IN
-0.8525358	PRP$ JJ	-0.494679
-2.493159	PRP$ JJR	0.107703
-2.224314	PRP$ JJS	-0.1879697
-0.3245775	PRP$ NN	-0.1413816
-0.7550585	PRP$ NNS	0.02482736
-2.639287	PRP$ RB	-0.1414353
-2.861136	PRP$ RBS	0.1883991
-2.134137	PRP$ VBG	-0.1382856
-2.861136	PRP$ VBN
-3.338257	PRP$ aged
-2.861136	PRP$ aging
-3.338257	PRP$ all
-3.338257	PRP$ and
-3.338257	PRP$ as
-3.338257	PRP$ but
-1.567405	PRP$ country	0.1122983
-2.639287	PRP$ design
-2.639287	PRP$ development	-0.01027185
-2.560106	PRP$ elderly	-0.1061641
-2.192129	PRP$ energy	-0.09861974
-1.747193	PRP$ genetic	0.3072848
-2.259076	PRP$ government	-0.3455479
-3.037227	PRP$ high
-3.338257	PRP$ in
-3.338257	PRP$ more
-2.861136	PRP$ new	0.08019586
-3.338257	PRP$ nuclear
-3.338257	PRP$ only
-1.12607	PRP$ or	-1.671498
-3.338257	PRP$ other
-2.162166	PRP$ people	-0.2087869
-2.338257	PRP$ population	-0.009941146
-3.037227	PRP$ power
-2.736197	PRP$ problem	-0.08439656
-2.861136	PRP$ problems
-2.338257	PRP$ public	-0.06140846
-2.384015	PRP$ research	-0.01811934
-2.560106	PRP$ safety
-2.736197	PRP$ spending	0.2195554
-2.560106	PRP$ technology	-0.1952811
-3.338257	PRP$ the
-3.338257	PRP$ to
-3.082871	RB "	0.006297328
-3.291147	RB $	0.372519
-4.40509	RB %
-3.927969	RB ''
-3.80303	RB 's	0.0370272
-2.61976	RB (	-0.2758293
-3.502	RB )	0.1265997
-0.6241251	RB ,	0.4256618
-4.10406	RB -LRB-
-4.40509	RB -RRB-
-1.237477	RB .	0.2511411
-3.927969	RB 2009
-2.927969	RB :	0.115998
-4.10406	RB </s>
-3.559992	RB CC	-0.1422419
-2.093336	RB CD	-0.06241012
-2.418318	RB DT	0.06408435
-3.363698	RB FW	-0.03635409
-1.521429	RB IN	0.1193998
-0.9869546	RB JJ	0.06975925
-1.913728	RB JJR	-0.1259325
-3.450848	RB JJS	-0.002119616
-3.927969	RB LS	-0.2239281
-3.258962	RB MD	0.3790667
-1.826451	RB NN	0.1232855
-3.450848	RB NNP	-0.3125277
-2.10406	RB NNS	0.1951761
-3.927969	RB PDT	0.05907468
-3.10406	RB PRP	-0.1259104
-3.20097	RB PRP$	0.4391236
-1.650742	RB RB	0.2719682
-2.59891	RB RBR	0.1511007
-4.40509	RB RBS
-4.40509	RB SYM
-1.234535	RB VB	0.3043075
-1.893207	RB VBD	0.1198884
-1.502	RB VBG	0.2033594
-1.148854	RB VBN	0.1687918
-1.646178	RB VBP	0.2023712
-1.698372	RB VBZ	0.212086
-3.363698	RB WP	-0.08850105
-3.174641	RB WRB	-0.03299319
-4.10406	RB [
-4.40509	RB ]
-1.926524	RB a	-0.1281508
-3.927969	RB aged
-3.10406	RB aging	-0.04232888
-2.886576	RB all	-0.2033694
-3.450848	RB also	-0.07484937
-2.664727	RB an	-0.3399541
-1.859783	RB and	-0.04296762
-2.634238	RB are	0.08708251
-1.630573	RB as	0.2218589
-2.585546	RB at	0.05218601
-1.847583	RB be	0.176361
-2.359767	RB been	0.153796
-3.062667	RB but	-0.1384981
-2.336904	RB by	0.2651686
-2.572581	RB can	0.0003404021
-3.626939	RB cost	-0.05823516
-3.80303	RB design	-0.09564067
-4.40509	RB development
-3.450848	RB elderly	-0.0729527
-3.70612	RB energy	-0.05563068
-2.162052	RB for	0.001100004
-2.206433	RB from	-0.3514869
-3.80303	RB generation	0.07519643
-4.40509	RB genetic
-3.363698	RB government	-0.1044706
-2.60575	RB has	0.1407979
-2.177203	RB have	0.3463563
-2.672696	RB help	-0.04387605
-1.930874	RB high	0.1328773
-2.340632	RB if	0.1096451
-1.771622	RB in	0.0245322
-2.39649	RB is	0.4507756
-2.214758	RB it	-0.1659686
-3.40509	RB its	0.05910113
-2.641662	RB many	0.0132122
-3.626939	RB may	0.2807547
-1.995157	RB more	0.2551357
-3.228999	RB new	0.4943978
-2.388057	RB not	0.1528598
-3.258962	RB nuclear	0.6810233
-1.848788	RB of	-0.1933424
-2.258962	RB on	0.1322524
-2.89994	RB one	-0.2953207
-3.258962	RB only	-0.01369685
-2.913728	RB or	-0.2606863
-3.626939	RB other	-0.0909203
-3.258962	RB people	-0.1062952
-4.10406	RB problem
-3.927969	RB problems
-3.927969	RB process
-3.20097	RB public	-0.3233032
-3.00715	RB reactor	0.07935044
-3.626939	RB reactors	-0.03289674
-3.291147	RB research	0.02459709
-3.80303	RB retrieved
-3.70612	RB safety	-0.08840799
-3.149818	RB should	0.01141503
-3.70612	RB singapore
-2.751878	RB so	-0.06330994
-2.80303	RB some	-0.0466913
-3.559992	RB spending	0.043928
-3.363698	RB such	0.221096
-3.70612	RB technology	-0.1558355
-2.771622	RB that	-0.05450687
-1.665518	RB the	0.1747552
-3.149818	RB their	0.3348519
-2.592177	RB there	0.1113461
-3.228999	RB these	0.2205748
-2.379784	RB they	0.2639856
-2.861022	RB this	0.1382932
-1.784954	RB to	0.2330039
-2.89994	RB use	-0.09650478
-3.502	RB vhtr	-0.02938405
-3.70612	RB was	-0.134626
-2.585546	RB we	0.4708218
-2.460608	RB when	0.1804402
-3.20097	RB which	-0.0007530451
-2.656902	RB will	0.1806095
-2.124057	RB with	0.1337175
-3.126337	RB would	-0.2635687
-2.730782	RBR "
-2.730782	RBR (
-1.031812	RBR ,	0.04133537
-2.730782	RBR -LRB-
-0.8615506	RBR .	0.1850702
-2.429752	RBR :
-2.730782	RBR CD
-1.350571	RBR IN	-0.03681794
-0.5106742	RBR JJ	-0.009603143
-2.730782	RBR JJR
-1.408563	RBR NN	-0.03632896
-1.885684	RBR NNS	-0.03048628
-2.730782	RBR PRP
-1.827692	RBR RB	0.01930502
-1.239421	RBR VB	-0.1231234
-1.526662	RBR VBG	-0.1580167
-1.332842	RBR VBN	-0.03399384
-2.429752	RBR VBP	-0.2139526
-2.253661	RBR VBZ
-2.730782	RBR also
-2.128722	RBR an	0.4417201
-1.429752	RBR and	-0.4201215
-2.128722	RBR as	-0.09374817
-2.730782	RBR at
-2.730782	RBR but
-2.730782	RBR energy
-1.500333	RBR for	-0.02704611
-2.730782	RBR have
-1.554691	RBR in	0.02075678
-1.952631	RBR on	0.2058498
-2.253661	RBR or	-0.3241357
-2.730782	RBR research
-2.429752	RBR so	-0.1068735
-2.730782	RBR that
-2.253661	RBR the
-2.730782	RBR this
-1.885684	RBR to	0.3478321
-2.730782	RBR was
-2.730782	RBR we
-1.952631	RBR when	-0.04235581
-2.730782	RBR which
-2.128722	RBR with
-2.820201	RBS (
-2.820201	RBS ,
-1.917112	RBS .	1.151212
-2.820201	RBS IN
-0.1583888	RBS JJ	-0.001373291
-1.917112	RBS NN	-0.2139833
-1.064327	RBS NNS	-0.02438289
-0.9751034	RBS RB	-0.2272382
-2.519171	RBS VB
-2.218142	RBS VBG
-1.778809	RBS VBN	-0.1546394
-2.519171	RBS VBP	-0.2248162
-2.820201	RBS design
-1.706258	RBS elderly	-0.08611444
-2.519171	RBS from
-2.820201	RBS genetic
-2.820201	RBS if
-2.04205	RBS in	-0.1002948
-2.519171	RBS is	-0.2398458
-2.34308	RBS nuclear
-2.820201	RBS on
-2.820201	RBS public
-2.820201	RBS reactors
-2.820201	RBS technology
-2.820201	RBS the
-2.820201	RBS to
-2.820201	RBS when
-2.520483	RP "
-2.821513	RP ''
-2.520483	RP (	-0.1402971
-2.997605	RP )
-1.290035	RP ,	-0.05897975
-1.234177	RP .	-0.01015615
-2.696575	RP :
-3.298635	RP CC
-1.997605	RP CD	-0.3878911
-2.257242	RP DT	0.119196
-1.492455	RP IN	-0.05830982
-1.395545	RP JJ	-0.2741454
-3.298635	RP JJR
-3.298635	RP JJS
-2.997605	RP MD
-1.466126	RP NN	0.1614097
-1.54276	RP NNS	0.004993886
-2.997605	RP PRP
-2.520483	RP PRP$	0.1193409
-1.485721	RP RB	0.01406547
-2.997605	RP RBR
-3.298635	RP VB
-3.298635	RP VBD
-1.807273	RP VBG	0.08796722
-2.599665	RP VBN	-0.07774229
-3.298635	RP VBZ
-2.520483	RP WP	0.02399318
-2.599665	RP WRB
-1.39015	RP a	0.03409308
-3.298635	RP aged
-2.219454	RP all	-0.1916891
-2.298635	RP an	0.1682122
-1.780121	RP and	-0.103515
-1.883661	RP as	-0.04802246
-2.122544	RP at	0.1242645
-3.298635	RP but
-1.685851	RP by	0.1953248
-3.298635	RP can
-2.997605	RP cost
-3.298635	RP design
-2.997605	RP development
-3.298635	RP elderly
-1.718851	RP for	0.1943333
-2.068186	RP from	-0.1055142
-2.821513	RP genetic	0.6378412
-2.599665	RP if
-1.435312	RP in	0.05000669
-2.599665	RP is	-0.0693725
-3.298635	RP it
-2.298635	RP its	0.06048676
-2.599665	RP many	-0.03279135
-2.043362	RP more	-0.01615751
-2.599665	RP new	-0.1776985
-2.696575	RP not	-0.1027803
-2.821513	RP nuclear
-2.068186	RP of	0.02482209
-1.754567	RP on	0.1335064
-2.821513	RP one
-2.395545	RP or	-0.01665613
-3.298635	RP other
-3.298635	RP process
-2.520483	RP public	-0.08996472
-2.395545	RP research	0.01653014
-3.298635	RP safety
-2.821513	RP so	0.005144298
-2.395545	RP some	0.004342347
-2.696575	RP spending	0.1163775
-2.696575	RP such	-0.1090061
-1.635877	RP that	-0.1322981
-0.9041831	RP the	-0.1853274
-1.550447	RP their	0.2650719
-3.298635	RP them
-2.599665	RP these	0.2339264
-2.184691	RP this	-0.11483
-1.125448	RP to	0.1822821
-2.821513	RP vhtr
-3.298635	RP we
-2.520483	RP when	-0.05687816
-2.997605	RP which
-2.997605	RP will	-0.05065611
-0.8656655	RP with	0.01851195
-2.821513	RP would
-1.579784	SYM (
-1.579784	SYM ,
-1.579784	SYM .
-0.7346855	SYM :	0.05610316
-0.8808136	SYM </s>
-0.9777236	SYM =	-0.004769176
-1.579784	SYM CC
-0.5797836	SYM CD	-0.06407137
-1.278754	SYM FW
-1.579784	SYM JJ
-1.579784	SYM NN
-1.579784	SYM NNS
-1.579784	SYM VBG
-1.579784	SYM a
-0.60206	TO )
-0.60206	TO -LRB-
-0.60206	TO VB
-0.4771213	UH ,
-0.4771213	UH VBG
-2.848099	VB "	-0.1655179
-3.682732	VB $	0.708311
-3.761913	VB ''	0.01199524
-3.50664	VB 's	-0.4192568
-2.929404	VB (	0.4153633
-4.460883	VB )
-1.877684	VB ,	0.2196399
-4.159853	VB -RRB-	2.426344
-1.63416	VB .	0.8817637
-3.761913	VB 2009	0.1608125
-3.557793	VB :
-3.41949	VB </s>
-4.159853	VB =	0.1718287
-3.138664	VB CC	-0.02211812
-2.173081	VB CD	0.1438873
-2.026314	VB DT	0.007200599
-4.159853	VB FW
-1.581787	VB IN	-0.04912871
-1.161812	VB JJ	-0.1415008
-1.915576	VB JJR	-0.003756464
-3.20561	VB JJS	-0.5283413
-3.615785	VB LS	-0.1339929
-4.159853	VB MD
-1.127436	VB NN	-0.2733148
-3.682732	VB NNP
-1.40627	VB NNS	-0.2232789
-4.460883	VB PDT
-1.969521	VB PRP	-0.3657158
-1.832494	VB PRP$	0.1939253
-1.563256	VB RB	-0.1361029
-3.029519	VB RBR	-0.02577654
-3.557793	VB RBS	-0.207148
-1.526384	VB RP	0.2691436
-2.916815	VB VB	-0.04388937
-3.761913	VB VBD
-2.095395	VB VBG	0.1625361
-2.5164	VB VBN	0.2028888
-3.460883	VB VBZ	-0.03416027
-4.460883	VB WDT
-2.654703	VB WP	0.01300454
-4.460883	VB WP$
-2.465248	VB WRB	-0.03910482
-4.460883	VB ]
-1.335727	VB a	0.3341087
-4.159853	VB aged
-2.916815	VB aging	0.4626606
-2.452283	VB all	-0.382117
-2.134547	VB an	-0.2838817
-1.71659	VB and	-0.2141758
-3.983762	VB are
-2.262226	VB as	-0.09425193
-2.396425	VB at	0.4223607
-4.460883	VB be
-3.557793	VB but	-0.01890327
-2.675553	VB by	0.04785457
-4.460883	VB can
-3.50664	VB cost	-0.03730395
-4.460883	VB country
-3.615785	VB design	-0.1084105
-3.858823	VB development	0.02512237
-2.90458	VB elderly	-0.3230199
-2.661542	VB energy	0.08738938
-1.741552	VB for	0.08576059
-2.200811	VB from	-0.3069323
-3.34694	VB generation	-0.1420417
-2.728489	VB genetic	0.2973905
-3.314755	VB government	-0.1214831
-4.460883	VB have
-3.11846	VB help	-0.1526247
-2.881099	VB high	-0.01527727
-4.460883	VB http
-2.574392	VB if	0.05864251
-1.642657	VB in	0.3249164
-2.682732	VB is	0.324319
-1.973744	VB it	-0.4984808
-2.155531	VB its	-0.0009177327
-2.712695	VB many	-0.1224086
-4.159853	VB may
-1.676979	VB more	0.3709134
-2.392697	VB new	-0.07784164
-2.892681	VB not	-0.4484631
-2.403978	VB nuclear	0.07587546
-2.591651	VB of	0.175956
-1.773354	VB on	0.3241453
-2.628374	VB one	-0.04747587
-3.314755	VB only	-0.07139975
-2.574392	VB or	-0.6260896
-2.536603	VB other	-0.01008213
-1.946335	VB people	-0.04868603
-4.460883	VB population
-3.34694	VB power	-0.05514927
-3.761913	VB problem	-0.08134775
-2.788785	VB problems	0.1703461
-3.858823	VB process	-0.2113397
-2.435577	VB public	-0.5630562
-3.858823	VB reactors
-2.969521	VB research	-0.03752476
-2.837634	VB safety	0.5323294
-3.983762	VB should
-2.916815	VB singapore	-0.2776938
-2.60355	VB so	0.09167278
-2.448045	VB some	-0.3268379
-3.045909	VB spending	-0.1230384
-2.435577	VB such	0.1569093
-3.615785	VB technology	-0.0144926
-1.470988	VB that	-0.3521147
-0.7068405	VB the	0.1481218
-1.464371	VB their	0.224466
-1.883391	VB them	0.007084787
-3.314755	VB there	0.03194737
-2.284791	VB these	0.0004455447
-3.41949	VB they	6.988645e-05
-2.045909	VB this	-0.2845469
-1.35198	VB to	0.4806143
-2.969521	VB use	-0.8051149
-3.381701	VB vhtr	-0.04378638
-3.858823	VB was	1.837313e-05
-3.682732	VB we	-0.120034
-2.942369	VB when	0.1225222
-3.099155	VB which	-0.0007362962
-3.761913	VB will	0.05110071
-1.794365	VB with	0.1156172
-4.460883	VB would
-2.665737	VBD "	0.01572773
-3.267797	VBD $	1.009341
-2.703526	VBD (	0.3409437
-3.744919	VBD )
-1.69184	VBD ,	-0.04428637
-1.723729	VBD .	0.03311253
-2.966767	VBD :
-2.899821	VBD </s>
-3.045949	VBD CC	-0.08790251
-1.952527	VBD CD	-0.4501959
-2.253557	VBD DT	0.01686203
-1.48724	VBD IN	0.003014982
-1.239769	VBD JJ	-0.03035742
-2.443889	VBD JJR	0.2149494
-3.744919	VBD JJS
-3.045949	VBD MD	-0.0178134
-1.290074	VBD NN	0.03360182
-3.443889	VBD NNP
-1.477747	VBD NNS	0.1158218
-2.364707	VBD PRP	-0.001444668
-2.402496	VBD PRP$	0.1504987
-1.234374	VBD RB	0.04153341
-3.443889	VBD RBR
-1.506872	VBD RP	0.08000833
-2.59879	VBD VB	-0.03343609
-3.142859	VBD VBD
-1.836434	VBD VBG	0.1811574
-1.023108	VBD VBN	0.3178073
-2.841829	VBD VBZ	-0.03605998
-3.744919	VBD WDT
-2.966767	VBD WP
-2.790676	VBD WRB	0.01257226
-1.39081	VBD a	-0.08345276
-3.744919	VBD aged
-2.790676	VBD all	0.05929017
-2.568827	VBD also	-0.2584958
-2.132135	VBD an	-0.0748775
-1.974066	VBD and	-0.04176483
-2.899821	VBD are	0.07676981
-2.489646	VBD as	-0.05881894
-2.267797	VBD at	0.07938388
-1.836434	VBD been	0.1753071
-3.744919	VBD but
-2.665737	VBD by	-0.0006497055
-2.790676	VBD can	0.3018103
-3.744919	VBD cost
-3.267797	VBD design
-3.443889	VBD development
-3.142859	VBD elderly
-3.443889	VBD energy
-2.253557	VBD for	0.02213198
-1.906069	VBD from	-0.1087255
-3.267797	VBD genetic	0.6378412
-3.443889	VBD has	-0.2440805
-3.267797	VBD have
-3.443889	VBD help
-3.142859	VBD high	-0.03981882
-3.744919	VBD if
-1.461617	VBD in	0.1830043
-2.966767	VBD is	-0.009639151
-2.020643	VBD it	-0.3039427
-2.402496	VBD its	-0.1686816
-2.346978	VBD many	0.08855504
-3.142859	VBD may
-2.226405	VBD more	0.1975005
-3.267797	VBD new	-0.0243692
-1.441723	VBD not	-0.4465085
-2.422699	VBD nuclear	0.01260331
-2.744919	VBD of	0.05543517
-1.974066	VBD on	-0.03550452
-2.744919	VBD one	0.06699274
-2.790676	VBD only	-0.08438496
-2.899821	VBD or	-0.1095638
-3.267797	VBD other	0.1415903
-2.841829	VBD people	-0.02840495
-3.267797	VBD power	-0.0662493
-3.142859	VBD problems
-3.744919	VBD process
-2.841829	VBD public	-0.01542602
-3.744919	VBD reactor
-3.443889	VBD reactors	-0.1744404
-3.045949	VBD research
-2.966767	VBD safety	-0.1172261
-3.267797	VBD should	-0.0748919
-2.899821	VBD singapore	-0.1645663
-2.790676	VBD so	-0.1061001
-2.443889	VBD some	0.01442295
-3.267797	VBD spending	0.1727967
-3.142859	VBD such	-0.1060975
-2.790676	VBD technology	-0.02584622
-1.065491	VBD that	-0.2327698
-1.015754	VBD the	-0.0114013
-2.132135	VBD their	0.3600253
-2.489646	VBD them	0.1229885
-3.744919	VBD there
-2.899821	VBD these	0.1239318
-2.966767	VBD they	-0.08514825
-2.489646	VBD this	-0.109371
-1.087863	VBD to	0.006966591
-3.267797	VBD use
-2.790676	VBD was	-0.03268997
-3.142859	VBD when
-2.841829	VBD which	-0.1202067
-2.966767	VBD will	0.2591023
-2.346978	VBD with	0.102579
-2.966767	VBD would	-0.07790956
-2.857464	VBG "	-0.01564933
-4.219192	VBG #
-3.520221	VBG $	0.7874923
-3.177799	VBG ''	-0.01415744
-2.940438	VBG (	0.1933289
-3.918161	VBG )
-1.971218	VBG ,	-0.02907366
-3.177799	VBG -RRB-	1.810414
-1.778282	VBG .	-0.003922582
-3.219192	VBG :	-0.1180507
-3.177799	VBG </s>
-2.918161	VBG CC	-0.08998916
-2.617131	VBG CD	-0.3266022
-2.380342	VBG DT	-0.03173804
-3.918161	VBG FW
-1.716764	VBG IN	0.02335697
-1.145473	VBG JJ	0.05812836
-2.017794	VBG JJR	-0.08595395
-3.617131	VBG JJS	-0.1371652
-0.865083	VBG NN	0.02095246
-3.14001	VBG NNP	-0.2929146
-1.060226	VBG NNS	0.2132494
-4.219192	VBG PDT
-2.433861	VBG PRP	-0.09493387
-2.274709	VBG PRP$	0.2952076
-1.661684	VBG RB	-0.1588724
-3.073063	VBG RBR	0.1486944
-3.918161	VBG RBS
-1.804218	VBG RP	0.1999239
-4.219192	VBG SYM
-3.073063	VBG VB	-0.0467883
-2.940438	VBG VBD	0.04326887
-2.399647	VBG VBG	0.002118945
-1.511621	VBG VBN	0.1115376
-3.918161	VBG VBP
-2.617131	VBG VBZ	-0.1288424
-3.74207	VBG WP
-3.177799	VBG WRB	-0.05599606
-3.073063	VBG ]	0.1657611
-1.320466	VBG a	0.1537218
-3.177799	VBG aged	-0.178979
-2.494915	VBG aging	-0.08382767
-2.714041	VBG all	-0.1206519
-4.219192	VBG also
-2.105248	VBG an	0.4478672
-1.807572	VBG and	-0.2818599
-3.177799	VBG are	0.07437524
-2.804218	VBG as	-0.0896726
-2.223556	VBG at	0.1146611
-4.219192	VBG be
-3.918161	VBG been
-3.520221	VBG but	-0.05569207
-3.0431	VBG by	-0.1282064
-3.015071	VBG can	0.3400086
-2.486798	VBG cost	-0.1637215
-3.073063	VBG country	-0.1432529
-2.940438	VBG design	0.01512939
-3.617131	VBG development	0.02512237
-2.857464	VBG elderly	-0.03515357
-2.448339	VBG energy	-0.1064406
-1.786222	VBG for	0.182121
-2.012366	VBG from	-0.3680864
-3.105248	VBG generation	-0.08597764
-2.181765	VBG genetic	0.09311938
-3.520221	VBG government	-0.1311291
-3.918161	VBG has
-3.918161	VBG have
-3.74207	VBG help	-0.049367
-2.940438	VBG high	0.1790277
-4.219192	VBG however
-3.374093	VBG if	0.07510602
-1.690275	VBG in	0.4170985
-2.675123	VBG is	0.1426206
-2.02886	VBG it	-0.2600583
-2.486798	VBG its	0.03162932
-2.804218	VBG many	0.01711264
-3.918161	VBG may
-1.855579	VBG more	-0.05105817
-2.310706	VBG new	-0.06879944
-3.264949	VBG not	-0.2247167
-2.001708	VBG nuclear	0.1150377
-1.924725	VBG of	0.06507391
-1.810951	VBG on	0.2834147
-2.494915	VBG one	-0.1780701
-3.374093	VBG only	-0.05900718
-2.528995	VBG or	-0.4623727
-2.787828	VBG other	-0.06281489
-2.193886	VBG people	0.02267703
-2.092087	VBG population	0.04691917
-2.963919	VBG power	0.05978769
-3.14001	VBG problem	-0.01963328
-2.53795	VBG problems	0.06277058
-2.455763	VBG process	0.1747362
-2.181765	VBG public	-0.534872
-3.219192	VBG reactors	-0.02955386
-2.74207	VBG research	0.008974135
-2.857464	VBG safety	-0.04477467
-3.74207	VBG should	-0.09568715
-3.0431	VBG singapore	-0.08136481
-2.53795	VBG so	-0.404071
-2.700677	VBG some	0.06903183
-2.940438	VBG spending	-0.2982797
-2.503188	VBG such	0.329355
-2.687712	VBG technology	-0.1427903
-2.063855	VBG that	-0.1457075
-0.8470162	VBG the	0.5206259
-1.882732	VBG their	0.07214868
-1.976153	VBG them	0.2412232
-3.74207	VBG there
-2.503188	VBG these	0.1501817
-3.44104	VBG they	0.01191333
-2.166113	VBG this	-0.3448496
-1.175044	VBG to	0.3243618
-3.264949	VBG use	-0.2679956
-3.073063	VBG vhtr	-0.04240198
-3.74207	VBG was
-3.374093	VBG when	0.02843016
-3.015071	VBG which	-0.009399667
-3.374093	VBG will	-0.08760729
-2.04893	VBG with	0.2176202
-3.264949	VBG would	-0.1424527
-2.798671	VBN "	-0.2658496
-4.016156	VBN $	1.061
-3.113065	VBN ''	0.09270448
-2.392906	VBN (	-0.4673097
-3.171057	VBN )	0.2478005
-1.47333	VBN ,	-0.02440071
-4.016156	VBN -LRB-
-4.317185	VBN -RRB-
-1.106332	VBN .	-1.156551
-2.442124	VBN 2009	-1.175433
-2.760883	VBN :	0.1644205
-3.141094	VBN </s>
-3.362943	VBN CC	0.08074172
-2.497642	VBN CD	-0.3715483
-2.825824	VBN DT	0.006700456
-3.840064	VBN FW	-0.0837007
-1.243101	VBN IN	0.1797694
-1.537589	VBN JJ	0.03694326
-2.704402	VBN JJR	0.1693234
-3.840064	VBN JJS
-3.414095	VBN MD	0.1023057
-1.336728	VBN NN	0.1466688
-4.317185	VBN NNP
-1.563602	VBN NNS	0.2585618
-2.748984	VBN PRP	-0.1168229
-2.840064	VBN PRP$	0.07648146
-1.401786	VBN RB	-0.3301215
-2.870028	VBN RBR	-0.1946812
-4.016156	VBN RBS
-1.715126	VBN RP	0.02197856
-3.086737	VBN VB	-0.6021294
-3.086737	VBN VBD	0.01745868
-2.362943	VBN VBG	0.04688415
-2.568997	VBN VBN	-0.3273054
-3.317185	VBN VBP	-0.05726391
-3.539034	VBN VBZ	-0.01906159
-4.016156	VBN WP
-3.238004	VBN WRB	0.03492919
-4.317185	VBN [
-4.317185	VBN ]
-1.851803	VBN a	-0.288428
-3.840064	VBN aged
-3.618216	VBN aging	-0.05872668
-3.038432	VBN all	0.05694428
-3.618216	VBN also	-0.05556186
-2.683717	VBN an	-0.1247017
-1.559031	VBN and	0.04471701
-2.773118	VBN are	0.0315946
-1.512365	VBN as	-0.1282035
-2.161849	VBN at	0.08981985
-4.317185	VBN be
-2.955458	VBN but	-0.0791051
-1.028936	VBN by	0.3132981
-3.141094	VBN can	0.1070457
-3.141094	VBN cost	-0.1005476
-3.840064	VBN country
-3.715126	VBN design	-0.09362537
-3.840064	VBN development
-3.317185	VBN elderly	-0.08268205
-3.472087	VBN energy	0.05273049
-1.595375	VBN for	0.2679242
-1.726121	VBN from	0.1627136
-3.840064	VBN generation	-0.03206122
-3.061913	VBN genetic	0.732581
-4.317185	VBN government
-3.618216	VBN has	0.1009751
-3.362943	VBN have	-0.1240798
-4.016156	VBN help
-3.414095	VBN high	0.3639442
-2.398108	VBN if	0.1708415
-1.160636	VBN in	0.156523
-2.308585	VBN is	0.2886793
-2.704402	VBN it	-0.2185465
-3.086737	VBN its	0.2541732
-2.645088	VBN many	-0.02249372
-4.016156	VBN may	0.0009568632
-2.403372	VBN more	0.07078105
-3.362943	VBN new	0.3820125
-3.275793	VBN not	-0.2301368
-3.141094	VBN nuclear	0.02152938
-2.367795	VBN of	0.1676175
-1.548547	VBN on	0.3868616
-3.141094	VBN one	-0.04364076
-3.238004	VBN only	-0.1302035
-2.430695	VBN or	-0.3843599
-3.715126	VBN other	-0.1470254
-2.825824	VBN people	-0.01786239
-4.016156	VBN population
-4.317185	VBN power
-4.016156	VBN problem
-3.840064	VBN problems
-4.317185	VBN process
-3.275793	VBN public	0.03552905
-2.840064	VBN reactor	-0.01600322
-3.238004	VBN reactors	-0.05696873
-3.141094	VBN research	0.01907474
-2.840064	VBN safety	-0.2318685
-3.238004	VBN should	0.02167732
-3.472087	VBN singapore
-2.161849	VBN so	-0.5354297
-3.141094	VBN some	-0.0004172027
-3.618216	VBN spending	0.01946744
-2.974763	VBN such	-0.185315
-2.504272	VBN technology	-0.1533012
-1.605378	VBN that	-0.2994386
-1.590458	VBN the	0.1170789
-2.645088	VBN their	0.1285625
-3.472087	VBN them	-0.1106025
-3.840064	VBN there
-3.618216	VBN these	0.008023381
-3.840064	VBN they	-0.04399627
-2.760883	VBN this	-0.2733162
-0.781006	VBN to	0.4208177
-3.618216	VBN use	-0.01272309
-4.317185	VBN vhtr
-3.203242	VBN was	0.2179011
-4.317185	VBN we
-2.430695	VBN when	0.3681058
-2.994966	VBN which	0.05839096
-2.919245	VBN will	0.1917478
-1.514412	VBN with	0.1811963
-3.275793	VBN would	-0.4916394
-2.633401	VBP "	0.06722644
-3.809492	VBP %
-3.508462	VBP ''
-3.332371	VBP 's
-2.695549	VBP (	0.1124875
-3.031341	VBP )	0.3109813
-1.776069	VBP ,	-0.06569847
-3.809492	VBP -RRB-
-1.663364	VBP .	-0.0918262
-3.332371	VBP 2009
-2.906402	VBP :
-3.332371	VBP </s>
-2.964394	VBP CC
-2.278013	VBP CD	0.3346635
-2.278013	VBP DT	0.1465264
-3.508462	VBP FW
-1.709122	VBP IN	-0.05553269
-1.148627	VBP JJ	-0.1497682
-1.895679	VBP JJR	0.01086891
-2.906402	VBP JJS	-0.4381952
-3.809492	VBP LS
-3.031341	VBP MD	0.01455344
-1.190399	VBP NN	-0.01502967
-3.332371	VBP NNP	-0.1609377
-1.528459	VBP NNS	-0.1067382
-2.101922	VBP PRP	-0.1969578
-2.378129	VBP PRP$	0.04150188
-1.504141	VBP RB	-0.01957428
-2.695549	VBP RBR	-0.0449076
-3.508462	VBP RBS
-1.901007	VBP RP	0.08657816
-2.06913	VBP VB	-0.02670166
-3.332371	VBP VBD	-0.1366892
-1.946169	VBP VBG	0.02849609
-2.241291	VBP VBN	-0.1297234
-3.508462	VBP VBP
-2.906402	VBP VBZ	-0.0678909
-3.207432	VBP WP
-2.730311	VBP WRB	0.03154388
-1.521691	VBP a	-0.1049277
-3.809492	VBP aged
-3.508462	VBP aging
-2.809492	VBP all	-0.09003872
-3.809492	VBP also
-2.186243	VBP an	-0.2228408
-2.06913	VBP and	-0.2474531
-2.7681	VBP are	0.08152287
-2.25319	VBP as	-0.1129374
-2.290978	VBP at	0.2218428
-3.508462	VBP be	0.07542327
-3.508462	VBP been	0.1195497
-2.605372	VBP by	0.1931026
-2.964394	VBP can	0.323399
-3.508462	VBP cost
-3.809492	VBP development
-3.508462	VBP elderly	-0.2460986
-2.964394	VBP energy
-2.218428	VBP for	0.1338564
-1.95216	VBP from	-0.2036946
-3.809492	VBP generation
-2.906402	VBP genetic	0.4308802
-3.110522	VBP government	-0.2899126
-3.809492	VBP has
-2.964394	VBP have
-2.809492	VBP help
-2.85525	VBP high	0.1573843
-3.809492	VBP however
-3.809492	VBP http
-3.110522	VBP if
-1.712582	VBP in	0.08475411
-2.633401	VBP is	0.1991677
-1.976983	VBP it	-0.06956613
-2.487273	VBP its	0.02209067
-2.508462	VBP many	0.2695366
-3.332371	VBP may
-1.869973	VBP more	0.2203259
-2.7681	VBP new	0.1590601
-1.199898	VBP not	-0.5484657
-2.25319	VBP nuclear	0.391175
-2.318131	VBP of	0.1861513
-1.911865	VBP on	0.0640707
-2.85525	VBP one	-0.007029101
-2.695549	VBP only	-0.07146636
-2.7681	VBP or	-0.243513
-3.110522	VBP other
-2.605372	VBP people	-0.1776659
-3.508462	VBP population	-0.2635742
-2.906402	VBP problems
-2.906402	VBP public	0.03550151
-3.809492	VBP reactors
-3.110522	VBP research	0.04854359
-3.508462	VBP safety
-3.508462	VBP should
-3.508462	VBP singapore
-2.906402	VBP so	-0.2731424
-2.429281	VBP some	0.005913496
-3.110522	VBP spending
-2.906402	VBP such	-0.05890355
-3.332371	VBP technology	-0.1132589
-0.9637744	VBP that	-0.4088768
-0.965637	VBP the	0.3470472
-1.726707	VBP their	0.1813765
-2.186243	VBP them	-0.05031034
-2.7681	VBP there	0.1522689
-2.605372	VBP these	-0.01385492
-2.605372	VBP they	0.1467003
-2.508462	VBP this	-0.04487628
-0.8836648	VBP to	-0.0963304
-3.031341	VBP use	-0.3241008
-3.110522	VBP vhtr	-0.0819823
-3.207432	VBP was	0.04526594
-2.85525	VBP we	-0.03022279
-2.7681	VBP when	0.08021308
-3.508462	VBP which
-2.906402	VBP will	0.05462168
-1.928679	VBP with	0.1097091
-2.696465	VBZ "	-0.06273723
-2.946343	VBZ $	0.5322198
-3.599555	VBZ ''
-2.997496	VBZ (	0.08547349
-1.707461	VBZ ,	0.1799923
-1.754458	VBZ .	-0.0918262
-3.900586	VBZ 2009
-2.859193	VBZ :	-0.03823905
-3.298526	VBZ </s>
-2.485612	VBZ CC	-0.0273456
-2.115256	VBZ CD	-0.3920218
-2.219344	VBZ DT	-0.0201174
-1.638134	VBZ IN	-0.0510397
-1.204229	VBZ JJ	-0.09977084
-1.851368	VBZ JJR	-0.04991722
-3.122434	VBZ JJS	-0.05121998
-3.423464	VBZ MD
-1.169803	VBZ NN	-0.2881964
-2.558163	VBZ NNP	-0.07321972
-1.456541	VBZ NNS	-0.1074031
-3.900586	VBZ PDT
-2.008491	VBZ PRP	-0.2714183
-2.267117	VBZ PRP$	0.2198933
-1.54075	VBZ RB	-0.01570201
-3.201616	VBZ RBR	-0.07374786
-3.423464	VBZ RBS
-1.836128	VBZ RP	0.1777012
-2.031354	VBZ VB	-0.07156721
-2.997496	VBZ VBD	-0.07792657
-2.019772	VBZ VBG	0.05838242
-2.320802	VBZ VBN	0.03311379
-3.298526	VBZ VBP
-2.724494	VBZ VBZ	-0.01575878
-3.298526	VBZ WP
-2.786642	VBZ WRB	-0.1301479
-3.599555	VBZ [
-1.247373	VBZ a	-0.04211986
-3.900586	VBZ aged
-3.201616	VBZ aging
-2.621832	VBZ all	-0.1819434
-3.900586	VBZ also
-1.789996	VBZ an	0.1996756
-2.108194	VBZ and	0.06432137
-2.821404	VBZ are	0.1436744
-2.074511	VBZ as	-0.1714233
-2.081042	VBZ at	-0.1657518
-3.599555	VBZ be
-2.645313	VBZ by	-0.2696059
-3.122434	VBZ can
-3.599555	VBZ cost
-3.900586	VBZ design
-3.599555	VBZ development
-2.859193	VBZ elderly	-0.1660998
-2.946343	VBZ energy	-0.08830512
-1.976306	VBZ for	0.1186232
-2.043253	VBZ from	-0.1592414
-2.946343	VBZ genetic	0.4175403
-3.122434	VBZ government	-0.3690938
-3.201616	VBZ has	0.03567043
-2.696465	VBZ have	-0.05460325
-3.055488	VBZ help	0.001884967
-2.520374	VBZ high	0.0009660125
-3.298526	VBZ if	-0.08162513
-1.59739	VBZ in	0.1108508
-2.786642	VBZ is	0.04298507
-1.932103	VBZ it	-0.2012488
-2.184582	VBZ its	-0.1868744
-2.558163	VBZ many	0.0937877
-3.423464	VBZ may	-0.1131915
-1.896264	VBZ more	0.2001842
-2.670137	VBZ new	0.1288174
-1.279409	VBZ not	-0.9287513
-2.696465	VBZ nuclear	0.1307026
-2.168192	VBZ of	0.0596633
-1.839888	VBZ on	0.2026828
-2.320802	VBZ one	-0.1784005
-2.786642	VBZ only	-0.07187688
-3.298526	VBZ or	-0.06178796
-2.900586	VBZ other	0.3052129
-2.332384	VBZ people	-0.3255684
-3.599555	VBZ power
-2.821404	VBZ problems	-0.07305178
-3.900586	VBZ process
-3.122434	VBZ public	0.3241172
-3.900586	VBZ reactors
-2.997496	VBZ research	0.1367099
-3.055488	VBZ safety	-0.1841729
-3.201616	VBZ singapore	-0.04511804
-2.859193	VBZ so	-0.2152073
-2.754457	VBZ some	0.03042227
-3.423464	VBZ spending
-3.055488	VBZ such	0.1895768
-3.122434	VBZ technology
-1.199018	VBZ that	-0.1817223
-0.8902856	VBZ the	0.3912572
-2.320802	VBZ their	0.2425371
-2.002959	VBZ them	-0.2765661
-3.423464	VBZ there
-3.122434	VBZ these	-0.3033543
-3.900586	VBZ they
-2.578366	VBZ this	-0.0283418
-0.9265347	VBZ to	0.1521255
-2.900586	VBZ use	-0.5459495
-3.298526	VBZ vhtr	-0.1138865
-3.298526	VBZ we	-0.01750407
-2.599555	VBZ when	-0.03864564
-3.900586	VBZ which
-3.423464	VBZ will
-1.976306	VBZ with	0.1028438
-1.740363	WDT FW
-1.740363	WDT JJ
-1.740363	WDT MD
-0.6611814	WDT NN	-0.01260752
-0.7403627	WDT NNS	-0.06169647
-1.439333	WDT PRP$
-1.263241	WDT RB	-0.1539879
-1.263241	WDT VBD
-1.740363	WDT VBN
-0.9622114	WDT VBZ	-0.01395291
-1.740363	WDT is
-1.740363	WDT it
-1.439333	WDT more
-1.740363	WDT new
-1.740363	WDT nuclear
-1.740363	WDT people
-1.740363	WDT that
-1.740363	WDT the
-1.439333	WDT they	-0.156014
-1.263241	WDT we
-3.166726	WP "
-2.166726	WP 's	-0.4653112
-2.564666	WP )
-2.689605	WP ,	-0.2995118
-2.689605	WP .	1.577181
-3.166726	WP DT
-2.564666	WP FW	-0.1078466
-2.689605	WP IN	-0.1456671
-2.467756	WP JJ	0.03318743
-3.166726	WP JJS
-1.768786	WP MD	0.2888245
-1.911454	WP NN	-0.02245237
-2.166726	WP NNS	-0.06775708
-1.911454	WP PRP	-0.2243814
-2.865696	WP PRP$
-1.513514	WP RB	-0.5551811
-2.865696	WP VB
-0.9994087	WP VBD	0.1903547
-2.865696	WP VBG
-3.166726	WP VBN
-0.8184212	WP VBP	0.1013502
-1.434332	WP VBZ	-0.02637067
-2.564666	WP a	0.3230991
-2.564666	WP aged	-0.0931525
-0.6954343	WP are	-0.09123427
-1.513514	WP can	0.19578
-2.865696	WP design
-2.865696	WP energy	-0.2153591
-3.166726	WP for
-1.804998	WP has	-0.06945069
-1.153889	WP have	0.2744786
-2.087545	WP if	0.05042556
-1.030005	WP is	-0.04928923
-2.052783	WP it	-0.09760791
-3.166726	WP its
-2.689605	WP many	-0.128529
-2.166726	WP may	0.4327722
-3.166726	WP more
-3.166726	WP one
-2.564666	WP only	-0.2087447
-3.166726	WP other
-2.689605	WP people
-3.166726	WP problems
-2.020598	WP should	0.6000737
-2.865696	WP technology
-1.661576	WP the	-0.1131839
-2.865696	WP their
-2.865696	WP these	0.04933491
-1.503968	WP they	-0.1491335
-2.087545	WP to	-0.5681548
-2.467756	WP use
-2.321628	WP was	0.0863052
-1.47653	WP we	0.1206042
-1.575661	WP will	-0.01975834
-2.263636	WP would	0.3515722
-1.041393	WP$ JJ	0.03602837
-1.518514	WP$ JJS
-0.3424227	WP$ NN	-0.2316673
-0.5185139	WP$ NNS	-0.2474229
-1.518514	WP$ WP
-1.518514	WP$ energy
-1.518514	WP$ the
-2.383815	WRB "	-0.08692396
-3.082785	WRB %
-2.304634	WRB ,	-0.1318221
-2.781755	WRB .	1.62884
-3.082785	WRB CC
-2.237687	WRB CD	-0.1202611
-2.003604	WRB DT	0.1508249
-2.605664	WRB FW
-2.781755	WRB IN
-0.8868857	WRB JJ	-0.02625299
-2.480725	WRB JJR	-0.3793196
-2.605664	WRB JJS	-0.08074589
-2.304634	WRB MD	-0.1326512
-1.096014	WRB NN	-0.2498834
-2.605664	WRB NNP	-0.1408512
-1.163707	WRB NNS	-0.3545823
-2.237687	WRB PRP	-0.05845946
-2.605664	WRB PRP$	0.1159197
-1.491721	WRB RB	-0.2088458
-2.480725	WRB RBS	-0.2105669
-2.480725	WRB VBD	-0.2552949
-2.041393	WRB VBG	-0.03582922
-2.237687	WRB VBN	-0.08697467
-1.936657	WRB VBP	-0.1242044
-2.383815	WRB VBZ	-0.1351991
-1.538717	WRB a	-0.03659397
-2.781755	WRB all
-2.003604	WRB an	0.3540949
-2.179695	WRB and	-0.3689618
-2.605664	WRB are
-3.082785	WRB by
-2.041393	WRB can	-0.2169215
-3.082785	WRB cost
-3.082785	WRB design
-3.082785	WRB development
-2.480725	WRB elderly	-0.1020616
-3.082785	WRB energy
-3.082785	WRB for
-3.082785	WRB from
-3.082785	WRB generation
-3.082785	WRB genetic
-3.082785	WRB government
-2.781755	WRB help	-0.2722804
-2.480725	WRB in
-2.082785	WRB is	-0.1578763
-1.410688	WRB it	-0.06570119
-2.605664	WRB its
-1.906694	WRB many	0.3830297
-2.237687	WRB more	-0.1159507
-3.082785	WRB new
-2.128543	WRB not	0.05521843
-2.041393	WRB nuclear	-0.07471681
-3.082785	WRB of
-2.179695	WRB one	-0.1472081
-2.605664	WRB only	-0.1250481
-3.082785	WRB other
-1.740363	WRB people	-0.3611768
-1.878665	WRB public	-0.1340936
-2.605664	WRB safety	-0.1478534
-2.383815	WRB should
-2.383815	WRB singapore	-0.06058089
-3.082785	WRB so
-2.179695	WRB some	0.0848338
-2.781755	WRB spending
-2.605664	WRB such
-2.605664	WRB technology
-3.082785	WRB that
-0.8156136	WRB the	-0.007667899
-2.480725	WRB their	-0.2783585
-1.804032	WRB there	0.2600263
-2.304634	WRB these	0.2503215
-1.392589	WRB they	-0.03832078
-2.128543	WRB this	-0.1657789
-0.9755754	WRB to	-0.7476785
-2.605664	WRB use	-0.3197019
-3.082785	WRB was
-1.605664	WRB we	0.2178446
-2.781755	WRB when	-0.1838995
-2.480725	WRB will	-0.1146446
-2.237687	WRB would	-0.06148186
-2.391229	[ 2009	-0.6242087
-1.294319	[ CD	-1.405644
-3.16938	[ FW
-1.589597	[ JJ	-0.6553624
-1.139997	[ LS	-1.796033
-0.1109545	[ NN	-2.063415
-2.127988	[ NNS	-0.8903878
-3.16938	[ RB
-3.16938	[ VB
-1.245101	[ VBN	-1.188774
-3.16938	[ as
-3.16938	[ generation
-3.16938	[ its
-3.16938	[ of
-3.16938	[ people
-3.16938	[ singapore
-3.16938	[ vhtr
-3.16938	[ which
-2.215138	] "	0.02947667
-2.868351	] 's	-0.2744958
-1.890627	] (	0.09616315
-1.637902	] )	0.1821172
-1.271753	] ,	-0.470529
-1.938932	] -LRB-	0.240529
-0.8289364	] .	-0.2861422
-2.567321	] :	-0.1155581
-0.2925855	] </s>
-2.567321	] =	-0.1139938
-1.826958	] CD	-0.1761416
-3.16938	] FW
-2.26629	] IN	-0.02827103
-1.807653	] JJ	-0.2090423
-2.391229	] JJR	-0.2359663
-1.210339	] NN	-0.1866354
-3.16938	] NNP
-2.023252	] NNS	-0.06803276
-2.023252	] RB	-0.09150697
-2.868351	] VBD
-2.692259	] VBG	-0.1327359
-2.567321	] VBN	-0.1765351
-2.692259	] VBP	-0.1489532
-2.324282	] VBZ	-0.07709093
-3.16938	] WRB
-1.398528	] [	-1.10052
-3.16938	] ]
-3.16938	] aging
-3.16938	] an
-2.391229	] and	-0.07367282
-2.868351	] are
-2.692259	] as	-0.2628952
-3.16938	] by
-3.16938	] energy
-3.16938	] for
-3.16938	] from
-3.16938	] genetic
-3.16938	] however
-2.324282	] http	2.332786
-2.692259	] in
-2.868351	] is
-2.868351	] it	-0.09356453
-3.16938	] many
-3.16938	] may
-3.16938	] new
-3.16938	] nuclear
-2.868351	] of
-3.16938	] one
-3.16938	] public
-3.16938	] retrieved
-2.868351	] singapore	-0.2668651
-3.16938	] such
-3.16938	] technology
-3.16938	] that
-2.090199	] the	0.06237984
-2.692259	] there	0.004749864
-3.16938	] these
-3.16938	] they
-2.470411	] this	-0.04958253
-2.692259	] to
-3.16938	] was
-3.16938	] will
-2.868351	] with
-2.54437	a "	-0.4436172
-3.33442	a $	0.9405074
-3.63545	a (	-0.07146347
-3.510511	a )	-0.2137383
-3.413601	a ,	-0.02468479
-4.112572	a -LRB-
-2.313231	a .	0.2549613
-3.811542	a 2009	-0.09578513
-4.112572	a :
-4.112572	a </s>
-3.510511	a =	0.7609237
-3.811542	a CC
-2.220477	a CD	-0.4712165
-0.4492476	a JJ	-0.3788276
-1.317387	a JJR	-0.8632006
-3.510511	a JJS	-0.3151153
-3.267473	a MD	-0.1993988
-0.4065368	a NN	-0.4188355
-3.267473	a NNP	-0.05553253
-2.422375	a NNS	-0.3512324
-3.811542	a PRP
-1.507266	a RB	-1.191615
-2.62121	a RBR	-0.5194702
-3.811542	a RBS	0.2400582
-3.267473	a VB	-0.0613487
-1.818105	a VBG	-0.9388372
-2.23751	a VBN	-0.4984714
-3.158329	a VBP
-4.112572	a WP
-4.112572	a and
-4.112572	a by
-3.811542	a can
-3.112571	a cost	-0.02719252
-1.564797	a country	0.4484562
-2.607421	a design	-0.1124128
-3.510511	a development	-0.09410997
-2.811542	a generation	-0.2098325
-2.083188	a genetic	-0.6794463
-2.714632	a government	-0.2012402
-2.048114	a high	-0.5113161
-1.954209	a more	-0.78802
-1.676409	a new	-0.5813723
-4.112572	a not
-1.867059	a nuclear	-0.8340328
-3.63545	a one	-0.0729242
-2.857299	a population	-0.2251703
-2.998628	a power	-0.6547053
-2.075145	a problem	0.07524651
-2.63545	a process	-0.1914281
-3.510511	a public	-0.3709034
-2.54437	a reactor	-0.01183552
-2.581093	a research	-0.1212322
-2.857299	a safety	-0.573344
-3.811542	a singapore
-4.112572	a so
-3.811542	a spending
-2.183153	a technology	-0.3053091
-4.112572	a use
-2.750844	a vhtr	-0.04166329
-3.272306	aged "
-3.272306	aged 's
-2.494155	aged (	0.1217394
-1.03931	aged ,	-0.02098143
-0.788006	aged .	-0.429998
-2.670246	aged :
-2.795185	aged </s>
-1.290035	aged CD	-0.8283287
-2.971276	aged DT
-1.58211	aged IN	0.0430482
-2.041857	aged JJ	-0.2096708
-2.971276	aged JJR
-1.971276	aged MD	0.1909409
-1.780944	aged NN	-0.02934045
-1.433457	aged NNS	-0.04466349
-2.971276	aged PRP
-1.728238	aged RB	-0.02280384
-2.573336	aged VB	-0.08489325
-2.573336	aged VBD	-0.1223508
-2.971276	aged VBG
-2.795185	aged VBN
-2.272306	aged VBP	0.003372185
-1.971276	aged VBZ	-0.2268375
-2.126178	aged WP	0.06028593
-2.971276	aged WP$	-0.01155043
-3.272306	aged a
-3.272306	aged aged
-3.272306	aged also
-3.272306	aged an
-1.397245	aged and	0.05297953
-1.539912	aged are	-0.03812385
-1.716003	aged as	0.1136416
-2.670246	aged at	-0.3212073
-2.795185	aged be	0.0237641
-2.318063	aged but	-0.05167542
-2.369216	aged by	-0.1628221
-1.670246	aged can	0.2035041
-2.670246	aged for	-0.09875569
-2.971276	aged from	-0.192144
-3.272306	aged generation
-1.993552	aged has	0.01188368
-1.950087	aged have	-0.03983204
-2.670246	aged if
-1.619093	aged in	-0.07468218
-1.230913	aged is	-0.07710546
-3.272306	aged it
-1.971276	aged may	0.3703875
-2.971276	aged more
-2.494155	aged not	-0.1913177
-2.971276	aged of
-2.369216	aged on	-0.1211405
-3.272306	aged one
-2.494155	aged or
-1.874366	aged people	-0.01071389
-1.591065	aged population	0.07358059
-2.670246	aged problem
-2.971276	aged problems
-3.272306	aged public
-0.9124703	aged should	-0.1381322
-1.993552	aged so	-0.4263959
-3.272306	aged spending
-2.494155	aged such	0.007255256
-2.795185	aged that
-1.501454	aged to	-0.1805063
-2.795185	aged we	-0.3037177
-2.670246	aged when	-0.07713882
-2.318063	aged which	-0.02150453
-1.439797	aged will	0.4468044
-2.369216	aged with	-0.1243462
-1.929883	aged would	0.469971
-2.961658	aging "
-3.262688	aging ''
-2.359598	aging (	0.04608569
-3.262688	aging )
-1.649904	aging ,	0.004974261
-3.262688	aging -LRB-
-1.443144	aging .	0.4669542
-2.660628	aging :	-0.101677
-3.262688	aging CC
-3.262688	aging CD
-2.785567	aging IN
-2.961658	aging JJ
-2.785567	aging JJR
-1.155478	aging NN	-0.004154265
-1.348874	aging NNS	-0.1265901
-2.221296	aging RB	-0.07792549
-3.262688	aging VB
-3.262688	aging VBD
-3.262688	aging VBN
-3.262688	aging VBP
-2.183507	aging VBZ	-0.1240174
-3.262688	aging [
-3.262688	aging a
-3.262688	aging also
-1.864748	aging and	0.08289003
-1.983935	aging are	-0.3826453
-2.961658	aging as	-0.2663302
-3.262688	aging at
-2.785567	aging but	-0.1275322
-2.961658	aging can
-2.961658	aging country
-3.262688	aging elderly
-3.262688	aging from
-2.484537	aging has	-0.2041091
-3.262688	aging have
-2.148745	aging in	0.1339299
-1.682905	aging is	0.06348133
-2.961658	aging may
-2.961658	aging more	-0.08609438
-2.563718	aging of	-0.08609085
-2.961658	aging on
-2.308446	aging people	-0.07767318
-0.4308186	aging population	-0.09120899
-1.456508	aging problem	-0.1730266
-2.11656	aging problems	0.003509909
-0.524701	aging process	0.06573015
-3.262688	aging research
-3.262688	aging should
-3.262688	aging spending
-3.262688	aging such
-3.262688	aging the
-3.262688	aging to
-3.262688	aging which
-2.563718	aging will	0.1339354
-2.660628	aging with
-2.961658	aging would
-3.109241	all "
-3.109241	all (
-0.8539684	all ,	-0.1128334
-3.109241	all -RRB-
-1.496457	all .	0.4415179
-3.109241	all :
-2.808211	all </s>
-2.410271	all CD	-0.123398
-2.507181	all DT	-0.06914355
-3.109241	all FW
-1.264143	all IN	-0.7354429
-1.338389	all JJ	-0.08011472
-3.109241	all JJR
-1.496457	all NN	-0.06878224
-3.109241	all NNP
-0.8515624	all NNS	-0.125508
-2.154999	all PRP$	-0.1421937
-2.067848	all RB	0.05358924
-2.808211	all RP
-2.507181	all VB	-0.1242289
-2.067848	all VBD	-0.0208385
-2.264143	all VBG	-0.07196862
-2.206151	all VBN	0.02446736
-1.63212	all VBP	-0.1696035
-2.808211	all VBZ
-3.109241	all WP
-3.109241	all ]
-3.109241	all a
-3.109241	all and
-2.63212	all are
-2.63212	all as
-2.808211	all be	0.07542327
-3.109241	all been
-3.109241	all but
-2.63212	all by	-0.1597693
-2.808211	all can
-3.109241	all country
-2.808211	all design
-2.410271	all elderly	-0.1812536
-3.109241	all energy
-2.808211	all for
-3.109241	all generation
-3.109241	all genetic
-2.206151	all have	-0.01952853
-3.109241	all if
-1.485992	all in	-0.9213409
-2.63212	all is
-3.109241	all it
-3.109241	all its
-2.808211	all new	-0.136387
-3.109241	all not
-2.206151	all nuclear	0.04225129
-1.410271	all of	-0.5819821
-2.808211	all or
-2.154999	all other	0.1407812
-2.154999	all people	-0.05701064
-3.109241	all problems
-2.33109	all public	-0.03218184
-2.808211	all reactors
-2.808211	all research
-3.109241	all such
-2.808211	all technology
-2.264143	all that	-0.0446856
-0.6605346	all the	-0.2030402
-2.03006	all their	0.5726129
-3.109241	all there
-1.071814	all these	0.162154
-2.63212	all they
-2.067848	all this	0.07050951
-3.109241	all was
-3.109241	all which
-2.808211	all will
-3.119751	also "
-1.175268	also ,	-0.07961592
-2.517691	also .	1.151212
-3.420781	also CC
-2.341599	also DT	-0.1397672
-2.379388	also IN	-0.01345345
-1.296929	also JJ	0.07237816
-2.517691	also JJR	-0.06636619
-3.420781	also JJS
-3.119751	also MD
-1.852579	also NN	-0.004009038
-1.852579	also NNS	0.02042423
-3.420781	also PRP
-2.517691	also PRP$	-0.2415296
-1.563448	also RB	-0.3375296
-3.420781	also RBR
-3.420781	also RBS
-0.8467494	also VB	0.156809
-1.383354	also VBD	-0.2561395
-1.607867	also VBG	-0.01106289
-0.9846179	also VBN	0.08902419
-1.115429	also VBP	0.01804584
-0.9197214	also VBZ	0.09193122
-3.420781	also WP
-2.721811	also WRB
-1.607867	also a	-0.1920537
-3.420781	also aging
-3.119751	also all	-0.1677169
-2.216661	also an	0.09552711
-3.420781	also and
-2.943659	also are
-3.119751	also as
-3.119751	also at
-1.096498	also be	-0.1354696
-1.989417	also been	-0.2671082
-2.818721	also by	-0.06136928
-2.341599	also can	0.02146408
-3.420781	also cost
-3.119751	also development
-3.420781	also energy
-2.420781	also for	-0.05908649
-2.943659	also from
-2.005807	also has	-0.02675113
-1.688387	also have	0.09243655
-1.807997	also help	-0.1203302
-3.420781	also high
-3.119751	also if
-2.02284	also in	0.0399459
-2.818721	also is	-0.08106934
-2.466538	also it	-0.0500607
-3.119751	also its
-2.216661	also many	-0.003799856
-3.420781	also may
-2.420781	also more	-0.1221745
-3.420781	also new
-2.190332	also not	-0.04754095
-3.420781	also of
-2.642629	also on	0.1153463
-2.575683	also one	-0.5334739
-3.420781	also only
-2.379388	also other	0.1389998
-3.119751	also people
-3.119751	also public	-0.1943055
-2.721811	also should	-0.0506258
-2.420781	also some	-0.09093824
-3.420781	also that
-1.501703	also the	-0.191295
-2.642629	also their	0.1385573
-3.119751	also there
-3.119751	also they
-3.420781	also this
-1.818721	also to	-0.1973016
-2.341599	also use	-0.2826946
-3.420781	also vhtr
-3.420781	also we
-3.119751	also when
-2.818721	also will	0.004942372
-2.818721	also with	-0.09736095
-2.421753	an "	-0.5202318
-3.162116	an -LRB-	-0.2602921
-3.162116	an CD	-0.1440837
-2.986025	an IN
-0.3894278	an JJ	-0.4977507
-1.944632	an JJR	-0.358959
-0.39794	an NN	-0.3294765
